svm_type c_svc
kernel_type rbf
gamma 0.5
nr_class 2
total_sv 7077
rho 0.791147
label 1 -1
nr_sv 2277 4800
SV
1.753346129779218 1:94 2:94 3:133 
20 3:133 
20 
1.752153826202901 1:93 2:91 3:132 
2.240478415559004 2:91 3:132 
20 3:132 
20 
1.547087918647953 1:92 2:94 3:133 
2.230136274427698 2:94 3:133 
20 3:133 
20 
1.726822101360004 1:93 2:89 3:135 
1.880278897553797 2:89 3:135 
20 3:135 
20 
20 3:139 
20 
0.3022189670134939 1:93 2:87 3:138 
20 3:138 
20 
1.462541978551935 1:93 2:85 3:141 
20 3:141 
20 
1.220447710897781 1:93 2:86 3:139 
0.6284735511699721 2:86 3:139 
20 3:139 
20 
1.328566541738012 1:93 2:87 3:137 
0.9190545011445055 2:87 3:137 
20 3:137 
20 
20 3:138 
20 
20 3:137 
20 
0.457371439720573 1:93 2:83 3:139 
20 3:139 
20 
1.347854495600041 1:93 2:82 3:140 
20 3:140 
20 
20 3:138 
20 
1.442701910348793 1:93 2:84 3:137 
1.465827758100106 2:84 3:137 
20 3:137 
20 
0.7285720069706878 1:93 2:83 3:138 
0.6468822404681558 2:83 3:138 
20 3:138 
20 
1.673611859854056 1:93 2:80 3:137 
1.583062374304474 2:80 3:137 
20 3:137 
20 
0.4995271629729761 1:95 2:82 3:140 
0.8515736805298722 2:82 3:140 
20 3:140 
20 
20 3:142 
20 
0.6894511180455212 1:93 2:78 3:140 
0.6298802890340649 2:78 3:140 
20 3:140 
20 
20 3:141 
20 
20 3:144 
20 
1.482830556788481 1:94 2:72 3:148 
20 3:148 
20 
0.6752060896828236 1:94 2:74 3:145 
0.7263673282375039 2:74 3:145 
20 3:145 
20 
1.563168086570246 1:94 2:78 3:138 
1.461764982008318 2:78 3:138 
20 3:138 
20 
20 3:139 
20 
0.5560607953501697 1:95 2:73 3:139 
0.7111061733372763 2:73 3:139 
20 3:139 
20 
20 3:142 
20 
20 3:142 
20 
1.642501754395865 1:93 2:69 3:144 
1.109827785284103 2:69 3:144 
20 3:144 
20 
1.495252537908419 1:94 2:66 3:142 
0.9218564662937416 2:66 3:142 
20 3:142 
20 
1.337139672291381 1:94 2:70 3:134 
1.336920257013742 2:70 3:134 
20 3:134 
20 
1.272724571110265 1:94 2:71 3:133 
1.272753637110943 2:71 3:133 
20 3:133 
20 
20 3:140 
20 
20 3:142 
20 
20 3:142 
20 
20 3:140 
20 
20 3:141 
20 
20 3:141 
20 
20 3:141 
20 
20 3:144 
20 
1.440973237877456 1:96 2:57 3:143 
1.448690173500586 2:57 3:143 
20 3:143 
20 
1.58238701607623 1:96 2:53 3:143 
1.58236684633282 2:53 3:143 
20 3:143 
20 
1.570610333537816 1:96 2:48 3:142 
1.57066749193565 2:48 3:142 
20 3:142 
20 
1.476475020820084 1:94 2:96 3:136 
1.691096392514841 2:96 3:136 
20 3:136 
20 
20 3:139 
20 
1.63997209151259 1:94 2:97 3:139 
2.137518694497957 2:97 3:139 
20 3:139 
20 
20 3:139 
20 
20 3:142 
20 
20 3:139 
20 
0.7178859596529659 1:94 2:90 3:144 
0.1649578047697337 2:90 3:144 
20 3:144 
20 
20 3:143 
20 
0.5239895250926748 1:94 2:92 3:142 
0.06159339470611935 2:92 3:142 
20 3:142 
20 
20 3:139 
20 
1.477459924247073 1:94 2:91 3:138 
1.435182006149794 2:91 3:138 
20 3:138 
20 
20 3:140 
20 
20 3:143 
20 
0.2713451619403082 1:94 2:87 3:144 
20 3:144 
20 
20 3:145 
20 
1.414239475805305 1:94 2:87 3:143 
1.517074127889409 2:87 3:143 
20 3:143 
20 
20 3:138 
20 
20 3:143 
20 
20 3:145 
20 
20 3:146 
20 
20 3:146 
20 
20 3:147 
20 
20 3:149 
20 
20 3:147 
20 
20 3:143 
20 
0.8090020410637397 1:94 2:77 3:140 
0.705623929080233 2:77 3:140 
20 3:140 
20 
0.9240413094685025 1:94 2:76 3:141 
0.8790128884041258 2:76 3:141 
20 3:141 
20 
20 3:143 
20 
20 3:143 
20 
20 3:146 
20 
0.9094649169723215 1:95 2:70 3:145 
0.4666533525713972 2:70 3:145 
20 3:145 
20 
20 3:138 
20 
20 3:138 
20 
0.4417861722112995 1:96 2:75 3:143 
20 3:143 
20 
0.9696829201186574 1:96 2:73 3:146 
20 3:146 
20 
20 3:142 
20 
20 3:140 
20 
20 3:142 
20 
0.5205472683996265 1:95 2:69 3:141 
0.5144511120855126 2:69 3:141 
20 3:141 
20 
1.627940510711571 1:94 2:63 3:141 
1.525000786698405 2:63 3:141 
20 3:141 
20 
1.166573585942259 1:94 2:60 3:145 
1.144017016351761 2:60 3:145 
20 3:145 
20 
0.3641327099520721 1:96 2:57 3:144 
0.3485740115955651 2:57 3:144 
20 3:144 
20 
20 3:145 
20 
1.584073198900178 1:96 2:48 3:144 
1.584024770195382 2:48 3:144 
20 3:144 
20 
20 3:140 
20 
0.4523256305286157 1:94 2:96 3:141 
0.3745256223332634 2:96 3:141 
20 3:141 
20 
20 3:142 
20 
20 3:140 
20 
1.045836577113686 1:94 2:95 3:142 
1.066184443319359 2:95 3:142 
20 3:142 
20 
20 3:137 
20 
0.5332434242401 1:94 2:92 3:141 
0.9559329963078005 2:92 3:141 
20 3:141 
20 
0.7759407147204496 1:94 2:93 3:140 
0.545598558061789 2:93 3:140 
20 3:140 
20 
1.078633434163782 1:94 2:94 3:139 
1.194395845719994 2:94 3:139 
20 3:139 
20 
20 3:137 
20 
1.364851313218712 1:94 2:95 3:137 
1.761554165728098 2:95 3:137 
20 3:137 
20 
1.337417004139091 1:94 2:89 3:140 
1.878102384466076 2:89 3:140 
20 3:140 
20 
20 3:145 
20 
20 3:149 
20 
20 
20 3:147 
20 
0.515520662255659 1:94 2:90 3:139 
0.8849514817211759 2:90 3:139 
20 3:139 
20 
20 3:144 
20 
20 3:148 
20 
20 3:150 
20 
20 3:147 
20 
20 3:143 
20 
20 3:142 
20 
20 3:145 
20 
20 3:147 
20 
0.8585085870383693 1:93 2:77 3:143 
0.6223117251831518 2:77 3:143 
20 3:143 
20 
0.349067349934329 1:93 2:77 3:142 
0.2572470546203018 2:77 3:142 
20 3:142 
20 
0.3926688897443508 1:94 2:75 3:143 
0.330376839426745 2:75 3:143 
20 3:143 
20 
0.8639121591973488 1:93 2:78 3:141 
0.4725971055380332 2:78 3:141 
20 3:141 
20 
20 3:144 
20 
20 3:146 
20 
0.7267088000363027 1:94 2:75 3:142 
20 3:142 
20 
0.7578965304912816 1:94 2:74 3:144 
20 3:144 
20 
0.7378158270858188 1:96 2:73 3:147 
0.9119520939121258 2:73 3:147 
20 3:147 
20 
0.4727764847841319 1:96 2:72 3:148 
0.5178101090925573 2:72 3:148 
20 3:148 
20 
20 3:143 
20 
20 3:140 
20 
0.6524464417769407 1:95 2:72 3:141 
20 3:141 
20 
0.8290104321549597 1:95 2:73 3:140 
20 3:140 
20 
20 3:140 
20 
1.446799152005013 1:94 2:62 3:143 
1.109670195631938 2:62 3:143 
20 3:143 
20 
0.9533021875445001 1:94 2:60 3:144 
0.9417192191233231 2:60 3:144 
20 3:144 
20 
1.47754484594678 1:96 2:56 3:145 
1.47910709996449 2:56 3:145 
20 3:145 
20 
1.559008648569531 1:96 2:53 3:145 
1.558920462701916 2:53 3:145 
20 3:145 
20 
20 3:147 
20 
20 3:143 
20 
20 3:143 
20 
20 3:142 
20 
20 2:96 3:143 
20 3:143 
20 
20 3:145 
20 
20 3:146 
20 
20 3:146 
20 
20 3:145 
20 
0.4806142829221268 1:94 2:98 3:140 
0.7862141493449697 2:98 3:140 
20 3:140 
20 
0.8856405343167906 2:97 3:142 
20 3:142 
20 
0.5950295121556555 1:94 2:91 3:143 
0.6149242176988834 2:91 3:143 
20 3:143 
20 
20 3:145 
20 
20 3:149 
20 
20 
20 3:150 
20 
0.3155033221356285 1:94 2:90 3:145 
0.2432753528766153 2:90 3:145 
20 3:145 
20 
20 3:147 
20 
20 
20 
20 3:148 
20 
20 3:145 
20 
20 3:146 
20 
20 3:147 
20 
20 3:148 
20 
20 3:144 
20 
20 3:146 
20 
1.285971556637856 1:95 2:80 3:144 
2.639636699354599 2:80 3:144 
20 3:144 
20 
20 3:147 
20 
20 3:147 
20 
20 3:148 
20 
20 3:146 
20 
20 3:149 
20 
20 3:149 
20 
20 3:147 
20 
20 3:145 
20 
20 3:145 
20 
20 3:145 
20 
0.9333721430229762 1:95 2:80 3:140 
0.9471504893724263 2:80 3:140 
20 3:140 
20 
0.923000588721525 1:95 2:81 3:139 
0.8229256220861905 2:81 3:139 
20 3:139 
20 
0.6990583661855701 1:95 2:72 3:142 
0.6312611242911106 2:72 3:142 
20 3:142 
20 
0.9010908434866585 1:95 2:67 3:144 
0.8203639667403265 2:67 3:144 
20 3:144 
20 
1.56449131243143 1:96 2:63 3:146 
1.591155329991177 2:63 3:146 
20 3:146 
20 
1.348129682417883 1:96 2:62 3:144 
0.5301023549928791 2:62 3:144 
20 3:144 
20 
20 
0.3351178289004516 2:88 3:150 
20 3:150 
20 
20 3:147 
20 
20 3:145 
20 
20 3:146 
20 
20 3:148 
20 
20 3:149 
20 
20 3:148 
20 
20 3:146 
20 
0.6901321902228738 1:94 2:97 3:142 
20 2:97 3:142 
20 3:142 
20 
20 3:145 
20 
1.048815161863731 1:94 2:92 3:147 
1.079159574833122 2:92 3:147 
20 3:147 
20 
1.06922612968809 1:94 2:90 3:150 
0.9181463923158715 2:90 3:150 
20 3:150 
20 
20 
20 
20 
20 3:148 
20 
20 3:149 
20 
20 
20 
20 3:148 
20 
20 3:147 
20 
20 3:148 
20 
20 3:148 
20 
20 3:146 
20 
20 3:147 
20 
20 3:148 
20 
20 3:144 
20 
20 3:147 
20 
20 3:148 
20 
20 3:150 
20 
20 3:146 
20 
20 3:146 
20 
20 3:150 
20 
0.9484504447074174 1:95 2:76 3:150 
1.067042262915896 2:76 3:150 
20 3:150 
20 
1.046981455017245 1:95 2:75 3:149 
1.022507456268997 2:75 3:149 
20 3:149 
20 
0.8210463050028309 1:95 2:77 3:149 
0.6997241018427403 2:77 3:149 
20 3:149 
20 
0.4498216236550139 1:95 2:78 3:147 
0.1521653395787967 2:78 3:147 
20 3:147 
20 
20 3:141 
20 
1.228473606538924 1:95 2:83 3:139 
0.7854156639435853 2:83 3:139 
20 3:139 
20 
20 3:143 
20 
20 3:146 
20 
1.563175468369885 1:95 2:66 3:147 
1.559784384260777 2:66 3:147 
20 3:147 
20 
1.374824851885794 1:96 2:64 3:144 
1.428531326524923 2:64 3:144 
20 3:144 
20 
20 
20 
20 3:148 
20 
20 3:145 
20 
20 3:146 
20 
20 
20 
4.762760258151166 3:151 
20 
20 3:148 
20 
20 3:148 
20 
20 3:151 
20 
20 
20 
1.348521780926279 1:94 2:84 3:154 
1.383411287517254 2:84 3:154 
20 
20 
20 3:150 
20 
20 3:147 
20 
20 
20 
20 3:151 
20 
20 3:151 
20 
20 
20 
20 
20 3:149 
20 
20 
20 
20 3:146 
20 
20 3:147 
20 
0.5147870703244564 1:95 2:80 3:149 
1.496925869694797 2:80 3:149 
20 3:149 
20 
0.9986789332317383 1:95 2:78 3:153 
1.011972222619348 2:78 3:153 
20 
20 3:148 
20 
20 3:146 
20 
20 3:146 
20 
20 3:148 
20 
0.9303123396015204 1:95 2:78 3:148 
2.748323780860356 2:78 3:148 
20 3:148 
20 
20 3:148 
20 
20 3:147 
20 
20 3:142 
20 
20 3:141 
20 
20 3:145 
20 
1.127070240683931 1:94 2:73 3:146 
0.8238476482037296 2:73 3:146 
20 3:146 
20 
1.120982728205373 1:95 2:70 3:146 
1.368480790023925 2:70 3:146 
20 3:146 
20 
20 3:142 
20 
5.022051956247999 1:94 2:87 3:158 
4.076921195459975 2:87 3:158 
20 
20 
20 3:147 
20 
20 3:144 
20 
20 3:147 
20 
20 
20 
20 
20 3:149 
20 
20 
20 
0.1268674337061377 1:94 2:88 3:154 
0.6749274474155946 2:88 3:154 
20 
0.8351755791054298 1:94 2:88 3:153 
0.6532453820925059 2:88 3:153 
20 
20 
20 3:151 
20 
20 3:149 
20 
20 3:146 
20 
20 
20 
20 
20 
20 
20 1:94 2:80 3:157 
20 2:80 3:157 
20 
20 
2.702069245280949 3:152 
20 
20 
0.4308784877807573 1:94 2:81 3:154 
0.3503260091118763 2:81 3:154 
20 
20 3:146 
20 
20 3:146 
20 
20 3:148 
20 
1.497162138894898 1:95 2:78 3:154 
1.476307462472366 2:78 3:154 
20 
1.362199844211775 1:95 2:80 3:150 
1.033800999698213 2:80 3:150 
20 3:150 
20 
20 3:147 
20 
20 3:145 
20 
20 3:147 
20 
20 3:146 
20 
20 3:146 
20 
1.017422641555243 1:95 2:82 3:146 
2.032235570493278 2:82 3:146 
20 3:146 
20 
20 3:144 
20 
20 3:144 
20 
0.7153951379131334 1:95 2:82 3:147 
0.103722092163939 2:82 3:147 
20 3:147 
20 
1.113151615756072 1:93 2:76 3:144 
0.6916546161645898 2:76 3:144 
20 3:144 
20 
1.34924240620111 1:95 2:71 3:143 
1.329789865076842 2:71 3:143 
20 3:143 
20 
1.193010427243636 1:95 2:69 3:140 
1.192711970376234 2:69 3:140 
20 3:140 
20 
20 1:94 2:85 3:165 
20 2:85 3:165 
20 3:165 
20 
20 
20 3:150 
20 
20 3:147 
20 
20 3:150 
20 
3.662064209559228 3:154 
20 
20 
20 3:152 
20 
20 3:149 
20 
20 3:151 
20 
20 3:151 
20 
20 3:151 
20 
20 3:150 
20 
20 3:151 
20 
20 3:152 
20 
20 3:152 
20 
20 3:152 
20 
20 3:151 
20 
20 3:151 
20 
20 3:152 
20 
20 
20 1:94 2:84 3:155 
20 2:84 3:155 
19.99674344629829 3:155 
20 
20 1:94 2:83 3:156 
20 2:83 3:156 
20 
1.92048206601569 1:94 2:81 3:155 
2.961765238400908 2:81 3:155 
20 3:155 
20 
20 
20 3:150 
20 
20 3:151 
20 
20 3:146 
20 
20 3:146 
20 
20 3:148 
20 
20 
20 3:149 
20 
20 3:146 
20 
20 3:148 
20 
20 3:150 
20 
20 3:149 
20 
20 3:147 
20 
20 3:147 
20 
20 3:146 
20 
20 3:145 
20 
20 3:145 
20 
20 3:145 
20 
1.372098830437242 1:95 2:76 3:147 
1.28353307974565 2:76 3:147 
20 3:147 
20 
1.073043729611934 1:95 2:67 3:145 
1.039233245614256 2:67 3:145 
20 3:145 
20 
20 1:94 2:86 3:163 
20 2:86 3:163 
20 3:163 
20 
20 3:155 
20 
20 3:151 
20 
20 3:149 
20 
20 3:152 
20 
20 3:155 
20 
20 3:154 
20 
20 
20 3:152 
20 
20 3:151 
20 
20 3:150 
20 
20 3:149 
20 
20 3:149 
20 
20 3:150 
20 
20 3:152 
20 
20 3:155 
20 
20 
20 3:150 
20 
20 3:151 
20 
20 3:152 
20 
20 
20 
0.7315467886207315 1:94 2:85 3:153 
0.7979544909394585 2:85 3:153 
20 
1.779018665943227 3:153 
20 
0.7584197522478676 1:94 2:82 3:152 
0.6273226471833413 2:82 3:152 
20 3:152 
20 
20 3:148 
20 
20 3:151 
20 
0.3585310424948474 1:94 2:84 3:149 
0.443893446851602 2:84 3:149 
20 3:149 
20 
0.9943493206082774 1:94 2:83 3:150 
0.7938851836190689 2:83 3:150 
20 3:150 
20 
0.709426796051553 1:94 2:83 3:151 
0.8046465149365392 2:83 3:151 
20 3:151 
20 
0.948235477751387 1:94 2:82 3:153 
1.139304857879757 2:82 3:153 
20 3:153 
20 
20 3:147 
20 
0.518576129016378 1:94 2:86 3:146 
0.4100040429507463 2:86 3:146 
20 3:146 
20 
20 3:148 
20 
20 3:151 
20 
20 3:150 
20 
20 3:148 
20 
20 3:149 
20 
20 3:148 
20 
0.9738083348932691 1:94 2:86 3:145 
1.053319147137648 2:86 3:145 
20 3:145 
20 
0.9759274017584478 1:95 2:83 3:144 
1.767730629379062 2:83 3:144 
20 3:144 
20 
20 3:146 
20 
1.60409743932327 1:95 2:74 3:151 
1.595104073752533 2:74 3:151 
20 3:151 
20 
1.646721645455922 1:95 2:64 3:151 
1.646823270284089 2:64 3:151 
20 3:151 
20 
2.952947581061935 1:96 2:90 3:161 
3.03702238016639 2:90 3:161 
20 3:161 
20 
20 3:154 
20 
20 3:151 
20 
20 3:150 
20 
20 3:151 
20 
20 3:152 
20 
20 3:151 
20 
20 3:152 
20 
20 3:154 
20 
20 3:151 
20 
20 3:151 
20 
20 3:151 
20 
20 3:151 
20 
20 3:151 
20 
20 3:152 
20 
20 3:154 
20 
4.168602503508956 1:94 2:88 3:156 
20 2:88 3:156 
20 
20 3:151 
20 
20 3:152 
20 
20 3:154 
20 
20 3:154 
20 
20 3:153 
20 
20 3:153 
20 
20 3:153 
20 
20 3:153 
20 
20 3:153 
20 
20 
20 3:153 
20 
1.069333991532538 1:95 2:86 3:155 
1.376721754168364 2:86 3:155 
20 3:155 
20 
20 3:154 
20 
20 3:154 
20 
20 3:148 
20 
0.9159115408517078 2:90 3:147 
20 3:147 
20 
20 3:146 
20 
20 3:150 
20 
0.4271763953055674 1:94 2:87 3:150 
20 3:150 
20 
20 3:147 
20 
20 3:148 
20 
20 3:149 
20 
0.781222926673829 1:94 2:85 3:147 
0.8163484521494414 2:85 3:147 
20 3:147 
20 
20 3:145 
20 
0.3038745001816363 1:95 2:79 3:145 
20 3:145 
20 
1.259341319982841 1:96 2:72 3:149 
1.367433462352746 2:72 3:149 
20 3:149 
20 
1.529768564452074 1:95 2:65 3:149 
1.529242948940261 2:65 3:149 
20 3:149 
20 
20 3:159 
20 
20 
20 3:154 
20 
20 3:152 
20 
20 3:152 
20 
20 3:150 
20 
1.320851946040799 1:94 2:95 3:148 
1.90453200572475 2:95 3:148 
20 3:148 
20 
0.07323865425426629 1:94 2:93 3:150 
20 3:150 
20 
20 3:153 
20 
0.8453764639098962 1:94 2:94 3:149 
1.073490207366062 2:94 3:149 
20 3:149 
20 
20 3:151 
20 
20 3:153 
20 
20 3:154 
20 
20 3:153 
20 
20 3:153 
20 
20 3:154 
20 
20 1:94 2:88 3:157 
20 2:88 3:157 
20 
20 3:150 
20 
20 3:151 
20 
20 3:152 
20 
20 3:153 
20 
20 3:153 
20 
0.9886716915913053 2:87 3:152 
20 3:152 
20 
20 2:87 3:152 
20 3:152 
20 
20 3:153 
20 
3.319442422760788 1:95 2:84 3:157 
4.139943947839035 2:84 3:157 
20 
20 1:95 2:84 3:158 
20 2:84 3:158 
5.033426814403804 3:158 
20 
0.4057255287848636 1:95 2:86 3:154 
0.1342052723688918 2:86 3:154 
20 3:154 
20 
0.3119248484395875 1:95 2:85 3:156 
19.9191992127136 2:85 3:156 
20 
0.6948465286045124 1:95 2:87 3:153 
0.3896475797140874 2:87 3:153 
20 3:153 
20 
0.2686175213530828 1:95 2:87 3:152 
19.24150613787518 2:87 3:152 
20 3:152 
20 
0.4691604084236036 1:95 2:90 3:147 
19.71168403953691 2:90 3:147 
20 3:147 
20 
20 3:148 
20 
20 3:147 
20 
0.6174385996205183 1:94 2:86 3:152 
0.4496470696971319 2:86 3:152 
20 3:152 
20 
0.6213853044694884 1:94 2:86 3:151 
0.7618517350665814 2:86 3:151 
20 3:151 
20 
20 3:146 
20 
20 3:146 
20 
0.4740780260202396 1:94 2:88 3:148 
0.2844086421711188 2:88 3:148 
20 3:148 
20 
1.003954486678289 1:94 2:84 3:148 
0.883449622730869 2:84 3:148 
20 3:148 
20 
1.067421139010837 1:95 2:81 3:148 
1.641528500417708 2:81 3:148 
20 3:148 
20 
20 3:143 
20 
1.243945929524051 1:96 2:74 3:144 
0.9125568463486143 2:74 3:144 
20 3:144 
20 
20 3:141 
20 
20 
20 3:158 
20 
20 
20 3:155 
20 
20 3:155 
20 
20 3:154 
20 
20 3:152 
20 
0.7053679038503975 1:94 2:97 3:150 
20 3:150 
20 
20 3:151 
20 
1.742687568186163 1:94 2:99 3:147 
20 2:99 3:147 
20 3:147 
20 
20 3:151 
20 
20 
20 
20 3:152 
20 
1.324807814504413 1:94 2:93 3:151 
1.961732604397577 2:93 3:151 
20 3:151 
20 
20 3:154 
20 
20 3:154 
20 
20 
20 3:154 
20 
20 3:155 
20 
20 3:154 
20 
20 3:153 
20 
20 3:153 
20 
20 3:149 
20 
20 3:149 
20 
20 3:152 
20 
20 3:153 
20 
20 3:154 
20 
20 3:150 
20 
20 3:153 
20 
20 3:147 
20 
20 3:148 
20 
0.8537213839472001 1:94 2:92 3:149 
0.9934581831005496 2:92 3:149 
20 3:149 
20 
0.6123230159692205 1:94 2:88 3:147 
0.7086737397132521 2:88 3:147 
20 3:147 
20 
0.7364490658090271 1:94 2:87 3:149 
0.9142418119771949 2:87 3:149 
20 3:149 
20 
0.711034027702273 1:95 2:89 3:149 
0.6733604523013144 2:89 3:149 
20 3:149 
20 
20 3:145 
20 
0.7348961872985156 1:95 2:89 3:144 
0.8560456989812254 2:89 3:144 
20 3:144 
20 
20 3:145 
20 
20 3:145 
20 
20 3:143 
20 
20 3:144 
20 
20 3:142 
20 
20 3:142 
20 
20 3:158 
20 
20 3:158 
20 
20 3:160 
20 
20 3:159 
20 
20 
20 3:155 
20 
20 3:155 
20 
1.127069783607332 1:94 2:95 3:153 
20 3:153 
20 
0.7863252940741449 1:94 2:96 3:151 
20 3:151 
20 
1.283346667764309 1:94 2:98 3:149 
1.681202223924552 2:98 3:149 
20 3:149 
20 
0.6203800307756427 1:94 2:96 3:152 
20 3:152 
20 
20 
20 3:155 
20 
20 3:153 
20 
0.6721404414673307 1:94 2:91 3:154 
0.315652098991877 2:91 3:154 
20 3:154 
20 
1.124104793582651 2:89 3:155 
20 3:155 
20 
0.4509074038673007 1:94 2:89 3:154 
20 3:154 
20 
20 3:155 
20 
20 3:153 
20 
20 3:155 
20 
1.203100209515477 1:94 2:92 3:153 
3.147571422711805 2:92 3:153 
20 3:153 
20 
0.3280229866388209 1:94 2:91 3:152 
20 3:152 
20 
20 3:151 
20 
20 3:147 
20 
20 3:146 
20 
0.7975300954178848 2:91 3:151 
20 3:151 
20 
20 1:94 2:89 3:154 
19.87266765666429 2:89 3:154 
20 3:154 
20 
0.8573081263249982 1:94 2:90 3:153 
0.9346754113809327 2:90 3:153 
20 3:153 
20 
20 3:148 
20 
20 2:91 3:151 
20 3:151 
20 
0.6498900882146945 1:94 2:91 3:151 
20 2:91 3:151 
20 3:151 
20 
0.2316281796853654 1:94 2:92 3:150 
20 3:150 
20 
20 3:148 
20 
0.417614572363221 1:95 2:88 3:150 
20 2:88 3:150 
20 3:150 
20 
0.7704351334805815 1:94 2:89 3:146 
0.5019032817084366 2:89 3:146 
20 3:146 
20 
20 3:145 
20 
0.7085252567333947 2:92 3:144 
20 3:144 
20 
20 3:142 
20 
0.9724030413995801 1:95 2:91 3:140 
0.4690876791624151 2:91 3:140 
20 3:140 
20 
1.209244406569807 1:95 2:86 3:140 
1.026698642067457 2:86 3:140 
20 3:140 
20 
1.278361317051552 1:95 2:81 3:142 
1.972354055833133 2:81 3:142 
20 3:142 
20 
20 3:142 
20 
1.178240842377278 1:97 2:72 3:141 
0.9130515532896715 2:72 3:141 
20 3:141 
20 
20 3:141 
20 
1.000462653742275 1:96 2:97 3:158 
0.6509694241566961 2:97 3:158 
20 3:158 
20 
20 3:159 
20 
20 3:163 
20 
20 3:163 
20 
20 3:158 
20 
20 3:155 
20 
20 3:158 
20 
19.80692321647382 3:157 
20 
20 3:154 
20 
20 3:155 
20 
20 3:158 
20 
0.7285011559340585 1:94 2:93 3:157 
20 3:157 
20 
1.161053849640831 1:94 2:94 3:155 
20 3:155 
20 
3.024328182382717 3:156 
20 
20 1:94 2:88 3:159 
20 2:88 3:159 
20 3:159 
20 
3.377396149010794 1:94 2:89 3:158 
2.605159819844626 2:89 3:158 
20 3:158 
20 
20 3:155 
20 
20 3:160 
20 
20 3:158 
20 
0.1116269701175863 1:96 2:91 3:160 
0.09172046219759865 2:91 3:160 
20 3:160 
20 
20 3:158 
20 
20 3:156 
20 
20 3:156 
20 
20 3:152 
20 
20 3:151 
20 
20 3:155 
20 
20 1:96 2:91 3:160 
20 2:91 3:160 
20 3:160 
20 
20 3:156 
20 
20 3:151 
20 
20 3:152 
20 
20 3:157 
20 
20 3:154 
20 
20 3:147 
20 
1.016196630121785 1:95 2:88 3:151 
0.964213800952606 2:88 3:151 
20 3:151 
20 
0.7213666246451577 1:95 2:87 3:147 
0.3864436444514413 2:87 3:147 
20 3:147 
20 
20 3:145 
20 
1.055230849818197 1:95 2:92 3:144 
20 2:92 3:144 
20 3:144 
20 
20 3:142 
20 
20 1:95 2:92 3:139 
20 2:92 3:139 
20 3:139 
20 
1.62670977513108 1:95 2:87 3:138 
1.537796773446808 2:87 3:138 
20 3:138 
20 
20 3:141 
20 
0.2625051274402626 1:95 2:80 3:141 
20 3:141 
20 
1.133425193668084 1:97 2:73 3:140 
0.8269213822307311 2:73 3:140 
20 3:140 
20 
1.14489472404006 1:96 2:65 3:141 
0.9938412858269807 2:65 3:141 
20 3:141 
20 
20 3:155 
20 
20 3:159 
20 
20 3:163 
20 
20 3:164 
20 
20 3:158 
20 
20 3:155 
20 
20 3:157 
20 
20 3:157 
20 
20 3:154 
20 
20 3:159 
20 
20 3:161 
20 
0.820725180646023 1:94 2:92 3:158 
20 3:158 
20 
0.591670690843958 1:94 2:93 3:156 
20 3:156 
20 
20 1:94 2:88 3:160 
20 2:88 3:160 
20 3:160 
20 
20 1:94 2:86 3:163 
20 2:86 3:163 
20 3:163 
20 
20 1:94 2:88 3:160 
20 2:88 3:160 
20 3:160 
20 
0.3019346678441554 1:94 2:90 3:155 
20 3:155 
20 
20 1:96 2:89 3:164 
20 2:89 3:164 
20 3:164 
20 
0.9076517869417413 1:96 2:91 3:159 
20 3:159 
20 
20 3:156 
20 
1.347721010289975 1:96 2:97 3:150 
0.8706338953840399 2:97 3:150 
20 3:150 
20 
20 1:96 2:98 3:149 
20 2:98 3:149 
20 3:149 
20 
1.103670667178246 1:96 2:95 3:153 
1.40679938949194 2:95 3:153 
20 3:153 
20 
0.2364272859121895 1:96 2:94 3:155 
0.1553202536679636 2:94 3:155 
20 3:155 
20 
0.9239753990361797 1:96 2:92 3:158 
0.9869222123979855 2:92 3:158 
20 3:158 
20 
20 3:157 
20 
19.90232094642296 1:96 2:90 3:161 
19.9082795378024 2:90 3:161 
20 3:161 
20 
1.004618336403041 1:96 2:93 3:156 
1.095044462742256 2:93 3:156 
20 3:156 
20 
1.387644075900361 1:96 2:94 3:154 
2.014132169785383 2:94 3:154 
20 3:154 
20 
20 3:152 
20 
0.5428680218035766 1:96 2:93 3:157 
0.6015464848438699 2:93 3:157 
20 3:157 
20 
2.024999058947469 1:96 2:96 3:151 
2.921816455665278 2:96 3:151 
20 3:151 
20 
20 1:96 2:96 3:148 
20 2:96 3:148 
20 3:148 
20 
0.8883449348018189 1:95 2:90 3:148 
0.6246824257476145 2:90 3:148 
20 3:148 
20 
0.8524959310354106 1:95 2:86 3:148 
0.5846976803774607 2:86 3:148 
20 3:148 
20 
20 3:146 
20 
20 3:143 
20 
0.3075670698836945 1:95 2:90 3:141 
20 3:141 
20 
1.080400296557805 1:95 2:90 3:142 
1.128558522653001 2:90 3:142 
20 3:142 
20 
20 3:142 
20 
0.7169583948347101 1:95 2:85 3:141 
0.9238553507028846 2:85 3:141 
20 3:141 
20 
0.9819080080217487 1:95 2:78 3:143 
0.4088686490306595 2:78 3:143 
20 3:143 
20 
1.189344950902534 1:96 2:75 3:142 
0.999999582422114 2:75 3:142 
20 3:142 
20 
0.8239740068514792 1:96 2:65 3:142 
0.396040313868975 2:65 3:142 
20 3:142 
20 
1.155851177787614 1:96 2:99 3:154 
1.399546774303691 2:99 3:154 
20 3:154 
20 
20 3:157 
20 
20 3:159 
20 
20 3:159 
20 
20 3:157 
20 
20 1:95 2:101 3:154 
20 2:101 3:154 
20 3:154 
20 
20 1:95 2:101 3:154 
20 2:101 3:154 
20 3:154 
20 
20 1:95 2:101 3:154 
20 2:101 3:154 
20 3:154 
20 
20 1:95 2:100 3:155 
20 2:100 3:155 
20 3:155 
20 
20 3:157 
20 
20 3:161 
20 
20 3:159 
20 
20 3:158 
20 
20 3:163 
20 
3.408192348906451 1:95 2:91 3:166 
20 2:91 3:166 
20 3:166 
20 
20 1:94 2:88 3:160 
20 2:88 3:160 
20 3:160 
20 
1.056027118681263 1:94 2:90 3:156 
1.275280657280971 2:90 3:156 
20 3:156 
20 
20 3:160 
20 
20 3:158 
20 
20 3:157 
20 
20 3:154 
20 
20 3:153 
20 
20 3:156 
20 
20 3:154 
20 
20 3:155 
20 
20 3:154 
20 
20 3:157 
20 
20 3:153 
20 
20 3:154 
20 
1.454004189187005 1:95 2:100 3:151 
1.454004189187005 2:100 3:151 
20 3:151 
20 
20 3:152 
20 
20 1:96 2:100 3:146 
20 2:100 3:146 
20 3:146 
20 
20 1:96 2:98 3:146 
20 2:98 3:146 
20 3:146 
20 
20 3:145 
20 
0.8397380134571021 2:91 3:145 
20 3:145 
20 
20 3:143 
20 
20 3:141 
20 
0.5331413119745828 1:95 2:94 3:141 
0.420664013266335 2:94 3:141 
20 3:141 
20 
20 3:143 
20 
20 3:145 
20 
1.355447451842805 1:96 2:84 3:145 
0.6749338068946604 2:84 3:145 
20 3:145 
20 
1.120826712728473 1:95 2:79 3:146 
1.98280132566988 2:79 3:146 
20 3:146 
20 
0.2130200450452876 1:95 2:78 3:144 
0.2300653754225802 2:78 3:144 
20 3:144 
20 
1.233340987317753 1:95 2:68 3:142 
1.198412235196491 2:68 3:142 
20 3:142 
20 
0.9928217240248263 1:96 2:99 3:155 
1.776769262170775 2:99 3:155 
20 3:155 
20 
20 3:155 
20 
20 3:155 
20 
20 3:156 
20 
20 3:157 
20 
20 1:95 2:100 3:155 
20 2:100 3:155 
20 3:155 
20 
20 3:153 
20 
20 3:153 
20 
20 1:95 2:100 3:155 
20 2:100 3:155 
20 3:155 
20 
20 3:156 
20 
0.8866375772619615 1:95 2:97 3:160 
0.4781194902150535 2:97 3:160 
20 3:160 
20 
20 3:159 
20 
20 3:158 
20 
1.176722601650543 1:95 2:92 3:164 
1.714803730551032 2:92 3:164 
20 3:164 
20 
20 1:95 2:91 3:165 
20 2:91 3:165 
20 3:165 
20 
20 1:94 2:88 3:160 
20 2:88 3:160 
20 3:160 
20 
0.9939954692261598 1:94 2:91 3:159 
0.9344123790426131 2:91 3:159 
20 3:159 
20 
20 3:158 
20 
20 3:159 
20 
20 3:163 
20 
20 3:161 
20 
20 3:161 
20 
20 3:161 
20 
20 3:155 
20 
20 3:152 
20 
20 3:152 
20 
20 3:152 
20 
20 3:150 
20 
20 3:153 
20 
20 3:152 
20 
2.084205920485473 1:95 2:101 3:149 
2.402330916274369 2:101 3:149 
20 3:149 
20 
20 1:96 2:100 3:145 
20 2:100 3:145 
20 3:145 
20 
20 1:96 2:98 3:148 
20 2:98 3:148 
20 3:148 
20 
0.09674838625488628 1:94 2:94 3:147 
19.89520546983163 2:94 3:147 
20 3:147 
20 
20 3:142 
20 
1.070787010888867 1:95 2:95 3:140 
0.7335942611710428 2:95 3:140 
20 3:140 
20 
0.2315992317142349 2:93 3:142 
20 3:142 
20 
0.7806758057075607 1:95 2:93 3:143 
1.038795866207986 2:93 3:143 
20 3:143 
20 
0.5557420207689725 1:95 2:93 3:142 
20 2:93 3:142 
20 3:142 
20 
20 3:145 
20 
20 3:150 
20 
0.6272773192413876 1:95 2:84 3:143 
0.5929371310224423 2:84 3:143 
20 3:143 
20 
0.8284402281573891 1:95 2:79 3:142 
0.7243107820283894 2:79 3:142 
20 3:142 
20 
1.6575085659121 1:95 2:70 3:138 
1.655742795204004 2:70 3:138 
20 3:138 
20 
20 3:156 
20 
20 3:154 
20 
20 3:154 
20 
20 3:157 
20 
20 3:159 
20 
0.7669822369099439 1:95 2:98 3:159 
1.261861626997384 2:98 3:159 
20 3:159 
20 
0.2217731708633015 1:95 2:99 3:157 
0.2226979788051018 2:99 3:157 
20 3:157 
20 
20 3:156 
20 
20 3:156 
20 
20 3:158 
20 
20 3:161 
20 
20 3:159 
20 
20 3:158 
20 
20 3:163 
20 
20 3:162 
20 
20 3:159 
20 
0.88258424221739 1:95 2:92 3:163 
0.6586269085081367 2:92 3:163 
20 3:163 
20 
0.9372667188275953 1:95 2:93 3:161 
0.9428614379102497 2:93 3:161 
20 3:161 
20 
20 1:95 2:98 3:159 
20 2:98 3:159 
20 3:159 
20 
20 3:158 
20 
20 3:153 
20 
20 3:152 
20 
20 3:156 
20 
20 3:156 
20 
20 3:157 
20 
20 3:153 
20 
20 3:152 
20 
20 3:152 
20 
20 3:152 
20 
20 3:155 
20 
20 3:150 
20 
0.1206153458084441 1:95 2:100 3:150 
20 3:150 
20 
0.4604302123714938 1:96 2:96 3:152 
0.2512409311753328 2:96 3:152 
20 3:152 
20 
0.455052706582733 1:94 2:93 3:148 
0.3465523918454024 2:93 3:148 
20 3:148 
20 
0.2985077657610596 1:94 2:96 3:143 
20 2:96 3:143 
20 3:143 
20 
1.04045221630542 1:94 2:98 3:141 
0.8088353558958278 2:98 3:141 
20 3:141 
20 
20 3:145 
20 
20 3:146 
20 
20 3:144 
20 
0.3220131787241189 2:91 3:146 
20 3:146 
20 
1.182108609866924 1:95 2:85 3:150 
0.9201293306493296 2:85 3:150 
20 3:150 
20 
0.9167271564190807 1:95 2:84 3:142 
0.9503759865426549 2:84 3:142 
20 3:142 
20 
20 3:141 
20 
1.517090628634503 1:95 2:74 3:138 
1.453645450419103 2:74 3:138 
20 3:138 
20 
0.706537010687235 1:96 2:98 3:156 
0.2665756467351236 2:98 3:156 
20 3:156 
20 
20 3:154 
20 
20 3:156 
20 
20 3:159 
20 
20 3:162 
20 
20 3:163 
20 
0.9856060670578857 1:95 2:97 3:161 
1.103217334196403 2:97 3:161 
20 3:161 
20 
20 1:95 2:98 3:159 
20 2:98 3:159 
20 3:159 
20 
20 3:158 
20 
20 1:95 2:98 3:159 
20 2:98 3:159 
20 3:159 
20 
20 3:162 
20 
0.726341252714042 1:95 2:95 3:159 
0.6244299829207016 2:95 3:159 
20 3:159 
20 
20 3:157 
20 
0.9951429402320009 1:95 2:94 3:160 
1.024366982686836 2:94 3:160 
20 3:160 
20 
20 3:157 
20 
20 3:155 
20 
0.583910064773687 1:95 2:93 3:162 
0.5855966069634336 2:93 3:162 
20 3:162 
20 
20 1:95 2:99 3:157 
20 2:99 3:157 
20 3:157 
20 
3.12458862455961 1:95 2:100 3:156 
3.243004937791603 2:100 3:156 
20 3:156 
20 
20 3:156 
20 
20 3:152 
20 
20 3:153 
20 
0.3748955664651135 1:95 2:96 3:157 
0.4011250469595775 2:96 3:157 
20 3:157 
20 
20 3:155 
20 
20 3:155 
20 
20 3:156 
20 
0.3243108568291773 1:95 2:98 3:154 
20 3:154 
20 
20 3:155 
20 
0.7421346735392935 1:95 2:99 3:152 
0.748756724320341 2:99 3:152 
20 3:152 
20 
0.9262188674990205 1:95 2:96 3:156 
0.9392253689125993 2:96 3:156 
20 3:156 
20 
20 1:95 2:99 3:152 
20 2:99 3:152 
20 3:152 
20 
0.8707525291472323 1:95 2:98 3:153 
0.6972779184283284 2:98 3:153 
20 3:153 
20 
0.8704872920626177 1:95 2:97 3:155 
0.8344897901388568 2:97 3:155 
20 3:155 
20 
1.273912693833383 1:94 2:97 3:144 
1.307323293025484 2:97 3:144 
20 3:144 
20 
0.2853507555346612 1:94 2:96 3:144 
0.445855932966598 2:96 3:144 
20 3:144 
20 
20 3:145 
20 
1.048878714021709 1:94 2:95 3:145 
1.06096560026083 2:95 3:145 
20 3:145 
20 
20 3:146 
20 
1.123305867533058 1:94 2:94 3:146 
1.135424891692022 2:94 3:146 
20 3:146 
20 
0.8693605711650654 1:95 2:91 3:146 
20 2:91 3:146 
20 3:146 
20 
0.3553433263760418 1:95 2:91 3:145 
19.93026941066918 2:91 3:145 
20 3:145 
20 
0.945802146953197 1:95 2:88 3:145 
0.7892188610363032 2:88 3:145 
20 3:145 
20 
0.2104701872505073 1:95 2:83 3:145 
20 3:145 
20 
1.232864072368373 1:95 2:77 3:145 
0.9986562495308888 2:77 3:145 
20 3:145 
20 
0.8622404551625471 1:95 2:95 3:158 
0.9197141294182514 2:95 3:158 
20 3:158 
20 
20 1:95 2:100 3:156 
20 2:100 3:156 
20 3:156 
20 
20 1:95 2:102 3:152 
20 2:102 3:152 
20 3:152 
20 
20 1:95 2:97 3:160 
20 2:97 3:160 
20 3:160 
20 
0.6825527394914942 1:95 2:98 3:158 
0.4493226904921052 2:98 3:158 
20 3:158 
20 
0.9963906404688924 1:95 2:96 3:162 
0.9989662633980294 2:96 3:162 
20 3:162 
20 
20 3:163 
20 
1.330203690650382 1:95 2:95 3:163 
1.374885172300945 2:95 3:163 
20 3:163 
20 
20 1:95 2:95 3:163 
20 2:95 3:163 
20 3:163 
20 
20 1:95 2:99 3:157 
20 2:99 3:157 
20 3:157 
20 
20 1:95 2:98 3:159 
20 2:98 3:159 
20 3:159 
20 
20 1:95 2:96 3:162 
20 2:96 3:162 
20 3:162 
20 
20 1:95 2:98 3:159 
20 2:98 3:159 
20 3:159 
20 
20 1:95 2:96 3:162 
20 2:96 3:162 
20 3:162 
20 
20 1:95 2:98 3:159 
19.76018553850763 2:98 3:159 
20 3:159 
20 
20 1:95 2:95 3:163 
20 2:95 3:163 
20 3:163 
20 
19.8629492021984 1:95 2:96 3:162 
19.83334414738433 2:96 3:162 
20 3:162 
20 
20 1:95 2:99 3:157 
20 2:99 3:157 
20 3:157 
20 
20 1:95 2:107 3:146 
20 2:107 3:146 
20 3:146 
20 
19.76491868495959 1:95 2:97 3:160 
20 2:97 3:160 
20 3:160 
20 
20 1:95 2:99 3:157 
20 2:99 3:157 
18.09541286774898 3:157 
20 
20 1:95 2:102 3:152 
20 2:102 3:152 
20 3:152 
20 
20 3:153 
20 
3.53040033048769 1:95 2:102 3:153 
3.976456061839548 2:102 3:153 
20 3:153 
20 
20 1:95 2:101 3:154 
20 2:101 3:154 
16.96453523424816 3:154 
20 
20 1:95 2:102 3:153 
20 2:102 3:153 
20 3:153 
20 
20 1:95 2:100 3:156 
20 2:100 3:156 
20 3:156 
20 
20 1:95 2:100 3:156 
20 2:100 3:156 
19.31845263815766 3:156 
20 
20 1:95 2:100 3:155 
20 2:100 3:155 
20 3:155 
20 
20 1:95 2:100 3:155 
20 2:100 3:155 
20 3:155 
20 
20 1:95 2:102 3:152 
20 2:102 3:152 
15.6175239075275 3:152 
20 
20 1:95 2:103 3:151 
20 2:103 3:151 
20 3:151 
20 
-20 1:95 2:99 3:152 
-20 2:99 3:152 
-20 3:152 
-20 1:96 2:98 3:148 
-20 2:98 3:148 
-1.021043764413047 2:99 3:147 
-0.2602400617571891 1:96 2:97 3:147 
-0.3723718956605099 2:97 3:147 
-0.1117886468264741 2:95 3:150 
-1.101640383495234 2:88 3:156 
-20 3:156 
-20 2:96 3:143 
-0.3712930320081235 1:97 2:88 3:150 
-20 2:88 3:150 
-0.1114075782423056 1:96 2:78 3:156 
-0.07284919938984306 2:78 3:156 
-20 3:156 
-0.2820902819709649 1:97 2:78 3:150 
-1.072758395408162 2:78 3:150 
-20 1:95 2:98 3:159 
-20 2:98 3:159 
-20 3:155 
-20 1:95 2:100 3:156 
-20 2:100 3:156 
-20 3:156 
-2.952406673013244 1:95 2:100 3:155 
-4.153781892280692 2:100 3:155 
-20 3:155 
-20 1:95 2:98 3:159 
-20 2:98 3:159 
-4.293404601819861 3:159 
-20 1:95 2:97 3:160 
-20 2:97 3:160 
-20 1:95 2:98 3:159 
-20 2:98 3:159 
-20 3:159 
-20 1:95 2:99 3:157 
-20 2:99 3:157 
-20 3:157 
-20 1:95 2:98 3:159 
-20 2:98 3:159 
-20 3:159 
-20 1:95 2:98 3:159 
-20 2:98 3:159 
-20 3:159 
-20 1:95 2:97 3:160 
-20 2:97 3:160 
-20 1:95 2:96 3:162 
-20 2:96 3:162 
-20 1:95 2:95 3:163 
-20 2:95 3:163 
-20 1:95 2:95 3:163 
-20 2:95 3:163 
-20 1:95 2:96 3:162 
-20 2:96 3:162 
-20 1:95 2:96 3:162 
-20 2:96 3:162 
-20 1:95 2:100 3:156 
-20 2:100 3:156 
-20 3:156 
-20 1:95 2:100 3:155 
-20 2:100 3:155 
-20 3:155 
-20 1:95 2:100 3:155 
-20 2:100 3:155 
-20 3:155 
-20 1:95 2:100 3:155 
-20 2:100 3:155 
-20 3:155 
-20 1:95 2:100 3:156 
-20 2:100 3:156 
-20 3:156 
-20 3:152 
-20 1:95 2:101 3:154 
-20 2:101 3:154 
-20 3:154 
-20 1:95 2:99 3:157 
-20 2:99 3:157 
-20 3:157 
-20 1:95 2:100 3:155 
-20 2:100 3:155 
-20 3:155 
-20 3:152 
-2.603760561140006 1:95 2:102 3:152 
-2.818547802951142 2:102 3:152 
-20 3:152 
-20 1:95 2:102 3:153 
-20 2:102 3:153 
-20 3:153 
-20 3:151 
-20 3:151 
-0.1323802903820892 1:95 2:104 3:144 
-20 3:145 
-0.2064966164652672 1:96 2:100 3:145 
-0.1460424072847555 2:100 3:145 
-20 3:145 
-19.73975993824281 1:96 2:96 3:148 
-20 2:96 3:148 
-0.06564294649083186 2:98 3:146 
-1.08424063438303 1:96 2:96 3:149 
-1.74993692348316 2:96 3:149 
-0.2649455188713763 1:97 2:88 3:156 
-18.95109598151631 2:88 3:156 
-20 3:156 
-20 2:91 3:151 
-20 3:151 
-20 2:87 3:152 
-20 3:152 
-0.454651708922188 1:97 2:85 3:156 
-20 2:85 3:156 
-20 3:156 
-20 1:95 2:98 3:159 
-20 2:98 3:159 
-20 3:159 
-19.92118392434293 1:95 2:100 3:155 
-19.70483822861943 2:100 3:155 
-20 3:155 
-20 3:152 
-20 3:154 
-20 3:153 
-20 3:158 
-20 3:158 
-20 3:155 
-20 3:152 
-20 3:157 
-20 3:157 
-20 3:156 
-20 3:155 
-20 3:153 
-20 3:152 
-20 3:153 
-20 3:153 
-20 3:155 
-20 3:156 
-20 3:157 
-20 3:151 
-20 1:95 2:101 3:154 
-20 2:101 3:154 
-20 3:154 
-20 1:95 2:99 3:157 
-20 2:99 3:157 
-20 3:157 
-20 1:95 2:101 3:154 
-20 2:101 3:154 
-20 3:154 
-20 1:95 2:102 3:152 
-20 2:102 3:152 
-20 3:152 
-20 1:95 2:102 3:152 
-20 2:102 3:152 
-20 3:152 
-20 1:95 2:107 3:146 
-20 2:107 3:146 
-0.9297952681995176 1:95 2:102 3:148 
-0.9473636819100133 2:102 3:148 
-20 1:96 2:98 3:149 
-20 2:98 3:149 
-0.4154217779386427 1:96 2:99 3:147 
-19.30902377619311 2:99 3:147 
-20 1:96 2:100 3:145 
-20 2:100 3:145 
-20 3:145 
-1.926296951868922 1:96 2:95 3:151 
-2.494637965260468 2:95 3:151 
-20 3:151 
-1.03283454355829 1:96 2:93 3:153 
-3.304596964843795 2:93 3:153 
-20 3:153 
-0.2638440344198644 1:97 2:91 3:151 
-20 2:91 3:151 
-20 3:151 
-0.3932506119388404 1:97 2:87 3:152 
-20 2:87 3:152 
-20 3:152 
-1.260473654786842 2:81 3:144 
-20 1:95 2:99 3:157 
-20 2:99 3:157 
-20 3:157 
-20 3:157 
-20 3:156 
-20 3:156 
-20 3:155 
-20 3:158 
-20 3:158 
-20 3:154 
-20 3:152 
-20 3:159 
-20 3:159 
-0.1020410832961846 1:95 2:105 3:153 
-20 3:153 
-20 3:159 
-20 3:155 
-20 3:157 
-20 3:154 
-20 3:154 
-20 3:151 
-20 1:95 2:101 3:154 
-20 2:101 3:154 
-20 3:154 
-20 1:95 2:102 3:152 
-20 2:102 3:152 
-20 3:152 
-0.06584166570517133 1:95 2:105 3:148 
-0.06724610140216436 2:105 3:148 
-0.09942305442135541 1:95 2:106 3:147 
-0.09193934061065451 2:106 3:147 
-19.29254932384484 1:95 2:103 3:151 
-18.97494027667411 2:103 3:151 
-20 3:151 
-0.3458543872138548 1:95 2:104 3:150 
-0.2878038980271087 2:104 3:150 
-20 1:96 2:100 3:146 
-19.93997421197278 2:100 3:146 
-0.1333776902787479 1:96 2:100 3:143 
-0.1917958640942137 2:100 3:143 
-20 1:96 2:98 3:146 
-20 2:98 3:146 
-0.2354724914564048 1:97 2:94 3:147 
-20 2:94 3:147 
-0.3114093959286675 1:97 2:90 3:147 
-20 2:90 3:147 
-20 3:147 
-0.3762274499083291 1:97 2:82 3:143 
-1.409248247618104 2:82 3:143 
-20 3:154 
-20 3:156 
-20 3:159 
-0.3855092773061238 1:95 2:102 3:157 
-0.3845126434495824 2:102 3:157 
-20 3:157 
-20 3:156 
-20 3:158 
-20 3:158 
-20 3:155 
-20 3:154 
-20 3:156 
-0.2605747064592916 1:95 2:100 3:160 
-0.2848733676987044 2:100 3:160 
-20 3:152 
-20 3:151 
-20 3:151 
-0.1422672026058723 1:96 2:100 3:164 
-0.1426042998872562 2:100 3:164 
-20 3:157 
-0.06328863175499055 1:96 2:103 3:158 
-20 3:158 
-20 3:154 
-20 3:153 
-20 3:151 
-20 3:152 
-20 3:153 
-20 3:152 
-20 3:145 
-20 3:147 
-20 3:147 
-20 3:147 
-0.1564932821503076 1:96 2:104 3:147 
-20 3:147 
-0.07261288640575964 1:97 2:102 3:143 
-0.07156287679908202 2:102 3:143 
-0.1610871630472102 1:97 2:96 3:143 
-20 2:96 3:143 
-0.08860947169459116 1:97 2:91 3:145 
-20 2:91 3:145 
-20 3:145 
-20 3:145 
-20 3:149 
-20 3:152 
-20 3:159 
-20 3:154 
-20 3:154 
-20 3:155 
-20 3:156 
-0.05595840615263226 1:95 2:104 3:154 
-20 3:154 
-20 3:155 
-0.09264851881588793 1:95 2:101 3:159 
-0.0992135375742273 2:101 3:159 
-20 3:159 
-0.2269306066961056 1:95 2:99 3:162 
-0.2625589866876287 2:99 3:162 
-0.05578300299804379 1:95 2:99 3:163 
-0.009203882631917515 2:99 3:163 
-0.06343738444338695 1:95 2:108 3:149 
-0.06266649556422665 2:108 3:149 
-20 3:149 
-20 3:155 
-20 3:152 
-20 3:155 
-0.1504199076194785 1:96 2:105 3:156 
-20 3:156 
-20 3:154 
-20 3:155 
-20 3:154 
-20 3:152 
-20 3:147 
-20 3:152 
-20 3:153 
-20 3:152 
-20 3:149 
-0.1284475678770198 1:95 2:119 3:139 
-0.1393385736086882 2:119 3:139 
-0.6109821977368 1:96 2:102 3:150 
-1.027524157449641 2:102 3:150 
-0.1761051133632376 1:97 2:103 3:144 
-0.1804458804141068 2:103 3:144 
-0.1480650638241284 1:96 2:101 3:142 
-0.2334924886485598 1:97 2:91 3:146 
-20 2:91 3:146 
-0.3003344679740934 3:146 
-0.2905243140674883 1:97 2:79 3:148 
-2.5815646568515 2:79 3:148 
-20 3:146 
-20 3:157 
-20 3:152 
-20 3:153 
-20 3:155 
-20 3:154 
-20 3:156 
-20 3:157 
-20 3:158 
-20 3:156 
-20 3:149 
-20 3:147 
-20 3:149 
-20 3:154 
-20 3:155 
-20 3:155 
-0.07820256757063354 1:95 2:105 3:158 
-0.1303954877647229 2:105 3:158 
-20 3:158 
-20 3:155 
-20 3:151 
-20 3:154 
-20 3:154 
-20 3:153 
-20 3:152 
-20 3:153 
-20 3:151 
-20 3:149 
-20 3:145 
-20 3:145 
-0.06628300862212516 3:143 
-0.1700868728949964 1:96 2:117 3:144 
-20 3:143 
-20 3:146 
-0.3690945711414605 1:97 2:92 3:144 
-20 2:92 3:144 
-0.2541061608780268 1:97 2:80 3:147 
-1.162443791755657 2:80 3:147 
-20 3:147 
-20 3:146 
-20 3:156 
-20 3:151 
-20 3:153 
-20 3:155 
-20 3:155 
-20 3:158 
-0.08947553241198947 1:94 2:104 3:157 
-20 3:157 
-0.1521284611306882 1:94 2:105 3:156 
-0.1126903566551838 2:105 3:156 
-20 3:156 
-0.08725533776121652 1:94 2:107 3:152 
-20 3:152 
-0.1214470442750686 1:94 2:106 3:154 
-20 3:154 
-20 3:153 
-20 3:153 
-20 3:158 
-20 3:153 
-20 3:153 
-20 3:156 
-20 3:153 
-20 3:151 
-20 3:153 
-20 3:152 
-20 3:153 
-20 3:149 
-20 3:146 
-20 3:149 
-20 3:147 
-20 3:146 
-0.09150533335370947 1:96 2:118 3:147 
-0.1244109734943051 2:118 3:147 
-20 3:147 
-0.1792663371936581 1:96 2:123 3:141 
-0.1785731155872067 2:123 3:141 
-20 3:143 
-20 3:143 
-0.144018880314874 1:97 2:104 3:142 
-0.1129347357557272 2:104 3:142 
-0.3958745651964508 1:97 2:93 3:142 
-20 2:93 3:142 
-0.3195507847954202 1:97 2:81 3:145 
-1.312218014569279 2:81 3:145 
-20 3:145 
-0.09332583833093465 1:94 2:105 3:160 
-0.0592984944604017 2:105 3:160 
-20 3:152 
-20 3:145 
-20 3:153 
-20 3:155 
-20 3:157 
-0.1669061501090569 1:94 2:108 3:156 
-20 3:156 
-20 3:154 
-20 3:152 
-20 3:153 
-20 3:153 
-20 3:151 
-20 3:151 
-20 3:153 
-20 3:154 
-20 3:154 
-20 3:154 
-20 3:153 
-20 3:153 
-20 3:151 
-20 3:147 
-20 3:156 
-20 3:147 
-20 3:149 
-20 3:152 
-20 3:146 
-0.07397703959578039 1:96 2:116 3:149 
-20 3:149 
-0.162882858812772 1:95 2:124 3:144 
-0.1529619177328669 2:124 3:144 
-0.1914528875439114 1:97 2:115 3:140 
-0.154726293837256 1:97 2:101 3:147 
-0.1122761100376141 2:101 3:147 
-20 3:147 
-0.1805473381701536 1:97 2:99 3:139 
-0.8673272502693145 2:99 3:139 
-0.616601043938082 1:96 2:88 3:139 
-1.539532313163125 2:88 3:139 
-20 3:143 
-20 3:147 
-20 3:155 
-0.158083787714357 1:94 2:117 3:144 
-0.09192367362624526 2:117 3:144 
-20 3:152 
-20 3:154 
-20 3:154 
-20 3:154 
-20 3:154 
-20 3:152 
-20 3:152 
-20 3:153 
-20 3:149 
-20 3:152 
-0.167949037645696 1:94 2:104 3:162 
-0.09505232357870819 2:104 3:162 
-20 3:154 
-20 3:147 
-20 3:151 
-20 3:152 
-20 3:146 
-20 3:151 
-20 3:147 
-20 3:154 
-0.2292924744105754 1:96 2:113 3:153 
-0.1998641197269753 2:113 3:153 
-20 3:153 
-0.1617658398605359 1:95 2:123 3:145 
-0.1511484358169274 2:123 3:145 
-20 3:145 
-0.1953723595960472 1:96 2:125 3:139 
-0.1960128096471323 2:125 3:139 
-0.222825056118816 1:96 2:121 3:139 
-0.1966171332139894 2:121 3:139 
-20 3:146 
-0.2162222406801341 1:96 2:89 3:138 
-0.7674915248226274 2:89 3:138 
-0.09717381779880807 1:93 2:109 3:145 
-20 3:145 
-20 3:151 
-20 3:155 
-1.421531720617646 3:148 
-20 3:147 
-0.1741408430877425 2:109 3:155 
-20 3:155 
-0.1328336194261521 1:94 2:109 3:154 
-20 3:154 
-20 3:151 
-0.1552472391947714 1:94 2:113 3:149 
-20 3:149 
-20 3:146 
-4.141373236692931 3:150 
-20 3:148 
-20 3:148 
-20 3:152 
-20 3:150 
-20 3:150 
-0.08189729070208984 1:94 2:107 3:157 
-0.1224038891846638 2:107 3:157 
-20 3:157 
-20 3:151 
-20 3:153 
-0.0934808785789043 2:108 3:153 
-20 3:153 
-20 3:151 
-20 3:148 
-20 3:147 
-20 3:148 
-20 3:150 
-20 3:147 
-20 3:148 
-20 3:147 
-20 3:148 
-20 3:155 
-20 3:146 
-20 3:147 
-20 3:149 
-0.1203100711518338 1:96 2:117 3:148 
-0.1292267401196704 2:117 3:148 
-20 3:148 
-0.05822603595826037 1:96 2:120 3:144 
-0.09451229253256314 2:120 3:144 
-20 3:143 
-20 1:95 2:92 3:139 
-20 2:92 3:139 
-0.1774185466589346 1:93 2:105 3:150 
-20 3:150 
-20 3:150 
-20 3:152 
-20 3:145 
-0.1787480004012659 1:94 2:115 3:146 
-20 3:146 
-20 3:151 
-20 3:147 
-20 3:143 
-20 3:143 
-0.1543859758017331 1:94 2:111 3:152 
-0.1431541075495755 2:111 3:152 
-20 3:152 
-20 3:148 
-0.1552408672883838 1:94 2:119 3:142 
-20 3:148 
-20 3:151 
-20 3:147 
-0.08501451828321216 1:94 2:114 3:147 
-0.1045841546866241 2:114 3:147 
-20 3:147 
-20 3:151 
-20 3:150 
-20 3:149 
-20 3:147 
-20 3:145 
-0.5837210100988221 3:144 
-20 3:145 
-20 3:149 
-20 3:150 
-20 3:149 
-20 3:152 
-20 3:147 
-20 3:147 
-20 3:145 
-0.1619591584934713 1:96 2:121 3:143 
-0.1353301520321469 2:121 3:143 
-20 3:143 
-0.1380285834781447 2:115 3:146 
-20 3:146 
-0.1328575716572276 1:96 2:114 3:148 
-20 3:148 
-0.1382860772546247 1:96 2:114 3:146 
-20 3:146 
-0.1084853958730488 1:96 2:117 3:142 
-0.06644626932814046 2:117 3:142 
-0.1747423276579993 1:97 2:97 3:142 
-20 2:97 3:142 
-0.2407975049694303 1:93 2:104 3:152 
-0.2843323579576337 2:104 3:152 
-20 3:152 
-20 3:153 
-20 3:155 
-20 3:151 
-20 3:153 
-20 3:155 
-20 3:151 
-20 3:150 
-20 3:151 
-20 3:150 
-0.1830316202933029 1:95 2:108 3:158 
-0.1087102320633481 2:108 3:158 
-20 3:158 
-20 3:151 
-0.1229073125030615 1:95 2:121 3:141 
-0.09395607022313618 2:121 3:141 
-0.1786846285888533 2:118 3:145 
-20 3:145 
-20 3:148 
-0.05725002589254202 2:116 3:147 
-20 3:147 
-20 3:150 
-20 3:154 
-20 3:154 
-20 3:152 
-20 3:148 
-20 3:146 
-20 3:145 
-20 3:146 
-20 3:145 
-20 3:144 
-20 3:151 
-20 3:150 
-0.06078232863583671 1:96 2:106 3:154 
-0.168238477717482 2:106 3:154 
-20 3:154 
-20 3:150 
-20 3:148 
-20 3:146 
-20 3:145 
-0.1181691412583036 1:96 2:119 3:141 
-20 3:143 
-20 3:144 
-0.1149392721997855 1:96 2:115 3:144 
-20 3:144 
-20 3:143 
-0.08620778211613062 1:97 2:113 3:142 
-20 3:142 
-20 3:142 
-0.1492477233107229 2:101 3:141 
-0.2190160993856625 1:93 2:108 3:147 
-20 3:147 
-20 3:150 
-20 3:152 
-20 3:149 
-20 3:150 
-20 3:150 
-20 3:146 
-20 3:148 
-20 3:149 
-20 3:151 
-0.1261966586487742 1:95 2:110 3:155 
-20 3:155 
-20 3:152 
-20 3:148 
-20 3:146 
-20 3:142 
-0.1460045086165758 1:95 2:119 3:144 
-20 3:144 
-0.09135625394633615 1:95 2:111 3:154 
-0.1466816762548673 2:111 3:154 
-20 3:154 
-20 3:149 
-20 3:151 
-20 3:150 
-0.1067542163319491 2:115 3:144 
-20 3:144 
-20 3:146 
-20 3:150 
-20 3:148 
-20 3:150 
-20 3:148 
-20 3:155 
-20 3:149 
-20 3:144 
-20 3:142 
-20 3:143 
-20 3:142 
-0.06850602277476806 1:96 2:118 3:141 
-0.1581324175801094 2:118 3:141 
-0.1299092663744406 1:97 2:112 3:144 
-20 3:144 
-0.06997786670297762 1:97 2:111 3:145 
-20 3:145 
-20 3:143 
-20 3:144 
-20 3:152 
-20 3:153 
-20 3:150 
-20 3:151 
-20 3:150 
-20 3:148 
-20 3:150 
-20 3:149 
-20 3:148 
-20 3:149 
-0.1682690461428833 1:95 2:113 3:151 
-0.08756234769560652 2:113 3:151 
-20 3:151 
-20 3:152 
-20 3:149 
-20 3:142 
-0.1264999607006078 2:119 3:143 
-20 3:143 
-20 3:153 
-0.07652620604772348 1:95 2:107 3:155 
-0.07095846004610323 2:107 3:155 
-20 3:155 
-20 3:151 
-20 3:146 
-20 3:143 
-20 3:146 
-20 3:151 
-20 3:151 
-20 3:148 
-20 3:149 
-20 3:148 
-20 3:146 
-20 3:150 
-20 3:148 
-20 3:144 
-20 3:143 
-20 3:144 
-20 3:146 
-20 3:142 
-0.247114108172567 3:141 
-20 3:151 
-20 3:149 
-0.07050566229006872 1:94 2:112 3:150 
-0.1324384899670522 2:112 3:150 
-20 3:150 
-20 3:148 
-20 3:149 
-20 3:150 
-0.1113886100913397 1:95 2:115 3:149 
-0.1441208689466816 2:115 3:149 
-20 3:149 
-0.08527521622663603 2:114 3:150 
-20 3:150 
-20 3:148 
-20 3:150 
-20 3:148 
-20 3:147 
-20 3:148 
-20 3:148 
-0.1401364718261657 1:95 2:117 3:146 
-20 3:146 
-20 3:148 
-20 3:151 
-0.06170337430393252 1:95 2:109 3:152 
-0.07890337802270696 2:109 3:152 
-20 3:152 
-0.0881212449344097 1:95 2:110 3:151 
-20 3:151 
-20 3:148 
-20 3:145 
-20 3:145 
-20 3:148 
-20 3:148 
-20 3:145 
-20 3:146 
-20 3:147 
-20 3:146 
-20 3:144 
-20 3:148 
-20 3:150 
-20 3:153 
-20 3:143 
-20 3:141 
-20 3:142 
-20 3:142 
-20 3:141 
-20 3:142 
-20 3:143 
-20 3:142 
-0.1315355238776307 2:103 3:141 
-20 3:141 
-20 3:146 
-0.1376858984287011 1:94 2:111 3:147 
-20 3:147 
-0.114014950335638 1:93 2:112 3:141 
-20 3:141 
-20 3:143 
-20 3:148 
-20 3:150 
-20 3:150 
-20 3:149 
-20 3:146 
-0.1017124256994209 1:94 2:108 3:151 
-20 3:151 
-20 3:148 
-20 3:148 
-20 3:147 
-0.05979293137682612 1:95 2:112 3:148 
-0.1078442895284421 2:112 3:148 
-20 3:148 
-20 3:147 
-0.1584370654816682 1:96 2:107 3:153 
-20 3:153 
-0.1377795215000695 1:96 2:108 3:151 
-20 3:151 
-20 3:146 
-20 3:144 
-20 3:144 
-20 3:143 
-20 3:141 
-20 3:143 
-20 3:147 
-20 3:146 
-20 3:142 
-20 3:146 
-20 3:146 
-20 3:147 
-20 3:146 
-0.161854493114747 1:96 2:105 3:151 
-0.1240794862422564 2:105 3:151 
-20 3:151 
-20 3:147 
-20 3:144 
-20 3:145 
-20 3:146 
-20 3:145 
-20 3:144 
-20 3:143 
-20 3:142 
-20 3:141 
-20 3:141 
-20 3:145 
-0.1839033405531041 1:93 2:110 3:144 
-20 3:144 
-0.1781419639161823 1:93 2:111 3:142 
-20 3:142 
-0.1504081211848201 1:93 2:114 3:139 
-0.08988253881352032 1:93 2:115 3:138 
-20 3:144 
-20 3:150 
-20 3:150 
-0.1041241930856824 1:95 2:109 3:147 
-20 3:147 
-20 3:144 
-20 3:146 
-20 3:146 
-20 3:145 
-20 3:149 
-20 3:148 
-20 3:147 
-0.1663734127605956 2:109 3:150 
-20 3:150 
-20 3:147 
-20 3:145 
-20 3:145 
-20 3:147 
-20 3:147 
-20 3:145 
-20 3:146 
-20 3:150 
-20 3:150 
-20 3:145 
-0.09933718193790127 3:140 
-20 3:142 
-20 3:145 
-0.09007444127700665 1:96 2:107 3:148 
-20 3:148 
-20 3:149 
-20 3:146 
-20 3:145 
-20 3:144 
-20 3:141 
-20 3:141 
-20 3:142 
-20 3:142 
-20 3:140 
-20 3:141 
-20 3:142 
-20 3:144 
-20 3:146 
-20 3:143 
-20 3:141 
-0.1480499830868236 1:94 2:110 3:149 
-20 3:149 
-0.087975966753983 1:95 2:107 3:150 
-0.07220956960219982 2:107 3:150 
-20 3:150 
-20 3:145 
-20 3:144 
-20 3:144 
-20 3:146 
-20 3:145 
-0.1027064905377709 2:107 3:152 
-20 3:152 
-20 3:148 
-20 3:148 
-20 3:146 
-20 3:145 
-20 3:143 
-20 3:145 
-20 3:148 
-0.1680216108308404 2:110 3:148 
-20 3:148 
-20 3:146 
-20 3:145 
-0.07773659589729615 1:96 2:108 3:147 
-0.1526444980388562 2:108 3:147 
-20 3:147 
-20 3:146 
-20 3:143 
-20 3:141 
-0.1048775624744301 1:96 2:111 3:143 
-0.1697331547056665 2:111 3:143 
-20 3:143 
-20 3:142 
-20 3:142 
-20 3:145 
-20 3:144 
-20 3:141 
-20 3:140 
-0.202300917614255 1:94 2:106 3:132 
-0.1709410415935236 2:106 3:132 
-20 3:141 
-20 3:141 
-20 3:145 
-0.1898895175568638 1:94 2:113 3:144 
-20 3:144 
-0.07828406493336942 1:94 2:118 3:138 
-0.08669414401389208 1:94 2:112 3:146 
-20 3:146 
-20 3:148 
-20 3:145 
-20 3:145 
-20 3:144 
-20 3:144 
-20 3:144 
-0.1757044448591411 1:96 2:110 3:149 
-20 3:149 
-0.1218710732827842 1:96 2:111 3:147 
-19.45351658219865 3:147 
-20 3:146 
-20 3:143 
-20 3:142 
-20 3:140 
-20 3:141 
-0.06756211040492766 1:96 2:113 3:145 
-20 3:145 
-0.1346187770600216 2:112 3:146 
-20 3:146 
-0.1589624887779247 2:113 3:144 
-20 3:144 
-20 3:142 
-20 3:142 
-20 3:146 
-20 3:142 
-20 3:140 
-0.1485361137902188 1:96 2:118 3:134 
-0.1107322864003874 2:118 3:134 
-20 3:142 
-20 3:141 
-20 3:140 
-20 3:139 
-0.1202727866907631 1:96 2:105 3:138 
-0.2126270144780171 1:94 2:101 3:137 
-0.1509234415465675 2:101 3:137 
-20 3:142 
-0.1480700313947321 1:94 2:117 3:140 
-20 3:140 
-0.1603470100021932 1:94 2:115 3:142 
-20 3:142 
-20 3:141 
-0.2070186830899235 1:94 2:120 3:136 
-0.1580283176802909 2:120 3:136 
-0.1111919103839443 1:95 2:115 3:140 
-0.05019680034024943 2:115 3:140 
-20 3:140 
-20 3:145 
-20 3:146 
-20 3:143 
-20 3:141 
-20 3:140 
-0.05282453315591584 1:96 2:115 3:142 
-0.1556549123414702 2:115 3:142 
-20 3:142 
-20 3:141 
-20 3:144 
-20 3:142 
-20 3:142 
-20 3:139 
-20 3:141 
-20 3:143 
-0.1090044142227148 1:96 2:114 3:143 
-20 3:143 
-20 3:140 
-0.06111228965725357 1:96 2:114 3:139 
-20 3:139 
-0.1642746666961682 1:96 2:109 3:145 
-0.2149065383933424 2:109 3:145 
-20 3:145 
-20 3:144 
-0.1339292710008637 2:106 3:144 
-19.57685294903934 3:144 
-20 3:140 
-0.08737571705908463 1:96 2:111 3:138 
-0.1104807606300685 2:111 3:138 
-0.05002256073646455 1:96 2:109 3:140 
-20 3:140 
-0.09503625278329582 1:96 2:110 3:139 
-0.1414010074826065 2:110 3:139 
-20 3:139 
-20 3:140 
-20 3:140 
-0.0781604047323704 1:94 2:106 3:130 
-0.07602579502891715 2:106 3:130 
-20 3:141 
-0.07118492600273774 1:95 2:114 3:141 
-20 3:141 
-0.07710001663576777 2:116 3:141 
-20 3:141 
-20 3:139 
-0.1944221688236026 1:95 2:120 3:134 
-0.1951597215275979 2:120 3:134 
-0.1503020515627624 1:95 2:117 3:137 
-0.1590573870285389 2:117 3:137 
-0.0600257880272233 1:95 2:113 3:142 
-0.093157639302826 2:113 3:142 
-20 3:142 
-0.1142813080551095 1:95 2:111 3:145 
-0.09676532951958725 2:111 3:145 
-20 3:145 
-20 3:139 
-0.8709516810428226 3:138 
-0.157800469041764 1:96 2:119 3:137 
-0.08128361528534484 2:119 3:137 
-20 3:140 
-20 3:142 
-20 3:142 
-20 3:142 
-0.1284774952611342 1:96 2:112 3:141 
-0.06591795382990701 2:112 3:141 
-20 3:141 
-20 3:139 
-20 3:138 
-20 3:139 
-20 3:140 
-0.1074843819028986 1:96 2:117 3:139 
-0.0878587642672302 2:117 3:139 
-20 3:139 
-0.09039902973034522 1:96 2:115 3:138 
-20 3:138 
-0.05631582175043071 1:96 2:115 3:137 
-0.05453428777498104 2:115 3:137 
-0.1649244841636366 2:113 3:140 
-20 3:140 
-20 3:146 
-0.1738120132468481 1:96 2:106 3:145 
-20 3:145 
-0.1553341832919141 2:105 3:146 
-20 3:146 
-20 3:142 
-0.1704147949273906 1:96 2:108 3:142 
-0.1566516463076258 2:108 3:142 
-20 3:142 
-0.1342922090383271 1:96 2:113 3:136 
-0.07243372548456106 2:113 3:136 
-20 3:140 
-0.1569295305923456 1:96 2:104 3:140 
-0.05348713415951534 2:104 3:140 
-20 3:140 
-0.08947305303460393 1:95 2:113 3:133 
-0.1532245553494809 2:113 3:133 
-0.2165565207995679 1:96 2:112 3:130 
-0.2169903867212578 2:112 3:130 
-0.14153845332273 1:96 2:110 3:132 
-0.1166594394177459 2:110 3:132 
-0.1712848020989527 1:94 2:107 3:129 
-0.1729774601743316 2:107 3:129 
-0.1980819466286901 1:95 2:103 3:129 
-0.2145198153240678 2:103 3:129 
-20 3:139 
-0.1153534820457095 2:116 3:139 
-20 3:139 
-20 3:138 
-20 3:138 
-20 3:138 
-0.09788439187593184 1:95 2:108 3:139 
-0.06031995386603234 2:108 3:139 
-20 3:139 
-20 3:140 
-0.1263831129522359 1:95 2:106 3:142 
-0.1529538301641721 2:106 3:142 
-20 3:142 
-0.1394422767952179 1:95 2:110 3:141 
-0.1432762236465575 2:110 3:141 
-19.9006628180621 3:141 
-20 3:140 
-0.1822466436679699 1:95 2:112 3:139 
-20 3:139 
-0.1050227234877662 2:113 3:138 
-20 3:138 
-0.1436579625848372 1:95 2:107 3:140 
-0.1472591641095658 2:107 3:140 
-20 3:140 
-0.1118190628589845 1:95 2:105 3:143 
-20 3:143 
-0.08041506550651117 1:96 2:107 3:136 
-20 3:139 
-0.05435252204798757 1:96 2:106 3:137 
-0.2066182338537015 2:106 3:137 
-20 3:137 
-0.1437176932422883 1:96 2:102 3:140 
-0.06793434568123868 2:102 3:140 
-20 3:140 
-0.07548937598757638 1:96 2:106 3:135 
-0.1250220074887123 2:106 3:135 
-0.07283964663921544 1:94 2:104 3:133 
-0.06159703671841016 2:104 3:133 
-0.1717747974945628 1:94 2:104 3:135 
-0.1288054751138076 2:104 3:135 
-0.1674635803069769 1:94 2:102 3:135 
-0.1600435232493364 2:102 3:135 
-0.1678726278657418 1:94 2:104 3:132 
-0.1718936283668395 2:104 3:132 
-0.1438558396302481 1:95 2:100 3:132 
-0.08659853033836068 2:100 3:132 
-0.1900071834671729 1:95 2:99 3:129 
-0.1908297175365725 2:99 3:129 
-0.1799153367156768 1:95 2:118 3:132 
-0.1762975337451708 2:118 3:132 
-0.2113006281803339 3:132 
-0.1553424310190263 1:95 2:116 3:134 
-0.1729629323664068 2:116 3:134 
-20 3:137 
-0.08083658688517159 1:95 2:115 3:135 
-0.1001755587577806 2:115 3:135 
-0.08648270597823127 1:95 2:111 3:136 
-0.1685573770857318 2:111 3:136 
-20 3:137 
-0.1544825019314053 1:95 2:112 3:134 
-0.0895232586102232 2:112 3:134 
-0.1454433262257883 1:95 2:114 3:132 
-0.0522896074158824 2:114 3:132 
-20 3:132 
-20 3:137 
-20 3:138 
-0.146796185637003 2:105 3:139 
-20 3:139 
-20 3:138 
-20 3:142 
-0.08100506215010049 1:95 2:109 3:138 
-0.09247610046535143 2:109 3:138 
-20 3:138 
-0.1295882977097186 1:95 2:110 3:137 
-20 3:137 
-0.06558010653700835 1:95 2:111 3:135 
-0.05318568118812389 2:111 3:135 
-0.1019806391098724 1:95 2:115 3:131 
-0.1546884717642226 2:115 3:131 
-0.1833589613676903 1:95 2:117 3:129 
-0.1976714385102177 2:117 3:129 
-0.06295906746491592 1:95 2:116 3:130 
-0.07953411104957429 2:116 3:130 
-0.06853578472957717 3:130 
-0.1542290161925942 1:96 2:109 3:133 
-0.1453999847533447 2:109 3:133 
-20 3:133 
-0.1409391638418949 1:96 2:108 3:135 
-0.1637408480220075 2:108 3:135 
-20 3:135 
-0.219640738885697 1:96 2:112 3:128 
-0.220658326222675 2:112 3:128 
-0.1586261286616927 1:96 2:105 3:136 
-0.1434156017477762 3:136 
-0.2074014620084548 1:96 2:103 3:138 
-0.1650711268091693 2:103 3:138 
-20 3:138 
-0.08697393520614527 1:97 2:100 3:138 
-20 3:138 
-1.029388941071844 1:95 2:96 3:138 
-1.790334821442388 2:96 3:138 
-19.30070077668004 3:138 
-0.2972247703705456 1:95 2:97 3:137 
-0.63738547720563 2:97 3:137 
-20 3:137 
-0.1530259996279719 1:95 2:101 3:131 
-0.1556817192799928 2:101 3:131 
-0.1905988934412989 1:95 2:98 3:136 
-0.1307445185559497 2:98 3:136 
-20 3:136 
-0.1688386017472089 1:95 2:99 3:134 
-0.1837118237787706 2:99 3:134 
-0.4257822039157029 3:134 
-0.1317336291537014 1:95 2:96 3:133 
-0.07456945538563964 2:96 3:133 
-20 3:133 
-0.6451115791221018 1:95 2:95 3:134 
-1.200894615991029 2:95 3:134 
-19.72764567929221 3:134 
-0.3472733351590012 1:95 2:90 3:133 
-1.227304226402641 2:90 3:133 
-20 3:133 
-5.496212495321322 1:94 2:88 3:157 
-2.492604559348666 2:88 3:157 
-20 3:157 
-20 3:158 
-20 3:159 
-20 3:158 
-0.0526911927048262 1:94 2:78 3:166 
-0.09130352677757303 2:78 3:166 
-0.1086147609184244 1:94 2:78 3:167 
-0.1100618296004723 1:94 2:77 3:170 
-0.1220699049351169 2:77 3:170 
-0.1948073797408266 1:94 2:74 3:168 
-0.188213986270189 2:74 3:168 
-0.1748406924326805 2:76 3:165 
-20 3:157 
-1.061401125207048 1:94 2:80 3:157 
-1.139304857879758 2:80 3:157 
-20 3:157 
-20 3:155 
-20 3:159 
-0.106057805293419 1:95 2:80 3:159 
-20 3:159 
-0.1023421451232923 2:79 3:162 
-0.1995378831364198 1:95 2:74 3:172 
-0.2057288538862782 2:74 3:172 
-0.09688114130241432 2:74 3:163 
-0.146239188344249 1:95 2:76 3:168 
-0.08642355971955351 2:78 3:164 
-0.161769659808226 2:76 3:167 
-0.1535023335376342 1:95 2:74 3:162 
-0.05212739541317124 2:74 3:162 
-0.1786364167435225 1:95 2:72 3:166 
-0.1890979099468866 2:72 3:166 
-0.1148952390853172 1:95 2:77 3:172 
-0.14274636481705 1:95 2:77 3:166 
-0.1266964165227245 1:96 2:77 3:159 
-20 3:159 
-0.129226377660904 1:95 2:82 3:162 
-0.1189068465817362 2:82 3:162 
-0.07452479576867138 1:95 2:79 3:161 
-0.119370707748546 1:96 2:77 3:158 
-0.1638402229441419 2:77 3:158 
-20 3:158 
-0.2019697545656771 1:97 2:74 3:158 
-0.1171687894383627 2:74 3:158 
-20 3:158 
-0.06221624403945902 1:96 2:87 3:164 
-0.1940448907678609 1:97 2:73 3:160 
-0.1869045017899355 2:73 3:160 
-0.04048271943248094 1:96 2:87 3:165 
-0.07090303193512275 2:87 3:165 
-0.1698060390847735 1:97 2:83 3:165 
-0.2327601677276541 1:97 2:72 3:163 
-0.1131733006796762 2:72 3:163 
-0.2096338286753873 1:95 2:70 3:163 
-0.1065652927754003 2:70 3:163 
-0.08590304827835305 1:96 2:80 3:178 
-0.06480299577456372 2:80 3:178 
-20 1:96 2:90 3:161 
-20 2:90 3:161 
-0.1382883412005241 1:95 2:73 3:164 
-0.08693747776436576 2:73 3:164 
-20 1:95 2:91 3:165 
-0.1533125182691578 2:82 3:174 
-0.1475513141387999 1:96 2:84 3:170 
-0.1278886600830432 1:96 2:85 3:172 
-2.001127799680526 1:96 2:90 3:162 
-0.1268674337061377 1:96 2:85 3:168 
-0.1710988704887956 1:96 2:75 3:164 
-0.05737316971257789 2:75 3:164 
-0.05896815808823952 1:96 2:83 3:172 
-0.09082878866637217 2:83 3:172 
-0.1520001691049023 1:96 2:81 3:177 
-0.1192210687314633 2:81 3:177 
-0.1526553806426294 1:96 2:82 3:175 
-0.09486979072930124 1:96 2:83 3:173 
-0.05496770734557205 1:96 2:76 3:162 
-1.054804395612913 1:95 2:90 3:167 
-0.09012880877928088 2:84 3:169 
-0.1596272762020201 1:96 2:76 3:161 
-0.133941319191978 2:76 3:161 
-0.1352351975815787 1:96 2:87 3:168 
-0.1088562610480214 1:96 2:86 3:170 
-0.1333100774887878 1:96 2:88 3:165 
-20 3:159 
-0.09668194420462772 1:96 2:84 3:174 
-0.1436729547489946 1:95 2:85 3:177 
-0.0533354253045541 2:86 3:167 
-0.07889679863203214 1:97 2:85 3:162 
-0.1344013767594529 1:97 2:84 3:158 
-20 3:158 
-0.07446751894559084 1:95 2:84 3:179 
-0.0871519963112678 1:96 2:83 3:176 
-0.1525913294680291 1:95 2:89 3:170 
-0.08915375431718023 1:95 2:86 3:174 
-20 1:96 2:91 3:160 
-20 2:91 3:160 
-20 1:96 2:89 3:164 
-0.08966424656291072 1:96 2:86 3:166 
-0.1773712724431442 1:97 2:82 3:167 
-0.1574627205952744 1:97 2:83 3:160 
-20 3:160 
-20 3:159 
-1.819205117625627 1:94 2:88 3:159 
-1.645430519252422 2:88 3:159 
-20 3:159 
-0.1587689280789994 1:97 2:84 3:163 
-0.3073929556443265 3:163 
-0.171810665026172 1:97 2:81 3:163 
-20 3:163 
-0.1580287982391991 1:95 2:89 3:175 
-20 3:163 
-20 3:163 
-20 3:160 
-0.1803900215583938 1:97 2:86 3:160 
-20 3:160 
-20 3:158 
-0.07657028624529533 1:95 2:91 3:171 
-0.07344505888468994 1:95 2:87 3:179 
-0.0755383398815262 2:87 3:179 
-0.09726707794023304 1:95 2:88 3:176 
-1.384330731222246 1:94 2:88 3:160 
-20 3:160 
-20 1:94 2:88 3:157 
-20 2:88 3:157 
-20 3:157 
-2.598145634244234 1:95 2:84 3:158 
-2.899814231552046 2:84 3:158 
-20 3:158 
-1.159662951966948 1:95 2:82 3:155 
-2.335470255200517 2:82 3:155 
-20 3:155 
-0.1159960928145034 1:95 2:87 3:172 
-0.4240955414168901 1:95 2:93 3:167 
-0.1446966406468132 2:93 3:167 
-0.1131861289825578 2:93 3:168 
-0.1662235494342004 1:95 2:92 3:170 
-0.169090116576862 1:95 2:90 3:173 
-0.1676056488413689 1:95 2:87 3:178 
-0.1662510654740638 2:87 3:178 
-0.18919797213554 1:95 2:86 3:181 
-0.1906297548365059 2:86 3:181 
-0.2461480436846959 3:181 
-20 1:94 2:88 3:160 
-20 2:88 3:160 
-20 3:160 
-20 1:94 2:89 3:154 
-20 2:89 3:154 
-20 3:154 
-19.43346972007186 1:95 2:84 3:158 
-19.11744636254366 2:84 3:158 
-20 3:158 
-0.8302509886295352 1:95 2:77 3:155 
-0.831371854539037 2:77 3:155 
-20 3:155 
-20 3:160 
-20 1:94 2:84 3:155 
-20 2:84 3:155 
-20 3:155 
-0.06883033931923627 1:95 2:76 3:157 
-0.05494215977275901 2:76 3:157 
-20 3:157 
-0.1698985920108941 1:94 2:84 3:179 
-0.1698061645890878 2:84 3:179 
-20 3:163 
-20 3:159 
-20 3:155 
-0.1490386597421409 1:94 2:82 3:178 
-0.1343826542674175 2:82 3:178 
-1.599658765278548 1:94 2:91 3:166 
-19.56607100702657 2:91 3:166 
-20 1:94 2:86 3:163 
-20 2:86 3:163 
-20 3:163 
-0.1958619312047282 1:93 2:74 3:155 
-0.2427121381431132 2:74 3:155 
-20 3:155 
-0.1784643821492262 1:93 2:88 3:177 
-0.05099351445251155 1:93 2:89 3:175 
-20 3:162 
-20 3:159 
-0.2415649701642302 1:93 2:73 3:158 
-0.1192187460239273 2:73 3:158 
-20 3:158 
-0.1429913941171811 2:88 3:176 
-0.1246373945034075 1:93 2:91 3:171 
-0.1732835292480642 2:91 3:171 
-0.07021314688513286 1:94 2:89 3:169 
-0.1489909379452706 2:89 3:169 
-1.461229452246579 3:161 
-20 3:161 
-0.2303493226584139 1:93 2:71 3:162 
-0.1234522736133495 2:71 3:162 
-20 3:162 
-0.1710062409331627 1:93 2:89 3:174 
-0.1727487277281631 2:89 3:174 
-0.1030447555534937 2:90 3:173 
-0.1279203403569779 1:93 2:90 3:172 
-0.06734087248613835 2:92 3:170 
-0.2048816541056988 1:93 2:92 3:169 
-0.09471523447530172 2:92 3:169 
-0.1208930205895364 2:85 3:177 
-20 3:163 
-0.1160622729706022 1:94 2:79 3:164 
-0.1010783493043443 2:79 3:164 
-0.08507703749974022 2:77 3:163 
-20 3:163 
-1.119398899487308 2:91 3:165 
-20 3:163 
-0.1312666988377402 1:94 2:80 3:162 
-0.1052755785921297 2:80 3:162 
-20 3:162 
-20 3:161 
-0.2381226646764201 2:90 3:167 
-0.06159931813607111 1:94 2:85 3:176 
-0.08964950958854789 1:94 2:87 3:173 
-0.1090629079100261 2:87 3:173 
-0.1429446476992725 1:94 2:86 3:175 
-0.1523914501398818 2:86 3:175 
-0.08333203833662922 1:94 2:88 3:171 
-0.1656352691800493 2:88 3:171 
-0.760059910590718 1:94 2:91 3:165 
-20 2:91 3:165 
-0.2552387568782139 1:94 2:90 3:162 
-2.127962525592169 2:90 3:162 
-20 3:162 
-20 3:163 
-20 3:161 
-20 3:158 
-0.1020482776795913 1:94 2:77 3:162 
-0.0634918751447564 2:77 3:162 
-20 3:162 
-0.05977902199221674 1:94 2:84 3:174 
-0.103722092163939 2:84 3:174 
-0.1625496659585802 2:85 3:172 
-20 3:163 
-2.40279739802561 1:94 2:87 3:159 
-1.969631846772281 2:87 3:159 
-20 3:159 
-20 3:159 
-0.1832020072184001 1:94 2:76 3:164 
-0.14883111172254 1:94 2:84 3:173 
-0.1560234475444202 1:94 2:83 3:176 
-0.1760865764830047 2:83 3:176 
-0.1387015141633164 1:94 2:85 3:171 
-0.05857118360312114 2:85 3:171 
-0.1764159286437481 1:94 2:88 3:165 
-0.1691243254042322 2:88 3:165 
-0.1480715809900812 1:94 2:86 3:169 
-0.1771414518879134 2:86 3:169 
-19.9460665628178 2:89 3:164 
-0.1320838263784379 1:94 2:87 3:167 
-0.1494741590639962 2:87 3:167 
-20 1:94 2:88 3:159 
-20 2:88 3:159 
-20 3:159 
-20 3:161 
-20 3:161 
-0.08785246470394004 2:80 3:175 
-0.1449342368588562 1:94 2:84 3:166 
-0.1758852547755442 1:94 2:83 3:168 
-0.08448530976240047 2:83 3:168 
-0.2751323428771758 1:94 2:87 3:162 
-0.2023482648748264 2:87 3:162 
-20 3:162 
-20 1:94 2:88 3:160 
-20 2:88 3:160 
-20 3:160 
-20 3:159 
-1.002026118777913 1:94 2:83 3:157 
-1.902477329403522 2:83 3:157 
-20 3:157 
-0.06824402957843506 1:94 2:80 3:176 
-0.1770736000364733 1:94 2:79 3:177 
-0.1570572949341435 2:79 3:177 
-0.06380274748720205 1:94 2:85 3:165 
-0.1187008333088959 2:85 3:165 
-0.09522851365898616 2:84 3:167 
-20 1:94 2:85 3:165 
-20 2:85 3:165 
-0.1307982361119414 1:94 2:86 3:164 
-0.05168353461342018 2:86 3:164 
-20 1:94 2:86 3:163 
-20 2:86 3:163 
-20 3:163 
-20 1:94 2:88 3:160 
-20 2:88 3:160 
-20 3:160 
-17.51405774623668 1:94 2:88 3:160 
-19.21871614249945 2:88 3:160 
-20 3:160 
-20 3:161 
-20 3:161 
-20 1:94 2:83 3:156 
-19.89371994845736 2:83 3:156 
-20 3:156 
-19.26667518789099 1:94 2:80 3:157 
-19.23677999916372 2:80 3:157 
-20 3:157 
-0.1330889528886979 1:94 2:81 3:174 
-0.0529893695783627 2:81 3:173 
-0.1400495375383805 1:94 2:84 3:163 
-0.1169691901636935 2:84 3:163 
-20 3:163 
-0.1031482609439489 1:94 2:85 3:162 
-0.1284661950729723 2:85 3:162 
-20 3:162 
-0.1458853690843999 1:94 2:81 3:160 
-0.1837255167445361 2:81 3:160 
-20 3:160 
-20 3:160 
-0.07287263208940348 1:94 2:83 3:170 
-0.1336818279906128 2:83 3:170 
-0.1639673660787759 1:94 2:82 3:171 
-0.1553308101885309 1:94 2:79 3:174 
-0.1711552224460806 2:79 3:174 
-0.07073534168520174 1:95 2:79 3:168 
-0.1527201946625225 2:79 3:168 
-0.1669532124233933 3:164 
-0.08680266215860268 1:94 2:82 3:167 
-0.07691382187614243 2:82 3:167 
-0.07342616940282221 1:94 2:83 3:165 
-0.1407758711699256 2:83 3:165 
-20 3:158 
-0.1613004266037038 1:94 2:78 3:160 
-0.17168181620517 2:78 3:160 
-20 3:160 
-0.1597612872159707 1:94 2:81 3:169 
-0.1167101018560264 2:81 3:169 
-0.1199791447504576 2:81 3:171 
-0.1475665759203907 1:94 2:80 3:172 
-0.1315554491288549 2:80 3:172 
-0.2359672561143536 1:95 2:76 3:175 
-0.2365854262423174 2:76 3:175 
-0.0614874104883274 1:95 2:78 3:171 
-0.1055157391290332 2:78 3:171 
-0.1582949513348151 1:95 2:75 3:170 
-0.1526051219583569 2:75 3:170 
-0.1231961112114267 1:95 2:78 3:169 
-0.06844497007026953 2:78 3:169 
-0.1263969082669053 1:95 2:77 3:173 
-0.1691955685675948 2:77 3:173 
-0.1610875871220219 1:95 2:80 3:166 
-0.1478375853473175 2:80 3:166 
-20 3:163 
-20 3:164 
-20 3:164 
-0.1555930018756637 1:95 2:81 3:164 
-0.1513179637020987 2:81 3:164 
-19.88698842687674 3:164 
-0.1237823482144659 1:95 2:78 3:163 
-20 3:163 
-0.07047633174111923 1:94 2:79 3:159 
-0.06574305190108304 2:79 3:159 
-20 3:159 
-0.1033089248326834 1:95 2:75 3:160 
-0.11985296809578 2:75 3:160 
-17.48170038437935 3:160 
-0.0773773225703534 1:94 2:111 3:173 
-0.08859322956966825 1:94 2:113 3:170 
-0.1825047371542828 1:95 2:122 3:165 
-0.1906978424290718 2:122 3:165 
-0.08979172650541811 1:95 2:117 3:168 
-0.08401182573686489 2:117 3:168 
-0.2046161674526331 1:96 2:116 3:176 
-0.09207206796764093 2:116 3:176 
-0.1858914223430992 1:95 2:114 3:177 
-0.06178406043088036 1:95 2:121 3:167 
-0.1046774088889363 2:121 3:167 
-0.1413882955922743 1:95 2:105 3:177 
-0.08138725459774748 2:105 3:177 
-0.07929542461081053 1:95 2:106 3:176 
-0.09926551642653109 2:106 3:176 
-0.0565898825388686 1:95 2:108 3:172 
-0.1609358822622684 2:108 3:172 
-0.1406672978981312 1:95 2:108 3:173 
-0.2079358046380091 1:94 2:116 3:165 
-0.1077058247718965 1:94 2:115 3:167 
-0.1694902770767724 1:94 2:110 3:174 
-0.1885849505736359 1:94 2:112 3:171 
-0.1301743456232218 1:94 2:114 3:168 
-0.1151204064921352 1:95 2:111 3:177 
-0.07609035340964188 2:111 3:177 
-0.164450767484459 1:94 2:109 3:176 
-0.1867975782027168 1:95 2:110 3:179 
-0.1907087501543737 2:110 3:179 
-0.08537773915334868 1:95 2:114 3:172 
-0.1379886238291862 2:116 3:169 
-0.1011488819923049 1:95 2:117 3:172 
-0.1103461042141598 2:117 3:172 
-0.1084347593363129 1:96 2:115 3:167 
-0.1331768480383216 2:115 3:167 
-0.08511107562524813 1:95 2:119 3:170 
-0.133920195068769 2:119 3:170 
-0.07401776005151983 1:95 2:113 3:178 
-0.1569212773897576 2:113 3:178 
-0.06948770647159958 1:95 2:115 3:175 
-0.123770661893798 2:115 3:175 
-0.09159252617939495 1:95 2:112 3:175 
-0.164115418183067 2:112 3:176 
-0.1242732273161186 1:96 2:109 3:175 
-0.1042861884789176 2:108 3:174 
-0.1223235138782453 1:95 2:120 3:168 
-0.05996734592483377 2:120 3:168 
-0.1630567027277478 2:117 3:174 
-0.1132723329038812 1:95 2:116 3:174 
-0.158793283665749 1:95 2:113 3:174 
-0.1670357607429997 2:113 3:174 
-0.1338745727483774 2:110 3:174 
-0.1909896429957245 1:96 2:111 3:173 
-0.07922515865431945 2:111 3:173 
-0.1534637183664734 1:96 2:107 3:176 
-0.05892917815803322 2:107 3:176 
-0.1841426575824275 1:96 2:122 3:167 
-0.07471958426927228 2:122 3:167 
-0.137894744875786 2:115 3:177 
-0.1220771028771394 1:96 2:112 3:177 
-0.055674283649157 3:177 
-0.1420037167738349 1:96 2:115 3:173 
-0.1158032475578869 2:115 3:173 
-0.07169491963055641 1:96 2:116 3:165 
-0.1017034203840054 2:116 3:165 
-20 3:165 
-0.1097133629712794 1:96 2:111 3:170 
-0.05344539480603439 2:111 3:170 
-0.1448763386570621 1:96 2:121 3:169 
-0.1396337455112296 2:121 3:169 
-0.1913749790194234 2:119 3:172 
-0.2016090020541027 1:96 2:118 3:173 
-0.1802877525638859 1:96 2:119 3:171 
-0.05304245127087587 1:95 2:115 3:171 
-0.1456034471534003 2:115 3:171 
-0.1447307391789955 1:95 2:116 3:170 
-0.05757962032624359 1:96 2:113 3:169 
-0.1207092944081739 2:113 3:169 
-0.1932773636801063 1:95 2:110 3:167 
-0.06724759991643059 1:96 2:110 3:171 
-0.117557217489363 2:110 3:171 
-0.1599503427805213 1:96 2:113 3:167 
-0.1424893874063895 2:113 3:167 
-0.1303439198899297 1:96 2:118 3:169 
-0.1026738464720021 2:118 3:169 
-0.06183353198070118 2:117 3:170 
-0.07233662499835204 1:96 2:116 3:171 
-0.09571568501250027 1:96 2:113 3:172 
-0.08771102439583045 2:113 3:172 
-0.1983745596663776 1:94 2:112 3:162 
-0.1999772590080864 2:112 3:162 
-19.43347484830034 3:162 
-0.1360720001400927 1:96 2:106 3:174 
-0.1204410433822195 2:106 3:174 
-0.1019162909409013 1:96 2:104 3:176 
-0.1062800515426408 2:104 3:176 
-0.1711162021629485 1:96 2:103 3:178 
-0.1983066854678415 2:103 3:178 
-0.1418835067627083 1:96 2:107 3:171 
-0.1547959288108548 1:96 2:117 3:166 
-0.1450700200776023 2:117 3:166 
-0.06927350357008505 1:96 2:109 3:176 
-0.1599634369813495 2:109 3:176 
-0.162695737437714 2:112 3:171 
-0.1369042525209033 1:96 2:113 3:170 
-0.1880800260578429 1:96 2:111 3:165 
-0.1913250429970427 2:111 3:165 
-20 3:165 
-0.1318969163629629 1:95 2:106 3:161 
-0.1890720189046771 2:106 3:161 
-20 3:161 
-0.1143906383019301 2:102 3:173 
-0.1794963111729453 1:97 2:101 3:174 
-0.1789321012845593 1:97 2:104 3:174 
-0.1611115679000002 2:104 3:174 
-0.1345699743500221 1:97 2:107 3:169 
-0.1594753362467773 1:97 2:108 3:173 
-0.1585295106773378 1:97 2:111 3:168 
-0.1772144067187085 2:111 3:168 
-0.1431305870233139 1:97 2:109 3:171 
-0.07786244729780545 2:110 3:167 
-0.1414591503395716 1:96 2:109 3:169 
-0.1523536748619392 2:109 3:169 
-0.2268014632154484 1:96 2:104 3:166 
-0.2265784726338955 2:104 3:166 
-0.609453502317468 3:166 
-0.1019452683223891 1:96 2:105 3:161 
-20 3:161 
-0.1468620815740956 1:95 2:104 3:159 
-0.09469024138280632 2:104 3:159 
-20 3:159 
-0.1240593686216248 1:97 2:101 3:169 
-0.137444917939437 2:101 3:169 
-0.06581406566028158 1:97 2:102 3:172 
-0.05771553010470516 2:102 3:172 
-0.2220956773174104 1:97 2:99 3:175 
-0.09939562526450951 2:99 3:175 
-0.136354520128124 1:97 2:101 3:171 
-0.1597204987121828 2:101 3:171 
-0.1443706301471216 2:107 3:170 
-0.08551004380214816 1:97 2:105 3:173 
-0.07347138736272035 2:105 3:173 
-0.08595400478536347 1:97 2:108 3:168 
-0.06768800866316771 2:108 3:168 
-0.1352404321706007 1:96 2:106 3:168 
-0.1702474580502901 2:106 3:168 
-0.1764149362402711 1:96 2:104 3:171 
-0.1811353605958036 2:104 3:171 
-0.2412378567115411 1:96 2:91 3:184 
-0.2414493424942206 2:91 3:184 
-0.2396300596227131 3:184 
-0.2157205419842198 1:96 2:103 3:161 
-0.151401895285554 2:103 3:161 
-20 3:161 
-0.07572141167101698 1:96 2:106 3:149 
-0.1244741301834891 2:106 3:149 
-17.57557627334407 3:149 
-0.2013941772108729 1:97 2:99 3:167 
-0.2000899291322521 2:99 3:167 
-0.06128110703873857 3:167 
-0.09732162876701395 3:170 
-0.134608810631402 2:100 3:174 
-0.09664613510360996 3:174 
-0.1055885450251487 1:97 2:103 3:169 
-0.1387951620323563 2:103 3:169 
-0.1486609683313696 3:169 
-0.1228259629941701 1:97 2:103 3:168 
-0.05201820066953411 2:103 3:168 
-0.1790198821189858 1:96 2:108 3:166 
-0.1814997854757978 2:108 3:166 
-19.56585957592078 3:166 
-0.2346435924910953 1:96 2:100 3:178 
-0.1905446619863541 2:100 3:178 
-0.18816545095179 3:178 
-0.1011174511328178 1:96 2:102 3:175 
-0.1189714756014923 2:102 3:175 
-0.1202447250869463 1:96 2:101 3:176 
-0.08948522831743094 2:101 3:176 
-0.1469683579460379 1:96 2:101 3:172 
-0.1903266799098602 1:96 2:96 3:175 
-0.2402386066637016 2:96 3:175 
-0.149485397970798 3:175 
-0.1874854640078885 1:95 2:96 3:172 
-0.198746515051491 2:96 3:172 
-0.1789470751247451 3:172 
-0.8546835323823403 1:96 2:103 3:154 
-1.39429077041336 2:103 3:154 
-20 3:154 
-0.1391673082703311 1:95 2:114 3:137 
-0.1337588198042957 2:114 3:137 
-20 3:137 
-0.1044514449663363 1:92 2:134 3:99 
-0.1562956413484543 1:92 2:135 3:98 
-0.2213336418553738 1:92 2:143 3:93 
-0.178906080456939 1:92 2:149 3:89 
-0.2286855588959965 2:149 3:89 
-0.2427005944413031 1:92 2:156 3:88 
-0.235302384028769 2:156 3:88 
-0.1923538907761928 1:92 2:142 3:97 
-0.1741273430809668 1:92 2:148 3:93 
-0.08041247090199202 2:148 3:93 
-0.1472989210199359 1:92 2:145 3:95 
-0.1319922691738878 1:92 2:146 3:94 
-0.1543386519066647 2:146 3:94 
-0.1522024089927268 1:92 2:150 3:92 
-0.1575492060951823 2:150 3:92 
-0.145240026216367 1:92 2:151 3:91 
-0.08666465663113157 2:151 3:91 
-0.141921877459369 1:93 2:143 3:100 
-0.1568645269736371 1:93 2:150 3:95 
-0.1886707913968123 1:93 2:155 3:92 
-0.1481074291812672 2:155 3:92 
-0.2002508639150917 1:93 2:164 3:90 
-0.1220614565178572 2:164 3:90 
-0.2171265893259046 1:93 2:144 3:103 
-0.1367118683303531 1:93 2:144 3:99 
-0.08855302025385908 1:93 2:149 3:96 
-0.1967137356115142 1:93 2:147 3:97 
-0.2049355993702142 1:93 2:161 3:92 
-0.08767687380367756 2:161 3:92 
-0.1775707258806206 1:93 2:142 3:104 
-0.1774039470369959 2:142 3:104 
-0.2069358494998148 1:93 2:146 3:101 
-0.06283305059835836 2:146 3:101 
-0.1269134912336412 1:93 2:149 3:99 
-0.1024809498239558 1:93 2:156 3:95 
-0.1283705522270732 1:93 2:148 3:100 
-0.2021644262600972 1:93 2:154 3:96 
-0.1588679958571666 1:93 2:151 3:98 
-0.1879597542330642 1:93 2:172 3:89 
-0.1935913739741392 2:172 3:89 
-0.171957886860617 1:93 2:149 3:103 
-0.2507519180668043 1:93 2:143 3:107 
-0.1624637704101711 2:143 3:107 
-0.2188779261384146 1:93 2:168 3:91 
-0.1191287070758357 1:93 2:161 3:95 
-0.1454032993499579 1:93 2:166 3:92 
-0.1799210462976943 2:166 3:92 
-0.1027573911111884 1:93 2:146 3:105 
-0.1340936304190591 1:93 2:147 3:104 
-0.1266455865434749 2:147 3:104 
-0.1902403551038039 1:93 2:170 3:90 
-0.07259338948590016 2:170 3:90 
-0.08334919538588359 1:93 2:165 3:93 
-0.141144616925009 1:93 2:155 3:99 
-0.1753420256560569 1:93 2:151 3:101 
-0.05255752974345201 1:93 2:150 3:102 
-0.06197657413897167 2:150 3:102 
-0.1603987322539408 1:93 2:153 3:100 
-0.1142155556659211 1:93 2:159 3:96 
-0.1888130975929719 1:93 2:157 3:94 
-0.1719559817470531 1:93 2:163 3:94 
-0.1331495396698085 1:93 2:158 3:97 
-0.1166964322681448 1:92 2:162 3:96 
-0.05991689237673381 2:162 3:96 
-0.2054926023405497 1:93 2:155 3:102 
-0.1243926129879686 1:93 2:157 3:101 
-0.08412982398677762 1:93 2:152 3:97 
-0.1044758930457819 1:93 2:156 3:98 
-0.1072942650837255 1:92 2:157 3:99 
-0.1075495764171128 1:92 2:160 3:97 
-0.1161690835222074 1:93 2:158 3:100 
-0.1331480738226684 1:93 2:160 3:99 
-0.1282803072771691 1:93 2:163 3:97 
-0.1316997457514876 1:93 2:161 3:98 
-0.1022301934980088 1:93 2:165 3:96 
-0.1534918378031286 1:93 2:166 3:95 
-0.1188918578329093 1:98 2:38 3:108 
-0.1955629488800708 1:98 2:34 3:111 
-0.1821123252285258 1:98 2:38 3:106 
-0.1911260550940383 1:98 2:38 3:102 
-0.1315596325168233 2:38 3:102 
-0.1390370912539959 1:98 2:37 3:109 
-0.08020481745355122 1:94 2:34 3:104 
-0.06237491269909649 2:34 3:104 
-0.201980063223168 1:94 2:37 3:104 
-0.1511176106603167 1:94 2:33 3:107 
-0.2322865233834794 1:94 2:35 3:110 
-0.192511523798979 1:94 2:32 3:112 
-0.2030213253593864 1:98 2:34 3:114 
-0.1038872378894968 1:102 2:40 3:108 
-0.1561165407136466 1:102 2:41 3:107 
-0.1884076619243094 1:104 2:37 3:104 
-0.1775363792528182 1:104 2:35 3:108 
-0.1202211435122011 1:106 2:30 3:112 
-0.2265555341619922 1:107 2:19 3:123 
-0.1507245776548044 2:19 3:123 
-0.06537905486105244 1:104 2:24 3:118 
-0.1629502066775866 1:104 2:24 3:119 
-0.2254904403579741 1:104 2:24 3:116 
-0.2139099601191816 1:104 2:34 3:114 
-0.06497109486407138 1:98 2:35 3:109 
-0.1418592217716101 1:99 2:32 3:103 
-0.14527138293445 1:98 2:37 3:104 
-0.116729599094964 1:99 2:31 3:106 
-0.2332721411483466 1:99 2:33 3:100 
-0.1517461696327934 1:98 2:36 3:106 
-0.1515180168070217 1:99 2:30 3:109 
-0.1701032743014717 1:98 2:35 3:108 
-0.1911918098654815 1:98 2:29 3:105 
-0.1863227800557521 1:94 2:34 3:105 
-0.1566062612550896 1:94 2:33 3:109 
-0.1788559266627948 2:33 3:109 
-0.1792717064102287 1:99 2:32 3:105 
-0.1603219690775901 1:104 2:34 3:111 
-0.1772381524700394 1:104 2:36 3:106 
-0.1278578165815512 1:104 2:35 3:110 
-0.1939659923953345 1:106 2:29 3:114 
-0.1709699372910185 1:106 2:31 3:106 
-0.1973974045649395 1:106 2:31 3:108 
-0.1117226256952089 1:106 2:30 3:110 
-0.1019798180693865 1:106 2:30 3:111 
-0.1471122499808891 1:107 2:19 3:118 
-0.05448077871417606 2:19 3:118 
-0.08438072049513173 2:19 3:119 
-0.08252650537014394 1:104 2:23 3:120 
-0.20135857507414 1:104 2:23 3:124 
-0.1654339796929391 1:104 2:23 3:122 
-0.1632424413029358 1:106 2:28 3:119 
-0.1758400000278483 1:105 2:37 3:124 
-0.1692742306761677 2:37 3:124 
-0.08993989401749725 1:99 2:31 3:108 
-0.2064286410634678 1:98 2:30 3:103 
-0.1676355496384397 1:98 2:28 3:108 
-0.07205371174430181 1:98 2:29 3:107 
-0.1505200073802983 1:104 2:27 3:105 
-0.07979575466792327 1:104 2:26 3:109 
-0.1149577923708022 1:104 2:25 3:114 
-0.1008472738025029 1:120 2:13 3:120 
-0.05308792616920965 2:13 3:120 
-0.1583785470934204 1:120 2:13 3:121 
-0.2105767715012525 2:13 3:121 
-0.149218918823143 1:109 2:17 3:123 
-0.1937227662430081 2:17 3:123 
-0.128710770826553 1:106 2:27 3:124 
-0.1394438506397354 2:27 3:124 
-0.1577036033018567 1:104 2:32 3:118 
-0.1978460293038323 1:105 2:38 3:122 
-0.0601668885572772 1:104 2:25 3:111 
-0.2025392055321438 1:99 2:25 3:101 
-0.1356394864252833 2:25 3:101 
-0.2307219568809749 1:99 2:23 3:113 
-0.1638233955516258 1:99 2:24 3:107 
-0.1391832489720193 1:99 2:23 3:111 
-0.1638141092417492 1:99 2:23 3:109 
-0.2255609950503761 1:99 2:24 3:105 
-0.1806407706082902 1:104 2:27 3:103 
-0.07007490114156995 2:27 3:103 
-0.1810484565337181 1:104 2:26 3:107 
-0.1669584635871531 1:104 2:25 3:110 
-0.1345844143524621 1:104 2:25 3:113 
-0.165194720393923 2:22 3:104 
-0.1349949757211221 1:107 2:20 3:114 
-0.05217004075534593 2:20 3:114 
-0.1232930820179017 1:120 2:13 3:116 
-0.1381105093123772 2:13 3:116 
-0.2198971659323933 1:112 2:22 3:125 
-0.2443167746026148 1:106 2:26 3:127 
-0.1322648418098135 2:26 3:127 
-0.1455340062418262 1:106 2:27 3:121 
-0.154999801076695 2:27 3:121 
-0.1171416443784013 1:106 2:27 3:125 
-0.05346552519829284 2:27 3:125 
-0.2114655920253556 1:104 2:32 3:120 
-0.1026455513047864 1:107 2:35 3:118 
-0.07592474928272558 2:35 3:118 
-0.1725121838382483 1:105 2:39 3:118 
-0.06210204515552259 1:105 2:39 3:117 
-0.05855318399420167 2:39 3:117 
-0.1692961935169803 1:107 2:20 3:116 
-0.1744513353319737 2:20 3:116 
-0.1713596123080502 1:107 2:19 3:120 
-0.08190625696136472 2:19 3:120 
-0.122786924936336 2:20 3:113 
-0.1642129584310907 1:109 2:19 3:110 
-0.1222377213808124 1:109 2:17 3:120 
-0.1737250835853458 2:17 3:120 
-0.2155594137150752 1:120 2:14 3:111 
-0.1921900891285192 2:14 3:111 
-0.09620969388926143 1:120 2:14 3:113 
-0.07967172029629477 2:14 3:113 
-0.1132043052874341 1:109 2:17 3:122 
-0.1548395824125374 2:18 3:112 
-0.2148795879677544 1:114 2:22 3:117 
-0.1719286271769552 2:22 3:117 
-0.1748071407926674 1:114 2:21 3:123 
-0.2018034847579596 1:112 2:22 3:128 
-0.1844207520908537 2:22 3:128 
-0.1917415710765288 1:112 2:23 3:120 
-0.2233355215443016 1:106 2:28 3:117 
-0.1657924047962254 1:104 2:31 3:124 
-0.1743286015868421 2:31 3:124 
-0.2257695238252073 1:104 2:30 3:126 
-0.1437585098386918 2:30 3:126 
-0.1457783859899919 1:104 2:31 3:122 
-0.2453548322869706 1:102 2:36 3:121 
-0.2147573543263673 1:102 2:37 3:117 
-0.2228057233173317 1:105 2:40 3:115 
-0.05505797593421924 1:105 2:41 3:113 
-0.207578152829737 1:103 2:41 3:117 
-0.06760304144872958 2:42 3:114 
-0.1821051838418729 1:107 2:23 3:101 
-0.1398707141242294 2:23 3:101 
-0.1324272308398005 1:107 2:20 3:112 
-0.1138910724724103 1:107 2:21 3:111 
-0.1526871015211989 2:21 3:111 
-0.1320080779534029 1:107 2:21 3:109 
-0.09086891389317242 2:21 3:109 
-0.100362825523013 2:23 3:102 
-0.1190955054287767 1:107 2:21 3:108 
-0.1866227274441535 1:107 2:22 3:106 
-0.07286117463385256 2:22 3:106 
-0.1425295901784934 2:21 3:107 
-0.05715159798683617 1:107 2:22 3:105 
-0.2191683746770631 1:107 2:22 3:103 
-0.1969374794644717 1:109 2:20 3:102 
-0.1791303272751609 2:20 3:102 
-0.1656944583673681 1:109 2:20 3:104 
-0.1224655893905111 2:20 3:104 
-0.08071955384462698 1:109 2:19 3:106 
-0.1625827969167816 2:19 3:106 
-0.1912558923929796 1:109 2:19 3:107 
-0.05860450483243013 2:19 3:107 
-0.07515848874099607 1:109 2:18 3:111 
-0.08354506923081685 2:18 3:111 
-0.06440933120455311 1:109 2:19 3:109 
-0.1683540305885981 2:19 3:109 
-0.1815542024691104 1:120 2:13 3:114 
-0.1560778457975109 2:13 3:114 
-0.1818929723841488 1:120 2:13 3:118 
-0.1723468373910886 2:13 3:118 
-0.2217794034893915 1:109 2:18 3:113 
-0.1852850273589825 2:18 3:114 
-0.0584721627340255 2:17 3:121 
-0.1760521652486815 2:17 3:117 
-0.2043645735877397 1:109 2:18 3:116 
-0.06213333923447317 2:18 3:116 
-0.1563216036862338 1:109 2:17 3:118 
-0.05219931901101299 2:17 3:118 
-0.1724408943200732 1:112 2:23 3:123 
-0.1331936623904746 2:23 3:123 
-0.2030029136246005 1:112 2:24 3:118 
-0.06520568258914866 1:112 2:23 3:122 
-0.09902677285834806 1:106 2:27 3:122 
-0.1712359142983785 1:104 2:33 3:116 
-0.1676872583807377 1:105 2:38 3:120 
-0.1409114591254046 2:38 3:120 
-0.1887144854349437 1:103 2:42 3:115 
-0.1945278075741408 1:103 2:43 3:113 
-0.2007260782102506 1:103 2:44 3:109 
-0.06742517169940754 2:44 3:109 
-0.1020867415658426 1:112 2:26 3:107 
-0.1172671440813488 2:26 3:107 
-0.1806845305692372 1:112 2:25 3:114 
-0.1424633825182083 1:115 2:29 3:106 
-0.1059339066320487 2:29 3:106 
-0.1817928866620643 1:112 2:28 3:102 
-0.2153599885986545 1:114 2:23 3:112 
-0.1081122785839129 2:23 3:112 
-0.05685022713355264 1:114 2:25 3:104 
-0.1166342286197499 2:25 3:104 
-0.1423892979200764 1:114 2:24 3:106 
-0.1765121967359556 2:24 3:106 
-0.08673787590680543 1:114 2:24 3:108 
-0.1113155446742552 2:24 3:108 
-0.1558199465928804 1:114 2:21 3:119 
-0.1519267336073941 2:21 3:119 
-0.1868113145507073 2:21 3:122 
-0.1380447158530461 1:114 2:22 3:114 
-0.1739656842765027 2:22 3:114 
-0.05384235674634541 2:21 3:120 
-0.1309744800179035 1:114 2:21 3:121 
-0.107768002672022 1:114 2:22 3:115 
-0.2348892132838134 1:117 2:22 3:125 
-0.1951616529409663 2:22 3:125 
-0.2225754172524674 1:117 2:23 3:121 
-0.1314743140808632 2:23 3:121 
-0.1713093757196326 1:115 2:26 3:116 
-0.1459936086503331 2:26 3:116 
-0.0841355437818927 1:115 2:24 3:125 
-0.07832688108771219 2:24 3:125 
-0.1456243030169972 1:115 2:25 3:124 
-0.1285910865089927 2:25 3:124 
-0.1945968247807702 1:109 2:29 3:123 
-0.1654182612126857 2:29 3:123 
-0.1565210438597662 1:109 2:30 3:121 
-0.116063680541492 2:30 3:121 
-0.155809098007559 1:107 2:34 3:119 
-0.1461464465366699 2:34 3:119 
-0.07789045283399249 1:105 2:41 3:111 
-0.1293869851241815 1:105 2:41 3:112 
-0.1290104466984438 1:106 2:42 3:116 
-0.1523172239499904 2:42 3:116 
-0.212725067789669 1:105 2:44 3:116 
-0.2330177094231404 1:105 2:43 3:119 
-0.2000925884814652 2:43 3:119 
-0.2411779975240855 1:105 2:46 3:112 
-0.2049745712343785 1:105 2:48 3:107 
-0.1877077362843923 1:105 2:56 3:110 
-0.232558606398009 1:104 2:52 3:107 
-0.2227761091677991 1:112 2:26 3:109 
-0.166646399999035 1:112 2:27 3:104 
-0.1379155646257304 1:112 2:26 3:106 
-0.06654791577995578 1:112 2:25 3:112 
-0.07034019276311182 1:115 2:30 3:103 
-0.1954694872347544 1:114 2:23 3:109 
-0.05372077933637004 2:23 3:109 
-0.2001771562438682 1:114 2:25 3:103 
-0.1151970691718467 2:25 3:103 
-0.2238052308301853 1:117 2:27 3:105 
-0.1525993565421318 2:27 3:105 
-0.09805758596541103 1:114 2:24 3:105 
-0.138933739551469 2:23 3:110 
-0.05950310204207027 1:117 2:24 3:115 
-0.1270048261121172 1:117 2:25 3:112 
-0.1565619376411884 1:117 2:25 3:110 
-0.1582528874674755 1:117 2:25 3:114 
-0.2036514737326685 2:25 3:114 
-0.0567223330926489 2:24 3:117 
-0.1702743426958036 1:117 2:24 3:118 
-0.07318136970959699 1:117 2:24 3:119 
-0.1570283715773503 2:24 3:119 
-0.139529996119062 1:117 2:24 3:116 
-0.2031792482922156 1:120 2:24 3:127 
-0.1782474423980243 2:24 3:127 
-0.1284892018534756 3:127 
-0.2219786383833514 1:120 2:27 3:114 
-0.1963764398377905 1:120 2:26 3:120 
-0.2305121446847692 1:115 2:27 3:122 
-0.06301102997376695 2:27 3:122 
-0.2545490341161031 1:112 2:30 3:128 
-0.1809949420064151 2:30 3:128 
-0.2359360258659684 1:115 2:26 3:126 
-0.1050162617576108 2:26 3:126 
-0.05202785005094768 1:112 2:33 3:117 
-0.08342187783625871 1:112 2:32 3:118 
-0.1929034795481597 1:109 2:37 3:117 
-0.09649672641594188 2:39 3:125 
-0.1736012904985219 1:106 2:38 3:126 
-0.1803678329092701 2:38 3:126 
-0.1790401533597756 1:106 2:39 3:124 
-0.06824611276162401 3:124 
-0.1329639629187814 1:106 2:41 3:117 
-0.08879091825919094 2:41 3:117 
-0.1864963627924729 1:106 2:44 3:111 
-0.1736150364928824 2:44 3:111 
-0.1182063210553676 1:109 2:48 3:112 
-0.1470664060603071 1:108 2:48 3:117 
-0.1153169800071134 1:108 2:49 3:114 
-0.05931679468640694 1:108 2:51 3:110 
-0.06174209119923446 1:108 2:48 3:116 
-0.1732634955062465 1:108 2:47 3:119 
-0.0515340625180184 2:47 3:119 
-0.1656765122400233 1:108 2:52 3:107 
-0.09757225121974594 1:115 2:31 3:100 
-0.1567401981224766 2:31 3:100 
-0.05386201412348321 2:28 3:111 
-0.1360708800296074 1:115 2:34 3:98 
-0.07947126021131601 2:34 3:98 
-0.2541676563937063 1:120 2:30 3:102 
-0.1158164513478534 2:30 3:102 
-0.247381462049095 1:117 2:28 3:102 
-0.1593785197284821 2:28 3:102 
-0.1050425128648694 1:120 2:29 3:107 
-0.2216463142643667 1:117 2:26 3:108 
-0.1561844778203434 1:120 2:28 3:108 
-0.1320388372273128 2:26 3:109 
-0.1891058947405145 1:115 2:27 3:112 
-0.1570776968248173 2:27 3:112 
-0.1000865049542078 1:115 2:29 3:115 
-0.1003904907934738 2:29 3:114 
-0.159326840128372 1:115 2:29 3:113 
-0.1394052112997515 1:115 2:28 3:120 
-0.09449606003108431 2:28 3:120 
-0.125231395994477 1:115 2:28 3:118 
-0.1711944649043139 2:28 3:118 
-0.146858134065859 1:115 2:29 3:116 
-0.1446838449712002 2:29 3:116 
-0.1276273214178125 1:115 2:30 3:111 
-0.0910146306650782 2:30 3:111 
-0.238547240115093 1:118 2:31 3:123 
-0.1730330382229917 1:118 2:33 3:117 
-0.1904402682823357 2:33 3:117 
-0.2362212929253467 1:118 2:32 3:119 
-0.07852228172371301 1:115 2:39 3:112 
-0.1536065346292865 2:39 3:112 
-0.2340296598308339 1:115 2:36 3:121 
-0.1893660936487669 2:36 3:121 
-0.2254727560516345 1:111 2:40 3:121 
-0.1501492219296281 2:40 3:121 
-0.1481301054394589 1:115 2:36 3:119 
-0.09766033343050934 2:36 3:119 
-0.07698785616660736 1:109 2:46 3:116 
-0.05727453682561229 2:46 3:116 
-0.1839398347453976 1:109 2:45 3:120 
-0.1478956570891094 2:45 3:120 
-0.1301327509137564 1:109 2:45 3:118 
-0.08265521678060306 2:45 3:118 
-0.1969918698368625 1:109 2:47 3:114 
-0.1632423071243757 2:47 3:114 
-0.1434928026030378 1:108 2:51 3:111 
-0.06936200115570484 1:108 2:53 3:111 
-0.1862631118153744 1:108 2:51 3:116 
-0.1393775317738842 2:51 3:116 
-0.1120533666459799 1:108 2:51 3:114 
-0.05420521810310814 2:51 3:114 
-0.1979586939416465 1:107 2:57 3:111 
-0.1539004454126975 1:107 2:55 3:115 
-0.1722985743153602 1:107 2:60 3:107 
-0.2198500589735775 1:107 2:62 3:103 
-0.1467472359838565 2:62 3:103 
-0.1025377303661325 2:65 3:106 
-0.1508223603955822 1:115 2:32 3:105 
-0.08526137107709229 2:32 3:105 
-0.1929997904490434 1:115 2:30 3:101 
-0.05651687201868572 2:30 3:101 
-0.180092620943192 1:115 2:29 3:104 
-0.1763735342085946 2:29 3:104 
-0.1340153502953841 1:115 2:27 3:114 
-0.1101000859766371 2:27 3:114 
-0.1372313517008461 1:115 2:30 3:109 
-0.1612624078657039 2:30 3:109 
-0.141757393581428 1:115 2:31 3:107 
-0.1913795618525588 1:115 2:33 3:101 
-0.1066181794700612 2:33 3:101 
-0.2113585263056558 1:115 2:35 3:96 
-0.246627358114268 2:35 3:96 
-0.1899607367965702 1:120 2:36 3:99 
-0.1775392024196151 2:36 3:99 
-0.2455764024370548 1:120 2:35 3:102 
-0.1811324240511851 2:35 3:102 
-0.1705236265080027 1:120 2:34 3:105 
-0.2187756331206318 1:120 2:33 3:107 
-0.1070457876711012 2:33 3:107 
-0.157273309418642 1:118 2:35 3:110 
-0.07131949718057634 2:35 3:110 
-0.1895776707936336 1:120 2:35 3:117 
-0.1242045298999839 2:35 3:116 
-0.08349905920757994 1:120 2:37 3:109 
-0.1125620715506686 2:37 3:109 
-0.1659922601234103 2:38 3:107 
-0.1522120509717212 1:120 2:35 3:115 
-0.1198314222420646 2:37 3:110 
-0.1730541996475554 1:120 2:37 3:111 
-0.1145794638892395 2:36 3:112 
-0.17752269032652 1:120 2:36 3:113 
-0.1364303091425701 2:36 3:114 
-0.2161619068478612 1:115 2:39 3:118 
-0.143604340608716 2:39 3:118 
-0.2022738084979049 1:117 2:45 3:114 
-0.07523667273159872 1:115 2:49 3:115 
-0.1744076597933619 1:115 2:48 3:116 
-0.1559796557696161 1:110 2:49 3:115 
-0.1546970237330832 2:49 3:115 
-0.1963213208245139 1:111 2:52 3:117 
-0.1630446700430858 2:52 3:117 
-0.1235982665172593 1:110 2:48 3:117 
-0.09518961565958573 1:111 2:53 3:116 
-0.07478470832787088 2:53 3:116 
-0.08039269239952918 1:110 2:51 3:110 
-0.1052114523356357 1:110 2:55 3:115 
-0.2420693515053614 1:109 2:61 3:118 
-0.1759493227652521 2:61 3:118 
-0.06234956912499166 1:109 2:64 3:108 
-0.1816512314751949 1:109 2:66 3:105 
-0.1882694987143356 1:109 2:69 3:103 
-0.1530018545854802 1:109 2:67 3:107 
-0.2056246368182015 1:108 2:71 3:108 
-0.1271123734125973 2:71 3:108 
-0.1111177043523134 1:115 2:33 3:99 
-0.1393668984787673 2:33 3:99 
-0.1520521243168723 1:115 2:32 3:103 
-0.161035615503172 2:32 3:103 
-0.05897372772716258 1:115 2:30 3:112 
-0.1219582155181956 2:30 3:112 
-0.0594430830292848 1:115 2:31 3:108 
-0.09112705335656755 2:31 3:108 
-0.1201452560734718 1:118 2:36 3:107 
-0.2046844766499156 1:118 2:36 3:105 
-0.1172124837798931 2:36 3:106 
-0.1733390687792766 1:118 2:37 3:103 
-0.2280671732918915 1:120 2:42 3:98 
-0.1828537353476847 2:42 3:98 
-0.1783952022384928 1:120 2:43 3:96 
-0.2110073238469655 2:43 3:96 
-0.1344456659204341 1:120 2:38 3:108 
-0.1593013424752082 1:120 2:38 3:106 
-0.09790668727611707 1:120 2:39 3:104 
-0.1257978052027115 2:39 3:104 
-0.1462666323480433 1:120 2:40 3:103 
-0.09992565241260383 2:40 3:103 
-0.188960865449019 1:120 2:45 3:102 
-0.1424013532786748 2:42 3:109 
-0.1548096601480105 1:120 2:44 3:105 
-0.2115034487538665 1:120 2:38 3:122 
-0.07084500572776448 2:38 3:122 
-0.07268887205073815 1:120 2:44 3:104 
-0.1988694813241381 1:120 2:42 3:108 
-0.1794832661373285 1:120 2:41 3:111 
-0.06050579180205656 1:120 2:40 3:114 
-0.1412741997560805 1:120 2:41 3:113 
-0.1052744956805193 2:41 3:113 
-0.1105986263648028 1:120 2:40 3:115 
-0.1613176783475219 2:40 3:115 
-0.1320094280203603 1:120 2:43 3:106 
-0.0995180212761968 1:120 2:42 3:110 
-0.1377627155016064 1:120 2:40 3:116 
-0.2468214966679506 1:117 2:44 3:117 
-0.1422282081004061 1:111 2:55 3:111 
-0.2009287878452269 2:55 3:111 
-0.1410670837177006 1:113 2:56 3:114 
-0.172438882531188 1:110 2:61 3:105 
-0.1495457518744477 1:113 2:60 3:107 
-0.1107999182142882 1:110 2:56 3:113 
-0.1876375875471387 1:113 2:55 3:116 
-0.1742527984967257 1:110 2:57 3:112 
-0.1157915361129955 1:112 2:59 3:113 
-0.1392700225093613 1:110 2:55 3:116 
-0.2063077951815619 2:55 3:116 
-0.1836247979837737 1:112 2:58 3:115 
-0.1986866347414231 2:58 3:115 
-0.1388871446260477 1:112 2:61 3:109 
-0.1953050546936687 1:109 2:71 3:101 
-0.2422785877498008 1:111 2:75 3:98 
-0.1980020405826746 1:109 2:73 3:98 
-0.2000700551699397 1:109 2:78 3:102 
-0.1326885803689739 2:78 3:102 
-0.2443314132938361 1:118 2:38 3:100 
-0.1201837075595327 2:38 3:100 
-0.0575931887101328 1:115 2:41 3:106 
-0.07634795085073487 2:41 3:106 
-0.1951280746775026 1:118 2:34 3:112 
-0.09916968767853907 1:115 2:39 3:111 
-0.1533850487180264 2:37 3:104 
-0.201560921065929 1:115 2:44 3:99 
-0.1781424839026913 2:44 3:99 
-0.08402970273408716 1:120 2:41 3:100 
-0.09173056833404975 2:41 3:100 
-0.1705435082615168 1:115 2:45 3:103 
-0.223415449368119 2:45 3:103 
-0.05192895686862542 1:120 2:39 3:105 
-0.05926355760910101 2:39 3:105 
-0.2130409626355276 1:115 2:47 3:98 
-0.2309563830104118 2:47 3:98 
-0.1480302578854357 1:120 2:40 3:101 
-0.1280649919720643 2:40 3:101 
-0.2053276216284879 1:115 2:45 3:101 
-0.05253972000701057 1:120 2:45 3:101 
-0.06949621396481015 2:45 3:101 
-0.06430610427414041 1:120 2:46 3:100 
-0.1503270114513024 2:46 3:100 
-0.1843306492913412 1:120 2:49 3:93 
-0.2379820552356948 2:49 3:93 
-0.2379693298269544 1:120 2:48 3:95 
-0.1820995173272297 2:48 3:95 
-0.1662301946843753 1:122 2:49 3:105 
-0.1867864778365032 1:122 2:50 3:101 
-0.1920774237135183 1:120 2:46 3:99 
-0.1225410391029914 1:117 2:49 3:104 
-0.09922502520191645 2:49 3:104 
-0.1392472099240323 1:122 2:50 3:103 
-0.114818900117372 2:50 3:103 
-0.2027230523596487 1:122 2:52 3:98 
-0.192259316677722 2:52 3:98 
-0.2384457552389034 1:122 2:48 3:107 
-0.185379133903191 1:119 2:50 3:107 
-0.1382509687392093 2:50 3:107 
-0.1562818430249048 1:119 2:51 3:105 
-0.1575040141108255 2:51 3:105 
-0.1896239684523876 1:123 2:53 3:106 
-0.05011066132308767 1:123 2:53 3:105 
-0.1502107667617315 1:119 2:52 3:108 
-0.1976221005497705 1:119 2:56 3:100 
-0.07318201897850019 1:119 2:48 3:117 
-0.1906298461773258 2:48 3:117 
-0.2243594752969266 1:119 2:51 3:110 
-0.05225229868818182 1:119 2:50 3:112 
-0.1626449406499673 1:119 2:50 3:113 
-0.2547789933683075 1:119 2:45 3:125 
-0.2012767165206286 2:45 3:125 
-0.1738443567927873 3:125 
-0.2491572017703798 1:119 2:47 3:120 
-0.1749094992438003 2:47 3:120 
-0.149961468052107 3:120 
-0.1513524791003328 1:119 2:53 3:106 
-0.1801732970365146 2:53 3:106 
-0.0724006977634527 1:119 2:49 3:114 
-0.2024874629527898 1:119 2:48 3:116 
-0.1916733881378098 1:116 2:56 3:109 
-0.1496231679887655 2:56 3:109 
-0.1627149349872464 1:114 2:60 3:110 
-0.1463324615273643 1:112 2:64 3:108 
-0.1477203529800027 2:64 3:108 
-0.02806072400625082 1:112 2:63 3:109 
-0.1955053817153697 1:112 2:66 3:105 
-0.1629907511698796 1:112 2:63 3:110 
-0.209099174893025 1:112 2:61 3:112 
-0.1858868231739502 1:111 2:65 3:113 
-0.1063970820693134 1:112 2:69 3:114 
-0.09532695427142651 1:111 2:69 3:107 
-0.2091655923915982 1:111 2:68 3:109 
-0.1963954287931242 1:111 2:70 3:106 
-0.1973387727384923 1:111 2:71 3:104 
-0.1892894638452063 1:111 2:73 3:101 
-0.07868853632657169 1:110 2:80 3:105 
-0.06449670243256661 1:110 2:82 3:103 
-0.2026136134841569 1:110 2:83 3:102 
-0.1545160856999588 1:110 2:81 3:104 
-0.06452710296427294 1:110 2:88 3:104 
-0.1572092370791314 1:110 2:94 3:98 
-0.06446525888122656 1:119 2:51 3:104 
-0.101338722455193 1:119 2:52 3:103 
-0.1154187360634649 2:52 3:103 
-0.1477635722684568 1:115 2:56 3:104 
-0.1855899831386595 2:56 3:104 
-0.1838566975176555 1:119 2:56 3:95 
-0.1627887366315793 2:56 3:95 
-0.1830591007857967 1:115 2:63 3:93 
-0.1740068892963761 2:63 3:93 
-0.1635586953679483 1:119 2:55 3:97 
-0.1796031433056003 2:55 3:97 
-0.1389780252240993 2:60 3:98 
-0.08787112924588575 1:119 2:54 3:99 
-0.1177966889931514 2:54 3:99 
-0.08455478692407947 1:119 2:54 3:100 
-0.1145677205633861 1:119 2:53 3:102 
-0.05428184517159318 1:119 2:53 3:101 
-0.1598414112065784 2:53 3:101 
-0.1165837399057447 1:119 2:55 3:102 
-0.1472713631764113 1:119 2:57 3:98 
-0.1526401469625273 2:57 3:98 
-0.1817874628966593 1:116 2:64 3:95 
-0.2104701872505073 2:64 3:95 
-0.1683417176615518 1:119 2:58 3:96 
-0.175755632637571 2:58 3:96 
-0.2227690059899584 1:116 2:61 3:100 
-0.2079395050729439 1:119 2:54 3:104 
-0.1290927569548428 2:54 3:104 
-0.2321052998782472 1:116 2:59 3:103 
-0.235802238106423 1:120 2:57 3:107 
-0.1648533470859568 1:120 2:58 3:105 
-0.155890077656803 1:118 2:63 3:105 
-0.155637847093168 1:118 2:60 3:110 
-0.06797564183508015 1:118 2:60 3:111 
-0.2361928891420635 1:118 2:62 3:107 
-0.1393286760231944 2:66 3:104 
-0.2053266019145232 1:119 2:66 3:105 
-0.1588650975431012 1:116 2:67 3:111 
-0.223075618742467 2:67 3:111 
-0.1173375865762006 1:116 2:68 3:109 
-0.1528821027815795 1:115 2:70 3:109 
-0.09746484182772752 2:70 3:109 
-0.1884792701289435 1:115 2:71 3:107 
-0.06676252111805414 1:115 2:74 3:103 
-0.2177061300328839 1:116 2:72 3:114 
-0.141188712850988 1:114 2:78 3:111 
-0.08883631888297577 1:114 2:79 3:110 
-0.2489265397532096 1:114 2:75 3:115 
-0.1560164434042751 2:75 3:115 
-0.2293872967064869 1:114 2:77 3:113 
-0.1665754496495247 2:77 3:113 
-0.2279302444552762 1:114 2:80 3:108 
-0.1110027452997786 1:112 2:86 3:107 
-0.07776964704775713 1:112 2:85 3:108 
-0.1377642656181952 1:112 2:84 3:109 
-0.08149236669347904 1:111 2:87 3:112 
-0.1442769023034455 2:87 3:112 
-0.1763319604597312 1:112 2:94 3:106 
-0.1537970306871306 1:111 2:98 3:99 
-0.1474095239216758 1:110 2:96 3:104 
-0.2210183105123822 1:111 2:102 3:100 
-0.1617375031003392 2:102 3:100 
-0.08712410880890087 1:111 2:100 3:102 
-0.09961288285094844 1:111 2:90 3:113 
-0.1134320096340796 2:90 3:113 
-0.1558678697973712 1:111 2:89 3:114 
-0.1994146337520385 2:89 3:114 
-0.1124843397965761 1:112 2:108 3:97 
-0.2032208360877984 1:112 2:112 3:93 
-0.1313092510273067 2:112 3:93 
-0.1422896280033584 1:112 2:107 3:98 
-0.08071268077934367 1:118 2:64 3:104 
-0.1444548601620472 1:118 2:65 3:102 
-0.184738607223824 1:118 2:67 3:99 
-0.1006125313456066 1:118 2:68 3:97 
-0.1989232675038712 1:118 2:71 3:93 
-0.09606947344583244 1:118 2:70 3:95 
-0.1148580301342833 1:118 2:69 3:96 
-0.1518049661228429 2:69 3:96 
-0.2113248142425642 1:120 2:61 3:100 
-0.148363439691227 2:61 3:100 
-0.1018821316892008 1:120 2:60 3:102 
-0.08828743028291358 2:60 3:102 
-0.2026568552704772 1:120 2:59 3:103 
-0.1776365206369131 2:59 3:103 
-0.08641051263359884 1:118 2:64 3:103 
-0.06281147742902182 1:118 2:66 3:101 
-0.09649085257322837 1:118 2:66 3:100 
-0.2260159485894114 2:71 3:94 
-0.2168539074617232 1:119 2:72 3:96 
-0.1184578638894275 2:72 3:96 
-0.2243315087908149 1:119 2:70 3:98 
-0.1676806557122347 2:70 3:98 
-0.1733494287425865 1:119 2:68 3:101 
-0.1329955204402677 2:68 3:101 
-0.1789273977322937 1:119 2:67 3:103 
-0.06480951615970132 2:67 3:103 
-0.1307780506627112 1:116 2:71 3:104 
-0.1023195111365445 1:116 2:72 3:103 
-0.1348198787785466 1:119 2:70 3:106 
-0.1277534188800615 1:119 2:69 3:107 
-0.2081777862411861 1:119 2:71 3:104 
-0.09411222272948955 2:71 3:104 
-0.2313740460294558 1:119 2:75 3:99 
-0.1117711926031533 2:75 3:99 
-0.0809759428558538 1:117 2:80 3:99 
-0.05662432447904503 2:80 3:99 
-0.0802169320690605 1:117 2:76 3:104 
-0.1675225271145239 1:117 2:75 3:105 
-0.1610042974343235 1:117 2:77 3:103 
-0.1967148378584586 1:117 2:79 3:100 
-0.1563208113449872 1:118 2:82 3:99 
-0.1295611584355353 1:116 2:82 3:100 
-0.09655317478273373 2:82 3:100 
-0.2337792061954878 1:116 2:76 3:107 
-0.1259157089560175 2:76 3:107 
-0.05658522489629136 1:116 2:79 3:106 
-0.1959935951742335 2:79 3:106 
-0.156278668744547 1:116 2:79 3:107 
-0.1106386523424482 1:115 2:90 3:99 
-0.1907013054015804 2:90 3:99 
-0.1643195297064901 1:115 2:87 3:103 
-0.08520473116726518 1:116 2:85 3:108 
-0.1555419417833033 1:116 2:84 3:109 
-0.1679983270064718 2:84 3:109 
-0.1677445631320985 1:114 2:90 3:108 
-0.06372113786806893 1:114 2:93 3:104 
-0.1590525268360407 1:114 2:96 3:101 
-0.0847230260264889 1:113 2:98 3:104 
-0.1166031635490551 1:113 2:97 3:105 
-0.06235632996446022 1:112 2:102 3:108 
-0.2057287397233862 1:112 2:114 3:96 
-0.1999551237392155 1:112 2:117 3:94 
-0.1849098136615912 1:111 2:109 3:105 
-0.2306528355476712 1:111 2:111 3:103 
-0.08276860719238688 1:111 2:114 3:101 
-0.185751589596062 1:111 2:115 3:100 
-0.1157347883362105 1:112 2:129 3:99 
-0.1784149510046555 1:113 2:129 3:95 
-0.117004429596377 2:129 3:95 
-0.1058989471880254 1:112 2:130 3:98 
-0.1806273557455186 1:118 2:86 3:95 
-0.05579715080138864 1:118 2:81 3:101 
-0.1584951260208461 1:118 2:80 3:102 
-0.2018939145854967 2:85 3:96 
-0.09134136669052109 1:118 2:89 3:92 
-0.2067636711763061 2:89 3:92 
-0.0669004574775926 1:118 2:87 3:94 
-0.2102067889895007 2:87 3:94 
-0.2034580331774855 1:120 2:78 3:98 
-0.08855303352923138 2:77 3:99 
-0.1941191360516514 1:120 2:76 3:101 
-0.1426127286016241 2:76 3:101 
-0.2479736492732726 1:120 2:74 3:103 
-0.1257100221414235 2:74 3:103 
-0.09490471391592725 1:120 2:77 3:100 
-0.1479913360331738 1:118 2:88 3:93 
-0.08256153118124843 1:118 2:87 3:97 
-0.1798587555891266 1:119 2:85 3:105 
-0.2228710608411085 1:119 2:87 3:103 
-0.07309693232624509 1:118 2:91 3:101 
-0.07729915146999628 1:118 2:93 3:99 
-0.08790053038458595 1:116 2:94 3:103 
-0.2083095878704732 1:116 2:92 3:105 
-0.1851575389038819 1:117 2:97 3:103 
-0.1250499663576396 1:117 2:99 3:100 
-0.07735486408744685 1:117 2:98 3:101 
-0.1509516417324741 1:117 2:101 3:98 
-0.08997832179030954 1:116 2:101 3:104 
-0.2493076000709278 1:116 2:97 3:113 
-0.2222993121093529 2:97 3:113 
-0.2417805150313307 1:116 2:100 3:110 
-0.1822792261347984 2:100 3:110 
-0.182417533602376 1:116 2:104 3:105 
-0.1604495098009121 1:116 2:110 3:100 
-0.1142393534477319 1:115 2:118 3:97 
-0.05655911837297628 1:115 2:120 3:96 
-0.1009772615810763 1:115 2:117 3:98 
-0.1325883230484071 1:115 2:113 3:102 
-0.06674235349886071 1:114 2:110 3:107 
-0.05042960034177485 2:110 3:107 
-0.1911373841872595 1:113 2:134 3:93 
-0.1287241050398574 2:134 3:93 
-0.118107522317233 1:113 2:125 3:100 
-0.07637571221231881 1:113 2:117 3:107 
-0.1180491928281645 1:112 2:131 3:99 
-0.07441420558962986 1:112 2:130 3:100 
-0.1895544573398317 1:112 2:135 3:96 
-0.1348614740079502 1:113 2:124 3:107 
-0.0780007485418332 2:124 3:107 
-0.1806232476754047 1:113 2:132 3:104 
-0.1591898083801472 2:132 3:104 
-0.1661597936177886 1:113 2:141 3:98 
-0.08096855286542298 2:141 3:98 
-0.1789401800788683 1:112 2:143 3:100 
-0.07726788486061115 2:143 3:100 
-0.0685694595097967 1:121 2:88 3:99 
-0.09728037205515566 1:119 2:97 3:92 
-0.1778496634374161 2:97 3:92 
-0.2349473319481829 1:119 2:99 3:90 
-0.181282673436262 2:99 3:90 
-0.232295969029938 1:119 2:101 3:88 
-0.2250032970525818 2:101 3:88 
-0.05516648382164413 1:119 2:95 3:94 
-0.1286886517077856 2:95 3:94 
-0.141910817250902 1:119 2:96 3:93 
-0.07972326786085335 2:96 3:93 
-0.2249494513831249 1:121 2:92 3:94 
-0.1468322514901012 1:119 2:92 3:97 
-0.2078284010660616 1:121 2:88 3:98 
-0.1703715813995955 2:88 3:98 
-0.09713431988367449 1:119 2:91 3:98 
-0.05107301003768694 1:119 2:93 3:96 
-0.05393343718220212 2:93 3:96 
-0.1502745149332729 1:119 2:94 3:95 
-0.07952983026806004 2:94 3:95 
-0.06642863065283922 1:120 2:98 3:94 
-0.1676589869877019 1:120 2:90 3:102 
-0.1072294998940918 1:119 2:97 3:103 
-0.1679598434454759 2:97 3:103 
