svm_type c_svc
kernel_type rbf
gamma 0.5
nr_class 2
total_sv 7081
rho 0.791075
label 1 -1
nr_sv 2278 4803
SV
1.75330577534978 1:94 2:94 3:133 
5 3:133 
5 
1.752145435338083 1:93 2:91 3:132 
2.240236827192706 2:91 3:132 
5 3:132 
5 
1.547064282275172 1:92 2:94 3:133 
2.230043348380364 2:94 3:133 
5 3:133 
5 
1.726627062010558 1:93 2:89 3:135 
1.880059159474131 2:89 3:135 
5 3:135 
5 
5 3:139 
5 
0.3064257161324491 1:93 2:87 3:138 
5 3:138 
5 
1.462273621746658 1:93 2:85 3:141 
5 3:141 
5 
1.22302429589404 1:93 2:86 3:139 
0.6287058562050263 2:86 3:139 
5 3:139 
5 
1.325299553603218 1:93 2:87 3:137 
0.9190755548704132 2:87 3:137 
5 3:137 
5 
5 3:138 
5 
5 3:137 
5 
0.4573711925827046 1:93 2:83 3:139 
5 3:139 
5 
1.347561925601514 1:93 2:82 3:140 
5 3:140 
5 
5 3:138 
5 
1.442861913185866 1:93 2:84 3:137 
1.465893715836301 2:84 3:137 
5 3:137 
5 
0.7285720069701498 1:93 2:83 3:138 
0.6468742388228211 2:83 3:138 
5 3:138 
5 
1.673618982881159 1:93 2:80 3:137 
1.583150580815996 2:80 3:137 
5 3:137 
5 
0.4995270863018336 1:95 2:82 3:140 
0.8516599463728332 2:82 3:140 
5 3:140 
5 
5 3:142 
5 
0.6895270721110856 1:93 2:78 3:140 
0.6301476899668739 2:78 3:140 
5 3:140 
5 
5 3:141 
5 
5 3:144 
5 
1.482934445735169 1:94 2:72 3:148 
5 3:148 
5 
0.6751867094961612 1:94 2:74 3:145 
0.726374595551382 2:74 3:145 
5 3:145 
5 
1.563260580757297 1:94 2:78 3:138 
1.461923992585588 2:78 3:138 
5 3:138 
5 
5 3:139 
5 
0.5549009913873153 1:95 2:73 3:139 
0.7112865247919444 2:73 3:139 
5 3:139 
5 
5 3:142 
5 
5 3:142 
5 
1.642588641950103 1:93 2:69 3:144 
1.109301619325107 2:69 3:144 
5 3:144 
5 
1.495411887258622 1:94 2:66 3:142 
0.9219603944801587 2:66 3:142 
5 3:142 
5 
1.33736579300931 1:94 2:70 3:134 
1.337049344112858 2:70 3:134 
5 3:134 
5 
1.272748900914494 1:94 2:71 3:133 
1.272779233699287 2:71 3:133 
5 3:133 
5 
5 3:140 
5 
5 3:142 
5 
5 3:142 
5 
5 3:140 
5 
5 3:141 
5 
5 3:141 
5 
5 3:141 
5 
5 3:144 
5 
1.441015309199409 1:96 2:57 3:143 
1.448739170631192 2:57 3:143 
5 3:143 
5 
1.582424384539173 1:96 2:53 3:143 
1.582386686807983 2:53 3:143 
5 3:143 
5 
1.570723408754458 1:96 2:48 3:142 
1.570597519523033 2:48 3:142 
5 3:142 
5 
1.476598542691731 1:94 2:96 3:136 
1.691116405398828 2:96 3:136 
5 3:136 
5 
5 3:139 
5 
1.6398290579753 1:94 2:97 3:139 
2.137104385758182 2:97 3:139 
5 3:139 
5 
5 3:139 
5 
5 3:142 
5 
5 3:139 
5 
0.7175789306430696 1:94 2:90 3:144 
0.1649737655528147 2:90 3:144 
5 3:144 
5 
5 3:143 
5 
0.5239075736897495 1:94 2:92 3:142 
0.06205209895778435 2:92 3:142 
5 3:142 
5 
5 3:139 
5 
1.474214234937757 1:94 2:91 3:138 
1.435249715320584 2:91 3:138 
5 3:138 
5 
5 3:140 
5 
5 3:143 
5 
0.2713681230365653 1:94 2:87 3:144 
5 3:144 
5 
5 3:145 
5 
1.414234486147885 1:94 2:87 3:143 
1.517099762649556 2:87 3:143 
5 3:143 
5 
5 3:138 
5 
5 3:143 
5 
5 3:145 
5 
5 3:146 
5 
5 3:146 
5 
5 3:147 
5 
5 3:149 
5 
5 3:147 
5 
5 3:143 
5 
0.8090417719472304 1:94 2:77 3:140 
0.7052044308950768 2:77 3:140 
5 3:140 
5 
0.9240413094685025 1:94 2:76 3:141 
0.8793982486087855 2:76 3:141 
5 3:141 
5 
5 3:143 
5 
5 3:143 
5 
5 3:146 
5 
0.9002102181029974 1:95 2:70 3:145 
0.466653533512244 2:70 3:145 
5 3:145 
5 
5 3:138 
5 
5 3:138 
5 
0.4417848160309801 1:96 2:75 3:143 
5 3:143 
5 
0.9696829201186574 1:96 2:73 3:146 
5 3:146 
5 
5 3:142 
5 
5 3:140 
5 
5 3:142 
5 
0.5205472602741252 1:95 2:69 3:141 
0.5144511120858173 2:69 3:141 
5 3:141 
5 
1.628161031705881 1:94 2:63 3:141 
1.525247494495845 2:63 3:141 
5 3:141 
5 
1.16649022852946 1:94 2:60 3:145 
1.144293060565034 2:60 3:145 
5 3:145 
5 
0.3641192229190862 1:96 2:57 3:144 
0.3485644520476106 2:57 3:144 
5 3:144 
5 
5 3:145 
5 
1.584233787558226 1:96 2:48 3:144 
1.584223019922673 2:48 3:144 
5 3:144 
5 
5 3:140 
5 
0.4523245979295647 1:94 2:96 3:141 
0.3745193880367302 2:96 3:141 
5 3:141 
5 
5 3:142 
5 
5 3:140 
5 
1.045966324625637 1:94 2:95 3:142 
1.066225978997366 2:95 3:142 
5 3:142 
5 
5 3:137 
5 
0.5333648573165806 1:94 2:92 3:141 
0.9559450262629018 2:92 3:141 
5 3:141 
5 
0.7743020208729252 1:94 2:93 3:140 
0.5456082532190379 2:93 3:140 
5 3:140 
5 
1.078690252455726 1:94 2:94 3:139 
1.194449604731911 2:94 3:139 
5 3:139 
5 
5 3:137 
5 
1.364850951155801 1:94 2:95 3:137 
1.760659532653171 2:95 3:137 
5 3:137 
5 
1.337424858944161 1:94 2:89 3:140 
1.87809996344203 2:89 3:140 
5 3:140 
5 
5 3:145 
5 
5 3:149 
5 
5 
5 3:147 
5 
0.5225884066266489 1:94 2:90 3:139 
0.8846136616802071 2:90 3:139 
5 3:139 
5 
5 3:144 
5 
5 3:148 
5 
5 3:150 
5 
5 3:147 
5 
5 3:143 
5 
5 3:142 
5 
5 3:145 
5 
5 3:147 
5 
0.8586530114549303 1:93 2:77 3:143 
0.622482531505238 2:77 3:143 
5 3:143 
5 
0.34907684024226 1:93 2:77 3:142 
0.2568897612573646 2:77 3:142 
5 3:142 
5 
0.3931221742115174 1:94 2:75 3:143 
0.3303797403271049 2:75 3:143 
5 3:143 
5 
0.8640317327612026 1:93 2:78 3:141 
0.4725821063594421 2:78 3:141 
5 3:141 
5 
5 3:144 
5 
5 3:146 
5 
0.7267191820955548 1:94 2:75 3:142 
5 3:142 
5 
0.7571881035018513 1:94 2:74 3:144 
5 3:144 
5 
0.7381051654004897 1:96 2:73 3:147 
0.9119520939121258 2:73 3:147 
5 3:147 
5 
0.4727758204726336 1:96 2:72 3:148 
0.5178101060136937 2:72 3:148 
5 3:148 
5 
5 3:143 
5 
5 3:140 
5 
0.6524761932500764 1:95 2:72 3:141 
5 3:141 
5 
0.8300420282749257 1:95 2:73 3:140 
5 3:140 
5 
5 3:140 
5 
1.446948623762407 1:94 2:62 3:143 
1.109736682620633 2:62 3:143 
5 3:143 
5 
0.9533504124145524 1:94 2:60 3:144 
0.9417682931956544 2:60 3:144 
5 3:144 
5 
1.477621509892237 1:96 2:56 3:145 
1.479181924859096 2:56 3:145 
5 3:145 
5 
1.558923938378545 1:96 2:53 3:145 
1.558913968250319 2:53 3:145 
5 3:145 
5 
5 3:147 
5 
5 3:143 
5 
5 3:143 
5 
5 3:142 
5 
5 2:96 3:143 
5 3:143 
5 
5 3:145 
5 
5 3:146 
5 
5 3:146 
5 
5 3:145 
5 
0.4806139604859783 1:94 2:98 3:140 
0.7864286539361994 2:98 3:140 
5 3:140 
5 
0.885640534316791 2:97 3:142 
5 3:142 
5 
0.5951100827760356 1:94 2:91 3:143 
0.6144971389053486 2:91 3:143 
5 3:143 
5 
5 3:145 
5 
5 3:149 
5 
5 
5 3:150 
5 
0.3156775930497764 1:94 2:90 3:145 
0.2432582205506347 2:90 3:145 
5 3:145 
5 
5 3:147 
5 
5 
5 
5 3:148 
5 
5 3:145 
5 
5 3:146 
5 
5 3:147 
5 
5 3:148 
5 
5 3:144 
5 
5 3:146 
5 
1.285968269226422 1:95 2:80 3:144 
2.639854955799178 2:80 3:144 
5 3:144 
5 
5 3:147 
5 
5 3:147 
5 
5 3:148 
5 
5 3:146 
5 
5 3:149 
5 
5 3:149 
5 
5 3:147 
5 
5 3:145 
5 
5 3:145 
5 
5 3:145 
5 
0.9333721430229762 1:95 2:80 3:140 
0.9473542984057788 2:80 3:140 
5 3:140 
5 
0.9233113583158317 1:95 2:81 3:139 
0.8228295714320172 2:81 3:139 
5 3:139 
5 
0.6990248050346148 1:95 2:72 3:142 
0.6312874515340566 2:72 3:142 
5 3:142 
5 
0.9011137332293637 1:95 2:67 3:144 
0.8203861273302781 2:67 3:144 
5 3:144 
5 
1.564511476141728 1:96 2:63 3:146 
1.591221011226443 2:63 3:146 
5 3:146 
5 
1.34762126548261 1:96 2:62 3:144 
0.5301023542595499 2:62 3:144 
5 3:144 
5 
5 
0.3351205142158279 2:88 3:150 
5 3:150 
5 
5 3:147 
5 
5 3:145 
5 
5 3:146 
5 
5 3:148 
5 
5 3:149 
5 
5 3:148 
5 
5 3:146 
5 
0.6901321902228741 1:94 2:97 3:142 
5 2:97 3:142 
5 3:142 
5 
5 3:145 
5 
1.048807565352488 1:94 2:92 3:147 
1.078854816458977 2:92 3:147 
5 3:147 
5 
1.069248403603957 1:94 2:90 3:150 
0.9176322142522995 2:90 3:150 
5 3:150 
5 
5 
5 
5 
5 3:148 
5 
5 3:149 
5 
5 
5 
5 3:148 
5 
5 3:147 
5 
5 3:148 
5 
5 3:148 
5 
5 3:146 
5 
5 3:147 
5 
5 3:148 
5 
5 3:144 
5 
5 3:147 
5 
5 3:148 
5 
5 3:150 
5 
5 3:146 
5 
5 3:146 
5 
5 3:150 
5 
0.9484575786140044 1:95 2:76 3:150 
1.067370270657363 2:76 3:150 
5 3:150 
5 
1.046993265759113 1:95 2:75 3:149 
1.022504415157509 2:75 3:149 
5 3:149 
5 
0.8210188130611297 1:95 2:77 3:149 
0.7000396321590849 2:77 3:149 
5 3:149 
5 
0.4498215048751363 1:95 2:78 3:147 
0.1523505813443112 2:78 3:147 
5 3:147 
5 
5 3:141 
5 
1.228464952629111 1:95 2:83 3:139 
0.785423494654651 2:83 3:139 
5 3:139 
5 
5 3:143 
5 
5 3:146 
5 
1.563157285203414 1:95 2:66 3:147 
1.559762696082814 2:66 3:147 
5 3:147 
5 
1.374790455435207 1:96 2:64 3:144 
1.428201163973656 2:64 3:144 
5 3:144 
5 
5 
5 
5 3:148 
5 
5 3:145 
5 
5 3:146 
5 
5 
5 
4.923941590339904 3:151 
5 
5 3:148 
5 
5 3:148 
5 
5 3:151 
5 
5 
5 
1.348520987398785 1:94 2:84 3:154 
1.38275680790762 2:84 3:154 
5 
5 
5 3:150 
5 
5 3:147 
5 
5 
5 
5 3:151 
5 
5 3:151 
5 
5 
5 
5 
5 3:149 
5 
5 
5 
5 3:146 
5 
5 3:147 
5 
0.5147870702617083 1:95 2:80 3:149 
1.496772584427151 2:80 3:149 
5 3:149 
5 
0.998682212277875 1:95 2:78 3:153 
1.011801521829096 2:78 3:153 
5 
5 3:148 
5 
5 3:146 
5 
5 3:146 
5 
5 3:148 
5 
0.9303398314872265 1:95 2:78 3:148 
2.747680308027082 2:78 3:148 
5 3:148 
5 
5 3:148 
5 
5 3:147 
5 
5 3:142 
5 
5 3:141 
5 
5 3:145 
5 
1.127210605998963 1:94 2:73 3:146 
0.8241345309039025 2:73 3:146 
5 3:146 
5 
1.172714377235433 1:95 2:70 3:146 
1.368529204807293 2:70 3:146 
5 3:146 
5 
5 3:142 
5 
4.860374572028566 1:94 2:87 3:158 
4.076236951694974 2:87 3:158 
0.07505240951565764 3:158 
5 
5 
5 3:147 
5 
5 3:144 
5 
5 3:147 
5 
5 
5 
5 
5 3:149 
5 
5 
5 
0.1352139293553818 1:94 2:88 3:154 
0.6746293857250975 2:88 3:154 
5 
0.8351755791054296 1:94 2:88 3:153 
0.6532841571668818 2:88 3:153 
5 
5 
5 3:151 
5 
5 3:149 
5 
5 3:146 
5 
5 
5 
5 
5 
5 
5 1:94 2:80 3:157 
5 2:80 3:157 
5 
5 
2.702069245280949 3:152 
5 
5 
0.4308696087705134 1:94 2:81 3:154 
0.3502764211513308 2:81 3:154 
5 
5 3:146 
5 
5 3:146 
5 
5 3:148 
5 
1.49739496345964 1:95 2:78 3:154 
1.4763897808815 2:78 3:154 
5 
1.362607304974514 1:95 2:80 3:150 
1.033800999698213 2:80 3:150 
5 3:150 
5 
5 3:147 
5 
5 3:145 
5 
5 3:147 
5 
5 3:146 
5 
5 3:146 
5 
1.017522723825938 1:95 2:82 3:146 
2.032179015218529 2:82 3:146 
5 3:146 
5 
5 3:144 
5 
5 3:144 
5 
0.7153874303375132 1:95 2:82 3:147 
0.103630236716525 2:82 3:147 
5 3:147 
5 
1.11345310230748 1:93 2:76 3:144 
0.6915257507457056 2:76 3:144 
5 3:144 
5 
1.349843075883061 1:95 2:71 3:143 
1.329768571815151 2:71 3:143 
5 3:143 
5 
1.193027718005667 1:95 2:69 3:140 
1.192746189611252 2:69 3:140 
5 3:140 
5 
5 1:94 2:85 3:165 
5 2:85 3:165 
5 3:165 
5 
5 
5 3:150 
5 
5 3:147 
5 
5 3:150 
5 
3.662064209559228 3:154 
5 
5 
5 3:152 
5 
5 3:149 
5 
5 3:151 
5 
5 3:151 
5 
5 3:151 
5 
5 3:150 
5 
5 3:151 
5 
5 3:152 
5 
5 3:152 
5 
5 3:152 
5 
5 3:151 
5 
5 3:151 
5 
5 3:152 
5 
5 
5 1:94 2:84 3:155 
5 2:84 3:155 
5 3:155 
5 
5 1:94 2:83 3:156 
5 2:83 3:156 
5 
1.920509405882719 1:94 2:81 3:155 
2.961683222680631 2:81 3:155 
5 3:155 
5 
5 
5 3:150 
5 
5 3:151 
5 
5 3:146 
5 
5 3:146 
5 
5 3:148 
5 
5 
5 3:149 
5 
5 3:146 
5 
5 3:148 
5 
5 3:150 
5 
5 3:149 
5 
5 3:147 
5 
5 3:147 
5 
5 3:146 
5 
5 3:145 
5 
5 3:145 
5 
5 3:145 
5 
1.371803371741606 1:95 2:76 3:147 
1.283847734013458 2:76 3:147 
5 3:147 
5 
1.072917958209447 1:95 2:67 3:145 
1.039079820047246 2:67 3:145 
5 3:145 
5 
5 1:94 2:86 3:163 
5 2:86 3:163 
5 3:163 
5 
5 3:155 
5 
5 3:151 
5 
5 3:149 
5 
5 3:152 
5 
5 3:155 
5 
5 3:154 
5 
5 
5 3:152 
5 
5 3:151 
5 
5 3:150 
5 
5 3:149 
5 
5 3:149 
5 
5 3:150 
5 
5 3:152 
5 
5 3:155 
5 
5 
5 3:150 
5 
5 3:151 
5 
5 3:152 
5 
5 
5 
0.7316228467969453 1:94 2:85 3:153 
0.798010706872019 2:85 3:153 
5 
1.989210487965879 3:153 
5 
0.75858820111098 1:94 2:82 3:152 
0.6282453904347813 2:82 3:152 
5 3:152 
5 
5 3:148 
5 
5 3:151 
5 
0.3585301052505336 1:94 2:84 3:149 
0.4449574177519566 2:84 3:149 
5 3:149 
5 
0.9943493206082774 1:94 2:83 3:150 
0.7949137999060353 2:83 3:150 
5 3:150 
5 
0.7095335577186206 1:94 2:83 3:151 
0.803645628523376 2:83 3:151 
5 3:151 
5 
0.948201024840859 1:94 2:82 3:153 
1.139304857879757 2:82 3:153 
5 3:153 
5 
5 3:147 
5 
0.5186201976273256 1:94 2:86 3:146 
0.409986616713022 2:86 3:146 
5 3:146 
5 
5 3:148 
5 
5 3:151 
5 
5 3:150 
5 
5 3:148 
5 
5 3:149 
5 
5 3:148 
5 
0.9735623079128162 1:94 2:86 3:145 
1.053336573389388 2:86 3:145 
5 3:145 
5 
0.9690334181073668 1:95 2:83 3:144 
1.767744997793587 2:83 3:144 
5 3:144 
5 
5 3:146 
5 
1.604128110809061 1:95 2:74 3:151 
1.595221632912099 2:74 3:151 
5 3:151 
5 
1.646873766577619 1:95 2:64 3:151 
1.646912114151619 2:64 3:151 
5 3:151 
5 
2.952946362974473 1:96 2:90 3:161 
3.037023522200691 2:90 3:161 
5 3:161 
5 
5 3:154 
5 
5 3:151 
5 
5 3:150 
5 
5 3:151 
5 
5 3:152 
5 
5 3:151 
5 
5 3:152 
5 
5 3:154 
5 
5 3:151 
5 
5 3:151 
5 
5 3:151 
5 
5 3:151 
5 
5 3:151 
5 
5 3:152 
5 
5 3:154 
5 
3.934753234952797 1:94 2:88 3:156 
5 2:88 3:156 
5 
5 3:151 
5 
5 3:152 
5 
5 3:154 
5 
5 3:154 
5 
5 3:153 
5 
5 3:153 
5 
5 3:153 
5 
5 3:153 
5 
5 3:153 
5 
5 
5 3:153 
5 
1.064184197840382 1:95 2:86 3:155 
1.376715862440265 2:86 3:155 
5 3:155 
5 
5 3:154 
5 
5 3:154 
5 
5 3:148 
5 
0.9159115408517079 2:90 3:147 
5 3:147 
5 
5 3:146 
5 
5 3:150 
5 
0.4220186854914457 1:94 2:87 3:150 
5 3:150 
5 
5 3:147 
5 
5 3:148 
5 
5 3:149 
5 
0.7812250536202299 1:94 2:85 3:147 
0.8130003689575682 2:85 3:147 
5 3:147 
5 
5 3:145 
5 
0.3038896589408342 1:95 2:79 3:145 
5 3:145 
5 
1.259370234249109 1:96 2:72 3:149 
1.366829318493055 2:72 3:149 
5 3:149 
5 
1.529768265226389 1:95 2:65 3:149 
1.529191231365737 2:65 3:149 
5 3:149 
5 
5 3:159 
5 
5 
5 3:154 
5 
5 3:152 
5 
5 3:152 
5 
5 3:150 
5 
1.320884562809332 1:94 2:95 3:148 
1.90453200572475 2:95 3:148 
5 3:148 
5 
0.07282751986960107 1:94 2:93 3:150 
5 3:150 
5 
5 3:153 
5 
0.8453707244377136 1:94 2:94 3:149 
1.073284015752381 2:94 3:149 
5 3:149 
5 
5 3:151 
5 
5 3:153 
5 
5 3:154 
5 
5 3:153 
5 
5 3:153 
5 
5 3:154 
5 
5 1:94 2:88 3:157 
5 2:88 3:157 
5 
5 3:150 
5 
5 3:151 
5 
5 3:152 
5 
5 3:153 
5 
5 3:153 
5 
0.9886716915913053 2:87 3:152 
5 3:152 
5 
5 2:87 3:152 
5 3:152 
5 
5 3:153 
5 
3.319442422760787 1:95 2:84 3:157 
4.142718307930046 2:84 3:157 
5 
5 1:95 2:84 3:158 
5 2:84 3:158 
5 3:158 
5 
0.4057251888068458 1:95 2:86 3:154 
0.1341373183080218 2:86 3:154 
5 3:154 
5 
0.3119587050021525 1:95 2:85 3:156 
4.918918487791839 2:85 3:156 
5 
0.6948465286045127 1:95 2:87 3:153 
0.3893628000173566 2:87 3:153 
5 3:153 
5 
0.2686161304656306 1:95 2:87 3:152 
4.24179440879345 2:87 3:152 
5 3:152 
5 
0.4692233715606005 1:95 2:90 3:147 
4.72189253085727 2:90 3:147 
5 3:147 
5 
5 3:148 
5 
5 3:147 
5 
0.6179780615532615 1:94 2:86 3:152 
0.449924303397353 2:86 3:152 
5 3:152 
5 
0.6214267254553466 1:94 2:86 3:151 
0.7618517350658389 2:86 3:151 
5 3:151 
5 
5 3:146 
5 
5 3:146 
5 
0.4756713551994937 1:94 2:88 3:148 
0.2844337139299707 2:88 3:148 
5 3:148 
5 
1.003586717250097 1:94 2:84 3:148 
0.8848976986131987 2:84 3:148 
5 3:148 
5 
1.067428846585812 1:95 2:81 3:148 
1.641528120163563 2:81 3:148 
5 3:148 
5 
5 3:143 
5 
1.243578707217446 1:96 2:74 3:144 
0.9125495790347371 2:74 3:144 
5 3:144 
5 
5 3:141 
5 
5 
5 3:158 
5 
5 
5 3:155 
5 
5 3:155 
5 
5 3:154 
5 
5 3:152 
5 
0.7053679038328415 1:94 2:97 3:150 
5 3:150 
5 
5 3:151 
5 
1.742870576167493 1:94 2:99 3:147 
5 2:99 3:147 
5 3:147 
5 
5 3:151 
5 
5 
5 
5 3:152 
5 
1.324844890198672 1:94 2:93 3:151 
1.961826300264771 2:93 3:151 
5 3:151 
5 
5 3:154 
5 
5 3:154 
5 
5 
5 3:154 
5 
5 3:155 
5 
5 3:154 
5 
5 3:153 
5 
5 3:153 
5 
5 3:149 
5 
5 3:149 
5 
5 3:152 
5 
5 3:153 
5 
5 3:154 
5 
5 3:150 
5 
5 3:153 
5 
5 3:147 
5 
5 3:148 
5 
0.8537480522761728 1:94 2:92 3:149 
0.9934531986144319 2:92 3:149 
5 3:149 
5 
0.6129470725839524 1:94 2:88 3:147 
0.7149010808042484 2:88 3:147 
5 3:147 
5 
0.7290429920995964 1:94 2:87 3:149 
0.9142373524149454 2:87 3:149 
5 3:149 
5 
0.7117634693237122 1:95 2:89 3:149 
0.6733604523013196 2:89 3:149 
5 3:149 
5 
5 3:145 
5 
0.7349448655903743 1:95 2:89 3:144 
0.8561603983883835 2:89 3:144 
5 3:144 
5 
5 3:145 
5 
5 3:145 
5 
5 3:143 
5 
5 3:144 
5 
5 3:142 
5 
5 3:142 
5 
5 3:158 
5 
5 3:158 
5 
5 3:160 
5 
5 3:159 
5 
5 
5 3:155 
5 
5 3:155 
5 
1.127331058935832 1:94 2:95 3:153 
5 3:153 
5 
0.7863103416952174 1:94 2:96 3:151 
5 3:151 
5 
1.283659506854563 1:94 2:98 3:149 
1.681296053583623 2:98 3:149 
5 3:149 
5 
0.6203949831626223 1:94 2:96 3:152 
5 3:152 
5 
5 
5 3:155 
5 
5 3:153 
5 
0.6736834585819258 1:94 2:91 3:154 
0.3156867813488964 2:91 3:154 
5 3:154 
5 
1.123719000420695 2:89 3:155 
5 3:155 
5 
0.4509065283199256 1:94 2:89 3:154 
5 3:154 
5 
5 3:155 
5 
5 3:153 
5 
5 3:155 
5 
1.203301860343732 1:94 2:92 3:153 
3.148693558597795 2:92 3:153 
5 3:153 
5 
0.3280277774089453 1:94 2:91 3:152 
5 3:152 
5 
5 3:151 
5 
5 3:147 
5 
5 3:146 
5 
0.7975440636613295 2:91 3:151 
5 3:151 
5 
5 1:94 2:89 3:154 
4.8736657473253 2:89 3:154 
5 3:154 
5 
0.8521440068373738 1:94 2:90 3:153 
0.934824655920115 2:90 3:153 
5 3:153 
5 
5 3:148 
5 
5 2:91 3:151 
5 3:151 
5 
0.6499018319019578 1:94 2:91 3:151 
5 2:91 3:151 
5 3:151 
5 
0.2316216828857492 1:94 2:92 3:150 
5 3:150 
5 
5 3:148 
5 
0.41761195013969 1:95 2:88 3:150 
5 2:88 3:150 
5 3:150 
5 
0.7697751698591864 1:94 2:89 3:146 
0.5032362965905318 2:89 3:146 
5 3:146 
5 
5 3:145 
5 
0.7091797471325365 2:92 3:144 
5 3:144 
5 
5 3:142 
5 
0.9723042312675134 1:95 2:91 3:140 
0.469225099020647 2:91 3:140 
5 3:140 
5 
1.209281595492175 1:95 2:86 3:140 
1.026704713423651 2:86 3:140 
5 3:140 
5 
1.27837093662895 1:95 2:81 3:142 
1.972361536850254 2:81 3:142 
5 3:142 
5 
5 3:142 
5 
1.178303496359449 1:97 2:72 3:141 
0.938401999688896 2:72 3:141 
5 3:141 
5 
5 3:141 
5 
1.00030313962534 1:96 2:97 3:158 
0.650969424156703 2:97 3:158 
5 3:158 
5 
5 3:159 
5 
5 3:163 
5 
5 3:163 
5 
5 3:158 
5 
5 3:155 
5 
5 3:158 
5 
4.806923216473815 3:157 
5 
5 3:154 
5 
5 3:155 
5 
5 3:158 
5 
0.728501155932578 1:94 2:93 3:157 
5 3:157 
5 
1.16108640024091 1:94 2:94 3:155 
5 3:155 
5 
3.024328167971062 3:156 
5 
5 1:94 2:88 3:159 
5 2:88 3:159 
5 3:159 
5 
3.184377923540963 1:94 2:89 3:158 
2.605073866002352 2:89 3:158 
5 3:158 
5 
5 3:155 
5 
5 3:160 
5 
5 3:158 
5 
0.1109006428273915 1:96 2:91 3:160 
0.09172986363290177 2:91 3:160 
5 3:160 
5 
5 3:158 
5 
5 3:156 
5 
5 3:156 
5 
5 3:152 
5 
5 3:151 
5 
5 3:155 
5 
5 1:96 2:91 3:160 
5 2:91 3:160 
5 3:160 
5 
5 3:156 
5 
5 3:151 
5 
5 3:152 
5 
5 3:157 
5 
5 3:154 
5 
5 3:147 
5 
1.016196630121785 1:95 2:88 3:151 
0.964188836547193 2:88 3:151 
5 3:151 
5 
0.7213887993889392 1:95 2:87 3:147 
0.3864992517025054 2:87 3:147 
5 3:147 
5 
5 3:145 
5 
1.055320639650473 1:95 2:92 3:144 
5 2:92 3:144 
5 3:144 
5 
5 3:142 
5 
5 1:95 2:92 3:139 
5 2:92 3:139 
5 3:139 
5 
1.625998190985605 1:95 2:87 3:138 
1.539875847408059 2:87 3:138 
5 3:138 
5 
5 3:141 
5 
0.2625067836250245 1:95 2:80 3:141 
5 3:141 
5 
1.133376687070751 1:97 2:73 3:140 
0.8071247269342343 2:73 3:140 
5 3:140 
5 
1.144745913855854 1:96 2:65 3:141 
0.9942283785948288 2:65 3:141 
5 3:141 
5 
5 3:155 
5 
5 3:159 
5 
5 3:163 
5 
5 3:164 
5 
5 3:158 
5 
5 3:155 
5 
5 3:157 
5 
5 3:157 
5 
5 3:154 
5 
5 3:159 
5 
5 3:161 
5 
0.8223077745505516 1:94 2:92 3:158 
5 3:158 
5 
0.5918947966451074 1:94 2:93 3:156 
5 3:156 
5 
5 1:94 2:88 3:160 
5 2:88 3:160 
5 3:160 
5 
5 1:94 2:86 3:163 
5 2:86 3:163 
5 3:163 
5 
5 1:94 2:88 3:160 
5 2:88 3:160 
5 3:160 
5 
0.3530216381164154 1:94 2:90 3:155 
5 3:155 
5 
5 1:96 2:89 3:164 
5 2:89 3:164 
5 3:164 
5 
0.9076517869417413 1:96 2:91 3:159 
5 3:159 
5 
5 3:156 
5 
1.347667778837916 1:96 2:97 3:150 
0.8706392615764491 2:97 3:150 
5 3:150 
5 
5 1:96 2:98 3:149 
5 2:98 3:149 
5 3:149 
5 
1.099263692236954 1:96 2:95 3:153 
1.406796945407225 2:95 3:153 
5 3:153 
5 
0.2364042410312693 1:96 2:94 3:155 
0.1489097521666762 2:94 3:155 
5 3:155 
5 
0.924030585740121 1:96 2:92 3:158 
0.9869222123979856 2:92 3:158 
5 3:158 
5 
5 3:157 
5 
4.902973834574134 1:96 2:90 3:161 
4.908270136367098 2:90 3:161 
5 3:161 
5 
1.004618336403041 1:96 2:93 3:156 
1.095175937797428 2:93 3:156 
5 3:156 
5 
1.387639021628843 1:96 2:94 3:154 
2.017850634464039 2:94 3:154 
5 3:154 
5 
5 3:152 
5 
0.5423288019077959 1:96 2:93 3:157 
0.6018230889339497 2:93 3:157 
5 3:157 
5 
2.025222367666129 1:96 2:96 3:151 
2.921399199351918 2:96 3:151 
5 3:151 
5 
5 1:96 2:96 3:148 
5 2:96 3:148 
5 3:148 
5 
0.887979221940298 1:95 2:90 3:148 
0.6247532497554467 2:90 3:148 
5 3:148 
5 
0.8549974140561499 1:95 2:86 3:148 
0.5846982882597638 2:86 3:148 
5 3:148 
5 
5 3:146 
5 
5 3:143 
5 
0.3069304782502124 1:95 2:90 3:141 
5 3:141 
5 
1.081031527508102 1:95 2:90 3:142 
1.128521660464323 2:90 3:142 
5 3:142 
5 
5 3:142 
5 
0.7185607521141491 1:95 2:85 3:141 
0.9236711183209011 2:85 3:141 
5 3:141 
5 
0.9819080080217487 1:95 2:78 3:143 
0.408868342248448 2:78 3:143 
5 3:143 
5 
1.189234069883408 1:96 2:75 3:142 
0.999999582422114 2:75 3:142 
5 3:142 
5 
0.8242978279770716 1:96 2:65 3:142 
0.396037284781402 2:65 3:142 
5 3:142 
5 
1.155802046793298 1:96 2:99 3:154 
1.39848156574776 2:99 3:154 
5 3:154 
5 
5 3:157 
5 
5 3:159 
5 
5 3:159 
5 
5 3:157 
5 
5 1:95 2:101 3:154 
5 2:101 3:154 
5 3:154 
5 
5 1:95 2:101 3:154 
5 2:101 3:154 
5 3:154 
5 
5 1:95 2:101 3:154 
5 2:101 3:154 
5 3:154 
5 
5 1:95 2:100 3:155 
5 2:100 3:155 
5 3:155 
5 
5 3:157 
5 
5 3:161 
5 
5 3:159 
5 
5 3:158 
5 
5 3:163 
5 
3.40819143343866 1:95 2:91 3:166 
5 2:91 3:166 
5 3:166 
5 
5 1:94 2:88 3:160 
5 2:88 3:160 
5 3:160 
5 
1.04668842170039 1:94 2:90 3:156 
1.275666074543396 2:90 3:156 
5 3:156 
5 
5 3:160 
5 
5 3:158 
5 
5 3:157 
5 
5 3:154 
5 
5 3:153 
5 
5 3:156 
5 
5 3:154 
5 
5 3:155 
5 
5 3:154 
5 
5 3:157 
5 
5 3:153 
5 
5 3:154 
5 
1.454004189187005 1:95 2:100 3:151 
1.454004189187005 2:100 3:151 
5 3:151 
5 
5 3:152 
5 
5 1:96 2:100 3:146 
5 2:100 3:146 
5 3:146 
5 
5 1:96 2:98 3:146 
5 2:98 3:146 
5 3:146 
5 
5 3:145 
5 
0.839738013457102 2:91 3:145 
5 3:145 
5 
5 3:143 
5 
5 3:141 
5 
0.5333452717569943 1:95 2:94 3:141 
0.4206337725070441 2:94 3:141 
5 3:141 
5 
5 3:143 
5 
5 3:145 
5 
1.356206277090068 1:96 2:84 3:145 
0.6750106475810653 2:84 3:145 
5 3:145 
5 
1.120533771327306 1:95 2:79 3:146 
1.983001596407389 2:79 3:146 
5 3:146 
5 
0.2130044865685509 1:95 2:78 3:144 
0.2297148830809383 2:78 3:144 
5 3:144 
5 
1.232798973619088 1:95 2:68 3:142 
1.198500120229307 2:68 3:142 
5 3:142 
5 
0.9926270747592578 1:96 2:99 3:155 
1.780698471072807 2:99 3:155 
5 3:155 
5 
5 3:155 
5 
5 3:155 
5 
5 3:156 
5 
5 3:157 
5 
5 1:95 2:100 3:155 
5 2:100 3:155 
5 3:155 
5 
5 3:153 
5 
5 3:153 
5 
5 1:95 2:100 3:155 
5 2:100 3:155 
5 3:155 
5 
5 3:156 
5 
0.8866375772619612 1:95 2:97 3:160 
0.4864278801452366 2:97 3:160 
5 3:160 
5 
5 3:159 
5 
5 3:158 
5 
1.176911385316637 1:95 2:92 3:164 
1.714784642725873 2:92 3:164 
5 3:164 
5 
5 1:95 2:91 3:165 
5 2:91 3:165 
5 3:165 
5 
5 1:94 2:88 3:160 
5 2:88 3:160 
5 3:160 
5 
0.9957889575931871 1:94 2:91 3:159 
0.9344027469928351 2:91 3:159 
5 3:159 
5 
5 3:158 
5 
5 3:159 
5 
5 3:163 
5 
5 3:161 
5 
5 3:161 
5 
5 3:161 
5 
5 3:155 
5 
5 3:152 
5 
5 3:152 
5 
5 3:152 
5 
5 3:150 
5 
5 3:153 
5 
5 3:152 
5 
2.0842059198925 1:95 2:101 3:149 
2.402327441187598 2:101 3:149 
5 3:149 
5 
5 1:96 2:100 3:145 
5 2:100 3:145 
5 3:145 
5 
5 1:96 2:98 3:148 
5 2:98 3:148 
5 3:148 
5 
0.09675657214540466 1:94 2:94 3:147 
4.895183604589735 2:94 3:147 
5 3:147 
5 
5 3:142 
5 
1.070688806624025 1:95 2:95 3:140 
0.7335826612830487 2:95 3:140 
5 3:140 
5 
0.231689072622617 2:93 3:142 
5 3:142 
5 
0.7806275307124073 1:95 2:93 3:143 
1.038151360407307 2:93 3:143 
5 3:143 
5 
0.5557223400485831 1:95 2:93 3:142 
5 2:93 3:142 
5 3:142 
5 
5 3:145 
5 
5 3:150 
5 
0.6272880893501138 1:95 2:84 3:143 
0.5929410892730052 2:84 3:143 
5 3:143 
5 
0.8286392465342669 1:95 2:79 3:142 
0.724310782022333 2:79 3:142 
5 3:142 
5 
1.657596722640919 1:95 2:70 3:138 
1.655798827781837 2:70 3:138 
5 3:138 
5 
5 3:156 
5 
5 3:154 
5 
5 3:154 
5 
5 3:157 
5 
5 3:159 
5 
0.773002676647653 1:95 2:98 3:159 
1.261861626997384 2:98 3:159 
5 3:159 
5 
0.2217605549953823 1:95 2:99 3:157 
0.2226861790522328 2:99 3:157 
5 3:157 
5 
5 3:156 
5 
5 3:156 
5 
5 3:158 
5 
5 3:161 
5 
5 3:159 
5 
5 3:158 
5 
5 3:163 
5 
5 3:162 
5 
5 3:159 
5 
0.8824841788108379 1:95 2:92 3:163 
0.6584292607091486 2:92 3:163 
5 3:163 
5 
0.9372667188275953 1:95 2:93 3:161 
0.9428614379102498 2:93 3:161 
5 3:161 
5 
5 1:95 2:98 3:159 
5 2:98 3:159 
5 3:159 
5 
5 3:158 
5 
5 3:153 
5 
5 3:152 
5 
5 3:156 
5 
5 3:156 
5 
5 3:157 
5 
5 3:153 
5 
5 3:152 
5 
5 3:152 
5 
5 3:152 
5 
5 3:155 
5 
5 3:150 
5 
0.1205767948066133 1:95 2:100 3:150 
5 3:150 
5 
0.4606124010132116 1:96 2:96 3:152 
0.2512480383328113 2:96 3:152 
5 3:152 
5 
0.4550888664011415 1:94 2:93 3:148 
0.2981094727978285 2:93 3:148 
5 3:148 
5 
0.2985257580093839 1:94 2:96 3:143 
5 2:96 3:143 
5 3:143 
5 
1.040571235269935 1:94 2:98 3:141 
0.8084038246425731 2:98 3:141 
5 3:141 
5 
5 3:145 
5 
5 3:146 
5 
5 3:144 
5 
0.3219112238013061 2:91 3:146 
5 3:146 
5 
1.18211616856688 1:95 2:85 3:150 
0.9101376821228469 2:85 3:150 
5 3:150 
5 
0.9167271564190807 1:95 2:84 3:142 
0.9505640383871972 2:84 3:142 
5 3:142 
5 
5 3:141 
5 
1.517292151906348 1:95 2:74 3:138 
1.453563943251704 2:74 3:138 
5 3:138 
5 
0.7077262503154012 1:96 2:98 3:156 
0.2578024496769852 2:98 3:156 
5 3:156 
5 
5 3:154 
5 
5 3:156 
5 
5 3:159 
5 
5 3:162 
5 
5 3:163 
5 
0.9802822215801987 1:95 2:97 3:161 
1.103180293900102 2:97 3:161 
5 3:161 
5 
5 1:95 2:98 3:159 
5 2:98 3:159 
5 3:159 
5 
5 3:158 
5 
5 1:95 2:98 3:159 
5 2:98 3:159 
5 3:159 
5 
5 3:162 
5 
0.7263577598174785 1:95 2:95 3:159 
0.6246101078421893 2:95 3:159 
5 3:159 
5 
5 3:157 
5 
0.9954965631304522 1:95 2:94 3:160 
1.024422607934683 2:94 3:160 
5 3:160 
5 
5 3:157 
5 
5 3:155 
5 
0.5839460973426478 1:95 2:93 3:162 
0.5859243625615589 2:93 3:162 
5 3:162 
5 
5 1:95 2:99 3:157 
5 2:99 3:157 
5 3:157 
5 
3.124668056385841 1:95 2:100 3:156 
3.243004937782204 2:100 3:156 
5 3:156 
5 
5 3:156 
5 
5 3:152 
5 
5 3:153 
5 
0.3748945315719598 1:95 2:96 3:157 
0.3089242507824508 2:96 3:157 
5 3:157 
5 
5 3:155 
5 
5 3:155 
5 
5 3:156 
5 
0.3243277649160002 1:95 2:98 3:154 
5 3:154 
5 
5 3:155 
5 
0.7421165714430165 1:95 2:99 3:152 
0.7487955938209427 2:99 3:152 
5 3:152 
5 
0.9167165489215169 1:95 2:96 3:156 
1.030918462190402 2:96 3:156 
5 3:156 
5 
5 1:95 2:99 3:152 
5 2:99 3:152 
5 3:152 
5 
0.8704171455328438 1:95 2:98 3:153 
0.6974899693192589 2:98 3:153 
5 3:153 
5 
0.8705444689754673 1:95 2:97 3:155 
0.8345677418660389 2:97 3:155 
5 3:155 
5 
1.274080617284219 1:94 2:97 3:144 
1.307344728058722 2:97 3:144 
5 3:144 
5 
0.282530172554333 1:94 2:96 3:144 
0.4458547712057172 2:96 3:144 
5 3:144 
5 
5 3:145 
5 
1.048940194910459 1:94 2:95 3:145 
1.060932078929923 2:95 3:145 
5 3:145 
5 
5 3:146 
5 
1.123303537244018 1:94 2:94 3:146 
1.135426064618267 2:94 3:146 
5 3:146 
5 
0.8680758841736942 1:95 2:91 3:146 
5 2:91 3:146 
5 3:146 
5 
0.355341742578716 1:95 2:91 3:145 
4.928214259249086 2:91 3:145 
5 3:145 
5 
0.945802146953197 1:95 2:88 3:145 
0.7875215123628023 2:88 3:145 
5 3:145 
5 
0.2103875890634936 1:95 2:83 3:145 
5 3:145 
5 
1.232861568786208 1:95 2:77 3:145 
0.9988109145698314 2:77 3:145 
5 3:145 
5 
0.8622239449129889 1:95 2:95 3:158 
0.9348869241903184 2:95 3:158 
5 3:158 
5 
5 1:95 2:100 3:156 
5 2:100 3:156 
5 3:156 
5 
5 1:95 2:102 3:152 
5 2:102 3:152 
5 3:152 
5 
5 1:95 2:97 3:160 
5 2:97 3:160 
5 3:160 
5 
0.6777789888746666 1:95 2:98 3:158 
0.4629101542705688 2:98 3:158 
5 3:158 
5 
0.9963906404688918 1:95 2:96 3:162 
0.9989662633980295 2:96 3:162 
5 3:162 
5 
5 3:163 
5 
1.33050999088411 1:95 2:95 3:163 
1.375527803702922 2:95 3:163 
5 3:163 
5 
5 1:95 2:95 3:163 
5 2:95 3:163 
5 3:163 
5 
5 1:95 2:99 3:157 
5 2:99 3:157 
5 3:157 
5 
5 1:95 2:98 3:159 
5 2:98 3:159 
5 3:159 
5 
5 1:95 2:96 3:162 
5 2:96 3:162 
5 3:162 
5 
5 1:95 2:98 3:159 
5 2:98 3:159 
5 3:159 
5 
5 1:95 2:96 3:162 
5 2:96 3:162 
5 3:162 
5 
5 1:95 2:98 3:159 
4.739212307664262 2:98 3:159 
5 3:159 
5 
5 1:95 2:95 3:163 
5 2:95 3:163 
5 3:163 
5 
4.867495762264764 1:95 2:96 3:162 
4.83295437718139 2:96 3:162 
5 3:162 
5 
5 1:95 2:99 3:157 
5 2:99 3:157 
5 3:157 
5 
5 1:95 2:107 3:146 
5 2:107 3:146 
5 3:146 
5 
4.771395328892766 1:95 2:97 3:160 
5 2:97 3:160 
5 3:160 
5 
5 1:95 2:99 3:157 
5 2:99 3:157 
3.067303725724782 3:157 
5 
5 1:95 2:102 3:152 
5 2:102 3:152 
5 3:152 
5 
5 3:153 
5 
3.530692740971235 1:95 2:102 3:153 
3.976456571852167 2:102 3:153 
5 3:153 
5 
5 1:95 2:101 3:154 
5 2:101 3:154 
1.860392880891439 3:154 
5 
5 1:95 2:102 3:153 
5 2:102 3:153 
5 3:153 
5 
5 1:95 2:100 3:156 
5 2:100 3:156 
5 3:156 
5 
5 1:95 2:100 3:156 
5 2:100 3:156 
4.330727321713346 3:156 
5 
5 1:95 2:100 3:155 
5 2:100 3:155 
5 3:155 
5 
5 1:95 2:100 3:155 
5 2:100 3:155 
5 3:155 
5 
5 1:95 2:102 3:152 
5 2:102 3:152 
0.3895150384543664 3:152 
5 
5 1:95 2:103 3:151 
5 2:103 3:151 
5 3:151 
5 
-5 1:95 2:99 3:152 
-5 2:99 3:152 
-5 3:152 
-5 1:96 2:98 3:148 
-5 2:98 3:148 
-1.021043764413046 2:99 3:147 
-0.2602412419428251 1:96 2:97 3:147 
-0.3722815976727462 2:97 3:147 
-0.1118274304217079 2:95 3:150 
-1.101640383495235 2:88 3:156 
-5 3:156 
-5 2:96 3:143 
-0.3711036082035557 1:97 2:88 3:150 
-5 2:88 3:150 
-0.1114144240226139 1:96 2:78 3:156 
-0.07298391450848911 2:78 3:156 
-5 3:156 
-0.2822378975766348 1:97 2:78 3:150 
-1.072343739904569 2:78 3:150 
-5 1:95 2:98 3:159 
-5 2:98 3:159 
-5 3:155 
-5 1:95 2:100 3:156 
-5 2:100 3:156 
-5 3:156 
-2.952406673013245 1:95 2:100 3:155 
-4.153781892280692 2:100 3:155 
-5 3:155 
-5 1:95 2:98 3:159 
-5 2:98 3:159 
-4.419296385970782 3:159 
-5 1:95 2:97 3:160 
-5 2:97 3:160 
-5 1:95 2:98 3:159 
-5 2:98 3:159 
-5 3:159 
-5 1:95 2:99 3:157 
-5 2:99 3:157 
-5 3:157 
-5 1:95 2:98 3:159 
-5 2:98 3:159 
-5 3:159 
-5 1:95 2:98 3:159 
-5 2:98 3:159 
-5 3:159 
-5 1:95 2:97 3:160 
-5 2:97 3:160 
-5 1:95 2:96 3:162 
-5 2:96 3:162 
-5 1:95 2:95 3:163 
-5 2:95 3:163 
-5 1:95 2:95 3:163 
-5 2:95 3:163 
-5 1:95 2:96 3:162 
-5 2:96 3:162 
-5 1:95 2:96 3:162 
-5 2:96 3:162 
-5 1:95 2:100 3:156 
-5 2:100 3:156 
-5 3:156 
-5 1:95 2:100 3:155 
-5 2:100 3:155 
-5 3:155 
-5 1:95 2:100 3:155 
-5 2:100 3:155 
-5 3:155 
-5 1:95 2:100 3:155 
-5 2:100 3:155 
-5 3:155 
-5 1:95 2:100 3:156 
-5 2:100 3:156 
-5 3:156 
-5 3:152 
-5 1:95 2:101 3:154 
-5 2:101 3:154 
-5 3:154 
-5 1:95 2:99 3:157 
-5 2:99 3:157 
-5 3:157 
-5 1:95 2:100 3:155 
-5 2:100 3:155 
-5 3:155 
-5 3:152 
-2.60315992338864 1:95 2:102 3:152 
-2.818549624430564 2:102 3:152 
-5 3:152 
-5 1:95 2:102 3:153 
-5 2:102 3:153 
-5 3:153 
-5 3:151 
-5 3:151 
-0.08948511006641813 1:95 2:104 3:144 
-5 3:145 
-0.2065097655279152 1:96 2:100 3:145 
-0.1442949245281475 2:100 3:145 
-5 3:145 
-4.739758758057175 1:96 2:96 3:148 
-5 2:96 3:148 
-0.06566929163992541 2:98 3:146 
-1.084240525029866 1:96 2:96 3:149 
-1.749953696605803 2:96 3:149 
-0.2649009275404661 1:97 2:88 3:156 
-3.951310228252662 2:88 3:156 
-5 3:156 
-5 2:91 3:151 
-5 3:151 
-5 2:87 3:152 
-5 3:152 
-0.4545515106884592 1:97 2:85 3:156 
-5 2:85 3:156 
-5 3:156 
-5 1:95 2:98 3:159 
-5 2:98 3:159 
-5 3:159 
-4.921277486882961 1:95 2:100 3:155 
-4.70480335747273 2:100 3:155 
-5 3:155 
-5 3:152 
-5 3:154 
-5 3:153 
-5 3:158 
-5 3:158 
-5 3:155 
-5 3:152 
-5 3:157 
-5 3:157 
-5 3:156 
-5 3:155 
-5 3:153 
-5 3:152 
-5 3:153 
-5 3:153 
-5 3:155 
-5 3:156 
-5 3:157 
-5 3:151 
-5 1:95 2:101 3:154 
-5 2:101 3:154 
-5 3:154 
-5 1:95 2:99 3:157 
-5 2:99 3:157 
-5 3:157 
-5 1:95 2:101 3:154 
-5 2:101 3:154 
-5 3:154 
-5 1:95 2:102 3:152 
-5 2:102 3:152 
-5 3:152 
-5 1:95 2:102 3:152 
-5 2:102 3:152 
-5 3:152 
-5 1:95 2:107 3:146 
-5 2:107 3:146 
-0.9298145495448329 1:95 2:102 3:148 
-0.9473995842442218 2:102 3:148 
-5 1:96 2:98 3:149 
-5 2:98 3:149 
-0.4154323526197091 1:96 2:99 3:147 
-4.309047530598051 2:99 3:147 
-5 1:96 2:100 3:145 
-5 2:100 3:145 
-5 3:145 
-1.926018124515907 1:96 2:95 3:151 
-2.494599181665234 2:95 3:151 
-5 3:151 
-1.032438367362534 1:96 2:93 3:153 
-3.305406163961976 2:93 3:153 
-5 3:153 
-0.2638000326981117 1:97 2:91 3:151 
-5 2:91 3:151 
-5 3:151 
-0.3932108479063624 1:97 2:87 3:152 
-5 2:87 3:152 
-5 3:152 
-1.260473654786842 2:81 3:144 
-5 1:95 2:99 3:157 
-5 2:99 3:157 
-5 3:157 
-5 3:157 
-5 3:156 
-5 3:156 
-5 3:155 
-5 3:158 
-5 3:158 
-5 3:154 
-5 3:152 
-5 3:159 
-5 3:159 
-0.1022983950595044 1:95 2:105 3:153 
-5 3:153 
-5 3:159 
-5 3:155 
-5 3:157 
-5 3:154 
-5 3:154 
-5 3:151 
-5 1:95 2:101 3:154 
-5 2:101 3:154 
-5 3:154 
-5 1:95 2:102 3:152 
-5 2:102 3:152 
-5 3:152 
-0.06351051862789622 1:95 2:105 3:148 
-0.07521931667752374 2:105 3:148 
-0.09986146790726935 1:95 2:106 3:147 
-0.09196175362818475 2:106 3:147 
-4.292084518516369 1:95 2:103 3:151 
-3.974877748074016 2:103 3:151 
-5 3:151 
-0.3458781711135037 1:95 2:104 3:150 
-0.2881001894915105 2:104 3:150 
-5 1:96 2:100 3:146 
-4.941854309091344 2:100 3:146 
-0.1333526163875302 1:96 2:100 3:143 
-0.1921818242834174 2:100 3:143 
-5 1:96 2:98 3:146 
-5 2:98 3:146 
-0.2354107894244616 1:97 2:94 3:147 
-5 2:94 3:147 
-0.3110441875527319 1:97 2:90 3:147 
-5 2:90 3:147 
-5 3:147 
-0.3761941503399737 1:97 2:82 3:143 
-1.409259995926531 2:82 3:143 
-5 3:154 
-5 3:156 
-5 3:159 
-0.3855565515481922 1:95 2:102 3:157 
-0.3844927547939629 2:102 3:157 
-5 3:157 
-5 3:156 
-5 3:158 
-5 3:158 
-5 3:155 
-5 3:154 
-5 3:156 
-0.260489103094089 1:95 2:100 3:160 
-0.282393377705635 2:100 3:160 
-5 3:152 
-5 3:151 
-5 3:151 
-0.1423718813524609 1:96 2:100 3:164 
-0.1277892125922183 2:100 3:164 
-5 3:157 
-0.06381848035828142 1:96 2:103 3:158 
-5 3:158 
-5 3:154 
-5 3:153 
-5 3:151 
-5 3:152 
-5 3:153 
-5 3:152 
-5 3:145 
-5 3:147 
-5 3:147 
-5 3:147 
-0.1556744664420143 1:96 2:104 3:147 
-5 3:147 
-0.07275970636912321 1:97 2:102 3:143 
-0.07254386873399926 2:102 3:143 
-0.137055921841542 1:97 2:96 3:143 
-5 2:96 3:143 
-0.08776728168319736 1:97 2:91 3:145 
-5 2:91 3:145 
-5 3:145 
-5 3:145 
-5 3:149 
-5 3:152 
-5 3:159 
-5 3:154 
-5 3:154 
-5 3:155 
-5 3:156 
-0.06552332425489166 1:95 2:104 3:154 
-5 3:154 
-5 3:155 
-0.09082900515860554 1:95 2:101 3:159 
-0.09378185234296249 2:101 3:159 
-5 3:159 
-0.2268352016877105 1:95 2:99 3:162 
-0.2625780252425414 2:99 3:162 
-0.05578825660239264 1:95 2:99 3:163 
-0.0137098873950548 2:99 3:163 
-0.06234941022986307 1:95 2:108 3:149 
-0.06016558838375041 2:108 3:149 
-5 3:149 
-5 3:155 
-5 3:152 
-5 3:155 
-0.1509226965349999 1:96 2:105 3:156 
-5 3:156 
-5 3:154 
-5 3:155 
-5 3:154 
-5 3:152 
-5 3:147 
-5 3:152 
-5 3:153 
-5 3:152 
-5 3:149 
-0.12652012659923 1:95 2:119 3:139 
-0.1391069469344317 2:119 3:139 
-0.6110573350465356 1:96 2:102 3:150 
-1.027524157449641 2:102 3:150 
-0.1763744772627675 1:97 2:103 3:144 
-0.1808566569344827 2:103 3:144 
-0.1480566415654946 1:96 2:101 3:142 
-0.2345853531078219 1:97 2:91 3:146 
-5 2:91 3:146 
-0.5001743307207054 3:146 
-0.2905308154541697 1:97 2:79 3:148 
-2.580588274794048 2:79 3:148 
-5 3:146 
-5 3:157 
-5 3:152 
-5 3:153 
-5 3:155 
-5 3:154 
-5 3:156 
-5 3:157 
-5 3:158 
-5 3:156 
-5 3:149 
-5 3:147 
-5 3:149 
-5 3:154 
-5 3:155 
-5 3:155 
-0.1037258147249311 1:95 2:105 3:158 
-0.1316634828362151 2:105 3:158 
-5 3:158 
-5 3:155 
-5 3:151 
-5 3:154 
-5 3:154 
-5 3:153 
-5 3:152 
-5 3:153 
-5 3:151 
-5 3:149 
-5 3:145 
-5 3:145 
-0.08634340925134032 3:143 
-0.1699976168585213 1:96 2:117 3:144 
-5 3:143 
-5 3:146 
-0.3691917177860059 1:97 2:92 3:144 
-5 2:92 3:144 
-0.2540996886925501 1:97 2:80 3:147 
-1.162744939317344 2:80 3:147 
-5 3:147 
-5 3:146 
-5 3:156 
-5 3:151 
-5 3:153 
-5 3:155 
-5 3:155 
-5 3:158 
-0.08099049298848204 1:94 2:104 3:157 
-5 3:157 
-0.1513653167957363 1:94 2:105 3:156 
-0.1034186601402681 2:105 3:156 
-5 3:156 
-0.07925508357641531 1:94 2:107 3:152 
-5 3:152 
-0.12443131887806 1:94 2:106 3:154 
-5 3:154 
-5 3:153 
-5 3:153 
-5 3:158 
-5 3:153 
-5 3:153 
-5 3:156 
-5 3:153 
-5 3:151 
-5 3:153 
-5 3:152 
-5 3:153 
-5 3:149 
-5 3:146 
-5 3:149 
-5 3:147 
-5 3:146 
-0.09163304970136821 1:96 2:118 3:147 
-0.07750010013728775 2:118 3:147 
-5 3:147 
-0.1792673722662002 1:96 2:123 3:141 
-0.1762032499442138 2:123 3:141 
-5 3:143 
-5 3:143 
-0.1438694085639611 1:97 2:104 3:142 
-0.1128794068865726 2:104 3:142 
-0.3958065608020525 1:97 2:93 3:142 
-5 2:93 3:142 
-0.3193675969810541 1:97 2:81 3:145 
-1.312224383944607 2:81 3:145 
-5 3:145 
-0.07942010625670909 1:94 2:105 3:160 
-0.0597957571568859 2:105 3:160 
-5 3:152 
-5 3:145 
-5 3:153 
-5 3:155 
-5 3:157 
-0.1668948881839591 1:94 2:108 3:156 
-5 3:156 
-5 3:154 
-5 3:152 
-5 3:153 
-5 3:153 
-5 3:151 
-5 3:151 
-5 3:153 
-5 3:154 
-5 3:154 
-5 3:154 
-5 3:153 
-5 3:153 
-5 3:151 
-5 3:147 
-5 3:156 
-5 3:147 
-5 3:149 
-5 3:152 
-5 3:146 
-0.07431846252909002 1:96 2:116 3:149 
-0.06792517288339933 2:116 3:149 
-5 3:149 
-0.1628817795510101 1:95 2:124 3:144 
-0.1528775659288577 2:124 3:144 
-0.1914105466254619 1:97 2:115 3:140 
-0.1547156681069794 1:97 2:101 3:147 
-0.1115133569096243 2:101 3:147 
-5 3:147 
-0.1806762232599046 1:97 2:99 3:139 
-0.8673326586296524 2:99 3:139 
-0.616626448023615 1:96 2:88 3:139 
-1.544790945301952 2:88 3:139 
-5 3:143 
-5 3:147 
-5 3:155 
-0.158030160550424 1:94 2:117 3:144 
-0.1079962271571233 2:117 3:144 
-5 3:152 
-5 3:154 
-5 3:154 
-5 3:154 
-5 3:154 
-5 3:152 
-5 3:152 
-5 3:153 
-5 3:149 
-5 3:152 
-0.1689376490874991 1:94 2:104 3:162 
-0.08622916009681247 2:104 3:162 
-5 3:154 
-5 3:147 
-5 3:151 
-5 3:152 
-5 3:146 
-5 3:151 
-5 3:147 
-5 3:154 
-0.2292707362520141 1:96 2:113 3:153 
-0.1998626554437287 2:113 3:153 
-5 3:153 
-0.1617669301408186 1:95 2:123 3:145 
-0.151073697161365 2:123 3:145 
-5 3:145 
-0.1946036309072101 1:96 2:125 3:139 
-0.1949140318641714 2:125 3:139 
-0.2224638249291842 1:96 2:121 3:139 
-0.1959907565141434 2:121 3:139 
-5 3:146 
-0.2157312011502193 1:96 2:89 3:138 
-0.7669887509289125 2:89 3:138 
-0.09800809019369688 1:93 2:109 3:145 
-5 3:145 
-5 3:151 
-5 3:155 
-1.585807459316267 3:148 
-5 3:147 
-0.1742362813070926 2:109 3:155 
-5 3:155 
-0.1328678792191329 1:94 2:109 3:154 
-5 3:154 
-5 3:151 
-0.1369240174887333 1:94 2:113 3:149 
-5 3:149 
-5 3:146 
-4.276868432522464 3:150 
-5 3:148 
-5 3:148 
-5 3:152 
-5 3:150 
-5 3:150 
-0.07798841069238349 1:94 2:107 3:157 
-0.1216578566818645 2:107 3:157 
-5 3:157 
-5 3:151 
-5 3:153 
-0.09503903755597992 2:108 3:153 
-5 3:153 
-5 3:151 
-5 3:148 
-5 3:147 
-5 3:148 
-5 3:150 
-5 3:147 
-5 3:148 
-5 3:147 
-5 3:148 
-5 3:155 
-5 3:146 
-5 3:147 
-5 3:149 
-0.1195635196583734 1:96 2:117 3:148 
-0.165264616354281 2:117 3:148 
-5 3:148 
-0.05676040737227645 1:96 2:120 3:144 
-0.09581057852089912 2:120 3:144 
-5 3:143 
-5 1:95 2:92 3:139 
-5 2:92 3:139 
-0.1772630858396936 1:93 2:105 3:150 
-5 3:150 
-5 3:150 
-5 3:152 
-5 3:145 
-0.1780841994420223 1:94 2:115 3:146 
-5 3:146 
-5 3:151 
-5 3:147 
-5 3:143 
-5 3:143 
-0.1547816431981845 1:94 2:111 3:152 
-0.1398016541740041 2:111 3:152 
-5 3:152 
-5 3:148 
-0.1556116834857644 1:94 2:119 3:142 
-5 3:148 
-5 3:151 
-5 3:147 
-0.07459657328247837 1:94 2:114 3:147 
-5 3:147 
-5 3:151 
-5 3:150 
-5 3:149 
-5 3:147 
-5 3:145 
-0.6023277113582419 3:144 
-5 3:145 
-5 3:149 
-5 3:150 
-5 3:149 
-5 3:152 
-5 3:147 
-5 3:147 
-5 3:145 
-0.162849592200968 1:96 2:121 3:143 
-0.1337119791144548 2:121 3:143 
-5 3:143 
-0.1594615321936511 2:115 3:146 
-5 3:146 
-0.1330763933394512 1:96 2:114 3:148 
-0.1132736305957595 2:114 3:148 
-5 3:148 
-0.1380522387681638 1:96 2:114 3:146 
-5 3:146 
-0.08357767286331752 1:96 2:117 3:142 
-0.06346102743464005 2:117 3:142 
-0.1683189947351651 1:97 2:97 3:142 
-5 2:97 3:142 
-0.2409185456329861 1:93 2:104 3:152 
-0.2843324480177407 2:104 3:152 
-5 3:152 
-5 3:153 
-5 3:155 
-5 3:151 
-5 3:153 
-5 3:155 
-5 3:151 
-5 3:150 
-5 3:151 
-5 3:150 
-0.1830162640215128 1:95 2:108 3:158 
-0.1085933323655857 2:108 3:158 
-5 3:158 
-5 3:151 
-0.1220255979213946 1:95 2:121 3:141 
-0.1086192270546827 2:121 3:141 
-0.1789814729656549 2:118 3:145 
-5 3:145 
-5 3:148 
-5 3:147 
-5 3:150 
-5 3:154 
-5 3:154 
-5 3:152 
-5 3:148 
-5 3:146 
-5 3:145 
-5 3:146 
-5 3:145 
-5 3:144 
-5 3:151 
-5 3:150 
-0.0617782854112533 1:96 2:106 3:154 
-0.1691947326766057 2:106 3:154 
-5 3:154 
-5 3:150 
-5 3:148 
-5 3:146 
-5 3:145 
-5 3:143 
-5 3:144 
-0.1135229644268043 1:96 2:115 3:144 
-5 3:144 
-5 3:143 
-0.07618181465873225 1:97 2:113 3:142 
-5 3:142 
-5 3:142 
-0.1492423052792895 2:101 3:141 
-0.2192738433692063 1:93 2:108 3:147 
-5 3:147 
-5 3:150 
-5 3:152 
-5 3:149 
-5 3:150 
-5 3:150 
-5 3:146 
-5 3:148 
-5 3:149 
-5 3:151 
-0.126300553344939 1:95 2:110 3:155 
-5 3:155 
-5 3:152 
-5 3:148 
-5 3:146 
-5 3:142 
-0.1460140556189341 1:95 2:119 3:144 
-5 3:144 
-0.09096123684293772 1:95 2:111 3:154 
-0.146740766477803 2:111 3:154 
-5 3:154 
-5 3:149 
-5 3:151 
-5 3:150 
-0.1036644610364536 2:115 3:144 
-5 3:144 
-5 3:146 
-5 3:150 
-5 3:148 
-5 3:150 
-5 3:148 
-5 3:155 
-5 3:149 
-5 3:144 
-5 3:142 
-5 3:143 
-0.05988541461723124 1:96 2:119 3:142 
-5 3:142 
-0.1199389850147584 1:96 2:118 3:141 
-0.1585203328864793 2:118 3:141 
-0.1298861076918756 1:97 2:112 3:144 
-5 3:144 
-0.06994099006852461 1:97 2:111 3:145 
-5 3:145 
-5 3:143 
-5 3:144 
-5 3:152 
-5 3:153 
-5 3:150 
-5 3:151 
-5 3:150 
-5 3:148 
-5 3:150 
-5 3:149 
-5 3:148 
-5 3:149 
-0.1632388246796461 1:95 2:113 3:151 
-0.0646665307946806 2:113 3:151 
-5 3:151 
-5 3:152 
-5 3:149 
-5 3:142 
-0.1261480139906238 2:119 3:143 
-5 3:143 
-5 3:153 
-0.07160187499475818 1:95 2:107 3:155 
-0.07154248824892451 2:107 3:155 
-5 3:155 
-5 3:151 
-5 3:146 
-5 3:143 
-5 3:146 
-5 3:151 
-5 3:151 
-5 3:148 
-5 3:149 
-5 3:148 
-5 3:146 
-5 3:150 
-5 3:148 
-5 3:144 
-5 3:143 
-5 3:144 
-5 3:146 
-5 3:142 
-0.2462243347071124 3:141 
-5 3:151 
-5 3:149 
-0.09235854239056682 1:94 2:112 3:150 
-0.1464513293015073 2:112 3:150 
-5 3:150 
-5 3:148 
-5 3:149 
-5 3:150 
-0.1110671582292195 1:95 2:115 3:149 
-0.1049176285939022 2:115 3:149 
-5 3:149 
-0.108568430203107 2:114 3:150 
-5 3:150 
-5 3:148 
-5 3:150 
-5 3:148 
-0.05108076984669657 2:113 3:147 
-5 3:147 
-5 3:148 
-5 3:148 
-0.1401725470782569 1:95 2:117 3:146 
-5 3:146 
-5 3:148 
-5 3:151 
-0.06245247924078101 1:95 2:109 3:152 
-0.07898435065007411 2:109 3:152 
-5 3:152 
-0.08542291491561649 1:95 2:110 3:151 
-5 3:151 
-5 3:148 
-5 3:145 
-5 3:145 
-5 3:148 
-5 3:148 
-5 3:145 
-5 3:146 
-5 3:147 
-5 3:146 
-5 3:144 
-5 3:148 
-5 3:150 
-5 3:153 
-5 3:143 
-5 3:141 
-5 3:142 
-5 3:142 
-5 3:141 
-5 3:142 
-5 3:143 
-5 3:142 
-0.1315920820611297 2:103 3:141 
-5 3:141 
-5 3:146 
-0.1378788826783128 1:94 2:111 3:147 
-5 3:147 
-0.1146631994867652 1:93 2:112 3:141 
-5 3:141 
-5 3:143 
-5 3:148 
-5 3:150 
-5 3:150 
-5 3:149 
-5 3:146 
-0.1051116833065054 1:94 2:108 3:151 
-5 3:151 
-5 3:148 
-5 3:148 
-5 3:147 
-0.062905975936287 1:95 2:112 3:148 
-0.1079045562458016 2:112 3:148 
-5 3:148 
-5 3:147 
-0.1588418975956649 1:96 2:107 3:153 
-5 3:153 
-0.1347171337077984 1:96 2:108 3:151 
-5 3:151 
-5 3:146 
-5 3:144 
-5 3:144 
-5 3:143 
-5 3:141 
-5 3:143 
-5 3:147 
-5 3:146 
-5 3:142 
-5 3:146 
-5 3:146 
-5 3:147 
-5 3:146 
-0.1618400409237627 1:96 2:105 3:151 
-0.1240950658299829 2:105 3:151 
-5 3:151 
-5 3:147 
-5 3:144 
-5 3:145 
-5 3:146 
-5 3:145 
-5 3:144 
-5 3:143 
-5 3:142 
-5 3:141 
-5 3:141 
-5 3:145 
-0.1840041886629562 1:93 2:110 3:144 
-5 3:144 
-0.177339746600271 1:93 2:111 3:142 
-5 3:142 
-0.1501054931672148 1:93 2:114 3:139 
-0.09854800343950365 1:93 2:115 3:138 
-5 3:144 
-5 3:150 
-5 3:150 
-0.1047121045635778 1:95 2:109 3:147 
-5 3:147 
-5 3:144 
-5 3:146 
-5 3:146 
-5 3:145 
-5 3:149 
-5 3:148 
-5 3:147 
-0.1662873686269673 2:109 3:150 
-5 3:150 
-5 3:147 
-5 3:145 
-5 3:145 
-5 3:147 
-5 3:147 
-5 3:145 
-5 3:146 
-5 3:150 
-5 3:150 
-5 3:145 
-0.1020847015961778 3:140 
-5 3:142 
-5 3:145 
-0.09166722738867392 1:96 2:107 3:148 
-5 3:148 
-5 3:149 
-5 3:146 
-5 3:145 
-5 3:144 
-5 3:141 
-5 3:141 
-5 3:142 
-5 3:142 
-5 3:140 
-5 3:141 
-5 3:142 
-5 3:144 
-5 3:146 
-5 3:143 
-5 3:141 
-0.1464543230873656 1:94 2:110 3:149 
-5 3:149 
-0.09586580530936523 1:95 2:107 3:150 
-0.07210749818903944 2:107 3:150 
-5 3:150 
-5 3:145 
-5 3:144 
-5 3:144 
-5 3:146 
-5 3:145 
-0.1001639698770645 2:107 3:152 
-5 3:152 
-5 3:148 
-5 3:148 
-5 3:146 
-5 3:145 
-5 3:143 
-5 3:145 
-5 3:148 
-0.1673712787102979 2:110 3:148 
-5 3:148 
-5 3:146 
-5 3:145 
-0.06738839484584785 1:96 2:108 3:147 
-0.1521592160977104 2:108 3:147 
-5 3:147 
-5 3:146 
-5 3:143 
-5 3:141 
-0.1045592621864753 1:96 2:111 3:143 
-0.1695292928330422 2:111 3:143 
-5 3:143 
-5 3:142 
-5 3:142 
-5 3:145 
-5 3:144 
-5 3:141 
-5 3:140 
-0.1605768536874008 1:94 2:106 3:132 
-0.1710075021955603 2:106 3:132 
-5 3:141 
-5 3:141 
-5 3:145 
-0.1902189833478484 1:94 2:113 3:144 
-5 3:144 
-0.0788103240808149 1:94 2:118 3:138 
-0.08660320044331615 1:94 2:112 3:146 
-5 3:146 
-5 3:148 
-5 3:145 
-5 3:145 
-5 3:144 
-5 3:144 
-5 3:144 
-0.1741828484348188 1:96 2:110 3:149 
-5 3:149 
-0.1216842926625031 1:96 2:111 3:147 
-4.27844352618042 3:147 
-5 3:146 
-5 3:143 
-5 3:142 
-5 3:140 
-5 3:141 
-0.06726096284324035 1:96 2:113 3:145 
-5 3:145 
-0.1394821945222557 2:112 3:146 
-5 3:146 
-0.1589774405511324 2:113 3:144 
-5 3:144 
-5 3:142 
-5 3:142 
-5 3:146 
-5 3:142 
-5 3:140 
-0.1540354657569941 1:96 2:118 3:134 
-0.1100422025560058 2:118 3:134 
-5 3:142 
-5 3:141 
-5 3:140 
-5 3:139 
-0.1202459693746049 1:96 2:105 3:138 
-0.2129685081469949 1:94 2:101 3:137 
-0.1503945035307984 2:101 3:137 
-5 3:142 
-0.1457842620509319 1:94 2:117 3:140 
-5 3:140 
-0.1603879708181758 1:94 2:115 3:142 
-5 3:142 
-5 3:141 
-0.2068152341369657 1:94 2:120 3:136 
-0.1582133190505939 2:120 3:136 
-0.1113713279904658 1:95 2:115 3:140 
-0.05178019459636896 2:115 3:140 
-5 3:140 
-5 3:145 
-5 3:146 
-5 3:143 
-5 3:141 
-5 3:140 
-0.06520500450869771 1:96 2:115 3:142 
-0.1558773695570435 2:115 3:142 
-5 3:142 
-5 3:141 
-5 3:144 
-5 3:142 
-5 3:142 
-5 3:139 
-5 3:141 
-5 3:143 
-0.110183420402171 1:96 2:114 3:143 
-5 3:143 
-5 3:140 
-5 3:139 
-0.2146595887181631 1:96 2:109 3:145 
-0.2149087697950474 2:109 3:145 
-5 3:145 
-5 3:144 
-0.1341371567157954 2:106 3:144 
-4.560484387689089 3:144 
-5 3:140 
-0.08713882870614342 1:96 2:111 3:138 
-0.08932080095409994 2:111 3:138 
-0.05049819294926139 1:96 2:109 3:140 
-5 3:140 
-0.09373133569518655 1:96 2:110 3:139 
-0.140599508344128 2:110 3:139 
-5 3:139 
-5 3:140 
-5 3:140 
-0.07877649402170288 2:113 3:129 
-0.08119349080370014 1:94 2:106 3:130 
-0.07605744528662917 2:106 3:130 
-5 3:141 
-5 3:141 
-0.05017242779163589 1:94 2:116 3:141 
-0.07705773979214792 2:116 3:141 
-5 3:141 
-5 3:139 
-0.1947722155947602 1:95 2:120 3:134 
-0.1951990476798359 2:120 3:134 
-0.1498111986543751 1:95 2:117 3:137 
-0.1592476436354337 2:117 3:137 
-0.08815606837682032 1:95 2:113 3:142 
-0.09009394083167316 2:113 3:142 
-5 3:142 
-0.1146043204756795 1:95 2:111 3:145 
-0.09190786960236606 2:111 3:145 
-5 3:145 
-5 3:139 
-0.8709516810428226 3:138 
-0.1570675600787562 1:96 2:119 3:137 
-0.08133730878229439 2:119 3:137 
-5 3:140 
-5 3:142 
-5 3:142 
-5 3:142 
-0.12000958471902 1:96 2:112 3:141 
-0.06663084690317023 2:112 3:141 
-5 3:141 
-5 3:139 
-5 3:138 
-5 3:139 
-5 3:140 
-0.1148221315527395 1:96 2:117 3:139 
-0.08818241686000169 2:117 3:139 
-5 3:139 
-0.08997207945990576 1:96 2:115 3:138 
-5 3:138 
-0.05973377482306386 1:96 2:115 3:137 
-0.05533561872281406 2:115 3:137 
-0.0707643318011254 1:96 2:113 3:140 
-0.1651098245081958 2:113 3:140 
-5 3:140 
-5 3:146 
-0.1722068659163252 1:96 2:106 3:145 
-4.872755051197252 3:145 
-0.1553172758047933 2:105 3:146 
-5 3:146 
-5 3:142 
-0.1701734064461922 1:96 2:108 3:142 
-0.1569427296559022 2:108 3:142 
-5 3:142 
-0.1372713855779736 1:96 2:113 3:136 
-0.06872952573837804 2:113 3:136 
-5 3:140 
-0.1566123013137755 1:96 2:104 3:140 
-0.05366458227053239 2:104 3:140 
-5 3:140 
-0.08931030723953111 1:95 2:113 3:133 
-0.1572104306356695 2:113 3:133 
-0.2165566193748779 1:96 2:112 3:130 
-0.1952997230535482 2:112 3:130 
-0.09160233698208908 1:96 2:110 3:132 
-0.116954448083945 2:110 3:132 
-0.1686482100231482 1:94 2:107 3:129 
-0.1729900861212915 2:107 3:129 
-0.1978398843931958 1:95 2:103 3:129 
-0.2147451107646367 2:103 3:129 
-5 3:139 
-0.1144252378763809 2:116 3:139 
-5 3:139 
-5 3:138 
-5 3:138 
-5 3:138 
-0.09922561458819695 1:95 2:108 3:139 
-0.05872758590154287 2:108 3:139 
-5 3:139 
-5 3:140 
-0.1294953528812392 1:95 2:106 3:142 
-0.1532289569518465 2:106 3:142 
-5 3:142 
-0.1388235313670139 1:95 2:110 3:141 
-0.1434162354968654 2:110 3:141 
-4.897915298403822 3:141 
-5 3:140 
-0.1742049338767824 1:95 2:112 3:139 
-5 3:139 
-0.1063479930297037 2:113 3:138 
-5 3:138 
-0.143223837488304 1:95 2:107 3:140 
-0.1473117601119721 2:107 3:140 
-5 3:140 
-0.1089372385044259 1:95 2:105 3:143 
-5 3:143 
-0.08044730536030004 1:96 2:107 3:136 
-5 3:139 
-0.05350412541221694 1:96 2:106 3:137 
-0.2066182028374153 2:106 3:137 
-5 3:137 
-0.143390622834609 1:96 2:102 3:140 
-0.06776383795420027 2:102 3:140 
-5 3:140 
-0.086099734284587 1:96 2:106 3:135 
-0.1249024955605016 2:106 3:135 
-0.06359930360053434 2:104 3:133 
-0.171856573006309 1:94 2:104 3:135 
-0.1286054754017885 2:104 3:135 
-0.167381755006781 1:94 2:102 3:135 
-0.1607629826282072 2:102 3:135 
-0.2187226833065753 1:94 2:104 3:132 
-0.1713699708039314 2:104 3:132 
-0.1445944270774787 1:95 2:100 3:132 
-0.0864307255472212 2:100 3:132 
-0.1900459844921822 1:95 2:99 3:129 
-0.1908372075840037 2:99 3:129 
-0.1793794265070402 1:95 2:118 3:132 
-0.1766851094824541 2:118 3:132 
-0.2128925034181423 3:132 
-0.1553508848205061 1:95 2:116 3:134 
-0.1726128592035432 2:116 3:134 
-5 3:137 
-0.07984667059319406 1:95 2:115 3:135 
-0.09958603297159069 2:115 3:135 
-0.08286720527494079 1:95 2:111 3:136 
-0.172910212975411 2:111 3:136 
-5 3:137 
-0.1545979642217376 1:95 2:112 3:134 
-0.08453195334003649 2:112 3:134 
-0.1455238261674198 1:95 2:114 3:132 
-0.07114700539586216 2:114 3:132 
-5 3:132 
-5 3:137 
-5 3:138 
-0.1466315610373982 2:105 3:139 
-5 3:139 
-5 3:138 
-5 3:142 
-0.0800881564646275 1:95 2:109 3:138 
-0.09317555848142506 2:109 3:138 
-5 3:138 
-0.1311945126616882 1:95 2:110 3:137 
-5 3:137 
-0.06994599191736733 1:95 2:111 3:135 
-0.05310057395848478 2:111 3:135 
-0.1020151271514708 1:95 2:115 3:131 
-0.1891772363850364 2:115 3:131 
-0.1834593556116016 1:95 2:117 3:129 
-0.1825834522228645 2:117 3:129 
-0.06289970226363451 1:95 2:116 3:130 
-0.07164329481383196 2:116 3:130 
-0.06337864723553854 3:130 
-0.1541217120467068 1:96 2:109 3:133 
-0.1454977699355719 2:109 3:133 
-5 3:133 
-0.139631696800448 1:96 2:108 3:135 
-0.1637394572184376 2:108 3:135 
-5 3:135 
-0.2196407665609517 1:96 2:112 3:128 
-0.1570520186139533 2:112 3:128 
-0.1586845398978443 1:96 2:105 3:136 
-0.1423017671365655 3:136 
-0.2071453199511394 1:96 2:103 3:138 
-0.1652003740466262 2:103 3:138 
-5 3:138 
-0.08626112243611506 1:97 2:100 3:138 
-5 3:138 
-1.029388941071844 1:95 2:96 3:138 
-1.791071498799449 2:96 3:138 
-4.29875963358001 3:138 
-0.2973911830334906 1:95 2:97 3:137 
-0.6315016328052111 2:97 3:137 
-5 3:137 
-0.1537554892042352 1:95 2:101 3:131 
-0.15621891528473 2:101 3:131 
-0.1904478811797807 1:95 2:98 3:136 
-0.1432657659993581 2:98 3:136 
-5 3:136 
-0.1681913456656442 1:95 2:99 3:134 
-0.1814804561566181 2:99 3:134 
-0.4289658145252613 3:134 
-0.1317359877491651 1:95 2:96 3:133 
-0.07492253969697532 2:96 3:133 
-5 3:133 
-0.6451075197631682 1:95 2:95 3:134 
-1.200894615991029 2:95 3:134 
-4.724344204397122 3:134 
-0.3472334041905663 1:95 2:90 3:133 
-1.22730422640264 2:90 3:133 
-5 3:133 
-5 1:94 2:88 3:157 
-2.492247664118329 2:88 3:157 
-5 3:157 
-5 3:158 
-5 3:159 
-5 3:158 
-0.05722570104054586 1:94 2:78 3:166 
-0.09161031670784081 2:78 3:166 
-0.1086585880536151 1:94 2:78 3:167 
-0.1103673651559813 1:94 2:77 3:170 
-0.1222707699140131 2:77 3:170 
-0.1946869782757424 1:94 2:74 3:168 
-0.1880187002472563 2:74 3:168 
-0.1748547507431467 2:76 3:165 
-5 3:157 
-1.06140112520705 1:94 2:80 3:157 
-1.139304857879757 2:80 3:157 
-5 3:157 
-5 3:155 
-5 3:159 
-0.1060878221016823 1:95 2:80 3:159 
-5 3:159 
-0.1011767566275709 2:79 3:162 
-0.199546646593889 1:95 2:74 3:172 
-0.2057146934287094 2:74 3:172 
-0.0968811462770319 2:74 3:163 
-0.1459776301108864 1:95 2:76 3:168 
-0.08526914500448189 2:78 3:164 
-0.1617555305290392 2:76 3:167 
-0.1532757021723397 1:95 2:74 3:162 
-0.05221024568887261 2:74 3:162 
-0.1810102247287571 1:95 2:72 3:166 
-0.1891676933915429 2:72 3:166 
-0.1149316337399113 1:95 2:77 3:172 
-0.1432409939636584 1:95 2:77 3:166 
-0.1257429059783227 1:96 2:77 3:159 
-5 3:159 
-0.1427349181582513 1:95 2:82 3:162 
-0.1185712635629118 2:82 3:162 
-0.0733072656303474 1:95 2:79 3:161 
-0.1187020174737725 1:96 2:77 3:158 
-0.1638277871540508 2:77 3:158 
-5 3:158 
-0.2016118330084773 1:97 2:74 3:158 
-0.1171129985850394 2:74 3:158 
-5 3:158 
-0.06075676485233678 1:96 2:87 3:164 
-0.1943543961200027 1:97 2:73 3:160 
-0.1862742749179499 2:73 3:160 
-0.04220110724792306 1:96 2:87 3:165 
-0.06722755400278611 2:87 3:165 
-0.1693626571765182 1:97 2:83 3:165 
-0.2326362866575043 1:97 2:72 3:163 
-0.1131123602112068 2:72 3:163 
-0.2092244097692763 1:95 2:70 3:163 
-0.1067237796267908 2:70 3:163 
-0.1373928362968021 1:96 2:80 3:178 
-0.05813984337489503 2:80 3:178 
-5 1:96 2:90 3:161 
-5 2:90 3:161 
-0.1310757886165667 1:95 2:73 3:164 
-0.08700598406750429 2:73 3:164 
-5 1:95 2:91 3:165 
-0.1533215329151734 2:82 3:174 
-0.1475760212223844 1:96 2:84 3:170 
-0.1267927165577859 1:96 2:85 3:172 
-2.001751331803328 1:96 2:90 3:162 
-0.1262209612129215 1:96 2:85 3:168 
-0.1716103550100229 1:96 2:75 3:164 
-0.05781427484603247 2:75 3:164 
-0.060107139063663 1:96 2:83 3:172 
-0.09226550398585531 2:83 3:172 
-0.1474030080961176 1:96 2:81 3:177 
-0.1192424990492512 2:81 3:177 
-0.152473306465023 1:96 2:82 3:175 
-0.09423387569461869 1:96 2:83 3:173 
-0.07176155925137201 1:96 2:76 3:162 
-1.05467129509975 1:95 2:90 3:167 
-0.089718362593255 2:84 3:169 
-0.1452668905474392 1:96 2:76 3:161 
-0.1339332728505187 2:76 3:161 
-0.1354200129026345 1:96 2:87 3:168 
-0.1088392932153801 1:96 2:86 3:170 
-0.1316725260171682 1:96 2:88 3:165 
-5 3:159 
-0.09127395572970648 1:96 2:84 3:174 
-0.1431652912291022 1:95 2:85 3:177 
-0.0536103003324046 2:86 3:167 
-0.07811675450024158 1:97 2:85 3:162 
-0.1501657442166385 1:97 2:84 3:158 
-5 3:158 
-0.07126457592278684 1:95 2:84 3:179 
-0.105935589736687 1:96 2:83 3:176 
-0.1513268728816899 1:95 2:89 3:170 
-0.08958492316101836 1:95 2:86 3:174 
-5 1:96 2:91 3:160 
-5 2:91 3:160 
-5 1:96 2:89 3:164 
-0.08569363456139068 1:96 2:86 3:166 
-0.1776599419612517 1:97 2:82 3:167 
-0.1658455493929554 1:97 2:83 3:160 
-5 3:160 
-5 3:159 
-1.752153608902798 1:94 2:88 3:159 
-1.643361166564021 2:88 3:159 
-5 3:159 
-0.159282077280028 1:97 2:84 3:163 
-0.3740017181177695 3:163 
-0.1701317576728891 1:97 2:81 3:163 
-5 3:163 
-0.1642122309849117 1:95 2:89 3:175 
-5 3:163 
-5 3:163 
-5 3:160 
-0.1792865648868032 1:97 2:86 3:160 
-5 3:160 
-5 3:158 
-0.07969611304039731 1:95 2:91 3:171 
-0.07593440494795639 1:95 2:87 3:179 
-0.07564116589576186 2:87 3:179 
-0.09892549891312025 1:95 2:88 3:176 
-1.384330731222247 1:94 2:88 3:160 
-5 3:160 
-5 1:94 2:88 3:157 
-5 2:88 3:157 
-5 3:157 
-2.598145634244234 1:95 2:84 3:158 
-2.899814231552046 2:84 3:158 
-5 3:158 
-1.159358126711154 1:95 2:82 3:155 
-2.335481517125615 2:82 3:155 
-5 3:155 
-0.1154668479852641 1:95 2:87 3:172 
-0.4240900709228326 1:95 2:93 3:167 
-0.1501027105888272 2:93 3:167 
-0.1176140870581605 2:93 3:168 
-0.161116902381839 1:95 2:92 3:170 
-0.1531997771722925 1:95 2:90 3:173 
-0.1676730821174473 1:95 2:87 3:178 
-0.166853186806966 2:87 3:178 
-0.189969351603473 1:95 2:86 3:181 
-0.1891491886231033 2:86 3:181 
-0.2464878320189362 3:181 
-5 1:94 2:88 3:160 
-5 2:88 3:160 
-5 3:160 
-5 1:94 2:89 3:154 
-5 2:89 3:154 
-5 3:154 
-4.420749374053315 1:95 2:84 3:158 
-4.118912100536607 2:84 3:158 
-5 3:158 
-0.83024432723849 1:95 2:77 3:155 
-0.8312823169877017 2:77 3:155 
-5 3:155 
-5 3:160 
-5 1:94 2:84 3:155 
-5 2:84 3:155 
-5 3:155 
-0.06867537508870414 1:95 2:76 3:157 
-0.06307712703989304 2:76 3:157 
-5 3:157 
-0.1706716557761882 1:94 2:84 3:179 
-0.1701535170239603 2:84 3:179 
-5 3:163 
-5 3:159 
-5 3:155 
-0.1475384992020273 1:94 2:82 3:178 
-0.1344107055948579 2:82 3:178 
-1.599751006018308 1:94 2:91 3:166 
-4.56526087070953 2:91 3:166 
-5 1:94 2:86 3:163 
-5 2:86 3:163 
-5 3:163 
-0.1959477675007471 1:93 2:74 3:155 
-0.2427638525908942 2:74 3:155 
-5 3:155 
-0.1786341132342417 1:93 2:88 3:177 
-0.05354845042037365 1:93 2:89 3:175 
-5 3:162 
-5 3:159 
-0.2421395203253642 1:93 2:73 3:158 
-0.1192786469991488 2:73 3:158 
-5 3:158 
-0.1390968559636262 2:88 3:176 
-0.1240627775116669 1:93 2:91 3:171 
-0.1730932615901769 2:91 3:171 
-0.07556351167988679 1:94 2:89 3:169 
-0.1475318779823753 2:89 3:169 
-1.551949024328639 3:161 
-5 3:161 
-0.2303416737433701 1:93 2:71 3:162 
-0.1233655443869031 2:71 3:162 
-5 3:162 
-0.1707455011613535 1:93 2:89 3:174 
-0.1721455813217702 2:89 3:174 
-0.1033722952254559 2:90 3:173 
-0.1285694895393525 1:93 2:90 3:172 
-0.06514548225493078 2:92 3:170 
-0.2048876080910902 1:93 2:92 3:169 
-0.09907932203833353 2:92 3:169 
-0.1201020963333481 2:85 3:177 
-5 3:163 
-0.09959113275788956 1:94 2:79 3:164 
-0.1019057590201386 2:79 3:164 
-0.08611729022822517 2:77 3:163 
-5 3:163 
-1.119398899487307 2:91 3:165 
-5 3:163 
-0.1315561818924245 1:94 2:80 3:162 
-0.1070005146029489 2:80 3:162 
-5 3:162 
-5 3:161 
-0.2372939679669764 2:90 3:167 
-0.06084416031429746 1:94 2:85 3:176 
-0.08939917112195323 1:94 2:87 3:173 
-0.1094596055947973 2:87 3:173 
-0.1425022592600345 1:94 2:86 3:175 
-0.1529404951473999 2:86 3:175 
-0.08761725009461968 1:94 2:88 3:171 
-0.167413686132168 2:88 3:171 
-0.7599775772403528 1:94 2:91 3:165 
-5 2:91 3:165 
-0.2533280234490883 1:94 2:90 3:162 
-2.127792435293049 2:90 3:162 
-5 3:162 
-5 3:163 
-5 3:161 
-5 3:158 
-0.1072352368674591 1:94 2:77 3:162 
-0.06293407503229026 2:77 3:162 
-5 3:162 
-0.05161814989505337 1:94 2:84 3:174 
-0.1042584219514601 2:84 3:174 
-0.1624628986410067 2:85 3:172 
-5 3:163 
-2.402797393700369 1:94 2:87 3:159 
-1.969549607191424 2:87 3:159 
-5 3:159 
-5 3:159 
-0.1821363110272982 1:94 2:76 3:164 
-0.1488377619109315 1:94 2:84 3:173 
-0.1565395285703625 1:94 2:83 3:176 
-0.1760829924089502 2:83 3:176 
-0.1387587470205734 1:94 2:85 3:171 
-0.05839632740925305 2:85 3:171 
-0.1733482193319492 1:94 2:88 3:165 
-0.1728287255642414 2:88 3:165 
-0.1480852702925123 1:94 2:86 3:169 
-0.1770510258132703 2:86 3:169 
-4.946335417729467 2:89 3:164 
-0.1325817007505942 1:94 2:87 3:167 
-0.1492643145522454 2:87 3:167 
-5 1:94 2:88 3:159 
-5 2:88 3:159 
-5 3:159 
-5 3:161 
-5 3:161 
-0.08785487223599203 2:80 3:175 
-0.1451309474106353 1:94 2:84 3:166 
-0.1758196056110414 1:94 2:83 3:168 
-0.08410487390639804 2:83 3:168 
-0.1935967342625405 1:94 2:87 3:162 
-0.2022594967912544 2:87 3:162 
-5 3:162 
-5 1:94 2:88 3:160 
-5 2:88 3:160 
-5 3:160 
-5 3:159 
-1.001968285999558 1:94 2:83 3:157 
-1.902477329403522 2:83 3:157 
-5 3:157 
-0.06403719946040959 1:94 2:80 3:176 
-0.1777793263664617 1:94 2:79 3:177 
-0.1581552090175664 2:79 3:177 
-0.06377329163099405 1:94 2:85 3:165 
-0.1186119994046817 2:85 3:165 
-0.09524430602311801 2:84 3:167 
-5 1:94 2:85 3:165 
-5 2:85 3:165 
-0.1306748179183016 1:94 2:86 3:164 
-0.06212153339945886 2:86 3:164 
-5 1:94 2:86 3:163 
-5 2:86 3:163 
-5 3:163 
-5 1:94 2:88 3:160 
-5 2:88 3:160 
-5 3:160 
-2.47478058738158 1:94 2:88 3:160 
-4.218630360142588 2:88 3:160 
-5 3:160 
-0.0815714225453895 1:94 2:87 3:161 
-5 3:161 
-5 3:161 
-5 1:94 2:83 3:156 
-4.89402218201402 2:83 3:156 
-5 3:156 
-4.266674023923334 1:94 2:80 3:157 
-4.236701183383737 2:80 3:157 
-5 3:157 
-0.1334148236846058 1:94 2:81 3:174 
-0.05311341519709506 2:81 3:173 
-0.1396091798075378 1:94 2:84 3:163 
-0.1170950408373312 2:84 3:163 
-5 3:163 
-0.1035736648806013 1:94 2:85 3:162 
-0.1285191393544973 2:85 3:162 
-5 3:162 
-0.145663977625394 1:94 2:81 3:160 
-0.1833547099754426 2:81 3:160 
-5 3:160 
-5 3:160 
-0.07460120452734076 1:94 2:83 3:170 
-0.1339596834572808 2:83 3:170 
-0.1609212836968681 1:94 2:82 3:171 
-0.1553784865706852 1:94 2:79 3:174 
-0.1712646171619137 2:79 3:174 
-0.07126236183881153 1:95 2:79 3:168 
-0.1527383932240499 2:79 3:168 
-0.1764415171621059 3:164 
-0.0868865901542266 1:94 2:82 3:167 
-0.07705113212500453 2:82 3:167 
-0.07352502004515171 1:94 2:83 3:165 
-0.1411709468917198 2:83 3:165 
-5 3:158 
-0.1613903417144284 1:94 2:78 3:160 
-0.1711020201396857 2:78 3:160 
-5 3:160 
-0.1601041665564237 1:94 2:81 3:169 
-0.116517890059255 2:81 3:169 
-0.11995619649843 2:81 3:171 
-0.1480081129027512 1:94 2:80 3:172 
-0.1316276114496048 2:80 3:172 
-0.2357957224803303 1:95 2:76 3:175 
-0.2364919649455798 2:76 3:175 
-0.06134704182241096 1:95 2:78 3:171 
-0.105908431188715 2:78 3:171 
-0.1584354538421147 1:95 2:75 3:170 
-0.15261600999495 2:75 3:170 
-0.1223904387157231 1:95 2:78 3:169 
-0.06842514520488005 2:78 3:169 
-0.1264082146334377 1:95 2:77 3:173 
-0.1694293376286952 2:77 3:173 
-0.1612935912671601 1:95 2:80 3:166 
-0.1480068686737671 2:80 3:166 
-5 3:163 
-5 3:164 
-5 3:164 
-0.1552819887962529 1:95 2:81 3:164 
-0.1505076756121231 2:81 3:164 
-4.883108562498086 3:164 
-0.1251138810727366 1:95 2:78 3:163 
-5 3:163 
-0.05726876229040118 1:94 2:79 3:159 
-0.06766536541845586 2:79 3:159 
-5 3:159 
-0.1335052966153315 1:95 2:75 3:160 
-0.1200396239930174 2:75 3:160 
-2.3582003827936 3:160 
-0.07701760279427516 1:94 2:111 3:173 
-0.1049568083935496 1:94 2:113 3:170 
-0.1786764990180144 1:95 2:122 3:165 
-0.1907466843455622 2:122 3:165 
-0.1291894264706119 1:95 2:117 3:168 
-0.08084327083289722 2:117 3:168 
-0.203573986211463 1:96 2:116 3:176 
-0.08686348676305963 2:116 3:176 
-0.1857506112092887 1:95 2:114 3:177 
-0.07082623816616984 1:95 2:121 3:167 
-0.1127556935359579 2:121 3:167 
-0.1399632054951036 1:95 2:105 3:177 
-0.08130522495129533 2:105 3:177 
-0.08050365951904577 1:95 2:106 3:176 
-0.09492667117913473 2:106 3:176 
-0.05428734557001264 1:95 2:108 3:172 
-0.1539056025265175 2:108 3:172 
-0.1479366612507282 1:95 2:108 3:173 
-0.207573011522234 1:94 2:116 3:165 
-0.1082450096184621 1:94 2:115 3:167 
-0.1713925524705448 1:94 2:110 3:174 
-0.1348695568883562 1:94 2:112 3:171 
-0.1299459315123637 1:94 2:114 3:168 
-0.109637997244101 1:95 2:111 3:177 
-0.08098496379722114 2:111 3:177 
-0.1590403590287914 1:94 2:109 3:176 
-0.1861963651777358 1:95 2:110 3:179 
-0.1926347332905604 2:110 3:179 
-0.08642630484461335 1:95 2:114 3:172 
-0.139347137119818 2:116 3:169 
-0.1012995540586512 1:95 2:117 3:172 
-0.1101563019091618 2:117 3:172 
-0.1011774083865716 1:96 2:115 3:167 
-0.1335730849514607 2:115 3:167 
-0.127078600677946 2:119 3:170 
-0.07407405371166692 1:95 2:113 3:178 
-0.1570208357148219 2:113 3:178 
-0.08201956554818085 1:95 2:115 3:175 
-0.1323020942849044 2:115 3:175 
-0.0920013114591044 1:95 2:112 3:175 
-0.1641665345531116 2:112 3:176 
-0.1044516613115369 2:108 3:174 
-0.1012104573112699 1:95 2:119 3:169 
-0.08946588404071909 1:95 2:120 3:168 
-0.05848503543946032 2:120 3:168 
-0.1532853664922797 2:117 3:174 
-0.1130477256253242 1:95 2:116 3:174 
-0.1585454825462175 1:95 2:113 3:174 
-0.1659334684161157 2:113 3:174 
-0.06603859756823088 1:96 2:110 3:174 
-0.1347503890150675 2:110 3:174 
-0.1238816014603607 1:96 2:111 3:173 
-0.07341045861515411 2:111 3:173 
-0.1479516040225087 1:96 2:107 3:176 
-0.06830819213218636 2:107 3:176 
-0.1552888917912738 1:96 2:122 3:167 
-0.07389642051192097 2:122 3:167 
-0.1434912459411542 2:115 3:177 
-0.1275450549008004 1:96 2:112 3:177 
-0.05527226659515616 3:177 
-0.1439423343369881 1:96 2:115 3:173 
-0.1169318364256995 2:115 3:173 
-0.1138187640990084 1:96 2:116 3:165 
-0.09361907236084543 2:116 3:165 
-5 3:165 
-0.08581218112615502 1:96 2:111 3:170 
-0.05182108919408862 2:111 3:170 
-0.1536336432033918 1:96 2:121 3:169 
-0.1315910321829516 2:121 3:169 
-0.1913677798613054 2:119 3:172 
-0.2015176439413198 1:96 2:118 3:173 
-0.1807577756058532 1:96 2:119 3:171 
-0.0512205771216428 1:95 2:115 3:171 
-0.1479417027652865 2:115 3:171 
-0.1386129525263908 1:95 2:116 3:170 
-0.1204831558407064 2:113 3:169 
-0.2099460305854819 1:95 2:110 3:167 
-0.07734841930452918 1:96 2:110 3:171 
-0.1165965931073724 2:110 3:171 
-0.1434966095226778 1:96 2:113 3:167 
-0.1429798909632717 2:113 3:167 
-0.07790581754166304 1:96 2:118 3:169 
-0.1096580107354143 2:118 3:169 
-0.05238119143772843 1:96 2:117 3:170 
-0.05509048958677509 2:117 3:170 
-0.08354599000047647 1:96 2:116 3:171 
-0.09831778912000555 1:96 2:113 3:172 
-0.08769449320229078 2:113 3:172 
-0.1978412123252913 1:94 2:112 3:162 
-0.2000440249891445 2:112 3:162 
-4.381729110042004 3:162 
-0.135657982916558 1:96 2:106 3:174 
-0.1205767948066133 2:106 3:174 
-0.1028957088730519 1:96 2:104 3:176 
-0.1065127014153856 2:104 3:176 
-0.1710709571831545 1:96 2:103 3:178 
-0.1983103853675375 2:103 3:178 
-0.1419603269466824 1:96 2:107 3:171 
-0.06135939470632446 2:107 3:171 
-0.125220362925199 1:96 2:117 3:166 
-0.1464800389403056 2:117 3:166 
-0.1299889659934552 1:96 2:109 3:176 
-0.1606860969245118 2:109 3:176 
-0.1629417928568238 2:112 3:171 
-0.1374379502780294 1:96 2:113 3:170 
-0.08325051598056533 1:96 2:112 3:168 
-0.187556653859121 1:96 2:111 3:165 
-0.1913133340032275 2:111 3:165 
-5 3:165 
-0.1333987285947815 1:95 2:106 3:161 
-0.1896441148161916 2:106 3:161 
-5 3:161 
-0.1140357488481534 2:102 3:173 
-0.1794832558343013 1:97 2:101 3:174 
-0.1789934924724898 1:97 2:104 3:174 
-0.1605087146726428 2:104 3:174 
-0.1439763888373444 1:97 2:107 3:169 
-0.13471991238343 1:97 2:110 3:169 
-0.1608228315711604 1:97 2:108 3:173 
-0.08147324604655021 1:97 2:111 3:168 
-0.1770128775806186 2:111 3:168 
-0.1389499293920453 1:97 2:109 3:171 
-0.07819409030205182 2:110 3:167 
-0.07019573244096355 1:96 2:109 3:169 
-0.1527917344341279 2:109 3:169 
-0.2270079100012943 1:96 2:104 3:166 
-0.2122426692965383 2:104 3:166 
-0.6108212467202439 3:166 
-0.1008334641532302 1:96 2:105 3:161 
-5 3:161 
-0.1364335625474169 1:95 2:104 3:159 
-0.09294737008071423 2:104 3:159 
-5 3:159 
-0.12470791866351 1:97 2:101 3:169 
-0.1537079498784841 2:101 3:169 
-0.06496214702152142 1:97 2:102 3:172 
-0.2220133895126553 1:97 2:99 3:175 
-0.09976584731056953 2:99 3:175 
-0.1376375885761793 1:97 2:101 3:171 
-0.1610449092889563 2:101 3:171 
-0.1439623010956589 2:107 3:170 
-0.08557971940605214 1:97 2:105 3:173 
-0.07970154193957807 2:105 3:173 
-0.1005034060252108 1:97 2:108 3:168 
-0.06124944397142129 2:108 3:168 
-0.1365073429409783 1:96 2:106 3:168 
-0.1705756379794088 2:106 3:168 
-0.1761832969065847 1:96 2:104 3:171 
-0.1923447377998587 2:104 3:171 
-0.2412195269612035 1:96 2:91 3:184 
-0.2414407546899544 2:91 3:184 
-0.2396310643963731 3:184 
-0.2158648022982364 1:96 2:103 3:161 
-0.1531396820592996 2:103 3:161 
-5 3:161 
-0.07424319633033161 1:96 2:106 3:149 
-0.1211182658894108 2:106 3:149 
-2.405143455725739 3:149 
-0.2016254847380302 1:97 2:99 3:167 
-0.1994512633533666 2:99 3:167 
-0.06534212627110797 3:167 
-0.06177796345188874 2:102 3:170 
-0.09795862812947997 3:170 
-0.1344824510859299 2:100 3:174 
-0.0965901934567354 3:174 
-0.105381073285129 1:97 2:103 3:169 
-0.1480288089023862 3:169 
-0.1226937970609355 1:97 2:103 3:168 
-0.2113053155607977 2:103 3:168 
-0.1773440085265323 1:96 2:108 3:166 
-0.1831706048730192 2:108 3:166 
-4.563467036159183 3:166 
-0.2346414984762776 1:96 2:100 3:178 
-0.1908836819808969 2:100 3:178 
-0.1888060152165697 3:178 
-0.1010523756823381 1:96 2:102 3:175 
-0.119222988219554 2:102 3:175 
-0.1203123224690897 1:96 2:101 3:176 
-0.089489522148403 2:101 3:176 
-0.1483762541958364 1:96 2:101 3:172 
-0.1899102460211929 1:96 2:96 3:175 
-0.2401719520159689 2:96 3:175 
-0.1495243538358101 3:175 
-0.1962268236397265 1:95 2:96 3:172 
-0.1991463227201788 2:96 3:172 
-0.1789599295809392 3:172 
-0.8546986087406544 1:96 2:103 3:154 
-1.394446813766342 2:103 3:154 
-5 3:154 
-0.139240005413989 1:95 2:114 3:137 
-0.1323031012822336 2:114 3:137 
-5 3:137 
-0.1049889571390174 1:92 2:134 3:99 
-0.1561294320850409 1:92 2:135 3:98 
-0.1921583143089476 1:92 2:143 3:93 
-0.190144793340246 1:92 2:149 3:89 
-0.2287801924663248 2:149 3:89 
-0.2423327236294877 1:92 2:156 3:88 
-0.2351589081626757 2:156 3:88 
-0.1965871900338647 1:92 2:142 3:97 
-0.1764190319104817 1:92 2:148 3:93 
-0.08028878824574456 2:148 3:93 
-0.09882769734575619 1:92 2:145 3:95 
-0.1411753910776685 1:92 2:146 3:94 
-0.1544281261168446 2:146 3:94 
-0.129853399659831 1:92 2:150 3:92 
-0.1575890595188254 2:150 3:92 
-0.1489804786590634 1:92 2:151 3:91 
-0.08728552018441574 2:151 3:91 
-0.1596125683967105 1:93 2:143 3:100 
-0.1890299518521328 1:93 2:150 3:95 
-0.2406368915214238 1:93 2:155 3:92 
-0.150796482831355 2:155 3:92 
-0.2038173538762577 1:93 2:164 3:90 
-0.1198838633517855 2:164 3:90 
-0.2051229829750045 1:93 2:144 3:103 
-0.1063384026553341 1:93 2:144 3:99 
-0.1013204029102027 1:93 2:149 3:96 
-0.2226153586463103 1:93 2:147 3:97 
-0.1892889836751522 1:93 2:161 3:92 
-0.08530378784765985 2:161 3:92 
-0.1773276478751532 1:93 2:142 3:104 
-0.1777490506757198 2:142 3:104 
-0.1690634871016688 1:93 2:146 3:101 
-0.06233820413123664 2:146 3:101 
-0.09148710998636384 1:93 2:149 3:99 
-0.09141729438186325 1:93 2:156 3:95 
-0.1489561550877872 1:93 2:148 3:100 
-0.2031791517442447 1:93 2:154 3:96 
-0.2003310457386555 1:93 2:151 3:98 
-0.1885458565538667 1:93 2:172 3:89 
-0.1931637248180405 2:172 3:89 
-0.1458123962367121 1:93 2:149 3:103 
-0.250910618751922 1:93 2:143 3:107 
-0.1595186815282274 2:143 3:107 
-0.1642612577855093 1:93 2:168 3:91 
-0.1665886047922781 1:93 2:161 3:95 
-0.1526300068116507 1:93 2:166 3:92 
-0.1616751322595425 2:166 3:92 
-0.10130782531043 1:93 2:146 3:105 
-0.1464114743836125 1:93 2:147 3:104 
-0.1259208965306028 2:147 3:104 
-0.1857398859093158 1:93 2:170 3:90 
-0.07146035867748452 2:170 3:90 
-0.08260521970630924 1:93 2:165 3:93 
-0.1296574733956326 1:93 2:155 3:99 
-0.09798780820506198 1:93 2:151 3:101 
-0.1189284899353429 1:93 2:150 3:102 
-0.06414545767913356 2:150 3:102 
-0.2025297951325407 1:93 2:153 3:100 
-0.1320818275534809 1:93 2:159 3:96 
-0.1555145606365437 1:93 2:157 3:94 
-0.1630819019352227 1:93 2:163 3:94 
-0.08496222860164604 1:93 2:158 3:97 
-0.08827269240738328 1:92 2:162 3:96 
-0.2077275294588239 1:93 2:155 3:102 
-0.1286251014456447 1:93 2:157 3:101 
-0.09714805798900178 1:93 2:152 3:97 
-0.1155114552481602 1:93 2:156 3:98 
-0.1240754825496513 1:92 2:157 3:99 
-0.1135889327081309 1:92 2:160 3:97 
-0.1024441541697616 1:93 2:158 3:100 
-0.1603835801801843 1:93 2:160 3:99 
-0.2052754653501366 1:93 2:163 3:97 
-0.06453329666784557 1:93 2:161 3:98 
-0.09962264648915442 1:93 2:165 3:96 
-0.1567025756149479 1:93 2:166 3:95 
-0.1190576586013568 1:98 2:38 3:108 
-0.1950709955403723 1:98 2:34 3:111 
-0.1810447298348931 1:98 2:38 3:106 
-0.190638504611501 1:98 2:38 3:102 
-0.1306623836649329 2:38 3:102 
-0.1388797452460568 1:98 2:37 3:109 
-0.08066002737961808 1:94 2:34 3:104 
-0.05961654641769043 2:34 3:104 
-0.2017023253431364 1:94 2:37 3:104 
-0.1510529090723867 1:94 2:33 3:107 
-0.2322841626594699 1:94 2:35 3:110 
-0.191830344831163 1:94 2:32 3:112 
-0.2031072997558244 1:98 2:34 3:114 
-0.1045497607015079 1:102 2:40 3:108 
-0.1557874506293785 1:102 2:41 3:107 
-0.1881742444847697 1:104 2:37 3:104 
-0.177755093628244 1:104 2:35 3:108 
-0.1203253555273483 1:106 2:30 3:112 
-0.2265537287735506 1:107 2:19 3:123 
-0.1508921736836221 2:19 3:123 
-0.06472491746709613 1:104 2:24 3:118 
-0.162630887209669 1:104 2:24 3:119 
-0.2254904534210168 1:104 2:24 3:116 
-0.2135759092661952 1:104 2:34 3:114 
-0.06223038079900162 1:98 2:35 3:109 
-0.1508470715029374 1:99 2:32 3:103 
-0.1457769455579628 1:98 2:37 3:104 
-0.117256537297696 1:99 2:31 3:106 
-0.2332384769751876 1:99 2:33 3:100 
-0.1508226424915891 1:98 2:36 3:106 
-0.1435088986705037 1:99 2:30 3:109 
-0.1708981245560678 1:98 2:35 3:108 
-0.191239407513811 1:98 2:29 3:105 
-0.1855316610443067 1:94 2:34 3:105 
-0.157000484370497 1:94 2:33 3:109 
-0.1788340614208949 2:33 3:109 
-0.1778616932755286 1:99 2:32 3:105 
-0.1611956306296064 1:104 2:34 3:111 
-0.1764829939369855 1:104 2:36 3:106 
-0.1286814460565511 1:104 2:35 3:110 
-0.1940061193311357 1:106 2:29 3:114 
-0.1721177306538343 1:106 2:31 3:106 
-0.1966426022947241 1:106 2:31 3:108 
-0.1119158968042968 1:106 2:30 3:110 
-0.1018268552727916 1:106 2:30 3:111 
-0.1468277772679695 1:107 2:19 3:118 
-0.05832529367102962 2:19 3:118 
-0.08540110279271992 2:19 3:119 
-0.08275885208361405 1:104 2:23 3:120 
-0.201194265813157 1:104 2:23 3:124 
-0.1657549469246659 1:104 2:23 3:122 
-0.1637800008899781 1:106 2:28 3:119 
-0.1761734804711945 1:105 2:37 3:124 
-0.1717206844568159 2:37 3:124 
-0.105418482806974 1:99 2:31 3:108 
-0.2064358616219429 1:98 2:30 3:103 
-0.1683812349711013 1:98 2:28 3:108 
-0.07223375528183584 1:98 2:29 3:107 
-0.1504615668266913 1:104 2:27 3:105 
-0.08010363121799613 1:104 2:26 3:109 
-0.1149332353154765 1:104 2:25 3:114 
-0.1002366720074391 1:120 2:13 3:120 
-0.05281127977986405 2:13 3:120 
-0.157761755282798 1:120 2:13 3:121 
-0.2115268130218539 2:13 3:121 
-0.1504702181355674 1:109 2:17 3:123 
-0.1933259697743616 2:17 3:123 
-0.1284046776236469 1:106 2:27 3:124 
-0.1397553284899384 2:27 3:124 
-0.1574886045378242 1:104 2:32 3:118 
-0.1983459075655357 1:105 2:38 3:122 
-0.06002834532267515 1:104 2:25 3:111 
-0.2025470394768682 1:99 2:25 3:101 
-0.140330788937276 2:25 3:101 
-0.2308747260485964 1:99 2:23 3:113 
-0.16386076420065 1:99 2:24 3:107 
-0.1420046011134099 1:99 2:23 3:111 
-0.1635873546212186 1:99 2:23 3:109 
-0.2258247633334711 1:99 2:24 3:105 
-0.1802836138467952 1:104 2:27 3:103 
-0.07003518737238057 2:27 3:103 
-0.1805260271507543 1:104 2:26 3:107 
-0.166901302394024 1:104 2:25 3:110 
-0.1346046731540994 1:104 2:25 3:113 
-0.1652570378780928 2:22 3:104 
-0.1345330534566302 1:107 2:20 3:114 
-0.05254863385301717 2:20 3:114 
-0.1229573034701668 1:120 2:13 3:116 
-0.1383234891882963 2:13 3:116 
-0.219276537429995 1:112 2:22 3:125 
-0.2415130837982925 1:106 2:26 3:127 
-0.1322926828579015 2:26 3:127 
-0.1455422983977954 1:106 2:27 3:121 
-0.1554681531584226 2:27 3:121 
-0.117420128719696 1:106 2:27 3:125 
-0.05343478212017427 2:27 3:125 
-0.2118675909141282 1:104 2:32 3:120 
-0.1026968279284347 1:107 2:35 3:118 
-0.1734722515555173 1:105 2:39 3:118 
-0.06158484886347582 1:105 2:39 3:117 
-0.06174992979220939 2:39 3:117 
-0.1697960046166808 1:107 2:20 3:116 
-0.173892353206771 2:20 3:116 
-0.1714735764543905 1:107 2:19 3:120 
-0.06886679650187566 2:19 3:120 
-0.1221749672352783 2:20 3:113 
-0.1642328619106436 1:109 2:19 3:110 
-0.1342489869168805 1:109 2:17 3:120 
-0.1812376771443918 2:17 3:120 
-0.2166946873605943 1:120 2:14 3:111 
-0.1923945946350471 2:14 3:111 
-0.09647106910892717 1:120 2:14 3:113 
-0.08559811373653081 2:14 3:113 
-0.1106641274972014 1:109 2:17 3:122 
-0.1550818277887535 2:18 3:112 
-0.2148793729318451 1:114 2:22 3:117 
-0.1732054315514178 2:22 3:117 
-0.1707763445830345 1:114 2:21 3:123 
-0.2021263653048188 1:112 2:22 3:128 
-0.1846283277968336 2:22 3:128 
-0.1916256653235338 1:112 2:23 3:120 
-0.2233745276217827 1:106 2:28 3:117 
-0.16615240097677 1:104 2:31 3:124 
-0.1741124107557443 2:31 3:124 
-0.2199272727802423 1:104 2:30 3:126 
-0.1436772453658771 2:30 3:126 
-0.1454003356378967 1:104 2:31 3:122 
-0.245268716314666 1:102 2:36 3:121 
-0.2147692540795408 1:102 2:37 3:117 
-0.2221296608929467 1:105 2:40 3:115 
-0.05310560247618845 1:105 2:41 3:113 
-0.2097721932011956 1:103 2:41 3:117 
-0.06734007752636945 2:42 3:114 
-0.1815954759672989 1:107 2:23 3:101 
-0.1395400737489514 2:23 3:101 
-0.1324884336668522 1:107 2:20 3:112 
-0.1138569862612566 1:107 2:21 3:111 
-0.1525677789072777 2:21 3:111 
-0.1318917179763589 1:107 2:21 3:109 
-0.0900259325164362 2:21 3:109 
-0.1007013777930478 2:23 3:102 
-0.1192315471219086 1:107 2:21 3:108 
-0.1865598396336074 1:107 2:22 3:106 
-0.07317173247283892 2:22 3:106 
-0.1417344341980134 2:21 3:107 
-0.05917515042708299 1:107 2:22 3:105 
-0.2188445957286305 1:107 2:22 3:103 
-0.196512961853503 1:109 2:20 3:102 
-0.1786903015042358 2:20 3:102 
-0.1661305198260795 1:109 2:20 3:104 
-0.1219749445550491 2:20 3:104 
-0.0692000158321997 1:109 2:19 3:106 
-0.1629392626667741 2:19 3:106 
-0.1900434152968239 1:109 2:19 3:107 
-0.05846447116160791 2:19 3:107 
-0.07532670962760951 1:109 2:18 3:111 
-0.08315400013811335 2:18 3:111 
-0.07662896975441452 1:109 2:19 3:109 
-0.1682258204756066 2:19 3:109 
-0.1810389421913867 1:120 2:13 3:114 
-0.1549290491365561 2:13 3:114 
-0.1818742631098628 1:120 2:13 3:118 
-0.1721740460830045 2:13 3:118 
-0.22178834414107 1:109 2:18 3:113 
-0.1852838979934942 2:18 3:114 
-0.05813640089391833 2:17 3:121 
-0.1759353632774824 2:17 3:117 
-0.2036912371967994 1:109 2:18 3:116 
-0.06217727329595951 2:18 3:116 
-0.1554180920262908 1:109 2:17 3:118 
-0.05254817448255622 2:17 3:118 
-0.1667806389694075 1:112 2:23 3:123 
-0.1328593823250786 2:23 3:123 
-0.2030672680789343 1:112 2:24 3:118 
-0.07142781408505566 1:112 2:23 3:122 
-0.09914779172677431 1:106 2:27 3:122 
-0.1713844225901799 1:104 2:33 3:116 
-0.1678505881913871 1:105 2:38 3:120 
-0.1451691578938255 2:38 3:120 
-0.1601887985849738 1:103 2:42 3:115 
-0.2205372711543839 1:103 2:43 3:113 
-0.2007079109069326 1:103 2:44 3:109 
-0.07188833402938255 2:44 3:109 
-0.1022091910446149 1:112 2:26 3:107 
-0.1180260096504573 2:26 3:107 
-0.1814064140269259 1:112 2:25 3:114 
-0.1427116806248415 1:115 2:29 3:106 
-0.09921761838299287 2:29 3:106 
-0.1824710208831495 1:112 2:28 3:102 
-0.2152846017471314 1:114 2:23 3:112 
-0.1082536721755928 2:23 3:112 
-0.06316761242065561 1:114 2:25 3:104 
-0.1175257319804222 2:25 3:104 
-0.1446796000963858 1:114 2:24 3:106 
-0.1739333394536424 2:24 3:106 
-0.08656373540217355 1:114 2:24 3:108 
-0.1118700570284428 2:24 3:108 
-0.1535219337532867 1:114 2:21 3:119 
-0.1519204997339194 2:21 3:119 
-0.1873312128817622 2:21 3:122 
-0.1381464479399978 1:114 2:22 3:114 
-0.1747142873174483 2:22 3:114 
-0.05455765954587349 2:21 3:120 
-0.1451063823915564 1:114 2:21 3:121 
-0.1078391923667393 1:114 2:22 3:115 
-0.2348990598670895 1:117 2:22 3:125 
-0.1932778236454968 2:22 3:125 
-0.2225017061974409 1:117 2:23 3:121 
-0.1386223487511966 2:23 3:121 
-0.1731021902387411 1:115 2:26 3:116 
-0.1462287147825511 2:26 3:116 
-0.08431188071353629 1:115 2:24 3:125 
-0.07931244094347555 2:24 3:125 
-0.1456067523253679 1:115 2:25 3:124 
-0.1283631326928448 2:25 3:124 
-0.1938885758349774 1:109 2:29 3:123 
-0.1654815563085863 2:29 3:123 
-0.1558129636824196 1:109 2:30 3:121 
-0.1159630428808656 2:30 3:121 
-0.1565102546090215 1:107 2:34 3:119 
-0.1870066999640388 2:34 3:119 
-0.07861204195292437 1:105 2:41 3:111 
-0.1289926670100517 1:105 2:41 3:112 
-0.1268270296094423 1:106 2:42 3:116 
-0.1514822266122839 2:42 3:116 
-0.2124213070505954 1:105 2:44 3:116 
-0.2335414151899075 1:105 2:43 3:119 
-0.2001830242621646 2:43 3:119 
-0.2412125884430615 1:105 2:46 3:112 
-0.2057822800838667 1:105 2:48 3:107 
-0.1897665896854358 1:105 2:56 3:110 
-0.2325096704694722 1:104 2:52 3:107 
-0.2232026402182095 1:112 2:26 3:109 
-0.1663753924082462 1:112 2:27 3:104 
-0.138220292663736 1:112 2:26 3:106 
-0.0663202850783689 1:112 2:25 3:112 
-0.07472803392972527 1:115 2:30 3:103 
-0.1951382682234667 1:114 2:23 3:109 
-0.05365258002194817 2:23 3:109 
-0.1998880003160736 1:114 2:25 3:103 
-0.1147244025039555 2:25 3:103 
-0.223741909638113 1:117 2:27 3:105 
-0.1569471430563618 2:27 3:105 
-0.09576300066518557 1:114 2:24 3:105 
-0.139456981802244 2:23 3:110 
-0.05510858457148843 1:117 2:24 3:115 
-0.1260810109105829 1:117 2:25 3:112 
-0.1569616037931102 1:117 2:25 3:110 
-0.1587256501474851 1:117 2:25 3:114 
-0.2033063050482222 2:25 3:114 
-0.0571667741625479 2:24 3:117 
-0.1702603672247052 1:117 2:24 3:118 
-0.07212859412219175 1:117 2:24 3:119 
-0.1566769103007271 2:24 3:119 
-0.1394689923878049 1:117 2:24 3:116 
-0.2031972303396419 1:120 2:24 3:127 
-0.1779608140579312 2:24 3:127 
-0.1287277762233779 3:127 
-0.2222311243864348 1:120 2:27 3:114 
-0.1975521058991069 1:120 2:26 3:120 
-0.2307329030955113 1:115 2:27 3:122 
-0.07140386503477303 2:27 3:122 
-0.2545390553113955 1:112 2:30 3:128 
-0.1803737525214142 2:30 3:128 
-0.185930593589759 1:115 2:26 3:126 
-0.1049902437929432 2:26 3:126 
-0.1305105149482428 1:112 2:33 3:117 
-0.1930173887404723 1:109 2:37 3:117 
-0.09648793844236638 2:39 3:125 
-0.174390380942995 1:106 2:38 3:126 
-0.1800438702539729 2:38 3:126 
-0.1786911881992092 1:106 2:39 3:124 
-0.06518871373839585 3:124 
-0.1310134649669979 1:106 2:41 3:117 
-0.1022676784079304 2:41 3:117 
-0.1861483889964938 1:106 2:44 3:111 
-0.1735013691699072 2:44 3:111 
-0.1182464423432002 1:109 2:48 3:112 
-0.1471482962829301 1:108 2:48 3:117 
-0.1146336855885944 1:108 2:49 3:114 
-0.05722063071025851 1:108 2:51 3:110 
-0.05946419274001985 1:108 2:48 3:116 
-0.1732918714122824 1:108 2:47 3:119 
-0.0516614814403657 2:47 3:119 
-0.1656345562362221 1:108 2:52 3:107 
-0.09771756867184495 1:115 2:31 3:100 
-0.1579073804104796 2:31 3:100 
-0.1361134602525836 1:115 2:34 3:98 
-0.09019651813838736 2:34 3:98 
-0.2541674958620784 1:120 2:30 3:102 
-0.1020343708604046 2:30 3:102 
-0.2472608479463481 1:117 2:28 3:102 
-0.1677460201227157 2:28 3:102 
-0.105192765827365 1:120 2:29 3:107 
-0.221383305942319 1:117 2:26 3:108 
-0.1558633836603584 1:120 2:28 3:108 
-0.1308964462428626 2:26 3:109 
-0.1892341225021392 1:115 2:27 3:112 
-0.1545205012309656 2:27 3:112 
-0.1006312744281113 1:115 2:29 3:115 
-0.1006933309352303 2:29 3:114 
-0.1609525758113498 1:115 2:29 3:113 
-0.05331925438742624 2:29 3:113 
-0.1399561270878511 1:115 2:28 3:120 
-0.0943321130271193 2:28 3:120 
-0.1227584651808354 1:115 2:28 3:118 
-0.1712681221835547 2:28 3:118 
-0.1462785577221445 1:115 2:29 3:116 
-0.1445893540374515 2:29 3:116 
-0.1271849525360989 1:115 2:30 3:111 
-0.0935266326867357 2:30 3:111 
-0.2387683301189293 1:118 2:31 3:123 
-0.1798584460652699 1:118 2:33 3:117 
-0.191789305245977 2:33 3:117 
-0.2362219569076615 1:118 2:32 3:119 
-0.07856775061172794 1:115 2:39 3:112 
-0.1536827609516359 2:39 3:112 
-0.2338683892831741 1:115 2:36 3:121 
-0.2021644262600955 2:36 3:121 
-0.2256693319366475 1:111 2:40 3:121 
-0.1453350224351907 2:40 3:121 
-0.1473180235795268 1:115 2:36 3:119 
-0.10267374795122 2:36 3:119 
-0.07715659739583564 1:109 2:46 3:116 
-0.0534607580999813 2:46 3:116 
-0.1837289992514337 1:109 2:45 3:120 
-0.1477468576432064 2:45 3:120 
-0.1301274652686257 1:109 2:45 3:118 
-0.08751828536969175 2:45 3:118 
-0.1969343839467413 1:109 2:47 3:114 
-0.1616591436165067 2:47 3:114 
-0.1431344503781993 1:108 2:51 3:111 
-0.06905453566006609 1:108 2:53 3:111 
-0.1871261035886843 1:108 2:51 3:116 
-0.1021074086141813 2:51 3:116 
-0.1089735819929899 1:108 2:51 3:114 
-0.05625627072322786 2:51 3:114 
-0.1888792326898673 1:107 2:57 3:111 
-0.1541814447458993 1:107 2:55 3:115 
-0.1732281413050687 1:107 2:60 3:107 
-0.2201493153224267 1:107 2:62 3:103 
-0.1495021317225047 2:62 3:103 
-0.1025069844463626 2:65 3:106 
-0.1578746045430977 1:115 2:32 3:105 
-0.08482094800188741 2:32 3:105 
-0.1932231680378992 1:115 2:30 3:101 
-0.07051150778568038 2:30 3:101 
-0.1799937783243813 1:115 2:29 3:104 
-0.1646631699177697 2:29 3:104 
-0.1210942120673086 1:115 2:27 3:114 
-0.1097180267682474 2:27 3:114 
-0.1371955548839468 1:115 2:30 3:109 
-0.1594369009973012 2:30 3:109 
-0.1415069376269468 1:115 2:31 3:107 
-0.1915457312587336 1:115 2:33 3:101 
-0.1018986582478254 2:33 3:101 
-0.2114183253230529 1:115 2:35 3:96 
-0.1959860678421559 2:35 3:96 
-0.1894969200407974 1:120 2:36 3:99 
-0.1780031888937026 2:36 3:99 
-0.246056939746908 1:120 2:35 3:102 
-0.1839414116692145 2:35 3:102 
-0.1702534871082335 1:120 2:34 3:105 
-0.2186715694882894 1:120 2:33 3:107 
-0.1071387548800718 2:33 3:107 
-0.1571838921066867 1:118 2:35 3:110 
-0.06787410828949381 2:35 3:110 
-0.1898191114526169 1:120 2:35 3:117 
-0.06310819618876074 2:35 3:117 
-0.1238351496436852 2:35 3:116 
-0.08356051880724619 1:120 2:37 3:109 
-0.1124292402788455 2:37 3:109 
-0.1662907313688711 2:38 3:107 
-0.1525960998642818 1:120 2:35 3:115 
-0.1202663064893969 2:37 3:110 
-0.1728404490632993 1:120 2:37 3:111 
-0.1144003360842543 2:36 3:112 
-0.1773623769433701 1:120 2:36 3:113 
-0.135967977498132 2:36 3:114 
-0.2157346468639541 1:115 2:39 3:118 
-0.1406393926576227 2:39 3:118 
-0.2022395000981631 1:117 2:45 3:114 
-0.07530607165356537 1:115 2:49 3:115 
-0.1745968927779938 1:115 2:48 3:116 
-0.1562765290631865 1:110 2:49 3:115 
-0.1507206689042677 2:49 3:115 
-0.1786089704871803 1:111 2:52 3:117 
-0.1382092505068028 2:52 3:117 
-0.1233240360290115 1:110 2:48 3:117 
-0.1025640525335273 1:111 2:53 3:116 
-0.07053251295686802 2:53 3:116 
-0.08059859884157887 1:110 2:51 3:110 
-0.1069218468305712 1:110 2:55 3:115 
-0.2422509474010555 1:109 2:61 3:118 
-0.177807406816802 2:61 3:118 
-0.06397038192002941 1:109 2:64 3:108 
-0.1823587134644095 1:109 2:66 3:105 
-0.1869271091518395 1:109 2:69 3:103 
-0.1528610558409424 1:109 2:67 3:107 
-0.2037989025813932 1:108 2:71 3:108 
-0.09658327696898904 2:71 3:108 
-0.1111276648368882 1:115 2:33 3:99 
-0.1375304517995211 2:33 3:99 
-0.1691525551167868 1:115 2:32 3:103 
-0.1623077036763077 2:32 3:103 
-0.06108087862349099 1:115 2:30 3:112 
-0.1194778538818152 2:30 3:112 
-0.05939464994699389 1:115 2:31 3:108 
-0.09080685939185122 2:31 3:108 
-0.1201898770273672 1:118 2:36 3:107 
-0.2040993635588034 1:118 2:36 3:105 
-0.1167445361101568 2:36 3:106 
-0.1739425342835999 1:118 2:37 3:103 
-0.2280641385872698 1:120 2:42 3:98 
-0.1853126124170895 2:42 3:98 
-0.1790438185845966 1:120 2:43 3:96 
-0.2107845461459857 2:43 3:96 
-0.134433754473028 1:120 2:38 3:108 
-0.1593513853580035 1:120 2:38 3:106 
-0.09797068242117196 1:120 2:39 3:104 
-0.1244631405160841 2:39 3:104 
-0.1463881931199421 1:120 2:40 3:103 
-0.1003734875095211 2:40 3:103 
-0.1881428172075972 1:120 2:45 3:102 
-0.2262729099535547 2:45 3:102 
-0.1397483631626763 2:42 3:109 
-0.1313266579737366 1:120 2:44 3:105 
-0.21176850144566 1:120 2:38 3:122 
-0.07657917952970145 2:38 3:122 
-0.07021829837231602 1:120 2:44 3:104 
-0.1981250321860163 1:120 2:42 3:108 
-0.18011107851869 1:120 2:41 3:111 
-0.0604744564923923 1:120 2:40 3:114 
-0.1402783871609457 1:120 2:41 3:113 
-0.1057723777696286 2:41 3:113 
-0.1104663047801011 1:120 2:40 3:115 
-0.1611482452449023 2:40 3:115 
-0.05516700013046155 1:120 2:43 3:106 
-0.1015368451292725 1:120 2:42 3:110 
-0.1374400095445497 1:120 2:40 3:116 
-0.2468384364474534 1:117 2:44 3:117 
-0.1933662734243771 1:111 2:55 3:111 
-0.2002270246692428 2:55 3:111 
-0.1410098713635557 1:113 2:56 3:114 
-0.1729816976949848 1:110 2:61 3:105 
-0.149215791948218 1:113 2:60 3:107 
-0.09475351321635817 1:110 2:56 3:113 
-0.187130481093473 1:113 2:55 3:116 
-0.1735204811178749 1:110 2:57 3:112 
-0.1155492716403203 1:112 2:59 3:113 
-0.1376056904291478 1:110 2:55 3:116 
-0.2060255200222794 2:55 3:116 
-0.1833841169358409 1:112 2:58 3:115 
-0.1987043657445407 2:58 3:115 
-0.1384399760273133 1:112 2:61 3:109 
-0.1950952845632371 1:109 2:71 3:101 
-0.2422921585810006 1:111 2:75 3:98 
-0.1978411052391069 1:109 2:73 3:98 
-0.2002178431743918 1:109 2:78 3:102 
-0.147329105760002 2:78 3:102 
-0.2443386571532697 1:118 2:38 3:100 
-0.1204327566610832 2:38 3:100 
-0.0575577303183531 1:115 2:41 3:106 
-0.07293890148766946 2:41 3:106 
-0.1950379507299141 1:118 2:34 3:112 
-0.09943884709945533 1:115 2:39 3:111 
-0.15332810952364 2:37 3:104 
-0.2013703858160073 1:115 2:44 3:99 
-0.1772344796567353 2:44 3:99 
-0.08954090645080531 1:120 2:41 3:100 
-0.09169309327780217 2:41 3:100 
-0.1659461069012 1:115 2:45 3:103 
-0.05196350502927943 1:120 2:39 3:105 
-0.05958622279188158 2:39 3:105 
-0.2132882957436281 1:115 2:47 3:98 
-0.226531110801684 2:47 3:98 
-0.1470266540601154 1:120 2:40 3:101 
-0.1278323393922873 2:40 3:101 
-0.2055296825875038 1:115 2:45 3:101 
-0.06816224240902502 1:120 2:46 3:100 
-0.1420901569826405 2:46 3:100 
-0.1850252280993227 1:120 2:49 3:93 
-0.2379821759637336 2:49 3:93 
-0.2379697363594696 1:120 2:48 3:95 
-0.1820441583451548 2:48 3:95 
-0.1663996866752562 1:122 2:49 3:105 
-0.09620042588966982 1:120 2:43 3:107 
-0.1866654332269117 1:122 2:50 3:101 
-0.1926173268206689 1:120 2:46 3:99 
-0.1219374195106013 1:117 2:49 3:104 
-0.09943880071751021 2:49 3:104 
-0.1429592388564894 1:122 2:50 3:103 
-0.1150567886505845 2:50 3:103 
-0.2022960949840333 1:122 2:52 3:98 
-0.1923559265465782 2:52 3:98 
-0.2384458246686778 1:122 2:48 3:107 
-0.185894548863113 1:119 2:50 3:107 
-0.1381103953553647 2:50 3:107 
-0.1568635591964518 1:119 2:51 3:105 
-0.1574527219011718 2:51 3:105 
-0.1275959387584747 1:123 2:53 3:106 
-0.1272518529898746 1:123 2:53 3:105 
-0.1507409695212786 1:119 2:52 3:108 
-0.1971972948315491 1:119 2:56 3:100 
-0.07299260401672536 1:119 2:48 3:117 
-0.1903917700805224 2:48 3:117 
-0.2244572260125606 1:119 2:51 3:110 
-0.05228278876878834 1:119 2:50 3:112 
-0.1627982636033609 1:119 2:50 3:113 
-0.2546029373870046 1:119 2:45 3:125 
-0.2012459465687463 2:45 3:125 
-0.1740482796333963 3:125 
-0.2491389340950258 1:119 2:47 3:120 
-0.1743148779248859 2:47 3:120 
-0.1491117947302261 3:120 
-0.1509931728936973 1:119 2:53 3:106 
-0.1801498806686477 2:53 3:106 
-0.07249663540375839 1:119 2:49 3:114 
-0.2031997485299228 1:119 2:48 3:116 
-0.1914432688499508 1:116 2:56 3:109 
-0.1487314707818774 2:56 3:109 
-0.1615909401224906 1:114 2:60 3:110 
-0.136513955154389 1:112 2:64 3:108 
-0.1464132181271829 2:64 3:108 
-0.03019828957149731 1:112 2:63 3:109 
-0.1950977766934574 1:112 2:66 3:105 
-0.1635329541803235 1:112 2:63 3:110 
-0.2094357346825567 1:112 2:61 3:112 
-0.1856708214435244 1:111 2:65 3:113 
-0.1067681090882778 1:112 2:69 3:114 
-0.09607432495026602 1:111 2:69 3:107 
-0.2092765326979273 1:111 2:68 3:109 
-0.1951283240178274 1:111 2:70 3:106 
-0.197391258943233 1:111 2:71 3:104 
-0.1894091845912032 1:111 2:73 3:101 
-0.0787225131170386 1:110 2:80 3:105 
-0.05574859512315838 1:110 2:82 3:103 
-0.2028443568199009 1:110 2:83 3:102 
-0.1546320337651113 1:110 2:81 3:104 
-0.06932458388700419 1:110 2:88 3:104 
-0.1566528625099404 1:110 2:94 3:98 
-0.06020347128594056 1:119 2:51 3:104 
-0.08583232897754389 1:119 2:52 3:103 
-0.1153804876328886 2:52 3:103 
-0.1474741659427814 1:115 2:56 3:104 
-0.1855362339718518 2:56 3:104 
-0.1836725410334872 1:119 2:56 3:95 
-0.1629664017597551 2:56 3:95 
-0.1830694364476302 1:115 2:63 3:93 
-0.1743339765591828 2:63 3:93 
-0.1636483578731306 1:119 2:55 3:97 
-0.1794618016759983 2:55 3:97 
-0.1383850252521242 2:60 3:98 
-0.08682166872093078 1:119 2:54 3:99 
-0.1176360557204575 2:54 3:99 
-0.08734563436020582 1:119 2:54 3:100 
-0.1241635182381815 1:119 2:53 3:102 
-0.05228051776348514 1:119 2:53 3:101 
-0.1601040279309152 2:53 3:101 
-0.1161664524559248 1:119 2:55 3:102 
-0.1470091924764935 1:119 2:57 3:98 
-0.1520259891005467 2:57 3:98 
-0.1822790307910919 1:116 2:64 3:95 
-0.2104520005615153 2:64 3:95 
-0.1684767721441129 1:119 2:58 3:96 
-0.1755986025817244 2:58 3:96 
-0.2227818149807195 1:116 2:61 3:100 
-0.2081175132818364 1:119 2:54 3:104 
-0.1293718226823437 2:54 3:104 
-0.2323254489884682 1:116 2:59 3:103 
-0.236563344912934 1:120 2:57 3:107 
-0.1650946954584123 1:120 2:58 3:105 
-0.1707166407541933 1:118 2:63 3:105 
-0.1511406251006994 1:118 2:60 3:110 
-0.08808881039257033 1:118 2:60 3:111 
-0.2363433964460217 1:118 2:62 3:107 
-0.1418842727898665 2:66 3:104 
-0.2039855601033355 1:119 2:66 3:105 
-0.1591804851611588 1:116 2:67 3:111 
-0.2231792221562395 2:67 3:111 
-0.1166562686492473 1:116 2:68 3:109 
-0.1577988000555274 1:115 2:70 3:109 
-0.09803930184291809 2:70 3:109 
-0.1874779502372341 1:115 2:71 3:107 
-0.08174238885728376 2:71 3:107 
-0.06358392418614106 1:115 2:74 3:103 
-0.2180380394957283 1:116 2:72 3:114 
-0.1414241698596236 1:114 2:78 3:111 
-0.08905720434156117 1:114 2:79 3:110 
-0.2489236065757394 1:114 2:75 3:115 
-0.1561937502374276 2:75 3:115 
-0.2296743470529866 1:114 2:77 3:113 
-0.1666198327963798 2:77 3:113 
-0.2279345480426514 1:114 2:80 3:108 
-0.1161410277416855 1:112 2:86 3:107 
-0.07499737235707449 1:112 2:85 3:108 
-0.1436127979905501 1:112 2:84 3:109 
-0.08950114263335562 1:111 2:87 3:112 
-0.1442513690560083 2:87 3:112 
-0.1762073450883755 1:112 2:94 3:106 
-0.1537420946809776 1:111 2:98 3:99 
-0.1476189403570886 1:110 2:96 3:104 
-0.2211392872159188 1:111 2:102 3:100 
-0.1606063121425669 2:102 3:100 
-0.0761882555531464 1:111 2:100 3:102 
-0.09585419052365124 1:111 2:90 3:113 
-0.1133117664238944 2:90 3:113 
-0.1582193593753015 1:111 2:89 3:114 
-0.1992779309317036 2:89 3:114 
-0.1121171977633743 1:112 2:108 3:97 
-0.2034249387819701 1:112 2:112 3:93 
-0.1318227836919756 2:112 3:93 
-0.1429408044708841 1:112 2:107 3:98 
-0.05586687557808545 1:118 2:64 3:104 
-0.1418258488345147 1:118 2:65 3:102 
-0.1850984262842707 1:118 2:67 3:99 
-0.1327027094282626 1:118 2:68 3:97 
-0.1987467218810425 1:118 2:71 3:93 
-0.1058511107584952 1:118 2:70 3:95 
-0.1536458429832029 1:118 2:69 3:96 
-0.1528496085307858 2:69 3:96 
-0.2114619953930071 1:120 2:61 3:100 
-0.1488016190518157 2:61 3:100 
-0.1016843568754318 1:120 2:60 3:102 
-0.08860249202591541 2:60 3:102 
-0.2028032587900531 1:120 2:59 3:103 
-0.1775554062661346 2:59 3:103 
-0.10139308578192 1:118 2:64 3:103 
-0.05896303185547819 1:118 2:66 3:101 
-0.09652208476924723 1:118 2:66 3:100 
-0.2258064891677731 2:71 3:94 
-0.217136772093997 1:119 2:72 3:96 
-0.1414425382557452 2:72 3:96 
-0.2244667517798833 1:119 2:70 3:98 
-0.155249277346645 2:70 3:98 
-0.1732151037942774 1:119 2:68 3:101 
-0.1337125944188659 2:68 3:101 
-0.1794667727311909 1:119 2:67 3:103 
-0.06433719859011317 2:67 3:103 
-0.1307895612136911 1:116 2:71 3:104 
-0.1023208335463621 1:116 2:72 3:103 
-0.1390547786704818 1:119 2:70 3:106 
-0.1270665680682745 1:119 2:69 3:107 
-0.2076501226933669 1:119 2:71 3:104 
-0.09487994863356497 2:71 3:104 
-0.2316429638665901 1:119 2:75 3:99 
-0.1322158143308642 2:75 3:99 
-0.08190332696753694 1:117 2:80 3:99 
-0.05243990260340331 2:80 3:99 
-0.2315074060969847 1:117 2:75 3:105 
-0.160244787923649 1:117 2:77 3:103 
-0.1952134965727413 1:117 2:79 3:100 
-0.1559894067120491 1:118 2:82 3:99 
-0.1276459288622891 1:116 2:82 3:100 
-0.08664725170618204 2:82 3:100 
-0.2317896304088367 1:116 2:76 3:107 
-0.1246887441857014 2:76 3:107 
-0.055936010194306 1:116 2:79 3:106 
-0.1670843841815399 2:79 3:106 
-0.1564723421369198 1:116 2:79 3:107 
-0.1136676545872308 1:115 2:90 3:99 
-0.1907589630915219 2:90 3:99 
-0.1543827601170855 1:115 2:87 3:103 
-0.09078308201164193 1:116 2:85 3:108 
-0.1536408063185786 1:116 2:84 3:109 
-0.1676736400796343 2:84 3:109 
-0.1659311385158518 1:114 2:90 3:108 
-0.06314901789833927 1:114 2:93 3:104 
-0.1589572059144471 1:114 2:96 3:101 
-0.09285659725358225 1:113 2:98 3:104 
-0.1134509897209013 1:113 2:97 3:105 
-0.06239530068147586 1:112 2:102 3:108 
-0.205274780473209 1:112 2:114 3:96 
-0.1991785551396212 1:112 2:117 3:94 
-0.1850539787654474 1:111 2:109 3:105 
-0.2309280310804336 1:111 2:111 3:103 
-0.08305249172623624 1:111 2:114 3:101 
-0.1855469453030205 1:111 2:115 3:100 
-0.1157282221603425 1:112 2:129 3:99 
-0.1741671965200981 1:113 2:129 3:95 
-0.117766750637365 2:129 3:95 
-0.1059927779835471 1:112 2:130 3:98 
-0.1803735681964885 1:118 2:86 3:95 
-0.07038691620287157 1:118 2:81 3:101 
-0.17118273814852 1:118 2:80 3:102 
-0.2016034795854966 2:85 3:96 
-0.09143802499589776 1:118 2:89 3:92 
-0.206250043216727 2:89 3:92 
-0.07126603550145561 1:118 2:87 3:94 
-0.2103875890634936 2:87 3:94 
-0.2033290551019738 1:120 2:78 3:98 
-0.0865630983617407 2:77 3:99 
-0.1937842956087704 1:120 2:76 3:101 
-0.1563530947376617 2:76 3:101 
-0.247983497567155 1:120 2:74 3:103 
-0.07956980457452734 2:74 3:103 
-0.09350467989868411 1:120 2:77 3:100 
-0.147964610997715 1:118 2:88 3:93 
-0.08354911657548225 1:118 2:87 3:97 
-0.179589613519195 1:119 2:85 3:105 
-0.2233099516447498 1:119 2:87 3:103 
-0.07885010503881179 1:118 2:91 3:101 
-0.07282751986960107 1:118 2:93 3:99 
-0.09282242717654554 1:116 2:94 3:103 
-0.207851023565713 1:116 2:92 3:105 
-0.1845309121141422 1:117 2:97 3:103 
-0.1273345342414661 1:117 2:99 3:100 
-0.07700092570447037 1:117 2:98 3:101 
-0.1503148253807283 1:117 2:101 3:98 
-0.08990717855226336 1:116 2:101 3:104 
-0.2493126038258883 1:116 2:97 3:113 
-0.2220912618507155 2:97 3:113 
-0.2418815863941848 1:116 2:100 3:110 
-0.1821318833875272 2:100 3:110 
-0.1826838278641048 1:116 2:104 3:105 
-0.1594772119904986 1:116 2:110 3:100 
-0.1152223007559625 1:115 2:118 3:97 
-0.06060182069983688 1:115 2:120 3:96 
-0.09985584703341437 1:115 2:117 3:98 
-0.1323188405974144 1:115 2:113 3:102 
-0.08764006714383937 1:114 2:110 3:107 
-0.05041213595455213 2:110 3:107 
-0.1910406690041977 1:113 2:134 3:93 
-0.1290236896865017 2:134 3:93 
-0.1170456288151694 1:113 2:125 3:100 
-0.07613562975806354 1:113 2:117 3:107 
-0.1177781424427069 1:112 2:131 3:99 
-0.06317440045173495 1:112 2:130 3:100 
-0.1891442244651446 1:112 2:135 3:96 
-0.1356495904809402 1:113 2:124 3:107 
-0.07939742509361236 2:124 3:107 
-0.1799330404879023 1:113 2:132 3:104 
-0.1594501830548619 2:132 3:104 
-0.1665986138201844 1:113 2:141 3:98 
-0.07639340614253143 2:141 3:98 
-0.1787320216070227 1:112 2:143 3:100 
-0.07803024674503045 2:143 3:100 
-0.06860401815458084 1:121 2:88 3:99 
-0.09740899048306057 1:119 2:97 3:92 
-0.1781362483659618 2:97 3:92 
-0.2349405265353003 1:119 2:99 3:90 
-0.1811004327030475 2:99 3:90 
-0.232702170933661 1:119 2:101 3:88 
-0.2250153745292913 2:101 3:88 
-0.05598892051064195 1:119 2:95 3:94 
-0.1285861515489949 2:95 3:94 
-0.1420419341331081 1:119 2:96 3:93 
-0.07948112814418605 2:96 3:93 
-0.2250168076210238 1:121 2:92 3:94 
-0.1488361712187925 1:119 2:92 3:97 
-0.2076135623325168 1:121 2:88 3:98 
-0.1576476997414891 2:88 3:98 
-0.0862398922216111 1:119 2:91 3:98 
-0.05114438929979293 1:119 2:93 3:96 
-0.05391982413127067 2:93 3:96 
-0.1504594587970839 1:119 2:94 3:95 
-0.07952539236029177 2:94 3:95 
-0.05787793455278234 1:120 2:98 3:94 
-0.1691855471641628 1:120 2:90 3:102 
-0.0902317659052978 1:119 2:97 3:103 
-0.1676837466977871 2:97 3:103 
-0.05221406379645849 1:118 2:92 3:103 
-0.1158678486081288 1:118 2:103 3:102 
-0.07590967860577674 1:117 2:111 3:103 
-0.1247172455638525 1:117 2:110 3:104 
-0.1838128855509263 1:117 2:113 3:102 
-0.1527711510697996 2:113 3:102 
-0.2057943429775262 1:116 2:123 3:104 
-0.1292538527873481 1:115 2:127 3:104 
-0.1242042440170375 1:114 2:145 3:97 
-0.100127559166185 1:114 2:151 3:93 
-0.06200776605302105 2:151 3:93 
-0.1579361603987935 1:114 2:152 3:92 
-0.1493144012870134 2:152 3:92 
-0.1856167914046955 1:113 2:153 3:95 
-0.14179372189245 1:115 2:143 3:102 
-0.1467696878313937 1:113 2:160 3:97 
-0.1510507612133223 1:120 2:97 3:95 
-0.1475904352791182 1:120 2:103 3:89 
-0.1696571041539938 2:103 3:89 
-0.09265010601231055 1:120 2:102 3:90 
-0.1961532607045833 1:120 2:106 3:87 
-0.1429987902858524 2:106 3:87 
-0.1200505167197951 1:120 2:101 3:91 
-0.1444082111597548 2:101 3:91 
-0.1227638744907034 1:120 2:100 3:92 
-0.09133322642118985 1:120 2:99 3:93 
-0.1083086755308503 2:99 3:93 
-0.07144473595294448 1:119 2:108 3:92 
-0.08677211344516522 1:118 2:102 3:103 
-0.08404762822873862 1:119 2:105 3:102 
-0.120376919178761 1:117 2:112 3:100 
-0.09048505570460408 2:112 3:100 
-0.08245984981745858 1:117 2:123 3:91 
-0.1398664490230956 2:123 3:91 
-0.1239895440489449 1:116 2:125 3:96 
-0.1705411779724772 1:116 2:127 3:94 
-0.08321159218963853 1:116 2:130 3:96 
-0.08159848176954537 2:130 3:96 
-0.2145000346264854 1:116 2:122 3:107 
-0.1541266126574875 1:116 2:135 3:96 
-0.07672441556161025 2:135 3:96 
-0.1417446177236477 1:116 2:146 3:96 
-0.1865770750862352 1:116 2:134 3:105 
-0.1493084649824544 1:115 2:147 3:99 
-0.155608392135172 1:113 2:154 3:98 
-0.09796244906222051 2:154 3:98 
-0.1529470511234479 1:115 2:165 3:94 
-0.1109554626085868 2:165 3:94 
-0.2084862966494217 1:114 2:166 3:100 
-0.1898747301179455 2:166 3:100 
-0.1796175530370898 1:114 2:172 3:98 
-0.158586332441505 2:172 3:98 
-0.1371309335849472 1:114 2:173 3:96 
-0.1492502096323173 2:173 3:96 
-0.2056868745258182 1:114 2:168 3:100 
-0.1686553751325882 2:168 3:100 
-0.1522208804872235 1:121 2:104 3:96 
-0.1942325252167996 1:121 2:100 3:99 
-0.08843461119504331 1:121 2:101 3:98 
-0.1287782089842174 1:121 2:108 3:92 
-0.05127281645862514 1:121 2:109 3:91 
-0.1195476802490419 1:121 2:112 3:89 
-0.1842125414685178 1:121 2:110 3:90 
-0.1233052850350353 1:121 2:107 3:93 
-0.07157478935173506 1:121 2:105 3:95 
-0.104159347279037 1:119 2:107 3:93 
-0.1344681512261352 1:119 2:112 3:89 
-0.08745951573814736 1:119 2:113 3:88 
-0.0626919677824529 1:119 2:110 3:90 
-0.1145944255922302 1:120 2:113 3:90 
-0.1176999869487896 2:113 3:90 
-0.1412506192261777 1:119 2:116 3:92 
