svm_type c_svc
kernel_type rbf
gamma 0.5
nr_class 2
total_sv 7584
rho 0.793814
label 1 -1
nr_sv 2280 5304
SV
1.75330683640469 1:94 2:94 3:133 
50 3:133 
50 
1.79593812843966 1:93 2:91 3:132 
2.212037894694592 2:91 3:132 
50 3:132 
50 
1.547087905453604 1:92 2:94 3:133 
2.230176915176514 2:94 3:133 
50 3:133 
50 
1.769443644106984 1:93 2:89 3:135 
1.880264496831312 2:89 3:135 
50 3:135 
50 
50 3:139 
50 
0.2776470086317713 1:93 2:87 3:138 
50 3:138 
50 
1.462588524525863 1:93 2:85 3:141 
50 3:141 
50 
1.22289915237402 1:93 2:86 3:139 
0.6285726010145594 2:86 3:139 
50 3:139 
50 
1.325763787999535 1:93 2:87 3:137 
0.9190545011905257 2:87 3:137 
50 3:137 
50 
50 3:138 
50 
50 3:137 
50 
0.4824781294107516 1:93 2:83 3:139 
50 3:139 
50 
1.34766729591388 1:93 2:82 3:140 
50 3:140 
50 
50 3:138 
50 
1.442788308040906 1:93 2:84 3:137 
1.465848886165167 2:84 3:137 
50 3:137 
50 
0.7285720069706878 1:93 2:83 3:138 
0.5830027482951424 2:83 3:138 
50 3:138 
50 
1.673611857954819 1:93 2:80 3:137 
1.582865738161839 2:80 3:137 
50 3:137 
50 
0.4995271629729761 1:95 2:82 3:140 
0.8514638970090215 2:82 3:140 
50 3:140 
50 
50 3:142 
50 
0.7847278870548942 1:93 2:78 3:140 
0.5172978593743095 2:78 3:140 
50 3:140 
50 
50 3:141 
50 
50 3:144 
50 
1.48278984057416 1:94 2:72 3:148 
50 3:148 
50 
0.6154482645644468 1:94 2:74 3:145 
0.7263672346040613 2:74 3:145 
50 3:145 
50 
1.563160987646908 1:94 2:78 3:138 
1.49792264492735 2:78 3:138 
50 3:138 
50 
50 3:139 
50 
0.5785198542591845 1:95 2:73 3:139 
0.664611686084518 2:73 3:139 
50 3:139 
50 
50 3:142 
50 
50 3:142 
50 
1.680710485712178 1:93 2:69 3:144 
1.109664742149768 2:69 3:144 
50 3:144 
50 
1.495240133895833 1:94 2:66 3:142 
0.9218568816147195 2:66 3:142 
50 3:142 
50 
1.337238340887538 1:94 2:70 3:134 
1.336959058766899 2:70 3:134 
50 3:134 
50 
1.302795330058758 1:94 2:71 3:133 
1.302971476021045 2:71 3:133 
50 3:133 
50 
50 3:140 
50 
50 3:142 
50 
50 3:142 
50 
50 3:140 
50 
50 3:141 
50 
50 3:141 
50 
50 3:141 
50 
50 3:144 
50 
1.44093442967959 1:96 2:57 3:143 
1.448642864754458 2:57 3:143 
50 3:143 
50 
1.582387016076401 1:96 2:53 3:143 
1.582366846347168 2:53 3:143 
50 3:143 
50 
1.570623523294611 1:96 2:48 3:142 
1.570668168287498 2:48 3:142 
50 3:142 
50 
1.476338508510194 1:94 2:96 3:136 
1.722365902606075 2:96 3:136 
50 3:136 
50 
50 3:139 
50 
1.639710218978669 1:94 2:97 3:139 
2.138731387624118 2:97 3:139 
50 3:139 
50 
50 3:139 
50 
50 3:142 
50 
50 3:139 
50 
0.6239887353395963 1:94 2:90 3:144 
0.2762568637859646 2:90 3:144 
50 3:144 
50 
50 3:143 
50 
0.4755945611102879 1:94 2:92 3:142 
0.1123348786941777 2:92 3:142 
50 3:142 
50 
50 3:139 
50 
1.476657710495787 1:94 2:91 3:138 
1.469717667850985 2:91 3:138 
50 3:138 
50 
50 3:140 
50 
50 3:143 
50 
0.2175410436797967 1:94 2:87 3:144 
50 3:144 
50 
50 3:145 
50 
1.414239475805305 1:94 2:87 3:143 
1.517072507753012 2:87 3:143 
50 3:143 
50 
50 3:138 
50 
50 3:143 
50 
50 3:145 
50 
50 3:146 
50 
50 3:146 
50 
50 3:147 
50 
50 3:149 
50 
50 3:147 
50 
50 3:143 
50 
0.8090040083711875 1:94 2:77 3:140 
0.7683724533411147 2:77 3:140 
50 3:140 
50 
0.8313108124365504 1:94 2:76 3:141 
0.8274755727834061 2:76 3:141 
50 3:141 
50 
50 3:143 
50 
50 3:143 
50 
50 3:146 
50 
0.8255214792926813 1:95 2:70 3:145 
0.4110512287232626 2:70 3:145 
50 3:145 
50 
50 3:138 
50 
50 3:138 
50 
0.4417861722112995 1:96 2:75 3:143 
50 3:143 
50 
0.9696829201186574 1:96 2:73 3:146 
50 3:146 
50 
50 3:142 
50 
50 3:140 
50 
50 3:142 
50 
0.5205472683996265 1:95 2:69 3:141 
0.5600991245685025 2:69 3:141 
50 3:141 
50 
1.627940537041037 1:94 2:63 3:141 
1.524898124676935 2:63 3:141 
50 3:141 
50 
1.16657358595185 1:94 2:60 3:145 
1.143840019508194 2:60 3:145 
50 3:145 
50 
0.3641715181499304 1:96 2:57 3:144 
0.348621320341693 2:57 3:144 
50 3:144 
50 
50 3:145 
50 
1.58407319895475 1:96 2:48 3:144 
1.584024973639245 2:48 3:144 
50 3:144 
50 
50 3:140 
50 
0.4523256305286157 1:94 2:96 3:141 
0.3745256223339659 2:96 3:141 
50 3:141 
50 
50 3:142 
50 
50 3:140 
50 
1.045769775350276 1:94 2:95 3:142 
1.066182561262446 2:95 3:142 
50 3:142 
50 
50 3:137 
50 
0.5815839471992957 1:94 2:92 3:141 
0.8971808483201271 2:92 3:141 
50 3:141 
50 
0.7469624363311387 1:94 2:93 3:140 
0.5878989021660942 2:93 3:140 
50 3:140 
50 
1.110486492236828 1:94 2:94 3:139 
1.19439584575515 2:94 3:139 
50 3:139 
50 
50 3:137 
50 
1.364851313234341 1:94 2:95 3:137 
1.761572616143341 2:95 3:137 
50 3:137 
50 
1.337428504048029 1:94 2:89 3:140 
1.926376466607878 2:89 3:140 
50 3:140 
50 
50 3:145 
50 
50 3:149 
50 
50 
50 3:147 
50 
0.5181730945635698 1:94 2:90 3:139 
0.7937760007347682 2:90 3:139 
50 3:139 
50 
50 3:144 
50 
50 3:148 
50 
50 3:150 
50 
50 3:147 
50 
50 3:143 
50 
50 3:142 
50 
50 3:145 
50 
50 3:147 
50 
0.7570634112093192 1:93 2:77 3:143 
0.5202318654601033 2:77 3:143 
50 3:143 
50 
0.4951603986966531 1:93 2:77 3:142 
0.3088688147455739 2:77 3:142 
50 3:142 
50 
0.2773741699447062 1:94 2:75 3:143 
0.3303768394291141 2:75 3:143 
50 3:143 
50 
0.7239617573996088 1:93 2:78 3:141 
0.4725952187232602 2:78 3:141 
50 3:141 
50 
50 3:144 
50 
50 3:146 
50 
0.8424981575621559 1:94 2:75 3:142 
50 3:142 
50 
0.7993708469986498 1:94 2:74 3:144 
50 3:144 
50 
0.737726655202241 1:96 2:73 3:147 
0.8825660620005896 2:73 3:147 
50 3:147 
50 
0.3978539549246281 1:96 2:72 3:148 
0.5178101090925573 2:72 3:148 
50 3:148 
50 
50 3:143 
50 
50 3:140 
50 
0.6523675505854728 1:95 2:72 3:141 
50 3:141 
50 
0.7903594955977319 1:95 2:73 3:140 
50 3:140 
50 
50 3:140 
50 
1.446838894287295 1:94 2:62 3:143 
1.109670242761899 2:62 3:143 
50 3:143 
50 
0.9533021875680664 1:94 2:60 3:144 
0.9161993588011699 2:60 3:144 
50 3:144 
50 
1.522725511026362 1:96 2:56 3:145 
1.527358398467891 2:56 3:145 
50 3:145 
50 
1.558737056225486 1:96 2:53 3:145 
1.558714585427729 2:53 3:145 
50 3:145 
50 
50 3:147 
50 
50 3:143 
50 
50 3:143 
50 
50 3:142 
50 
50 2:96 3:143 
50 3:143 
50 
50 3:145 
50 
50 3:146 
50 
50 3:146 
50 
50 3:145 
50 
0.4806142829221268 1:94 2:98 3:140 
0.7406720632418287 2:98 3:140 
50 3:140 
50 
0.8856405343167924 2:97 3:142 
50 3:142 
50 
0.6434561859868397 1:94 2:91 3:143 
0.5527337599674876 2:91 3:143 
50 3:143 
50 
50 3:145 
50 
50 3:149 
50 
50 
50 3:150 
50 
0.3577056703352298 1:94 2:90 3:145 
0.1851544783421976 2:90 3:145 
50 3:145 
50 
50 3:147 
50 
50 
50 
50 3:148 
50 
50 3:145 
50 
50 3:146 
50 
50 3:147 
50 
50 3:148 
50 
50 3:144 
50 
50 3:146 
50 
1.285971556637856 1:95 2:80 3:144 
2.639697443107817 2:80 3:144 
50 3:144 
50 
50 3:147 
50 
50 3:147 
50 
50 3:148 
50 
50 3:146 
50 
50 3:149 
50 
50 3:149 
50 
50 3:147 
50 
50 3:145 
50 
50 3:145 
50 
50 3:145 
50 
1.003076712115807 1:95 2:80 3:140 
0.9876641780428701 2:80 3:140 
50 3:140 
50 
0.9229993254710308 1:95 2:81 3:139 
0.7824520041297099 2:81 3:139 
50 3:139 
50 
0.6991372573770379 1:95 2:72 3:142 
0.6310997675064995 2:72 3:142 
50 3:142 
50 
0.9010908434859462 1:95 2:67 3:144 
0.8203639667169806 2:67 3:144 
50 3:144 
50 
1.564491314484146 1:96 2:63 3:146 
1.591218748412759 2:63 3:146 
50 3:146 
50 
1.347939078004947 1:96 2:62 3:144 
0.5651293184936367 2:62 3:144 
50 3:144 
50 
50 
0.3351178289004517 2:88 3:150 
50 3:150 
50 
50 3:147 
50 
50 3:145 
50 
50 3:146 
50 
50 3:148 
50 
50 3:149 
50 
50 3:148 
50 
50 3:146 
50 
0.7270977479647376 1:94 2:97 3:142 
50 2:97 3:142 
50 3:142 
50 
50 3:145 
50 
1.089515888015028 1:94 2:92 3:147 
1.082278373970546 2:92 3:147 
50 3:147 
50 
1.06922613090108 1:94 2:90 3:150 
0.9152462517633537 2:90 3:150 
50 3:150 
50 
50 
50 
50 
50 3:148 
50 
50 3:149 
50 
50 
50 
50 3:148 
50 
50 3:147 
50 
50 3:148 
50 
50 3:148 
50 
50 3:146 
50 
50 3:147 
50 
50 3:148 
50 
50 3:144 
50 
50 3:147 
50 
50 3:148 
50 
50 3:150 
50 
50 3:146 
50 
50 3:146 
50 
50 3:150 
50 
0.9494280652333091 1:95 2:76 3:150 
1.107265960248585 2:76 3:150 
50 3:150 
50 
1.046981450105364 1:95 2:75 3:149 
1.022507452615403 2:75 3:149 
50 3:149 
50 
0.8210463059137245 1:95 2:77 3:149 
0.6759974425870361 2:77 3:149 
50 3:149 
50 
0.4498216236550139 1:95 2:78 3:147 
0.09015715985000732 2:78 3:147 
50 3:147 
50 
50 3:141 
50 
1.228492275152545 1:95 2:83 3:139 
0.8492951561165988 2:83 3:139 
50 3:139 
50 
50 3:143 
50 
50 3:146 
50 
1.563175468493282 1:95 2:66 3:147 
1.559783596101622 2:66 3:147 
50 3:147 
50 
1.374784792503833 1:96 2:64 3:144 
1.428169055282718 2:64 3:144 
50 3:144 
50 
50 
50 
50 3:148 
50 
50 3:145 
50 
50 3:146 
50 
50 
50 
5.079102636942372 3:151 
50 
50 3:148 
50 
50 3:148 
50 
50 3:151 
50 
50 
50 
1.348521780926279 1:94 2:84 3:154 
1.383436528214281 2:84 3:154 
50 
50 
50 3:150 
50 
50 3:147 
50 
50 
50 
50 3:151 
50 
50 3:151 
50 
50 
50 
50 
50 3:149 
50 
50 
50 
50 3:146 
50 
50 3:147 
50 
0.4374982640183796 1:95 2:80 3:149 
1.514344489538752 2:80 3:149 
50 3:149 
50 
0.9489530751589734 1:95 2:78 3:153 
0.9687136924051107 2:78 3:153 
50 
50 3:148 
50 
50 3:146 
50 
50 3:146 
50 
50 3:148 
50 
0.9303123386906268 1:95 2:78 3:148 
2.83282663698033 2:78 3:148 
50 3:148 
50 
50 3:148 
50 
50 3:147 
50 
50 3:142 
50 
50 3:141 
50 
50 3:145 
50 
1.127146471949414 1:94 2:73 3:146 
0.8238465448302025 2:73 3:146 
50 3:146 
50 
1.20318111623402 1:95 2:70 3:146 
1.409817055752216 2:70 3:146 
50 3:146 
50 
50 3:142 
50 
5.061314809944022 1:94 2:87 3:158 
4.105346523084856 2:87 3:158 
50 
50 
50 3:147 
50 
50 3:144 
50 
50 3:147 
50 
50 
50 
50 
50 3:149 
50 
50 
50 
0.0641979462901435 1:94 2:88 3:154 
0.6749227545285792 2:88 3:154 
50 
0.8978566378525469 1:94 2:88 3:153 
0.6532453821858461 2:88 3:153 
50 
50 
50 3:151 
50 
50 3:149 
50 
50 3:146 
50 
50 
50 
50 
50 
50 
50 1:94 2:80 3:157 
50 2:80 3:157 
50 
50 
2.702069245280947 3:152 
50 
50 
0.4959105765562722 1:94 2:81 3:154 
0.3505780795334121 2:81 3:154 
50 
50 3:146 
50 
50 3:146 
50 
50 3:148 
50 
1.497180569032965 1:95 2:78 3:154 
1.477977161794027 2:78 3:154 
50 
1.398836923313766 1:95 2:80 3:150 
1.033800999698213 2:80 3:150 
50 3:150 
50 
50 3:147 
50 
50 3:145 
50 
50 3:147 
50 
50 3:146 
50 
50 3:146 
50 
1.048378872696038 1:95 2:82 3:146 
1.992207456068129 2:82 3:146 
50 3:146 
50 
50 3:144 
50 
50 3:144 
50 
0.6418282754028296 1:95 2:82 3:147 
0.1036444282312594 2:82 3:147 
50 3:147 
50 
1.183680594529645 1:93 2:76 3:144 
0.6915301886334431 2:76 3:144 
50 3:144 
50 
1.349140343143565 1:95 2:71 3:143 
1.329989028876369 2:71 3:143 
50 3:143 
50 
1.230991921837112 1:95 2:69 3:140 
1.192711970376234 2:69 3:140 
50 3:140 
50 
50 1:94 2:85 3:165 
50 2:85 3:165 
50 3:165 
50 
50 
50 3:150 
50 
50 3:147 
50 
50 3:150 
50 
3.662064209559228 3:154 
50 
0.03995725138584033 3:155 
50 
50 3:152 
50 
50 3:149 
50 
50 3:151 
50 
50 3:151 
50 
50 3:151 
50 
50 3:150 
50 
50 3:151 
50 
50 3:152 
50 
50 3:152 
50 
50 3:152 
50 
50 3:151 
50 
50 3:151 
50 
50 3:152 
50 
50 
50 1:94 2:84 3:155 
50 2:84 3:155 
50 3:155 
50 
50 1:94 2:83 3:156 
50 2:83 3:156 
50 
1.855449977240175 1:94 2:81 3:155 
2.931646677415278 2:81 3:155 
50 3:155 
50 
50 
50 3:150 
50 
50 3:151 
50 
50 3:146 
50 
50 3:146 
50 
50 3:148 
50 
50 
50 3:149 
50 
50 3:146 
50 
50 3:148 
50 
50 3:150 
50 
50 3:149 
50 
50 3:147 
50 
50 3:147 
50 
50 3:146 
50 
50 3:145 
50 
50 3:145 
50 
50 3:145 
50 
1.372098934599829 1:95 2:76 3:147 
1.283415688136919 2:76 3:147 
50 3:147 
50 
1.073062445256117 1:95 2:67 3:145 
1.039534544587708 2:67 3:145 
50 3:145 
50 
50 1:94 2:86 3:163 
50 2:86 3:163 
50 3:163 
50 
50 3:155 
50 
50 3:151 
50 
50 3:149 
50 
50 3:152 
50 
50 3:155 
50 
50 3:154 
50 
50 
50 3:152 
50 
50 3:151 
50 
50 3:150 
50 
50 3:149 
50 
50 3:149 
50 
50 3:150 
50 
50 3:152 
50 
50 3:155 
50 
50 
50 3:150 
50 
50 3:151 
50 
50 3:152 
50 
50 
50 
0.7653612856116711 1:94 2:85 3:153 
0.7467439648960883 2:85 3:153 
50 
2.055518287725974 3:153 
50 
0.8267135250733503 1:94 2:82 3:152 
0.6650035906666868 2:82 3:152 
50 3:152 
50 
50 3:148 
50 
50 3:151 
50 
0.3585310424948474 1:94 2:84 3:149 
0.3555738771990525 2:84 3:149 
50 3:149 
50 
0.9490619478799715 1:94 2:83 3:150 
0.8461717282775079 2:83 3:150 
50 3:150 
50 
0.7094267959264127 1:94 2:83 3:151 
0.8041049350926253 2:83 3:151 
50 3:151 
50 
0.8799526639255552 1:94 2:82 3:153 
1.139304857879757 2:82 3:153 
50 3:153 
50 
50 3:147 
50 
0.4119556541275846 1:94 2:86 3:146 
0.3719914207624654 2:86 3:146 
50 3:146 
50 
50 3:148 
50 
50 3:151 
50 
50 3:150 
50 
50 3:148 
50 
50 3:149 
50 
50 3:148 
50 
1.080330625217259 1:94 2:86 3:145 
1.084379954657033 2:86 3:145 
50 3:145 
50 
0.9454095426305714 1:95 2:83 3:144 
1.832181511232272 2:83 3:144 
50 3:144 
50 
50 3:146 
50 
1.604097089305583 1:95 2:74 3:151 
1.595104074462951 2:74 3:151 
50 3:151 
50 
1.646721818988274 1:95 2:64 3:151 
1.646823271068354 2:64 3:151 
50 3:151 
50 
2.952947581061934 1:96 2:90 3:161 
3.03702238016639 2:90 3:161 
50 3:161 
50 
50 3:154 
50 
50 3:151 
50 
50 3:150 
50 
50 3:151 
50 
50 3:152 
50 
50 3:151 
50 
50 3:152 
50 
50 3:154 
50 
50 3:151 
50 
50 3:151 
50 
50 3:151 
50 
50 3:151 
50 
50 3:151 
50 
50 3:152 
50 
50 3:154 
50 
4.16859633492357 1:94 2:88 3:156 
50 2:88 3:156 
50 
50 3:151 
50 
50 3:152 
50 
50 3:154 
50 
50 3:154 
50 
50 3:153 
50 
50 3:153 
50 
50 3:153 
50 
50 3:153 
50 
50 3:153 
50 
50 
50 3:153 
50 
1.069376447409749 1:95 2:86 3:155 
1.41437090635224 2:86 3:155 
50 3:155 
50 
50 3:154 
50 
50 3:154 
50 
50 3:148 
50 
0.9159115408517078 2:90 3:147 
50 3:147 
50 
50 3:146 
50 
50 3:150 
50 
0.4270554106263201 1:94 2:87 3:150 
0.18286377171788 2:87 3:150 
50 3:150 
50 
50 3:147 
50 
50 3:148 
50 
50 3:149 
50 
0.8370826759155929 1:94 2:85 3:147 
0.8156569577987202 2:85 3:147 
50 3:147 
50 
50 3:145 
50 
0.2554980343884691 1:95 2:79 3:145 
50 3:145 
50 
1.334263849840805 1:96 2:72 3:149 
1.36700305084676 2:72 3:149 
50 3:149 
50 
1.529724541292809 1:95 2:65 3:149 
1.52918533297116 2:65 3:149 
50 3:149 
50 
50 3:159 
50 
50 
50 3:154 
50 
50 3:152 
50 
50 3:152 
50 
50 3:150 
50 
1.243503412455121 1:94 2:95 3:148 
1.946500638751555 2:95 3:148 
50 3:148 
50 
0.07326565778509886 1:94 2:93 3:150 
50 3:150 
50 
50 3:153 
50 
0.8790890952306403 1:94 2:94 3:149 
1.072774821409887 2:94 3:149 
50 3:149 
50 
50 3:151 
50 
50 3:153 
50 
50 3:154 
50 
50 3:153 
50 
50 3:153 
50 
50 3:154 
50 
50 1:94 2:88 3:157 
50 2:88 3:157 
50 
50 3:150 
50 
50 3:151 
50 
50 3:152 
50 
50 3:153 
50 
50 3:153 
50 
0.9886716915913053 2:87 3:152 
50 3:152 
50 
50 2:87 3:152 
50 3:152 
50 
50 3:153 
50 
3.269264151002202 1:95 2:84 3:157 
4.169030909305973 2:84 3:157 
50 
50 1:95 2:84 3:158 
50 2:84 3:158 
5.208359238405734 3:158 
50 
0.4057255287848636 1:95 2:86 3:154 
0.09848329679279277 2:86 3:154 
50 3:154 
50 
0.3119248484395875 1:95 2:85 3:156 
49.88413584319445 2:85 3:156 
50 
0.6948465286045124 1:95 2:87 3:153 
0.3894446440799197 2:87 3:153 
50 3:153 
50 
0.3056046464081905 1:95 2:87 3:152 
49.18206434528077 2:87 3:152 
50 3:152 
50 
0.4691603502513224 1:95 2:90 3:147 
49.62655934781993 2:90 3:147 
50 3:147 
50 
50 3:148 
50 
50 3:147 
50 
0.579293008179169 1:94 2:86 3:152 
0.5724794098022238 2:86 3:152 
50 3:152 
50 
0.6213090491480167 1:94 2:86 3:151 
0.6012063350725423 2:86 3:151 
50 3:151 
50 
50 3:146 
50 
50 3:146 
50 
0.5248740239679081 1:94 2:88 3:148 
0.3525703783441096 2:88 3:148 
50 3:148 
50 
1.004252229776933 1:94 2:84 3:148 
0.9577626808304127 2:84 3:148 
50 3:148 
50 
1.14470994531683 1:95 2:81 3:148 
1.641528500844574 2:81 3:148 
50 3:148 
50 
50 3:143 
50 
1.244026477394379 1:96 2:74 3:144 
0.9464031955427102 2:74 3:144 
50 3:144 
50 
50 3:141 
50 
50 
50 3:158 
50 
50 
50 3:155 
50 
50 3:155 
50 
50 3:154 
50 
50 3:152 
50 
0.7053679038503975 1:94 2:97 3:150 
50 3:150 
50 
50 3:151 
50 
1.742696613741786 1:94 2:99 3:147 
50 2:99 3:147 
50 3:147 
50 
50 3:151 
50 
50 
50 
50 3:152 
50 
1.324808725217678 1:94 2:93 3:151 
1.961680555161187 2:93 3:151 
50 3:151 
50 
50 3:154 
50 
50 3:154 
50 
50 
50 3:154 
50 
50 3:155 
50 
50 3:154 
50 
50 3:153 
50 
50 3:153 
50 
50 3:149 
50 
50 3:149 
50 
50 3:152 
50 
50 3:153 
50 
50 3:154 
50 
50 3:150 
50 
50 3:153 
50 
50 3:147 
50 
50 3:148 
50 
0.96102546018172 1:94 2:92 3:149 
0.9933761664423397 2:92 3:149 
50 3:149 
50 
0.5711250027830577 1:94 2:88 3:147 
0.6007111929430009 2:88 3:147 
50 3:147 
50 
0.685813003602466 1:94 2:87 3:149 
0.7878626706306166 2:87 3:149 
50 3:149 
50 
0.7102448402458894 1:95 2:89 3:149 
0.61521906950468 2:89 3:149 
50 3:149 
50 
50 3:145 
50 
0.7851728894027734 1:95 2:89 3:144 
0.856034459118123 2:89 3:144 
50 3:144 
50 
50 3:145 
50 
50 3:145 
50 
50 3:143 
50 
50 3:144 
50 
50 3:142 
50 
50 3:142 
50 
50 3:158 
50 
50 3:158 
50 
50 3:160 
50 
50 3:159 
50 
50 
50 3:155 
50 
50 3:155 
50 
1.158601960261262 1:94 2:95 3:153 
50 3:153 
50 
0.7863255435341243 1:94 2:96 3:151 
50 3:151 
50 
1.282991911162811 1:94 2:98 3:149 
1.681237617372963 2:98 3:149 
50 3:149 
50 
0.5712500445714592 1:94 2:96 3:152 
50 3:152 
50 
50 
50 3:155 
50 
50 3:153 
50 
0.7146223199140354 1:94 2:91 3:154 
0.2887038704914411 2:91 3:154 
50 3:154 
50 
1.124053309503609 2:89 3:155 
50 3:155 
50 
0.4509074038672992 1:94 2:89 3:154 
50 3:154 
50 
50 3:155 
50 
50 3:153 
50 
50 3:155 
50 
1.162750167986189 1:94 2:92 3:153 
3.147955856720784 2:92 3:153 
50 3:153 
50 
0.3280229866388205 1:94 2:91 3:152 
50 3:152 
50 
50 3:151 
50 
50 3:147 
50 
50 3:146 
50 
0.7975300954178873 2:91 3:151 
50 3:151 
50 
50 1:94 2:89 3:154 
49.87281015042004 2:89 3:154 
50 3:154 
50 
0.823459496858343 1:94 2:90 3:153 
0.9826163727742676 2:90 3:153 
50 3:153 
50 
50 3:148 
50 
50 2:91 3:151 
50 3:151 
50 
0.7003055377875344 1:94 2:91 3:151 
50 2:91 3:151 
50 3:151 
50 
0.1311017948889158 1:94 2:92 3:150 
50 3:150 
50 
50 3:148 
50 
0.417614572363221 1:95 2:88 3:150 
49.91249205649753 2:88 3:150 
50 3:150 
50 
0.7704288560218866 1:94 2:89 3:146 
0.5948672773617139 2:89 3:146 
50 3:146 
50 
50 3:145 
50 
0.7404916166405282 2:92 3:144 
50 3:144 
50 
50 3:142 
50 
1.019217835339565 1:95 2:91 3:140 
0.5312665216807351 2:91 3:140 
50 3:140 
50 
1.209244406569876 1:95 2:86 3:140 
1.026698641984706 2:86 3:140 
50 3:140 
50 
1.318904508473235 1:95 2:81 3:142 
1.972298044231702 2:81 3:142 
50 3:142 
50 
50 3:142 
50 
1.178241314463286 1:97 2:72 3:141 
0.912808441666101 2:72 3:141 
50 3:141 
50 
50 3:141 
50 
1.000300105478177 1:96 2:97 3:158 
0.5843984046625013 2:97 3:158 
50 3:158 
50 
50 3:159 
50 
50 3:163 
50 
50 3:163 
50 
50 3:158 
50 
50 3:155 
50 
50 3:158 
50 
49.80692321647382 3:157 
50 
50 3:154 
50 
50 3:155 
50 
50 3:158 
50 
0.7285011559340585 1:94 2:93 3:157 
50 3:157 
50 
1.124953867245591 1:94 2:94 3:155 
50 3:155 
50 
3.024328182382716 3:156 
50 
50 1:94 2:88 3:159 
50 2:88 3:159 
50 3:159 
50 
3.377209450037261 1:94 2:89 3:158 
2.651319239889573 2:89 3:158 
50 3:158 
50 
50 3:155 
50 
50 3:160 
50 
50 3:158 
50 
0.1116268580164954 1:96 2:91 3:160 
0.143667022692473 2:91 3:160 
50 3:160 
50 
50 3:158 
50 
50 3:156 
50 
50 3:156 
50 
50 3:152 
50 
50 3:151 
50 
50 3:155 
50 
50 1:96 2:91 3:160 
50 2:91 3:160 
50 3:160 
50 
50 3:156 
50 
50 3:151 
50 
50 3:152 
50 
50 3:157 
50 
50 3:154 
50 
50 3:147 
50 
1.016196630121785 1:95 2:88 3:151 
1.023909719520672 2:88 3:151 
50 3:151 
50 
0.7212561022286649 1:95 2:87 3:147 
0.4858573006925667 2:87 3:147 
50 3:147 
50 
50 3:145 
50 
1.015460299864921 1:95 2:92 3:144 
50 2:92 3:144 
50 3:144 
50 
50 3:142 
50 
50 1:95 2:92 3:139 
50 2:92 3:139 
50 3:139 
50 
1.626105387307911 1:95 2:87 3:138 
1.540168694344428 2:87 3:138 
50 3:138 
50 
50 3:141 
50 
0.1928351582456934 1:95 2:80 3:141 
50 3:141 
50 
1.13317337623564 1:97 2:73 3:140 
0.8564904074275161 2:73 3:140 
50 3:140 
50 
1.174414574924834 1:96 2:65 3:141 
0.9937016960467013 2:65 3:141 
50 3:141 
50 
50 3:155 
50 
50 3:159 
50 
50 3:163 
50 
50 3:164 
50 
50 3:158 
50 
50 3:155 
50 
50 3:157 
50 
50 3:157 
50 
50 3:154 
50 
50 3:159 
50 
50 3:161 
50 
0.821002169885474 1:94 2:92 3:158 
50 3:158 
50 
0.5916716588792323 1:94 2:93 3:156 
50 3:156 
50 
50 1:94 2:88 3:160 
50 2:88 3:160 
50 3:160 
50 
50 1:94 2:86 3:163 
50 2:86 3:163 
50 3:163 
50 
50 1:94 2:88 3:160 
50 2:88 3:160 
50 3:160 
50 
0.2896996216920967 1:94 2:90 3:155 
0.03376579162330951 2:90 3:155 
50 3:155 
50 
50 1:96 2:89 3:164 
50 2:89 3:164 
50 3:164 
50 
0.9076517869417413 1:96 2:91 3:159 
50 3:159 
50 
50 3:156 
50 
1.347720976320099 1:96 2:97 3:150 
0.9081867467209365 2:97 3:150 
50 3:150 
50 
50 1:96 2:98 3:149 
49.96300696216105 2:98 3:149 
50 3:149 
50 
1.104471042718255 1:96 2:95 3:153 
1.354497842146564 2:95 3:153 
50 3:153 
50 
0.3272449593092108 1:96 2:94 3:155 
0.1066121725407903 2:94 3:155 
50 3:155 
50 
0.9239753669568794 1:96 2:92 3:158 
1.036626503245295 2:92 3:158 
50 3:158 
50 
50 3:157 
50 
49.90224884774341 1:96 2:90 3:161 
49.80808367734678 2:90 3:161 
50 3:161 
50 
0.9666898943587645 1:96 2:93 3:156 
1.095044485120573 2:93 3:156 
50 3:156 
50 
1.296869109578076 1:96 2:94 3:154 
2.069257130974528 2:94 3:154 
50 3:154 
50 
50 3:152 
50 
0.5428659381385093 1:96 2:93 3:157 
0.6015950950619986 2:93 3:157 
50 3:157 
50 
2.025005734870182 1:96 2:96 3:151 
2.837638649226886 2:96 3:151 
50 3:151 
50 
50 1:96 2:96 3:148 
50 2:96 3:148 
50 3:148 
50 
0.8881762885915177 1:95 2:90 3:148 
0.7230265461330054 2:90 3:148 
50 3:148 
50 
0.8524538093674079 1:95 2:86 3:148 
0.5846890502911164 2:86 3:148 
50 3:148 
50 
50 3:146 
50 
50 3:143 
50 
0.3073023237070705 1:95 2:90 3:141 
50 3:141 
50 
1.080665042734428 1:95 2:90 3:142 
1.12858377935558 2:90 3:142 
50 3:142 
50 
50 3:142 
50 
0.7169399697141452 1:95 2:85 3:141 
0.8877583669052402 2:85 3:141 
50 3:141 
50 
0.9166058736164274 1:95 2:78 3:143 
0.4601511357711691 2:78 3:143 
50 3:143 
50 
1.189344684859276 1:96 2:75 3:142 
0.999999582422114 2:75 3:142 
50 3:142 
50 
0.824701447476982 1:96 2:65 3:142 
0.3519279580655489 2:65 3:142 
50 3:142 
50 
1.222277084810543 1:96 2:99 3:154 
1.398552764526289 2:99 3:154 
50 3:154 
50 
50 3:157 
50 
50 3:159 
50 
50 3:159 
50 
50 3:157 
50 
50 1:95 2:101 3:154 
50 2:101 3:154 
50 3:154 
50 
50 1:95 2:101 3:154 
50 2:101 3:154 
50 3:154 
50 
50 1:95 2:101 3:154 
50 2:101 3:154 
50 3:154 
50 
50 1:95 2:100 3:155 
50 2:100 3:155 
50 3:155 
50 
50 3:157 
50 
50 3:161 
50 
50 3:159 
50 
50 3:158 
50 
50 3:163 
50 
3.366856231430407 1:95 2:91 3:166 
50 2:91 3:166 
50 3:166 
50 
50 1:94 2:88 3:160 
50 2:88 3:160 
50 3:160 
50 
1.056026920282445 1:94 2:90 3:156 
1.275332141360013 2:90 3:156 
50 3:156 
50 
50 3:160 
50 
50 3:158 
50 
50 3:157 
50 
50 3:154 
50 
50 3:153 
50 
50 3:156 
50 
50 3:154 
50 
50 3:155 
50 
50 3:154 
50 
50 3:157 
50 
50 3:153 
50 
50 3:154 
50 
1.402273785655275 1:95 2:100 3:151 
1.501857732717717 2:100 3:151 
50 3:151 
50 
50 3:152 
50 
50 1:96 2:100 3:146 
50 2:100 3:146 
50 3:146 
50 
50 1:96 2:98 3:146 
50 2:98 3:146 
50 3:146 
50 
50 3:145 
50 
0.8397380134571021 2:91 3:145 
50 3:145 
50 
50 3:143 
50 
50 3:141 
50 
0.5329333155884313 1:95 2:94 3:141 
0.391461204046154 2:94 3:141 
50 3:141 
50 
50 3:143 
50 
50 3:145 
50 
1.355441335836199 1:96 2:84 3:145 
0.6750468296153207 2:84 3:145 
50 3:145 
50 
1.120600734738167 1:95 2:79 3:146 
2.02986970969686 2:79 3:146 
50 3:146 
50 
0.2456239906661811 1:95 2:78 3:144 
0.2595159483764573 2:78 3:144 
50 3:144 
50 
1.233351648478812 1:95 2:68 3:142 
1.198412546213972 2:68 3:142 
50 3:142 
50 
0.9263956250489345 1:96 2:99 3:155 
1.781111844352019 2:99 3:155 
50 3:155 
50 
50 3:155 
50 
50 3:155 
50 
50 3:156 
50 
50 3:157 
50 
50 1:95 2:100 3:155 
50 2:100 3:155 
50 3:155 
50 
50 3:153 
50 
50 3:153 
50 
50 1:95 2:100 3:155 
50 2:100 3:155 
50 3:155 
50 
50 3:156 
50 
0.8866375772619608 1:95 2:97 3:160 
0.5385429385848523 2:97 3:160 
50 3:160 
50 
50 3:159 
50 
50 3:158 
50 
1.176858029403653 1:95 2:92 3:164 
1.757452772317597 2:92 3:164 
50 3:164 
50 
50 1:95 2:91 3:165 
50 2:91 3:165 
50 3:165 
50 
50 1:94 2:88 3:160 
50 2:88 3:160 
50 3:160 
50 
0.9937374895340405 1:94 2:91 3:159 
0.8576780283353251 2:91 3:159 
50 3:159 
50 
50 3:158 
50 
50 3:159 
50 
50 3:163 
50 
50 3:161 
50 
50 3:161 
50 
50 3:161 
50 
50 3:155 
50 
50 3:152 
50 
50 3:152 
50 
50 3:152 
50 
50 3:150 
50 
50 3:153 
50 
50 3:152 
50 
2.084205920485473 1:95 2:101 3:149 
2.402383661556202 2:101 3:149 
50 3:149 
50 
50 1:96 2:100 3:145 
50 2:100 3:145 
50 3:145 
50 
50 1:96 2:98 3:148 
50 2:98 3:148 
50 3:148 
50 
0.2080634386050408 1:94 2:94 3:147 
49.89520547653086 2:94 3:147 
50 3:147 
50 
50 3:142 
50 
1.070933293572913 1:95 2:95 3:140 
0.759823066308795 2:95 3:140 
50 3:140 
50 
0.2282671088086938 2:93 3:142 
50 3:142 
50 
0.7806955233572606 1:95 2:93 3:143 
1.018695665718322 2:93 3:143 
50 3:143 
50 
0.5557737704455326 1:95 2:93 3:142 
50 2:93 3:142 
50 3:142 
50 
50 3:145 
50 
50 3:150 
50 
0.6567234667136137 1:95 2:84 3:143 
0.4792943924872497 2:84 3:143 
50 3:143 
50 
0.9138479440089 1:95 2:79 3:142 
0.7243107820283894 2:79 3:142 
50 3:142 
50 
1.682693555168534 1:95 2:70 3:138 
1.684965710761806 2:70 3:138 
50 3:138 
50 
50 3:156 
50 
50 3:154 
50 
50 3:154 
50 
50 3:157 
50 
50 3:159 
50 
0.91064246550049 1:95 2:98 3:159 
1.261861626997384 2:98 3:159 
50 3:159 
50 
0.2966515032235836 1:95 2:99 3:157 
0.2226979788051017 2:99 3:157 
50 3:157 
50 
50 3:156 
50 
50 3:156 
50 
50 3:158 
50 
50 3:161 
50 
50 3:159 
50 
50 3:158 
50 
50 3:163 
50 
50 3:162 
50 
50 3:159 
50 
0.8809804019676777 1:95 2:92 3:163 
0.6149872724852521 2:92 3:163 
50 3:163 
50 
0.9050049355818586 1:95 2:93 3:161 
0.8301351419739771 2:93 3:161 
50 3:161 
50 
50 1:95 2:98 3:159 
50 2:98 3:159 
50 3:159 
50 
50 3:158 
50 
50 3:153 
50 
50 3:152 
50 
50 3:156 
50 
50 3:156 
50 
50 3:157 
50 
50 3:153 
50 
50 3:152 
50 
50 3:152 
50 
50 3:152 
50 
50 3:155 
50 
50 3:150 
50 
0.1206560423367165 1:95 2:100 3:150 
50 3:150 
50 
0.4875332348363123 1:96 2:96 3:152 
0.294052006943242 2:96 3:152 
50 3:152 
50 
0.3431487616333819 1:94 2:93 3:148 
0.2975159186590035 2:93 3:148 
50 3:148 
50 
0.2985077657610601 1:94 2:96 3:143 
50 2:96 3:143 
50 3:143 
50 
1.040602646369698 1:94 2:98 3:141 
0.8460587159928581 2:98 3:141 
50 3:141 
50 
50 3:145 
50 
50 3:146 
50 
50 3:144 
50 
0.4092959108258323 2:91 3:146 
50 3:146 
50 
1.214184383834234 1:95 2:85 3:150 
0.9482733505959974 2:85 3:150 
50 3:150 
50 
0.9167271564190807 1:95 2:84 3:142 
1.052300711097858 2:84 3:142 
50 3:142 
50 
50 3:141 
50 
1.516990479818473 1:95 2:74 3:138 
1.453830960299908 2:74 3:138 
50 3:138 
50 
0.7073380025078223 1:96 2:98 3:156 
0.2071798160360704 2:98 3:156 
50 3:156 
50 
50 3:154 
50 
50 3:156 
50 
50 3:159 
50 
50 3:162 
50 
50 3:163 
50 
1.017678073030473 1:95 2:97 3:161 
1.043219304700797 2:97 3:161 
50 3:161 
50 
50 1:95 2:98 3:159 
50 2:98 3:159 
50 3:159 
50 
50 3:158 
50 
50 1:95 2:98 3:159 
50 2:98 3:159 
50 3:159 
50 
50 3:162 
50 
0.6870420268181434 1:95 2:95 3:159 
0.6244741323517976 2:95 3:159 
50 3:159 
50 
50 3:157 
50 
0.9951497770541976 1:95 2:94 3:160 
1.053731370031646 2:94 3:160 
50 3:160 
50 
50 3:157 
50 
50 3:155 
50 
0.6186242231591026 1:95 2:93 3:162 
0.6981331516568984 2:93 3:162 
50 3:162 
50 
50 1:95 2:99 3:157 
50 2:99 3:157 
50 3:157 
50 
3.124588624560182 1:95 2:100 3:156 
3.274078310916267 2:100 3:156 
50 3:156 
50 
50 3:156 
50 
50 3:152 
50 
50 3:153 
50 
0.4185299443920418 1:95 2:96 3:157 
0.3595635731813904 2:96 3:157 
50 3:157 
50 
50 3:155 
50 
50 3:155 
50 
50 3:156 
50 
0.3243108567666405 1:95 2:98 3:154 
50 3:154 
50 
50 3:155 
50 
0.7914353751294964 1:95 2:99 3:152 
0.7487554964281412 2:99 3:152 
50 3:152 
50 
0.8995461276880534 1:95 2:96 3:156 
1.031502433334555 2:96 3:156 
50 3:156 
50 
50 1:95 2:99 3:152 
50 2:99 3:152 
50 3:152 
50 
0.8309767424529022 1:95 2:98 3:153 
0.7292792267401289 2:98 3:153 
50 3:153 
50 
0.8704871394486262 1:95 2:97 3:155 
0.8344897920377075 2:97 3:155 
50 3:155 
50 
1.308140772616364 1:94 2:97 3:144 
1.30720412576021 2:97 3:144 
50 3:144 
50 
0.2506643506726494 1:94 2:96 3:144 
0.4207140157851615 2:96 3:144 
50 3:144 
50 
50 3:145 
50 
1.12180328362126 1:94 2:95 3:145 
1.061008809105524 2:95 3:145 
50 3:145 
50 
50 3:146 
50 
1.017183060456111 1:94 2:94 3:146 
1.135424891692021 2:94 3:146 
50 3:146 
50 
0.8250126839792017 1:95 2:91 3:146 
50 2:91 3:146 
50 3:146 
50 
0.394113171599399 1:95 2:91 3:145 
49.84162898973975 2:91 3:145 
50 3:145 
50 
0.912749880624959 1:95 2:88 3:145 
0.7545897200066043 2:88 3:145 
50 3:145 
50 
0.2104480213428613 1:95 2:83 3:145 
50 3:145 
50 
1.232864072368373 1:95 2:77 3:145 
0.9986079856556185 2:77 3:145 
50 3:145 
50 
0.8622187543629432 1:95 2:95 3:158 
0.9385527070362071 2:95 3:158 
50 3:158 
50 
50 1:95 2:100 3:156 
50 2:100 3:156 
50 3:156 
50 
50 1:95 2:102 3:152 
50 2:102 3:152 
50 3:152 
50 
50 1:95 2:97 3:160 
50 2:97 3:160 
50 3:160 
50 
0.5308445944219722 1:95 2:98 3:158 
0.5889639966853881 2:98 3:158 
50 3:158 
50 
0.9963906404688919 1:95 2:96 3:162 
0.9989662633980294 2:96 3:162 
50 3:162 
50 
50 3:163 
50 
1.368478131259834 1:95 2:95 3:163 
1.374912033611721 2:95 3:163 
50 3:163 
50 
50 1:95 2:95 3:163 
50 2:95 3:163 
50 3:163 
50 
50 1:95 2:99 3:157 
50 2:99 3:157 
50 3:157 
50 
50 1:95 2:98 3:159 
50 2:98 3:159 
50 3:159 
50 
50 1:95 2:96 3:162 
50 2:96 3:162 
50 3:162 
50 
50 1:95 2:98 3:159 
50 2:98 3:159 
50 3:159 
50 
50 1:95 2:96 3:162 
50 2:96 3:162 
50 3:162 
50 
50 1:95 2:98 3:159 
49.65801950157352 2:98 3:159 
50 3:159 
50 
50 1:95 2:95 3:163 
50 2:95 3:163 
50 3:163 
50 
49.83778254476718 1:95 2:96 3:162 
49.83332004304134 2:96 3:162 
50 3:162 
50 
50 1:95 2:99 3:157 
50 2:99 3:157 
50 3:157 
50 
50 1:95 2:107 3:146 
50 2:107 3:146 
50 3:146 
50 
49.69708398749104 1:95 2:97 3:160 
50 2:97 3:160 
50 3:160 
50 
50 1:95 2:99 3:157 
50 2:99 3:157 
47.9683087443055 3:157 
50 
50 1:95 2:102 3:152 
50 2:102 3:152 
50 3:152 
50 
50 3:153 
50 
3.533503859359596 1:95 2:102 3:153 
4.028251846218098 2:102 3:153 
50 3:153 
50 
50 1:95 2:101 3:154 
50 2:101 3:154 
46.79209613406064 3:154 
50 
50 1:95 2:102 3:153 
50 2:102 3:153 
50 3:153 
50 
50 1:95 2:100 3:156 
50 2:100 3:156 
50 3:156 
50 
50 1:95 2:100 3:156 
50 2:100 3:156 
49.36982737481291 3:156 
50 
50 1:95 2:100 3:155 
50 2:100 3:155 
50 3:155 
50 
50 1:95 2:100 3:155 
50 2:100 3:155 
50 3:155 
50 
50 1:95 2:102 3:152 
50 2:102 3:152 
45.30179066747849 3:152 
50 
50 1:95 2:103 3:151 
50 2:103 3:151 
50 3:151 
50 
-50 1:95 2:99 3:152 
-50 2:99 3:152 
-50 3:152 
-50 1:96 2:98 3:148 
-50 2:98 3:148 
-1.021043764413044 2:99 3:147 
-0.21924204573617 1:96 2:97 3:147 
-0.3387328927856445 2:97 3:147 
-0.1382449711627844 2:95 3:150 
-1.101640383495237 2:88 3:156 
-50 3:156 
-50 2:96 3:143 
-0.3713842917742837 1:97 2:88 3:150 
-50 2:88 3:150 
-0.1449858174892172 1:96 2:78 3:156 
-0.07272914595904294 2:78 3:156 
-50 3:156 
-0.2797860773311074 1:97 2:78 3:150 
-1.072923174087786 2:78 3:150 
-50 1:95 2:98 3:159 
-50 2:98 3:159 
-50 3:155 
-50 1:95 2:100 3:156 
-50 2:100 3:156 
-50 3:156 
-2.952406673013244 1:95 2:100 3:155 
-4.153781892280692 2:100 3:155 
-50 3:155 
-50 1:95 2:98 3:159 
-50 2:98 3:159 
-4.552597831609385 3:159 
-50 1:95 2:97 3:160 
-50 2:97 3:160 
-50 1:95 2:98 3:159 
-50 2:98 3:159 
-50 3:159 
-50 1:95 2:99 3:157 
-50 2:99 3:157 
-50 3:157 
-50 1:95 2:98 3:159 
-50 2:98 3:159 
-50 3:159 
-50 1:95 2:98 3:159 
-50 2:98 3:159 
-50 3:159 
-50 1:95 2:97 3:160 
-50 2:97 3:160 
-50 1:95 2:96 3:162 
-50 2:96 3:162 
-50 1:95 2:95 3:163 
-50 2:95 3:163 
-50 1:95 2:95 3:163 
-50 2:95 3:163 
-50 1:95 2:96 3:162 
-50 2:96 3:162 
-50 1:95 2:96 3:162 
-50 2:96 3:162 
-50 1:95 2:100 3:156 
-50 2:100 3:156 
-50 3:156 
-50 1:95 2:100 3:155 
-50 2:100 3:155 
-50 3:155 
-50 1:95 2:100 3:155 
-50 2:100 3:155 
-50 3:155 
-50 1:95 2:100 3:155 
-50 2:100 3:155 
-50 3:155 
-50 1:95 2:100 3:156 
-50 2:100 3:156 
-50 3:156 
-50 3:152 
-50 1:95 2:101 3:154 
-50 2:101 3:154 
-50 3:154 
-50 1:95 2:99 3:157 
-50 2:99 3:157 
-50 3:157 
-50 1:95 2:100 3:155 
-50 2:100 3:155 
-50 3:155 
-50 3:152 
-2.641391656209521 1:95 2:102 3:152 
-2.902772079668806 2:102 3:152 
-50 3:152 
-50 1:95 2:102 3:153 
-50 2:102 3:153 
-50 3:153 
-50 3:151 
-50 3:151 
-0.1322549706496454 1:95 2:104 3:144 
-0.0634551705741353 2:104 3:144 
-50 3:145 
-0.206496617977594 1:96 2:100 3:145 
-0.1753963840637494 2:100 3:145 
-50 3:145 
-49.70360302749224 1:96 2:96 3:148 
-50 2:96 3:148 
-0.04724417969782263 1:96 2:98 3:146 
-0.09721006677699356 2:98 3:146 
-1.116337459999836 1:96 2:96 3:149 
-1.749936923483161 2:96 3:149 
-0.2331946647235649 1:97 2:88 3:156 
-48.90378849029189 2:88 3:156 
-50 3:156 
-50 2:91 3:151 
-50 3:151 
-50 2:87 3:152 
-50 3:152 
-0.4546513403307255 1:97 2:85 3:156 
-50 2:85 3:156 
-50 3:156 
-50 1:95 2:98 3:159 
-50 2:98 3:159 
-50 3:159 
-49.92118683011938 1:95 2:100 3:155 
-49.73107018399084 2:100 3:155 
-50 3:155 
-50 3:152 
-50 3:154 
-50 3:153 
-50 3:158 
-50 3:158 
-50 3:155 
-50 3:152 
-50 3:157 
-50 3:157 
-50 3:156 
-50 3:155 
-50 3:153 
-50 3:152 
-50 3:153 
-50 3:153 
-50 3:155 
-50 3:156 
-50 3:157 
-50 3:151 
-50 1:95 2:101 3:154 
-50 2:101 3:154 
-50 3:154 
-50 1:95 2:99 3:157 
-50 2:99 3:157 
-50 3:157 
-50 1:95 2:101 3:154 
-50 2:101 3:154 
-50 3:154 
-50 1:95 2:102 3:152 
-50 2:102 3:152 
-50 3:152 
-50 1:95 2:102 3:152 
-50 2:102 3:152 
-50 3:152 
-50 1:95 2:107 3:146 
-50 2:107 3:146 
-0.9300199409888024 1:95 2:102 3:148 
-0.8864604976368091 2:102 3:148 
-50 1:96 2:98 3:149 
-50 2:98 3:149 
-0.4154300089602676 1:96 2:99 3:147 
-49.27203122132774 2:99 3:147 
-49.95233626557264 1:96 2:100 3:145 
-50 2:100 3:145 
-50 3:145 
-1.926334113760561 1:96 2:95 3:151 
-2.418561865989727 2:95 3:151 
-50 3:151 
-1.032778176294865 1:96 2:93 3:153 
-3.349622862945098 2:93 3:153 
-50 3:153 
-0.2149041855745898 1:97 2:91 3:151 
-50 2:91 3:151 
-50 3:151 
-0.3431380161575898 1:97 2:87 3:152 
-50 2:87 3:152 
-50 3:152 
-0.04837820806224991 1:97 2:81 3:144 
-1.217275423849017 2:81 3:144 
-50 1:95 2:99 3:157 
-50 2:99 3:157 
-50 3:157 
-50 3:157 
-50 3:156 
-50 3:156 
-50 3:155 
-50 3:158 
-50 3:158 
-50 3:154 
-50 3:152 
-50 3:159 
-50 3:159 
-0.1019900167067428 1:95 2:105 3:153 
-50 3:153 
-50 3:159 
-50 3:155 
-50 3:157 
-50 3:154 
-50 3:154 
-50 3:151 
-50 1:95 2:101 3:154 
-50 2:101 3:154 
-50 3:154 
-50 1:95 2:102 3:152 
-50 2:102 3:152 
-50 3:152 
-0.05700013626367201 1:95 2:105 3:148 
-0.0633139407679289 2:105 3:148 
-0.0994401629608821 1:95 2:106 3:147 
-0.09195461643500735 2:106 3:147 
-49.29260711875592 1:95 2:103 3:151 
-48.86561958088466 2:103 3:151 
-50 3:151 
-0.3036599253061955 1:95 2:104 3:150 
-0.3252413040108292 2:104 3:150 
-50 1:96 2:100 3:146 
-49.91409006566282 2:100 3:146 
-0.1333820890525839 1:96 2:100 3:143 
-0.1916224837905896 2:100 3:143 
-50 1:96 2:98 3:146 
-50 2:98 3:146 
-0.2354734534553868 1:97 2:94 3:147 
-50 2:94 3:147 
-0.3112407497183661 1:97 2:90 3:147 
-50 2:90 3:147 
-50 3:147 
-0.3310261185899223 1:97 2:82 3:143 
-1.454881097356355 2:82 3:143 
-50 3:154 
-50 3:156 
-50 3:159 
-0.3853217226574971 1:95 2:102 3:157 
-0.38442788075673 2:102 3:157 
-50 3:157 
-50 3:156 
-50 3:158 
-50 3:158 
-50 3:155 
-50 3:154 
-50 3:156 
-0.2605238882408947 1:95 2:100 3:160 
-0.2498159051373992 2:100 3:160 
-50 3:152 
-50 3:151 
-50 3:151 
-0.1422600917398566 1:96 2:100 3:164 
-0.1772891975024811 2:100 3:164 
-0.03783814252860714 1:96 2:104 3:157 
-50 3:157 
-0.06376069966675835 1:96 2:103 3:158 
-50 3:158 
-50 3:154 
-50 3:153 
-50 3:151 
-50 3:152 
-50 3:153 
-50 3:152 
-50 3:145 
-50 3:147 
-50 3:147 
-50 3:147 
-0.1166797080828061 1:96 2:104 3:147 
-0.03145634997593361 2:104 3:147 
-50 3:147 
-0.08381271271659735 1:97 2:102 3:143 
-0.07088645444941127 2:102 3:143 
-0.1609675844993711 1:97 2:96 3:143 
-50 2:96 3:143 
-0.1551076081603158 1:97 2:91 3:145 
-50 2:91 3:145 
-50 3:145 
-50 3:145 
-50 3:149 
-50 3:152 
-50 3:159 
-50 3:154 
-50 3:154 
-50 3:155 
-50 3:156 
-0.06554570930315196 1:95 2:104 3:154 
-50 3:154 
-50 3:155 
-0.09668241568517777 1:95 2:101 3:159 
-0.093446211150711 2:101 3:159 
-50 3:159 
-0.2268491013668558 1:95 2:99 3:162 
-0.2625588589635506 2:99 3:162 
-0.05566372722770552 1:95 2:99 3:163 
-0.01361975527311526 2:99 3:163 
-0.06251919155296601 1:95 2:108 3:149 
-0.0595103121846628 2:108 3:149 
-50 3:149 
-50 3:155 
-0.03696555774186378 2:106 3:152 
-50 3:152 
-50 3:155 
-0.0468405637794681 1:96 2:100 3:163 
-0.1508753864110022 1:96 2:105 3:156 
-50 3:156 
-50 3:154 
-50 3:155 
-50 3:154 
-50 3:152 
-50 3:147 
-50 3:152 
-50 3:153 
-50 3:152 
-50 3:149 
-0.1284320064296105 1:95 2:119 3:139 
-0.1392402243366185 2:119 3:139 
-0.6108592023915895 1:96 2:102 3:150 
-1.10283785142743 2:102 3:150 
-0.1424340393560462 1:97 2:103 3:144 
-0.1417469533929863 2:103 3:144 
-0.06538494078778614 1:96 2:101 3:142 
-0.1755518108938367 1:97 2:91 3:146 
-50 2:91 3:146 
-0.5700041000359176 3:146 
-0.2905243177575303 1:97 2:79 3:148 
-2.62538952824377 2:79 3:148 
-50 3:146 
-50 3:157 
-50 3:152 
-50 3:153 
-50 3:155 
-50 3:154 
-50 3:156 
-50 3:157 
-50 3:158 
-50 3:156 
-50 3:149 
-50 3:147 
-50 3:149 
-50 3:154 
-50 3:155 
-50 3:155 
-0.1036010039708502 1:95 2:105 3:158 
-0.1310040380046411 2:105 3:158 
-50 3:158 
-50 3:155 
-50 3:151 
-50 3:154 
-50 3:154 
-50 3:153 
-50 3:152 
-50 3:153 
-50 3:151 
-50 3:149 
-50 3:145 
-50 3:145 
-0.06255605915566331 3:143 
-0.1256313191250097 1:96 2:117 3:144 
-50 3:143 
-50 3:146 
-0.3380497811023795 1:97 2:92 3:144 
-50 2:92 3:144 
-0.2541061571879848 1:97 2:80 3:147 
-1.163856633127056 2:80 3:147 
-50 3:147 
-50 3:146 
-50 3:156 
-50 3:151 
-50 3:153 
-50 3:155 
-0.02886559775954234 1:94 2:105 3:155 
-50 3:155 
-50 3:158 
-0.08242555276457247 1:94 2:104 3:157 
-0.04305863484921541 2:104 3:157 
-50 3:157 
-0.1142417739762609 1:94 2:105 3:156 
-0.103429649293776 2:105 3:156 
-50 3:156 
-0.08130479533908669 1:94 2:107 3:152 
-50 3:152 
-0.09497574379993085 1:94 2:106 3:154 
-50 3:154 
-50 3:153 
-0.03916280854430311 1:94 2:107 3:153 
-50 3:153 
-0.04541147094327889 1:94 2:103 3:158 
-50 3:158 
-50 3:153 
-50 3:153 
-50 3:156 
-50 3:153 
-50 3:151 
-50 3:153 
-50 3:152 
-50 3:153 
-50 3:149 
-50 3:146 
-50 3:149 
-50 3:147 
-50 3:146 
-0.1361593971301663 1:96 2:118 3:147 
-0.1243875568359026 2:118 3:147 
-50 3:147 
-0.1796012327365557 1:96 2:123 3:141 
-0.1790072999145644 2:123 3:141 
-50 3:143 
-50 3:143 
-0.1445688489849447 1:97 2:104 3:142 
-0.1129240788125117 2:104 3:142 
-0.3695976223220358 1:97 2:93 3:142 
-50 2:93 3:142 
-0.3197401648281758 1:97 2:81 3:145 
-1.312141385087332 2:81 3:145 
-50 3:145 
-0.1183606251654703 1:94 2:105 3:160 
-0.0592838543237365 2:105 3:160 
-50 3:152 
-50 3:145 
-50 3:153 
-50 3:155 
-50 3:157 
-0.1215109033922416 1:94 2:108 3:156 
-0.04718522660918367 2:108 3:156 
-50 3:156 
-50 3:154 
-50 3:152 
-50 3:153 
-50 3:153 
-50 3:151 
-50 3:151 
-50 3:153 
-50 3:154 
-50 3:154 
-50 3:154 
-50 3:153 
-50 3:153 
-50 3:151 
-50 3:147 
-0.04056795108477282 2:106 3:156 
-50 3:156 
-50 3:147 
-50 3:149 
-50 3:152 
-50 3:146 
-0.08511551892464481 1:96 2:116 3:149 
-0.05703157247031321 2:116 3:149 
-50 3:149 
-0.1628828689169468 1:95 2:124 3:144 
-0.1529621617482274 2:124 3:144 
-0.04564801248299005 1:96 2:122 3:142 
-0.04713300630908385 2:122 3:142 
-0.1568897287660549 1:97 2:115 3:140 
-0.1547180628156322 1:97 2:101 3:147 
-0.1730926016830399 2:101 3:147 
-50 3:147 
-0.1806387996385058 1:97 2:99 3:139 
-0.8196109190559222 2:99 3:139 
-0.6167166991986989 1:96 2:88 3:139 
-1.594307479833095 2:88 3:139 
-0.04796948010486525 1:93 2:111 3:143 
-50 3:143 
-50 3:147 
-50 3:155 
-0.1165050507789146 1:94 2:117 3:144 
-0.09128068985405302 2:117 3:144 
-50 3:152 
-50 3:154 
-50 3:154 
-50 3:154 
-50 3:154 
-50 3:152 
-50 3:152 
-50 3:153 
-50 3:149 
-50 3:152 
-0.1703508975891987 1:94 2:104 3:162 
-0.1279099581574443 2:104 3:162 
-50 3:154 
-50 3:147 
-50 3:151 
-50 3:152 
-50 3:146 
-50 3:151 
-50 3:147 
-50 3:154 
-0.1705680382628762 1:96 2:113 3:153 
-0.192684162886361 2:113 3:153 
-50 3:153 
-0.1617658297563611 1:95 2:123 3:145 
-0.1511481918015667 2:123 3:145 
-50 3:145 
-0.1956156657273845 1:96 2:125 3:139 
-0.1961661054419551 2:125 3:139 
-0.1774831969927403 1:96 2:121 3:139 
-0.1662857957605645 2:121 3:139 
-0.0600288311802064 1:96 2:118 3:140 
-50 3:146 
-0.2162222406801341 1:96 2:89 3:138 
-0.7084491991991988 2:89 3:138 
-0.1319708195560585 1:93 2:109 3:145 
-50 3:145 
-50 3:151 
-50 3:155 
-1.83096350907786 3:148 
-50 3:147 
-0.132945983774235 2:109 3:155 
-50 3:155 
-0.1074655124771459 1:94 2:109 3:154 
-50 3:154 
-50 3:151 
-0.09771441319887264 1:94 2:113 3:149 
-0.04377492393723753 2:113 3:149 
-50 3:149 
-50 3:146 
-4.523351246056585 3:150 
-50 3:148 
-50 3:148 
-50 3:152 
-50 3:150 
-50 3:150 
-0.07747807417846619 1:94 2:107 3:157 
-0.0823197517483576 2:107 3:157 
-50 3:157 
-50 3:151 
-50 3:153 
-0.09318593216267312 2:108 3:153 
-50 3:153 
-50 3:151 
-50 3:148 
-50 3:147 
-50 3:148 
-50 3:150 
-50 3:147 
-50 3:148 
-50 3:147 
-50 3:148 
-50 3:155 
-50 3:146 
-50 3:147 
-50 3:149 
-0.1134470960596037 1:96 2:117 3:148 
-0.1015391323318005 2:117 3:148 
-50 3:148 
-0.1006815793652408 1:96 2:120 3:144 
-0.09456913460114956 2:120 3:144 
-50 3:143 
-50 1:95 2:92 3:139 
-50 2:92 3:139 
-0.177418700722794 1:93 2:105 3:150 
-50 3:150 
-50 3:150 
-50 3:152 
-0.05776968999126142 1:94 2:116 3:145 
-0.04968642294942388 2:116 3:145 
-50 3:145 
-0.1210474446000494 1:94 2:115 3:146 
-50 3:146 
-50 3:151 
-50 3:147 
-50 3:143 
-0.03579124682592821 1:94 2:118 3:143 
-50 3:143 
-0.1203885659914281 1:94 2:111 3:152 
-0.1061044068777943 2:111 3:152 
-50 3:152 
-50 3:148 
-0.1553196268720448 1:94 2:119 3:142 
-0.03735770685189271 1:94 2:114 3:148 
-50 3:148 
-50 3:151 
-50 3:147 
-0.07387956952923724 1:94 2:114 3:147 
-0.1052310712710511 2:114 3:147 
-50 3:147 
-50 3:151 
-50 3:150 
-50 3:149 
-50 3:147 
-50 3:145 
-0.5837210100988221 3:144 
-50 3:145 
-50 3:149 
-50 3:150 
-50 3:149 
-50 3:152 
-50 3:147 
-50 3:147 
-50 3:145 
-0.1258702355000261 1:96 2:121 3:143 
-0.135273710957978 2:121 3:143 
-50 3:143 
-0.06386426191704275 1:96 2:115 3:146 
-0.09616000188252932 2:115 3:146 
-50 3:146 
-0.1330801988367746 1:96 2:114 3:148 
-0.03606371911430584 2:114 3:148 
-50 3:148 
-0.09864858051400798 1:96 2:114 3:146 
-50 3:146 
-0.08310262082515896 1:96 2:117 3:142 
-0.06642712413156021 2:117 3:142 
-0.1747160842148562 1:97 2:97 3:142 
-50 2:97 3:142 
-0.06749232707775704 3:142 
-0.2019153359513823 1:93 2:104 3:152 
-0.3316790059312596 2:104 3:152 
-50 3:152 
-0.0444243192776167 1:94 2:110 3:153 
-0.03273473857282988 2:110 3:153 
-50 3:153 
-50 3:155 
-50 3:151 
-50 3:153 
-50 3:155 
-50 3:151 
-50 3:150 
-50 3:151 
-50 3:150 
-0.1830311624122255 1:95 2:108 3:158 
-0.1609170199190961 2:108 3:158 
-50 3:158 
-50 3:151 
-0.1223517824200394 1:95 2:121 3:141 
-0.09431440520719903 2:121 3:141 
-0.04157873544469617 1:95 2:118 3:145 
-0.1322203445322877 2:118 3:145 
-50 3:145 
-50 3:148 
-0.04588180554775584 1:95 2:116 3:147 
-0.06597494699527778 2:116 3:147 
-50 3:147 
-50 3:150 
-50 3:154 
-0.04540091217234502 1:95 2:108 3:154 
-50 3:154 
-50 3:152 
-50 3:148 
-50 3:146 
-50 3:145 
-50 3:146 
-50 3:145 
-50 3:144 
-50 3:151 
-50 3:150 
-0.06156767433079591 1:96 2:106 3:154 
-0.1268986898299965 2:106 3:154 
-50 3:154 
-50 3:150 
-50 3:148 
-50 3:146 
-50 3:145 
-0.04422043455948232 1:96 2:119 3:141 
-0.07453650409575513 2:119 3:141 
-50 3:143 
-50 3:144 
-0.1133943151220124 1:96 2:115 3:144 
-50 3:144 
-50 3:143 
-0.126959606719055 1:97 2:113 3:142 
-50 3:142 
-50 3:142 
-0.04476264230709159 1:96 2:101 3:141 
-0.1492508581253881 2:101 3:141 
-0.1807371271528415 1:93 2:108 3:147 
-50 3:147 
-50 3:150 
-50 3:152 
-50 3:149 
-50 3:150 
-50 3:150 
-50 3:146 
-50 3:148 
-50 3:149 
-50 3:151 
-0.1258304930341364 1:95 2:110 3:155 
-0.04031032105341037 2:110 3:155 
-50 3:155 
-50 3:152 
-50 3:148 
-50 3:146 
-50 3:142 
-0.1010171742418033 1:95 2:119 3:144 
-50 3:144 
-0.09230139742840317 1:95 2:111 3:154 
-0.1481079928975591 2:111 3:154 
-50 3:154 
-50 3:149 
-50 3:151 
-50 3:150 
-0.1127385978209237 2:115 3:144 
-50 3:144 
-50 3:146 
-50 3:150 
-50 3:148 
-50 3:150 
-50 3:148 
-50 3:155 
-50 3:149 
-50 3:144 
-50 3:142 
-0.03334997548315216 1:96 2:118 3:143 
-50 3:143 
-0.05901326556230724 1:96 2:119 3:142 
-50 3:142 
-0.0608489591690864 1:96 2:118 3:141 
-0.1105813426058966 2:118 3:141 
-0.1300798343711468 1:97 2:112 3:144 
-50 3:144 
-0.06993524578524912 1:97 2:111 3:145 
-50 3:145 
-50 3:143 
-50 3:144 
-50 3:152 
-50 3:153 
-50 3:150 
-50 3:151 
-50 3:150 
-50 3:148 
-50 3:150 
-50 3:149 
-50 3:148 
-50 3:149 
-0.1241731092350017 1:95 2:113 3:151 
-0.08888592994571326 2:113 3:151 
-50 3:151 
-50 3:152 
-50 3:149 
-50 3:142 
-0.1263402092265187 2:119 3:143 
-50 3:143 
-0.0587242380333416 1:95 2:112 3:153 
-50 3:153 
-0.07127769792222083 1:95 2:107 3:155 
-0.08334566467698584 2:107 3:155 
-50 3:155 
-50 3:151 
-50 3:146 
-0.03471696854492112 1:95 2:116 3:143 
-0.0428938101161501 2:116 3:143 
-50 3:143 
-50 3:146 
-50 3:151 
-50 3:151 
-50 3:148 
-50 3:149 
-50 3:148 
-50 3:146 
-50 3:150 
-50 3:148 
-50 3:144 
-50 3:143 
-50 3:144 
-50 3:146 
-50 3:142 
-0.2471141081725703 3:141 
-50 3:151 
-50 3:149 
-0.09182810095767734 1:94 2:112 3:150 
-0.1311390672588478 2:112 3:150 
-50 3:150 
-50 3:148 
-50 3:149 
-50 3:150 
-0.11143048158378 1:95 2:115 3:149 
-0.1053319608762318 2:115 3:149 
-50 3:149 
-0.04860501279749918 1:95 2:114 3:150 
-0.08197751002559678 2:114 3:150 
-50 3:150 
-50 3:148 
-0.0345147341529079 2:110 3:150 
-50 3:150 
-50 3:148 
-50 3:147 
-50 3:148 
-50 3:148 
-0.09548747587869583 1:95 2:117 3:146 
-0.02520118945733996 2:117 3:146 
-50 3:146 
-50 3:148 
-50 3:151 
-0.05634240470505397 1:95 2:109 3:152 
-0.07946301544720558 2:109 3:152 
-50 3:152 
-0.09721454480941627 1:95 2:110 3:151 
-0.04769407051292984 2:110 3:151 
-50 3:151 
-50 3:148 
-0.03268153416040981 2:114 3:145 
-50 3:145 
-50 3:145 
-50 3:148 
-50 3:148 
-50 3:145 
-50 3:146 
-50 3:147 
-50 3:146 
-50 3:144 
-50 3:148 
-50 3:150 
-50 3:153 
-50 3:143 
-50 3:141 
-50 3:142 
-50 3:142 
-50 3:141 
-50 3:142 
-50 3:143 
-50 3:142 
-0.08506369051945817 2:103 3:141 
-50 3:141 
-50 3:146 
-0.1034744264095123 1:94 2:111 3:147 
-50 3:147 
-0.1520592559674637 1:93 2:112 3:141 
-50 3:141 
-50 3:143 
-50 3:148 
-50 3:150 
-50 3:150 
-50 3:149 
-50 3:146 
-0.1032454213204256 1:94 2:108 3:151 
-50 3:151 
-50 3:148 
-50 3:148 
-50 3:147 
-0.06217277682554456 1:95 2:112 3:148 
-0.1075960705456378 2:112 3:148 
-50 3:148 
-50 3:147 
-0.1193253235268076 1:96 2:107 3:153 
-50 3:153 
-0.09564029521208023 1:96 2:108 3:151 
-0.02928965381528109 2:108 3:151 
-50 3:151 
-50 3:146 
-50 3:144 
-50 3:144 
-50 3:143 
-50 3:141 
-50 3:143 
-50 3:147 
-50 3:146 
-50 3:142 
-50 3:146 
-50 3:146 
-50 3:147 
-50 3:146 
-0.1617837848672864 1:96 2:105 3:151 
-0.07731718832819667 2:105 3:151 
-50 3:151 
-50 3:147 
-50 3:144 
-50 3:145 
-50 3:146 
-50 3:145 
-50 3:144 
-50 3:143 
-50 3:142 
-50 3:141 
-50 3:141 
-50 3:145 
-0.1359338617605551 1:93 2:110 3:144 
-50 3:144 
-0.0982086112932251 1:93 2:111 3:142 
-50 3:142 
-0.1505294438014289 1:93 2:114 3:139 
-0.138584158777157 1:93 2:115 3:138 
-50 3:144 
-0.04190743108234873 1:94 2:109 3:150 
-50 3:150 
-50 3:150 
-0.1042469381683812 1:95 2:109 3:147 
-50 3:147 
-50 3:144 
-50 3:146 
-50 3:146 
-50 3:145 
-50 3:149 
-50 3:148 
-50 3:147 
-0.04152700294651342 1:96 2:109 3:150 
-0.09253567450489267 2:109 3:150 
-50 3:150 
-50 3:147 
-50 3:145 
-50 3:145 
-50 3:147 
-50 3:147 
-50 3:145 
-50 3:146 
-50 3:150 
-50 3:150 
-50 3:145 
-0.09885914720661405 3:140 
-50 3:142 
-50 3:145 
-0.0956037693350025 1:96 2:107 3:148 
-0.03962566369156369 2:107 3:148 
-50 3:148 
-50 3:149 
-50 3:146 
-50 3:145 
-50 3:144 
-50 3:141 
-50 3:141 
-50 3:142 
-50 3:142 
-50 3:140 
-50 3:141 
-50 3:142 
-50 3:144 
-50 3:146 
-0.05438980022154111 1:94 2:114 3:143 
-50 3:143 
-50 3:141 
-0.1480277702430362 1:94 2:110 3:149 
-50 3:149 
-0.08830082636493292 1:95 2:107 3:150 
-0.07242547428846929 2:107 3:150 
-50 3:150 
-50 3:145 
-50 3:144 
-50 3:144 
-50 3:146 
-50 3:145 
-0.039714098177276 1:96 2:107 3:152 
-0.09973856034116752 2:107 3:152 
-50 3:152 
-50 3:148 
-50 3:148 
-50 3:146 
-50 3:145 
-50 3:143 
-50 3:145 
-50 3:148 
-0.1681341460630311 2:110 3:148 
-50 3:148 
-50 3:146 
-50 3:145 
-0.06607373901109892 1:96 2:108 3:147 
-0.1526636432280455 2:108 3:147 
-50 3:147 
-50 3:146 
-50 3:143 
-50 3:141 
-0.07589632654550974 1:96 2:111 3:143 
-0.1697134798337219 2:111 3:143 
-50 3:143 
-50 3:142 
-50 3:142 
-50 3:145 
-50 3:144 
-50 3:141 
-50 3:140 
-0.1496387545289555 1:94 2:106 3:132 
-0.1427791051384658 2:106 3:132 
-50 3:141 
-50 3:141 
-0.0360606293512023 1:94 2:113 3:145 
-50 3:145 
-0.1354997181417985 1:94 2:113 3:144 
-50 3:144 
-0.115682519230211 1:94 2:118 3:138 
-0.0867884660525729 1:94 2:112 3:146 
-50 3:146 
-50 3:148 
-50 3:145 
-50 3:145 
-50 3:144 
-50 3:144 
-50 3:144 
-0.1341996547564151 1:96 2:110 3:149 
-50 3:149 
-0.1216142812733157 1:96 2:111 3:147 
-49.12637401344669 3:147 
-50 3:146 
-50 3:143 
-50 3:142 
-50 3:140 
-50 3:141 
-0.06732222698881413 1:96 2:113 3:145 
-50 3:145 
-0.03984095248903131 1:96 2:112 3:146 
-0.1345961512053935 2:112 3:146 
-50 3:146 
-0.1291660572142032 2:113 3:144 
-50 3:144 
-50 3:142 
-50 3:142 
-50 3:146 
-50 3:142 
-50 3:140 
-0.1494645067469568 1:96 2:118 3:134 
-0.1107299459086394 2:118 3:134 
-50 3:142 
-50 3:141 
-50 3:140 
-50 3:139 
-0.1202071608606759 1:96 2:105 3:138 
-0.2126270019495806 1:94 2:101 3:137 
-0.1512659144657094 2:101 3:137 
-50 3:142 
-0.1480552214969208 1:94 2:117 3:140 
-50 3:140 
-0.1211303739765454 1:94 2:115 3:142 
-50 3:142 
-50 3:141 
-0.1707663922540045 1:94 2:120 3:136 
-0.1584303690530941 2:120 3:136 
-0.07986937711048239 1:95 2:115 3:140 
-0.05610588694048052 2:115 3:140 
-50 3:140 
-50 3:145 
-0.06067266408280392 2:110 3:146 
-50 3:146 
-0.0375323824872395 1:95 2:112 3:143 
-50 3:143 
-50 3:141 
-50 3:140 
-0.07246669237447867 1:96 2:115 3:142 
-0.1126379079240259 2:115 3:142 
-50 3:142 
-50 3:141 
-50 3:144 
-50 3:142 
-50 3:142 
-50 3:139 
-0.03420314750596615 1:96 2:116 3:141 
-50 3:141 
-50 3:143 
-0.05925805554336222 1:96 2:114 3:143 
-50 3:143 
-50 3:140 
-0.02876547336841034 1:96 2:114 3:139 
-0.05353045147770191 2:114 3:139 
-50 3:139 
-0.1511457662832908 1:96 2:109 3:145 
-0.1542338743179293 2:109 3:145 
-50 3:145 
-0.04876798673122779 1:96 2:110 3:144 
-0.03289680395312161 2:110 3:144 
-50 3:144 
-0.07095281315839991 1:96 2:106 3:144 
-0.1341704749948511 2:106 3:144 
-49.58490131552232 3:144 
-50 3:140 
-0.08662176026631872 1:96 2:111 3:138 
-0.1104426683928309 2:111 3:138 
-0.07949606788389069 1:96 2:109 3:140 
-0.0477064771457073 2:109 3:140 
-50 3:140 
-0.09579021704836761 1:96 2:110 3:139 
-0.05429929998810952 2:110 3:139 
-50 3:139 
-50 3:140 
-50 3:140 
-0.070247330188125 1:96 2:113 3:129 
-0.06900079444711393 2:113 3:129 
-0.0805113724387525 1:94 2:106 3:130 
-0.0862787046630577 2:106 3:130 
-50 3:141 
-0.03818533035123947 1:95 2:114 3:141 
-0.03399957478090138 2:114 3:141 
-50 3:141 
-0.04817979596622152 1:94 2:116 3:141 
-0.07710561739883964 2:116 3:141 
-50 3:141 
-50 3:139 
-0.03598644176338661 1:95 2:119 3:135 
-0.03816082116379081 2:119 3:135 
-0.161635242310516 1:95 2:120 3:134 
-0.1569705138677478 2:120 3:134 
-0.1501575877216398 1:95 2:117 3:137 
-0.1589619687929428 2:117 3:137 
-0.06533883049871825 1:95 2:113 3:142 
-0.09005366811287929 2:113 3:142 
-50 3:142 
-0.07657250290551265 1:95 2:111 3:145 
-0.0628887247588477 2:111 3:145 
-50 3:145 
-50 3:139 
-0.8709516810428226 3:138 
-0.1580661450178397 1:96 2:119 3:137 
-0.0813233574445435 2:119 3:137 
-50 3:140 
-50 3:142 
-50 3:142 
-0.04073541990402908 1:96 2:111 3:142 
-50 3:142 
-0.06614679655670139 1:96 2:112 3:141 
-0.06675917099350814 2:112 3:141 
-50 3:141 
-50 3:139 
-50 3:138 
-50 3:139 
-50 3:140 
-0.1073323918969741 1:96 2:117 3:139 
-0.09003934371945556 2:117 3:139 
-50 3:139 
-0.09295840063378802 1:96 2:115 3:138 
-0.05892550757096437 2:115 3:138 
-50 3:138 
-0.06873751537753214 1:96 2:115 3:137 
-0.05462034013789474 2:115 3:137 
-0.09315806061863689 1:96 2:113 3:140 
-0.1116331075901293 2:113 3:140 
-50 3:140 
-0.0635185711624849 1:96 2:108 3:146 
-50 3:146 
-0.1052251660907637 1:96 2:106 3:145 
-0.04534181558534317 2:106 3:145 
-49.8513069183782 3:145 
-0.06988793771111357 1:96 2:105 3:146 
-0.1192189262042244 2:105 3:146 
-50 3:146 
-50 3:142 
-0.1703146509882278 1:96 2:108 3:142 
-0.1566562798180516 2:108 3:142 
-50 3:142 
-0.134336770899936 1:96 2:113 3:136 
-0.1136001457374251 2:113 3:136 
-50 3:140 
-0.1298035644729244 1:96 2:104 3:140 
-0.05343482615799228 2:104 3:140 
-50 3:140 
-0.08922754766240594 1:95 2:113 3:133 
-0.152715698106485 2:113 3:133 
-0.1463091982550551 1:96 2:112 3:130 
-0.1479899032501881 2:112 3:130 
-0.1414048460057439 1:96 2:110 3:132 
-0.1451209031163032 2:110 3:132 
-0.1701442044749381 1:94 2:107 3:129 
-0.1710743331436443 2:107 3:129 
-0.1980493785900762 1:95 2:103 3:129 
-0.2145206562996843 2:103 3:129 
-50 3:139 
-0.07174875262433904 2:116 3:139 
-50 3:139 
-0.02512339571529798 1:95 2:116 3:138 
-50 3:138 
-50 3:138 
-50 3:138 
-0.09802777662004841 1:95 2:108 3:139 
-0.06060423412433957 2:108 3:139 
-50 3:139 
-50 3:140 
-0.126351839920056 1:95 2:106 3:142 
-0.1529491966537453 2:106 3:142 
-50 3:142 
-0.1394467988693233 1:95 2:110 3:141 
-0.1136896021011885 2:110 3:141 
-49.86023505955819 3:141 
-0.03282524243363461 1:95 2:111 3:140 
-0.05895322861826434 2:111 3:140 
-50 3:140 
-0.115081265407694 1:95 2:112 3:139 
-0.02720429174881223 2:112 3:139 
-50 3:139 
-0.06716547324112472 1:95 2:113 3:138 
-0.1043503803219695 2:113 3:138 
-50 3:138 
-0.1434806619551781 1:95 2:107 3:140 
-0.1471222508678662 2:107 3:140 
-50 3:140 
-0.08228907960980597 1:95 2:105 3:143 
-50 3:143 
-0.0805397535355083 1:96 2:107 3:136 
-0.02913835112071772 2:107 3:136 
-50 3:139 
-0.05598637591672367 1:96 2:106 3:137 
-0.1526618507330146 2:106 3:137 
-50 3:137 
-0.143740670097201 1:96 2:102 3:140 
-0.06790101607632909 2:102 3:140 
-50 3:140 
-0.0798190894605601 1:96 2:106 3:135 
-0.1247807212816043 2:106 3:135 
-0.07086255564159089 1:94 2:104 3:133 
-0.06442623007528375 2:104 3:133 
-0.1717756090450406 1:94 2:104 3:135 
-0.1288052140211612 2:104 3:135 
-0.1674627687566735 1:94 2:102 3:135 
-0.1600663601728564 2:102 3:135 
-0.05743203680035104 1:94 2:105 3:133 
-0.02771102444627033 2:105 3:133 
-0.0526621630815079 1:94 2:105 3:131 
-0.03708719359532853 2:105 3:131 
-0.1103950341060588 1:94 2:104 3:132 
-0.130198515138108 2:104 3:132 
-0.1438334595662065 1:95 2:100 3:132 
-0.1312913061737467 2:100 3:132 
-0.190007065216645 1:95 2:99 3:129 
-0.1908777270982029 2:99 3:129 
-0.179696878976678 1:95 2:118 3:132 
-0.1762790609223576 2:118 3:132 
-0.2113006281764366 3:132 
-0.1554629816982985 1:95 2:116 3:134 
-0.1445236860296814 2:116 3:134 
-50 3:137 
-0.1205608105708674 1:95 2:115 3:135 
-0.1001974792262413 2:115 3:135 
-0.08312579213074894 1:95 2:111 3:136 
-0.1210060715990146 2:111 3:136 
-50 3:137 
-0.1287266975461769 1:95 2:112 3:134 
-0.09128239131043925 2:112 3:134 
-0.1456012260026682 1:95 2:114 3:132 
-0.08184429175602653 2:114 3:132 
-49.9373342502782 3:132 
-50 3:137 
-50 3:138 
-0.04526569584983642 1:96 2:105 3:139 
-0.147107937258689 2:105 3:139 
-50 3:139 
-50 3:138 
-0.08267572426250619 1:96 2:102 3:142 
-50 3:142 
-0.08003142718772945 1:95 2:109 3:138 
-0.09240822449403952 2:109 3:138 
-50 3:138 
-0.04917636714127358 2:114 3:136 
-0.1050717180567596 1:95 2:110 3:137 
-0.04546986995013713 2:110 3:137 
-50 3:137 
-0.06637727417879952 1:95 2:111 3:135 
-0.05356598147514233 2:111 3:135 
-0.1016962002077373 1:95 2:115 3:131 
-0.1546426168899014 2:115 3:131 
-0.18325052204472 1:95 2:117 3:129 
-0.1722312008780657 2:117 3:129 
-0.09412551360966681 1:95 2:116 3:130 
-0.07949789841964916 2:116 3:130 
-0.06473463998893914 3:130 
-0.1227292049395304 1:96 2:109 3:133 
-0.145249663915865 2:109 3:133 
-50 3:133 
-0.1400672826682274 1:96 2:108 3:135 
-0.1372753532980291 2:108 3:135 
-50 3:135 
-0.04634899115456193 1:96 2:108 3:134 
-0.03629798755492558 2:108 3:134 
-0.16647683465889 1:96 2:112 3:128 
-0.166821257033155 2:112 3:128 
-0.1149034591010983 1:96 2:105 3:136 
-0.05395638267608309 2:105 3:136 
-0.1435681990638547 3:136 
-0.1571911401934831 1:96 2:103 3:138 
-0.1630427657681841 2:103 3:138 
-50 3:138 
-0.1381216774894978 1:97 2:100 3:138 
-50 3:138 
-1.029388941071844 1:95 2:96 3:138 
-1.792345308592872 2:96 3:138 
-49.30152843972967 3:138 
-0.3353815340964885 1:95 2:97 3:137 
-0.6352978260709077 2:97 3:137 
-50 3:137 
-0.1530483796920781 1:95 2:101 3:131 
-0.1557818675746357 2:101 3:131 
-0.06266574972180179 3:131 
-0.1905872380760638 1:95 2:98 3:136 
-0.1706436242198318 2:98 3:136 
-50 3:136 
-0.1691823769539466 1:95 2:99 3:134 
-0.1828467821290343 2:99 3:134 
-0.4257822039157029 3:134 
-0.1317409240042632 1:95 2:96 3:133 
-0.1002541672634207 2:96 3:133 
-50 3:133 
-0.6451042842707758 1:95 2:95 3:134 
-1.155085771460343 2:95 3:134 
-49.72232209764476 3:134 
-0.3146629875393547 1:95 2:90 3:133 
-1.182814044099772 2:90 3:133 
-50 3:133 
-5.496254566770063 1:94 2:88 3:157 
-2.538389299062144 2:88 3:157 
-50 3:157 
-50 3:158 
-50 3:159 
-50 3:158 
-0.05702271939316878 1:94 2:78 3:166 
-0.09147611772986852 2:78 3:166 
-0.02899172927639221 1:94 2:77 3:169 
-0.1157527347914091 2:77 3:169 
-0.1085064468219846 1:94 2:78 3:167 
-0.0422768467958598 2:78 3:167 
-0.110044431362863 1:94 2:77 3:170 
-0.02761534271818172 2:77 3:170 
-0.1948689073688327 1:94 2:74 3:168 
-0.1883859959476502 2:74 3:168 
-0.03960276813805935 1:94 2:76 3:165 
-0.1336914536003038 2:76 3:165 
-50 3:157 
-1.061401125207048 1:94 2:80 3:157 
-1.139304857879758 2:80 3:157 
-50 3:157 
-50 3:155 
-50 3:159 
-0.1060656117753817 1:95 2:80 3:159 
-0.02976058970699963 2:80 3:159 
-50 3:159 
-0.02848766672870301 1:95 2:79 3:162 
-0.1023286171353378 2:79 3:162 
-0.1995189175120454 1:95 2:74 3:172 
-0.2060030435732849 2:74 3:172 
-0.09687094299304674 2:74 3:163 
-0.03153648561683653 1:95 2:76 3:174 
-0.03837524570800602 2:76 3:174 
-0.1462174795924456 1:95 2:76 3:168 
-0.04540337301835073 1:95 2:78 3:164 
-0.08625927313496441 2:78 3:164 
-0.03315818439532181 1:95 2:76 3:167 
-0.1622518488289662 2:76 3:167 
-0.1550861598055141 1:95 2:74 3:162 
-0.05207092658997226 2:74 3:162 
-0.1792092524993063 1:95 2:72 3:166 
-0.1889830640409024 2:72 3:166 
-0.07356035104582975 1:95 2:77 3:172 
-0.04931869303574676 2:77 3:172 
-0.08779229386354437 1:95 2:77 3:166 
-0.129294462554514 1:96 2:77 3:159 
-50 3:159 
-0.1056600264335543 1:97 2:72 3:162 
-0.05165140345021042 2:72 3:162 
-0.04705608468244743 1:94 2:79 3:175 
-0.06381156612427801 2:79 3:175 
-0.1291689701212682 1:95 2:82 3:162 
-0.1500727212969865 2:82 3:162 
-0.07099454217651785 1:95 2:79 3:161 
-0.08725104898123379 1:96 2:77 3:158 
-0.1637408470289719 2:77 3:158 
-50 3:158 
-0.2019697481867955 1:97 2:74 3:158 
-0.1171699846928304 2:74 3:158 
-50 3:158 
-0.09319080782605099 1:96 2:87 3:164 
-0.06371031439641989 2:87 3:164 
-0.194044938909026 1:97 2:73 3:160 
-0.1542780757590597 2:73 3:160 
-0.006981082044382247 2:87 3:165 
-0.1698060373024171 1:97 2:83 3:165 
-0.03929033075551308 2:75 3:163 
-0.1271000127389321 1:97 2:72 3:163 
-0.06153676665133506 2:72 3:163 
-0.2096338298883769 1:95 2:70 3:163 
-0.1438459299562172 2:70 3:163 
-0.1370095577022175 1:96 2:80 3:178 
-0.09669890040129631 2:80 3:178 
-50 1:96 2:90 3:161 
-50 2:90 3:161 
-0.1307615856817447 1:95 2:73 3:164 
-0.08692992931046853 2:73 3:164 
-50 1:95 2:91 3:165 
-0.07869368544759656 1:96 2:82 3:174 
-0.1533003022761913 2:82 3:174 
-0.1189218225765917 1:96 2:84 3:170 
-0.1278991946514842 1:96 2:85 3:172 
-2.001055701787213 1:96 2:90 3:162 
-0.1265486175659128 1:96 2:85 3:168 
-0.0470090817630285 2:85 3:168 
-0.1710991557874169 1:96 2:75 3:164 
-0.05765790520218372 2:75 3:164 
-0.08987627518660257 1:96 2:83 3:172 
-0.1315881658754685 2:83 3:172 
-0.07854731918926462 1:96 2:81 3:177 
-0.086324203996683 2:81 3:177 
-0.07420418042791496 1:96 2:82 3:175 
-0.05539220745423853 1:96 2:83 3:173 
-0.06003110046243743 1:96 2:76 3:162 
-1.054818253957008 1:95 2:90 3:167 
-0.04050964411887142 1:96 2:84 3:169 
-0.08986171121889607 2:84 3:169 
-0.03042575761752087 1:97 2:83 3:166 
-0.1154268637863428 1:96 2:76 3:161 
-0.1067616885374713 2:76 3:161 
-0.1354800835632093 1:96 2:87 3:168 
-0.1088562071922483 1:96 2:86 3:170 
-0.131073144127972 1:96 2:88 3:165 
-50 3:159 
-0.0689410538600974 1:96 2:82 3:177 
-0.09266073949257325 1:96 2:84 3:174 
-0.1168212167004619 1:95 2:85 3:177 
-0.05327795383172557 2:86 3:167 
-0.134133169726433 1:97 2:85 3:162 
-0.1372934438629045 1:97 2:84 3:158 
-50 3:158 
-0.0698261306174115 1:95 2:84 3:179 
-0.1058505185107331 1:96 2:83 3:176 
-0.1242882021148258 1:95 2:89 3:170 
-0.08917415941073489 1:95 2:86 3:174 
-50 1:96 2:91 3:160 
-50 2:91 3:160 
-50 1:96 2:89 3:164 
-0.04271889378998567 1:96 2:88 3:166 
-0.1338495239881486 1:96 2:86 3:166 
-0.0272222135572045 2:86 3:166 
-0.1772582916892523 1:97 2:82 3:167 
-0.1573206868795733 1:97 2:83 3:160 
-50 3:160 
-0.05082452486152987 1:95 2:86 3:175 
-50 3:159 
-1.895300343318246 1:94 2:88 3:159 
-1.70377693905033 2:88 3:159 
-50 3:159 
-0.1587523693683655 1:97 2:84 3:163 
-0.5491103070684135 3:163 
-0.1713312340160863 1:97 2:81 3:163 
-50 3:163 
-0.03712837507101693 1:95 2:90 3:172 
-0.1325725241888197 1:95 2:89 3:175 
-50 3:163 
-50 3:163 
-50 3:160 
-0.1803988050065615 1:97 2:86 3:160 
-50 3:160 
-0.03179904062348499 1:95 2:81 3:158 
-50 3:158 
-0.07763349684024135 1:95 2:91 3:171 
-0.07340142863149546 1:95 2:87 3:179 
-0.07527827527573697 2:87 3:179 
-0.08668830359341379 1:95 2:88 3:176 
-1.384330731222249 1:94 2:88 3:160 
-50 3:160 
-50 1:94 2:88 3:157 
-50 2:88 3:157 
-50 3:157 
-2.598145634244235 1:95 2:84 3:158 
-2.89981423155205 2:84 3:158 
-50 3:158 
-1.159661636108465 1:95 2:82 3:155 
-2.335464589744987 2:82 3:155 
-50 3:155 
-0.1164086224639433 1:95 2:87 3:172 
-0.3873905151978485 1:95 2:93 3:167 
-0.1725282720653967 2:93 3:167 
-0.08094948303076566 2:93 3:168 
-0.03935884740139271 1:95 2:92 3:169 
-0.1289520653117867 1:95 2:92 3:170 
-0.1547409930240852 1:95 2:90 3:173 
-0.1155710836633932 1:95 2:87 3:178 
-0.117902761334339 2:87 3:178 
-0.189488804426201 1:95 2:86 3:181 
-0.1908467437696832 2:86 3:181 
-0.1687282769410014 3:181 
-0.03829186571378213 1:95 2:86 3:180 
-0.03493330679976703 2:86 3:180 
-0.04313600977358795 3:180 
-0.04289606734048568 1:95 2:88 3:177 
-50 1:94 2:88 3:160 
-50 2:88 3:160 
-50 3:160 
-50 1:94 2:89 3:154 
-50 2:89 3:154 
-50 3:154 
-49.40108165015719 1:95 2:84 3:158 
-49.15248058590569 2:84 3:158 
-50 3:158 
-0.7966161092629795 1:95 2:77 3:155 
-0.7936903689261284 2:77 3:155 
-50 3:155 
-50 3:160 
-50 1:94 2:84 3:155 
-50 2:84 3:155 
-50 3:155 
-0.08059132896768667 1:95 2:76 3:157 
-0.0564892242143395 2:76 3:157 
-50 3:157 
-0.1233819828300923 1:94 2:84 3:179 
-0.1666279968803245 2:84 3:179 
-50 3:163 
-50 3:159 
-50 3:155 
-0.1496886126174417 1:94 2:82 3:178 
-0.1343827156863985 2:82 3:178 
-1.599644949946619 1:94 2:91 3:166 
-49.56621557619261 2:91 3:166 
-50 1:94 2:86 3:163 
-50 2:86 3:163 
-50 3:163 
-0.1955144789719435 1:93 2:74 3:155 
-0.1934370699932809 2:74 3:155 
-50 3:155 
-0.1792411336983021 1:93 2:88 3:177 
-0.04810945060299532 2:88 3:177 
-0.05077903311070053 1:93 2:89 3:175 
-0.08376643064988361 2:89 3:175 
-50 3:162 
-50 3:159 
-0.2035089232699653 1:93 2:73 3:158 
-0.1192174542558177 2:73 3:158 
-50 3:158 
-0.03496023536195386 1:93 2:88 3:176 
-0.1396082614312212 2:88 3:176 
-0.1240762175201059 1:93 2:91 3:171 
-0.139795561241926 2:91 3:171 
-0.03207577396730976 2:89 3:170 
-0.07019160909950423 1:94 2:89 3:169 
-0.1490223760190101 2:89 3:169 
-1.78612541276192 3:161 
-50 3:161 
-0.1944572204694469 1:93 2:71 3:162 
-0.09518425527085982 2:71 3:162 
-50 3:162 
-0.1226590049052838 1:93 2:89 3:174 
-0.08913123936748867 2:89 3:174 
-0.04835115952965032 1:93 2:90 3:173 
-0.1030297481283932 2:90 3:173 
-0.09125993572530597 1:93 2:90 3:172 
-0.0477131963987138 2:90 3:172 
-0.03363897361192297 1:93 2:92 3:170 
-0.07288912778553902 2:92 3:170 
-0.1655228857670946 1:93 2:92 3:169 
-0.09466497372551475 2:92 3:169 
-0.1208816248515295 2:85 3:177 
-50 3:163 
-0.102735041074509 1:94 2:79 3:164 
-0.1008945529939406 2:79 3:164 
-0.08506570259537138 2:77 3:163 
-50 3:163 
-0.04518772071551669 1:94 2:82 3:177 
-0.05207871021551687 1:94 2:85 3:178 
-0.040753399472167 2:85 3:178 
-1.119398899487308 2:91 3:165 
-50 3:163 
-0.1327753030405131 1:94 2:80 3:162 
-0.1052921936012343 2:80 3:162 
-50 3:162 
-50 3:161 
-0.2381696295254384 2:90 3:167 
-0.0609589436477837 1:94 2:85 3:176 
-0.02908013427554834 2:85 3:176 
-0.04169735440051425 2:86 3:174 
-0.08918535248243065 1:94 2:87 3:173 
-0.1090104902596611 2:87 3:173 
-0.04408902877178905 2:87 3:172 
-0.09209987944295077 1:94 2:86 3:175 
-0.1245758231136957 2:86 3:175 
-0.1161383029671773 1:94 2:88 3:171 
-0.1409738160945533 2:88 3:171 
-0.715512610689429 1:94 2:91 3:165 
-50 2:91 3:165 
-0.255326562186035 1:94 2:90 3:162 
-2.054596023890882 2:90 3:162 
-50 3:162 
-50 3:163 
-50 3:161 
-50 3:158 
-0.141402391839589 1:94 2:77 3:162 
-0.0635103479675696 2:77 3:162 
-50 3:162 
-0.02724784598416941 2:88 3:166 
-0.05092571009491786 1:94 2:84 3:174 
-0.1316882556981973 2:84 3:174 
-0.1217818167998735 2:85 3:172 
-50 3:163 
-2.40279739802561 1:94 2:87 3:159 
-1.969641102362149 2:87 3:159 
-50 3:159 
-50 3:159 
-0.1393989025958674 1:94 2:76 3:164 
-0.04140915844004801 1:94 2:83 3:175 
-0.1183818899619395 1:94 2:84 3:173 
-0.09660306511431413 2:86 3:170 
-0.1111066942411214 1:94 2:83 3:176 
-0.1486250551939725 2:83 3:176 
-0.1387014559910361 1:94 2:85 3:171 
-0.05869901088261975 2:85 3:171 
-0.1284985921141474 1:94 2:88 3:165 
-0.1692838305492184 2:88 3:165 
-0.1480664804852955 1:94 2:86 3:169 
-0.06942682125115704 2:86 3:169 
-0.04462448053033571 1:94 2:89 3:164 
-49.91568288360202 2:89 3:164 
-0.1322783963489689 1:94 2:87 3:167 
-0.0943848997953648 2:87 3:167 
-50 1:94 2:88 3:159 
-50 2:88 3:159 
-50 3:159 
-50 3:161 
-50 3:161 
-0.08760682722203966 2:80 3:175 
-0.06580471775130853 1:94 2:84 3:166 
-0.09089402237430597 1:94 2:83 3:168 
-0.05295236326576561 2:83 3:168 
-0.03206712032700243 1:94 2:87 3:168 
-0.05508875763776142 2:87 3:168 
-0.1894832765571262 1:94 2:87 3:162 
-0.1730561394739691 2:87 3:162 
-50 3:162 
-50 1:94 2:88 3:160 
-50 2:88 3:160 
-50 3:160 
-50 3:159 
-0.951847847019328 1:94 2:83 3:157 
-1.902477329403521 2:83 3:157 
-50 3:157 
-0.0642031445298491 1:94 2:80 3:176 
-0.1778136588381613 1:94 2:79 3:177 
-0.1570586551014421 2:79 3:177 
-0.0698558141226438 1:94 2:85 3:165 
-0.118508682107782 2:85 3:165 
-0.06853500888392575 1:94 2:82 3:172 
-0.07921760367447139 1:94 2:84 3:167 
-0.09478303405002053 2:84 3:167 
-50 1:94 2:85 3:165 
-50 2:85 3:165 
-0.1307989951153494 1:94 2:86 3:164 
-0.08244812759506998 2:86 3:164 
-50 1:94 2:86 3:163 
-50 2:86 3:163 
-50 3:163 
-50 1:94 2:88 3:160 
-50 2:88 3:160 
-50 3:160 
-47.42228096643424 1:94 2:88 3:160 
-49.16679912071285 2:88 3:160 
-50 3:160 
-0.0856491541131752 1:94 2:87 3:161 
-0.0519139189259257 2:87 3:161 
-50 3:161 
-50 3:161 
-50 1:94 2:83 3:156 
-49.89372681490686 2:83 3:156 
-50 3:156 
-49.26658389019629 1:94 2:80 3:157 
-49.23677105809988 2:80 3:157 
-50 3:157 
-0.1331077138482767 1:94 2:81 3:174 
-0.05296628047229968 2:81 3:173 
-0.140054796926366 1:94 2:84 3:163 
-0.1169468701464256 2:84 3:163 
-50 3:163 
-0.1031468005977424 1:94 2:85 3:162 
-0.1284885144345932 2:85 3:162 
-50 3:162 
-0.1459573748402123 1:94 2:81 3:160 
-0.1566639297981269 2:81 3:160 
-50 3:160 
-50 3:160 
-0.1127243205025404 1:94 2:83 3:170 
-0.1336966778107285 2:83 3:170 
-0.0780745468516883 1:94 2:82 3:171 
-0.1306742579671097 1:94 2:79 3:174 
-0.1079648593904965 2:79 3:174 
-0.1052213137784087 1:95 2:79 3:168 
-0.1582385621258884 2:79 3:168 
-0.1678203711310124 3:164 
-0.1261012827435746 1:94 2:82 3:167 
-0.1230315133726533 2:82 3:167 
-0.1101935688911516 1:94 2:83 3:165 
-0.1409890127212111 2:83 3:165 
-50 3:158 
-0.1352314808923912 1:94 2:78 3:160 
-0.136730626398839 2:78 3:160 
-50 3:160 
-0.0340166814083549 1:94 2:81 3:170 
-0.1597604988958623 1:94 2:81 3:169 
-0.1483130915922431 2:81 3:169 
-0.1195115580188743 2:81 3:171 
-0.1476633603408613 1:94 2:80 3:172 
-0.1320192368186593 2:80 3:172 
-0.1926642423778287 1:95 2:76 3:175 
-0.1897444487750818 2:76 3:175 
-0.1015138721771076 1:95 2:78 3:171 
-0.09621066568041092 2:78 3:171 
-0.0251066896901786 2:75 3:171 
-0.1587566115037382 1:95 2:75 3:170 
-0.1413192186836847 2:75 3:170 
-0.09311707185896406 1:95 2:78 3:169 
-0.1263423633933033 1:95 2:77 3:173 
-0.1295643484646244 2:77 3:173 
-0.0643310733225686 2:78 3:170 
-0.1613719010152775 1:95 2:80 3:166 
-0.1477567951995264 2:80 3:166 
-50 3:163 
-50 3:164 
-50 3:164 
-0.1564398322734382 1:95 2:81 3:164 
-0.1512856773369232 2:81 3:164 
-49.70413494154875 3:164 
-0.05507303662917245 1:95 2:77 3:165 
-0.08598662499404194 1:95 2:78 3:163 
-50 3:163 
-0.0569631390849748 1:94 2:79 3:159 
-0.06580715185495728 2:79 3:159 
-50 3:159 
-0.1467646106881089 1:95 2:75 3:160 
-0.1198542550783003 2:75 3:160 
-47.16397969535316 3:160 
-0.1136009261635836 1:94 2:111 3:173 
-0.08817640194892157 1:94 2:113 3:170 
-0.1826212401688357 1:95 2:122 3:165 
-0.1900979209269336 2:122 3:165 
-0.1349956409665998 1:95 2:117 3:168 
-0.08492025656296276 2:117 3:168 
-0.1503807346028549 1:96 2:116 3:176 
-0.09205655798947075 2:116 3:176 
-0.06312334286280506 1:95 2:114 3:177 
-0.07836767729062322 1:95 2:121 3:167 
-0.103990084453064 2:121 3:167 
-0.1414840036257369 1:95 2:105 3:177 
-0.08138795572930568 2:105 3:177 
-0.07919971649459634 1:95 2:106 3:176 
-0.09558371772827567 2:106 3:176 
-0.05543403903889593 1:95 2:108 3:172 
-0.1609309038224138 2:108 3:172 
-0.1150047622534433 1:95 2:108 3:173 
-0.1722112706888474 1:94 2:116 3:165 
-0.1673421975885682 3:165 
-0.1069202626647768 1:94 2:115 3:167 
-0.1274465841647787 1:94 2:110 3:174 
-0.1384762474640202 1:94 2:112 3:171 
-0.1309599076748753 1:94 2:114 3:168 
-0.03995725138584033 2:114 3:168 
-0.1150243330357358 1:95 2:111 3:177 
-0.08287167989611038 2:111 3:177 
-0.1642445213069123 1:94 2:109 3:176 
-0.02548419812448638 1:94 2:109 3:175 
-0.1868273039265554 1:95 2:110 3:179 
-0.1930069448480402 2:110 3:179 
-0.04972938792616827 3:179 
-0.09837292489731479 1:95 2:114 3:172 
-0.06545411392120271 1:95 2:116 3:169 
-0.1091216231800491 2:116 3:169 
-0.1066348637316598 1:95 2:117 3:172 
-0.1101528039337167 2:117 3:172 
-0.05002049363441808 1:95 2:118 3:171 
-0.03956394317468442 1:95 2:110 3:178 
-0.03940517721910752 2:110 3:178 
-0.1084056526819609 1:96 2:115 3:167 
-0.1335526715018337 2:115 3:167 
-0.08368937231356548 1:95 2:119 3:170 
-0.1341414791007938 2:119 3:170 
-0.1143142397951285 1:95 2:113 3:178 
-0.1567016529394518 2:113 3:178 
-0.0713485396973777 1:95 2:115 3:175 
-0.09127821384114965 2:115 3:175 
-0.1201370242075186 1:95 2:112 3:175 
-0.0532215438644737 2:112 3:175 
-0.1112669364845611 2:112 3:176 
-0.09239024295116988 1:96 2:109 3:175 
-0.104290140362838 2:108 3:174 
-0.1222705282110541 1:95 2:120 3:168 
-0.09450605946413548 2:120 3:168 
-0.08085419440048608 1:96 2:117 3:174 
-0.1631415533809628 2:117 3:174 
-0.07069074477863853 1:95 2:114 3:176 
-0.04594772996038715 2:114 3:176 
-0.08811827494787156 1:95 2:116 3:174 
-0.09822888117742873 1:95 2:113 3:174 
-0.13505996691424 2:113 3:174 
-0.04493167388993885 1:96 2:110 3:174 
-0.1358775473676022 2:110 3:174 
-0.1305103304341112 1:96 2:111 3:173 
-0.07168517872791369 2:111 3:173 
-0.1537896835481503 1:96 2:107 3:176 
-0.09969662510509675 2:107 3:176 
-0.1433555048158164 1:96 2:122 3:167 
-0.07665749780655101 2:122 3:167 
-0.08688500506217339 1:96 2:115 3:177 
-0.1379102548539562 2:115 3:177 
-0.1221731764156868 1:96 2:112 3:177 
-0.05592031745994003 3:177 
-0.0969781574776632 1:96 2:115 3:173 
-0.1158026630639469 2:115 3:173 
-0.1095171390418088 1:96 2:116 3:165 
-0.1475156971645704 2:116 3:165 
-50 3:165 
-0.1410381408451206 1:96 2:111 3:170 
-0.05107521478548555 2:111 3:170 
-0.1447059405099139 1:96 2:121 3:169 
-0.1403210699471019 2:121 3:169 
-0.06775190282978548 1:96 2:119 3:172 
-0.1579422686485502 2:119 3:172 
-0.05327343634855092 1:96 2:114 3:174 
-0.1285165848593718 1:96 2:118 3:173 
-0.03141799932075384 2:118 3:173 
-0.08671906751863207 1:96 2:119 3:171 
-0.05012533488605945 1:95 2:115 3:171 
-0.1456040316473406 2:115 3:171 
-0.07895098956058594 1:95 2:116 3:170 
-0.05695943669973846 1:96 2:113 3:169 
-0.120567737955782 2:113 3:169 
-0.1677575029743372 1:95 2:110 3:167 
-0.117530721734996 2:110 3:171 
-0.1597410200180144 1:96 2:113 3:167 
-0.1426440386724205 2:113 3:167 
-0.0600055201375404 1:96 2:110 3:172 
-0.05002577220220111 2:110 3:172 
-0.02563147944588123 1:96 2:116 3:172 
-0.1317656232828348 1:96 2:118 3:169 
-0.07720460100803452 2:118 3:169 
-0.02728839238246555 1:96 2:117 3:170 
-0.05467573999247188 2:117 3:170 
-0.0713986553054069 1:96 2:116 3:171 
-0.0951021508980413 1:96 2:113 3:172 
-0.101988127864641 2:113 3:172 
-0.1978274383286576 1:94 2:112 3:162 
-0.1999419256507219 2:112 3:162 
-49.15042100289106 3:162 
-0.136358350258522 1:96 2:106 3:174 
-0.1203692174403909 2:106 3:174 
-0.1276224107621181 1:96 2:104 3:176 
-0.1062731850931455 2:104 3:176 
-0.1709328045686698 1:96 2:103 3:178 
-0.1984339472146445 2:103 3:178 
-0.1431571649302247 1:96 2:107 3:171 
-0.047663734427359 2:107 3:171 
-0.1548711303097888 1:96 2:117 3:166 
-0.1465167935394773 2:117 3:166 
-0.06922642677605262 1:96 2:109 3:176 
-0.1597023687915914 2:109 3:176 
-0.09743768430786766 2:112 3:171 
-0.1050310931098529 1:96 2:113 3:170 
-0.06526551005267332 2:113 3:170 
-0.03192408794137391 1:96 2:112 3:168 
-0.188889373992943 1:96 2:111 3:165 
-0.1910265606205922 2:111 3:165 
-50 3:165 
-0.1331990322068528 1:95 2:106 3:161 
-0.189094275563757 2:106 3:161 
-50 3:161 
-0.04892670174740932 1:97 2:102 3:173 
-0.1142646582790433 2:102 3:173 
-0.1018224646377541 1:97 2:101 3:174 
-0.1395984083233981 1:97 2:104 3:174 
-0.1226866663323659 2:104 3:174 
-0.09760110990860688 1:97 2:107 3:169 
-0.159718270261509 1:97 2:108 3:173 
-0.1599209156598369 1:97 2:111 3:168 
-0.1231863254396362 2:111 3:168 
-0.1419407230189632 1:97 2:109 3:171 
-0.04584619266990991 1:97 2:110 3:170 
-0.1094250898742467 2:110 3:167 
-0.1417159098043245 1:96 2:109 3:169 
-0.1526419517090278 2:109 3:169 
-0.1961860364937271 1:96 2:104 3:166 
-0.1937417380720461 2:104 3:166 
-0.609453502317468 3:166 
-0.1006431524787112 1:96 2:105 3:161 
-50 3:161 
-0.09117544495683316 1:95 2:104 3:159 
-0.09469587461451104 2:104 3:159 
-50 3:159 
-0.1325632888417881 1:97 2:101 3:169 
-0.1375785048425136 2:101 3:169 
-0.06751467628922997 1:97 2:102 3:172 
-0.0518862254961931 2:102 3:172 
-0.1856164894804842 1:97 2:99 3:175 
-0.1508536576751215 2:99 3:175 
-0.1009972942359261 1:97 2:101 3:171 
-0.1596316521939812 2:101 3:171 
-0.03615806788855469 1:97 2:107 3:170 
-0.1448909274785341 2:107 3:170 
-0.0871836427129164 1:97 2:105 3:173 
-0.07342347354541201 2:105 3:173 
-0.07873539853240091 1:97 2:108 3:168 
-0.06114876442680228 2:108 3:168 
-0.1648204965715698 1:96 2:106 3:168 
-0.1707515885780722 2:106 3:168 
-0.1762579759646766 1:96 2:104 3:171 
-0.1812087797196093 2:104 3:171 
-0.2054465281199337 1:96 2:91 3:184 
-0.2054752451224056 2:91 3:184 
-0.2034157331076364 3:184 
-0.1714369712718904 1:96 2:103 3:161 
-0.1513962620533203 2:103 3:161 
-50 3:161 
-0.07496065549388004 1:96 2:106 3:149 
-0.08487628738204721 2:106 3:149 
-47.13286380993648 3:149 
-0.201163192133198 1:97 2:99 3:167 
-0.2002304008460646 2:99 3:167 
-0.06107022098530163 3:167 
-0.03882153115851761 1:97 2:102 3:170 
-0.09727670508254821 3:170 
-0.03413989291993508 1:97 2:100 3:174 
-0.1346018204845695 2:100 3:174 
-0.09667432220603826 3:174 
-0.1049493926020755 1:97 2:103 3:169 
-0.1126641077446451 2:103 3:169 
-0.108968296242807 3:169 
-0.1233128282522491 1:97 2:103 3:168 
-0.08808806601515734 2:103 3:168 
-0.06988431878358725 3:168 
-0.1798835534474736 1:96 2:108 3:166 
-0.1829532532910693 2:108 3:166 
-49.46082105982654 3:166 
-0.1925220826845066 1:96 2:100 3:178 
-0.1901974172995875 2:100 3:178 
-0.1377380095524995 3:178 
-0.1011068697813851 1:96 2:102 3:175 
-0.1192923332373746 2:102 3:175 
-0.1202553064447774 1:96 2:101 3:176 
-0.1169828790976354 2:101 3:176 
-0.07762917785394663 3:176 
-0.105554424485468 1:96 2:101 3:172 
-0.1904013005413822 1:96 2:96 3:175 
-0.2011003648249776 2:96 3:175 
-0.1061748683278574 3:175 
-0.1875880492174764 1:95 2:96 3:172 
-0.1986370392577453 2:96 3:172 
-0.1791294743332919 3:172 
-0.8181407718554787 1:96 2:103 3:154 
-1.394720334863267 2:103 3:154 
-50 3:154 
-0.08635301926751177 1:95 2:114 3:137 
-0.02633172591545632 2:114 3:137 
-50 3:137 
-0.1549015264522752 1:92 2:134 3:99 
-0.1562621737638866 1:92 2:135 3:98 
-0.2213334989149677 1:92 2:143 3:93 
-0.1789131913229547 1:92 2:149 3:89 
-0.1788632834059041 2:149 3:89 
-0.205424601865799 1:92 2:156 3:88 
-0.2051462551790396 2:156 3:88 
-0.1923885721601241 1:92 2:142 3:97 
-0.04954027207000933 2:142 3:97 
-0.1741272891340718 1:92 2:148 3:93 
-0.1477734095150546 2:148 3:93 
-0.1472989185245699 1:92 2:145 3:95 
-0.04529609902439957 2:145 3:95 
-0.1319922709847103 1:92 2:146 3:94 
-0.1543760698689189 2:146 3:94 
-0.1520254063081972 1:92 2:150 3:92 
-0.1098839273987347 2:150 3:92 
-0.1514001034790157 1:92 2:151 3:91 
-0.08667523905538585 2:151 3:91 
-0.1419218800220023 1:93 2:143 3:100 
-0.1560194514784234 1:93 2:150 3:95 
-0.1888313201880067 1:93 2:155 3:92 
-0.1431727705421521 2:155 3:92 
-0.2003161622726735 1:93 2:164 3:90 
-0.1220416818553331 2:164 3:90 
-0.1823777225915494 1:93 2:144 3:103 
-0.1367118657677185 1:93 2:144 3:99 
-0.03105455375339306 2:144 3:99 
-0.1256330105270538 1:93 2:149 3:96 
-0.04328234254051228 2:149 3:96 
-0.196713739900747 1:93 2:147 3:97 
-0.05666788323871948 2:147 3:97 
-0.205080875378208 1:93 2:161 3:92 
-0.1139924123199628 2:161 3:92 
-0.1775551129147687 1:93 2:142 3:104 
-0.1774823819120211 2:142 3:104 
-0.2069358502119404 1:93 2:146 3:101 
-0.06265503518258409 2:146 3:101 
-0.1268906965462644 1:93 2:149 3:99 
-0.1011406087230375 1:93 2:156 3:95 
-0.1283933304237299 1:93 2:148 3:100 
-0.2021644262600972 1:93 2:154 3:96 
-0.1586284479402865 1:93 2:151 3:98 
-0.1879631390483051 1:93 2:172 3:89 
-0.1937003013872935 2:172 3:89 
-0.1719456468597954 1:93 2:149 3:103 
-0.04054321553559043 2:149 3:103 
-0.2037975712339801 1:93 2:143 3:107 
-0.1336110285195395 2:143 3:107 
-0.1774041634105083 1:93 2:168 3:91 
-0.1440454760315179 1:93 2:161 3:95 
-0.1453895244727725 1:93 2:166 3:92 
-0.1297067790010206 2:166 3:92 
-0.1577908277531815 1:93 2:146 3:105 
-0.13357977694277 1:93 2:147 3:104 
-0.1266885580145492 2:147 3:104 
-0.1902395669446492 1:93 2:170 3:90 
-0.1271391080079611 2:170 3:90 
-0.1220544484000651 1:93 2:165 3:93 
-0.1410527580041269 1:93 2:155 3:99 
-0.1752811288806778 1:93 2:151 3:101 
-0.0526700404474324 1:93 2:150 3:102 
-0.063665106198388 2:150 3:102 
-0.1616161693870599 1:93 2:153 3:100 
-0.1142445668769924 1:93 2:159 3:96 
-0.1613977212446154 1:93 2:157 3:94 
-0.03639964259103551 2:157 3:94 
-0.1723742932033232 1:93 2:163 3:94 
-0.1331205284587371 1:93 2:158 3:97 
-0.1167218503566252 1:92 2:162 3:96 
-0.08573463046482688 2:162 3:96 
-0.205780281890135 1:93 2:155 3:102 
-0.1243889220797717 1:93 2:157 3:101 
-0.125159431742578 1:93 2:152 3:97 
-0.1045677519666939 1:93 2:156 3:98 
-0.1072873220037127 1:92 2:157 3:99 
-0.1074512253593203 1:92 2:160 3:97 
-0.1161708191536952 1:93 2:158 3:100 
-0.03355779869240977 1:93 2:159 3:98 
-0.1331384148935555 1:93 2:160 3:99 
-0.1282686076461308 1:93 2:163 3:97 
-0.1316044006506035 1:93 2:161 3:98 
-0.03055181519197525 2:161 3:98 
-0.1329455541798783 1:93 2:165 3:96 
-0.1534040873173781 1:93 2:166 3:95 
-0.1188901116126042 1:98 2:38 3:108 
-0.1954225769031782 1:98 2:34 3:111 
-0.1553218032738212 1:98 2:38 3:106 
-0.1872630057659381 1:98 2:38 3:102 
-0.1315710282548491 2:38 3:102 
-0.1390388374743009 1:98 2:37 3:109 
-0.131707169623016 1:94 2:34 3:104 
-0.09325700157321859 2:34 3:104 
-0.2020367657078753 1:94 2:37 3:104 
-0.1522627845096907 1:94 2:33 3:107 
-0.191776879264608 1:94 2:35 3:110 
-0.1923801187065685 1:94 2:32 3:112 
-0.2031966902134073 1:98 2:34 3:114 
-0.1479389247467528 1:102 2:40 3:108 
-0.1560072363681604 1:102 2:41 3:107 
-0.04138943291305008 2:41 3:107 
-0.1887061050601762 1:104 2:37 3:104 
-0.1775300940472934 1:104 2:35 3:108 
-0.1202621639311298 1:106 2:30 3:112 
-0.03749134814575122 1:106 2:29 3:113 
-0.1998552687268113 1:107 2:19 3:123 
-0.1507271876321016 2:19 3:123 
-0.06488800906518127 1:104 2:24 3:118 
-0.1243474944764951 1:104 2:24 3:119 
-0.1153220468967617 1:104 2:24 3:116 
-0.03648300187382442 1:104 2:23 3:121 
-0.2139100430309178 1:104 2:34 3:114 
-0.06170430148260386 1:98 2:35 3:109 
-0.1522346070854885 1:99 2:32 3:103 
-0.1456261967180191 1:98 2:37 3:104 
-0.1171688447002814 1:99 2:31 3:106 
-0.04566390555723976 1:98 2:37 3:103 
-0.2043308695214678 1:99 2:33 3:100 
-0.1519250054092262 1:98 2:36 3:106 
-0.1511656120788219 1:99 2:30 3:109 
-0.1410736063911919 1:98 2:35 3:108 
-0.1912412674558733 1:98 2:29 3:105 
-0.05622928665665007 1:94 2:34 3:105 
-0.09062259610134231 1:94 2:34 3:106 
-0.1566416062577848 1:94 2:33 3:109 
-0.1432311335322986 2:33 3:109 
-0.1371422352848755 1:99 2:32 3:105 
-0.160321328885125 1:104 2:34 3:111 
-0.1772373114944212 1:104 2:36 3:106 
-0.03068105796751891 1:104 2:36 3:107 
-0.1278584567740171 1:104 2:35 3:110 
-0.1939857882224347 1:106 2:29 3:114 
-0.1709577606532027 1:106 2:31 3:106 
-0.1973973810287276 1:106 2:31 3:108 
-0.1117673441935076 1:106 2:30 3:110 
-0.06154003235735873 1:106 2:30 3:111 
-0.1473283816813342 1:107 2:19 3:118 
-0.0835986857679194 2:19 3:118 
-0.08690866534756975 2:19 3:119 
-0.07450474910724075 1:104 2:24 3:115 
-0.08663794328618663 1:104 2:23 3:120 
-0.2013585701622582 1:104 2:23 3:124 
-0.1657169608695931 1:104 2:23 3:122 
-0.1639636056388987 1:106 2:28 3:119 
-0.04037780315963752 1:104 2:33 3:117 
-0.1758399260404244 1:105 2:37 3:124 
-0.1408550468435386 2:37 3:124 
-0.1327834720667257 1:99 2:31 3:108 
-0.174972289188298 1:98 2:30 3:103 
-0.1674809932126574 1:98 2:28 3:108 
-0.0979002669879766 1:98 2:29 3:107 
-0.1510298053524956 1:104 2:27 3:105 
-0.1366336260642892 1:104 2:26 3:109 
-0.1149630689082595 1:104 2:25 3:114 
-0.05828577825923109 1:104 2:25 3:112 
-0.1008678503539835 1:120 2:13 3:120 
-0.07844119492350643 2:13 3:120 
-0.1583579705419398 1:120 2:13 3:121 
-0.1708995346561642 2:13 3:121 
-0.1511046219437776 1:109 2:17 3:123 
-0.1937227687562376 2:17 3:123 
-0.09734518068890594 1:106 2:27 3:124 
-0.1393765199046011 2:27 3:124 
-0.1579395790084376 1:104 2:32 3:118 
-0.1587280704672811 1:105 2:38 3:122 
-0.06020200020768496 1:104 2:25 3:111 
-0.2029833876785065 1:99 2:25 3:101 
-0.1616149819127719 2:25 3:101 
-0.04622483126172494 1:99 2:24 3:108 
-0.1863315084188472 1:99 2:23 3:113 
-0.1389973323908424 1:99 2:24 3:107 
-0.1392002450750137 1:99 2:23 3:111 
-0.1640725200276961 1:99 2:23 3:109 
-0.1829290308710082 1:99 2:24 3:105 
-0.1806813883049165 1:104 2:27 3:103 
-0.06795281528827052 2:27 3:103 
-0.1810370904283868 1:104 2:26 3:107 
-0.1101228673039998 1:104 2:25 3:110 
-0.08856010197098585 1:104 2:25 3:113 
-0.06786311495705366 1:104 2:24 3:117 
-0.03625469563903067 1:107 2:22 3:104 
-0.1182567723702558 2:22 3:104 
-0.1350138265385804 1:107 2:20 3:114 
-0.05247272418846377 2:20 3:114 
-0.1553989615353796 1:120 2:13 3:116 
-0.1449724936402415 2:13 3:116 
-0.1863430143335098 1:112 2:22 3:125 
-0.03075802909721434 1:112 2:24 3:119 
-0.1942885427697739 1:106 2:26 3:127 
-0.1322505947684948 2:26 3:127 
-0.0306865640820288 1:106 2:27 3:123 
-0.04161140091902471 1:106 2:28 3:120 
-0.1127303235671617 1:106 2:27 3:121 
-0.09188811882209683 2:27 3:121 
-0.03392501716071228 1:106 2:26 3:126 
-0.1171518304432947 1:106 2:27 3:125 
-0.05349775035753634 2:27 3:125 
-0.04291854199866271 1:104 2:31 3:125 
-0.06233668672616793 2:31 3:125 
-0.1351637919783663 1:104 2:32 3:120 
-0.1451892461313096 1:107 2:35 3:118 
-0.0751846904810376 2:35 3:118 
-0.09870056235838962 1:105 2:39 3:118 
-0.1031967625219028 1:105 2:39 3:117 
-0.05467110526126146 2:39 3:117 
-0.1045220047660838 1:105 2:40 3:114 
-0.04360334446853226 1:107 2:20 3:117 
-0.1694781991076917 1:107 2:20 3:116 
-0.1744439845605013 2:20 3:116 
-0.1710450911160477 1:107 2:19 3:120 
-0.06971299164946992 2:19 3:120 
-0.02761682766854218 1:107 2:20 3:113 
-0.1223012551725144 2:20 3:113 
-0.07319398391844889 1:109 2:19 3:108 
-0.1075523483255938 1:109 2:19 3:110 
-0.03915056012427293 2:19 3:110 
-0.1341858933318295 1:109 2:17 3:120 
-0.08089270487675138 2:17 3:120 
-0.2155579189091302 1:120 2:14 3:111 
-0.1920599533610977 2:14 3:111 
-0.09637170998403166 1:120 2:14 3:113 
-0.1297648882975324 2:14 3:113 
-0.07647894307582898 1:109 2:17 3:122 
-0.1152048963603576 2:18 3:112 
-0.1717413547329176 1:114 2:22 3:117 
-0.1719287177873717 2:22 3:117 
-0.1740351051605153 1:114 2:21 3:123 
-0.05975894434640611 2:21 3:123 
-0.2019215651900305 1:112 2:22 3:128 
-0.1843501335601548 2:22 3:128 
-0.1619656416694841 1:112 2:23 3:120 
-0.1783803860872194 1:106 2:28 3:117 
-0.1658437053248623 1:104 2:31 3:124 
-0.1003439097099227 2:31 3:124 
-0.1828509804571159 1:104 2:30 3:126 
-0.1441485433183441 2:30 3:126 
-0.1459604854573102 1:104 2:31 3:122 
-0.04635719733211726 2:31 3:122 
-0.2048116167115281 1:102 2:36 3:121 
-0.2147491122006063 1:102 2:37 3:117 
-0.07414572357912216 1:105 2:39 3:119 
-0.1182860206548795 1:105 2:40 3:115 
-0.08107152575061083 1:105 2:41 3:113 
-0.1819659657675902 1:103 2:41 3:117 
-0.06748358185425002 2:42 3:114 
-0.1820967369743549 1:107 2:23 3:101 
-0.1398470543593293 2:23 3:101 
-0.1324272739767524 1:107 2:20 3:112 
-0.03257841952521917 2:20 3:112 
-0.1138910293354614 1:107 2:21 3:111 
-0.1515654501272978 2:21 3:111 
-0.1320079335605317 1:107 2:21 3:109 
-0.09828255002136499 2:21 3:109 
-0.0333971010897508 1:107 2:21 3:110 
-0.02662115139685151 1:107 2:23 3:102 
-0.07130182443690766 2:23 3:102 
-0.05808769731129419 1:107 2:21 3:108 
-0.117555817206003 1:107 2:22 3:106 
-0.1067482139476135 2:22 3:106 
-0.09934744321210753 1:107 2:21 3:107 
-0.1419984339255409 2:21 3:107 
-0.06278010282703878 1:107 2:22 3:105 
-0.1469750381233804 1:107 2:22 3:103 
-0.07721586421349005 2:22 3:103 
-0.1969277862823862 1:109 2:20 3:102 
-0.1791304753097485 2:20 3:102 
-0.1656226496285996 1:109 2:20 3:104 
-0.1224654413559235 2:20 3:104 
-0.1371236589041189 1:109 2:19 3:106 
-0.1626923385138266 2:19 3:106 
-0.08795036695372693 1:109 2:19 3:107 
-0.0587635945186496 2:19 3:107 
-0.1317358486001057 1:109 2:18 3:111 
-0.08057778394710607 2:18 3:111 
-0.06424820493759248 1:109 2:19 3:109 
-0.1667412672245908 2:19 3:109 
-0.1483580119285671 1:120 2:13 3:114 
-0.1541807104183687 2:13 3:114 
-0.1817626244800945 1:120 2:13 3:118 
-0.1715677209517185 2:13 3:118 
-0.1406587265870873 1:109 2:18 3:113 
-0.08112058482973933 1:109 2:18 3:114 
-0.1538952359051956 2:18 3:114 
-0.03157688382806245 1:109 2:17 3:121 
-0.09283139073621594 2:17 3:121 
-0.06046285984133318 1:109 2:17 3:117 
-0.1384180768527282 2:17 3:117 
-0.1439017137433972 1:109 2:18 3:116 
-0.09493708431439735 2:18 3:116 
-0.06433190649342202 2:17 3:119 
-0.1552778377652205 1:109 2:17 3:118 
-0.05482284371559976 2:17 3:118 
-0.04668466239985902 1:109 2:18 3:115 
-0.1090319699394989 1:112 2:23 3:123 
-0.1331074059525464 2:23 3:123 
-0.1654705087337536 1:112 2:24 3:118 
-0.09886638447802426 1:112 2:23 3:122 
-0.06333874922258574 1:112 2:23 3:124 
-0.09909571687598015 1:106 2:27 3:122 
-0.07663336571661958 1:104 2:32 3:121 
-0.1712456030032005 1:104 2:33 3:116 
-0.1677160020978789 1:105 2:38 3:120 
-0.1407241691646795 2:38 3:120 
-0.1887104177465611 1:103 2:42 3:115 
-0.1945262259635824 1:103 2:43 3:113 
-0.2007715658330063 1:103 2:44 3:109 
-0.0677760641318107 2:44 3:109 
-0.1020839562260313 1:112 2:26 3:107 
-0.1173009923407801 2:26 3:107 
-0.03486689620785305 1:112 2:24 3:115 
-0.1529442058101379 1:112 2:25 3:114 
-0.1429148019263411 1:115 2:29 3:106 
-0.1018435722783094 2:29 3:106 
-0.1818148564204847 1:112 2:28 3:102 
-0.1159677247474258 1:114 2:23 3:112 
-0.1080333140818641 2:23 3:112 
-0.05929201671212847 1:114 2:25 3:104 
-0.08232789294835988 2:25 3:104 
-0.1432459112749129 1:114 2:24 3:106 
-0.1210571781083795 2:24 3:106 
-0.1290950526401213 1:114 2:24 3:108 
-0.1125007651124847 2:24 3:108 
-0.155827547715126 1:114 2:21 3:119 
-0.1193366460100523 2:21 3:119 
-0.1446123094746168 2:21 3:122 
-0.03592047339665233 1:114 2:22 3:118 
-0.09997642654695693 1:114 2:22 3:114 
-0.1344300915868156 2:22 3:114 
-0.07654408320464207 1:114 2:23 3:113 
-0.04906142595351259 2:23 3:113 
-0.06498934389785288 2:21 3:120 
-0.1599171302351164 1:114 2:21 3:121 
-0.1077674835431652 1:114 2:22 3:115 
-0.05943848495827913 2:22 3:115 
-0.0689665062319391 1:114 2:23 3:111 
-0.202411663060094 1:117 2:22 3:125 
-0.1951616526654676 2:22 3:125 
-0.1845765674454036 1:117 2:23 3:121 
-0.1314838787627999 2:23 3:121 
-0.03200132041322673 1:117 2:23 3:120 
-0.03834336367283742 2:23 3:120 
-0.1400844346442797 1:115 2:26 3:116 
-0.1026722597675737 2:26 3:116 
-0.1321058132846457 1:115 2:24 3:125 
-0.07826683361719417 2:24 3:125 
-0.1438652267605042 1:115 2:25 3:124 
-0.1285116430523433 2:25 3:124 
-0.1946015960026426 1:109 2:29 3:123 
-0.1654189375645337 2:29 3:123 
-0.1565162726378938 1:109 2:30 3:121 
-0.1160930778183034 2:30 3:121 
-0.1567211836365106 1:107 2:34 3:119 
-0.1458902723601241 2:34 3:119 
-0.02924754248664474 1:105 2:37 3:123 
-0.03597252614233965 2:37 3:123 
-0.1214475847240706 1:105 2:41 3:111 
-0.08807734576393078 1:105 2:41 3:112 
-0.1289840718918291 1:106 2:42 3:116 
-0.1167455786525237 2:42 3:116 
-0.184068530561828 1:105 2:44 3:116 
-0.07959159427807722 1:105 2:43 3:118 
-0.0703850222009068 2:43 3:118 
-0.1534256664930531 1:105 2:43 3:119 
-0.1297075667574517 2:43 3:119 
-0.1957746245057346 1:105 2:46 3:112 
-0.2051826670895394 1:105 2:48 3:107 
-0.1876892666773605 1:105 2:56 3:110 
-0.2053363963171653 1:104 2:52 3:107 
-0.1738505688119307 1:112 2:26 3:109 
-0.04496632321970279 1:112 2:27 3:105 
-0.1666461670293131 1:112 2:27 3:104 
-0.1061875671495994 1:112 2:26 3:106 
-0.03449431255681218 2:26 3:106 
-0.0661357445847892 1:112 2:25 3:110 
-0.06664975620170138 1:112 2:25 3:112 
-0.07579128209016461 1:115 2:30 3:103 
-0.03322571407444624 2:30 3:103 
-0.1164136369163634 1:114 2:23 3:109 
-0.05276540444394873 2:23 3:109 
-0.15819152493654 1:114 2:25 3:103 
-0.1155490494121694 2:25 3:103 
-0.2238052307707032 1:117 2:27 3:105 
-0.1568370629666367 2:27 3:105 
-0.09720097261057453 1:114 2:24 3:105 
-0.05548185526869356 2:24 3:105 
-0.04785354353071136 1:114 2:23 3:110 
-0.1107726157295008 2:23 3:110 
-0.0553772762267391 1:117 2:24 3:115 
-0.04430206325492087 2:24 3:115 
-0.1576578961576726 1:117 2:25 3:112 
-0.1565712799567291 1:117 2:25 3:110 
-0.03236106432442953 2:25 3:110 
-0.1584764923837137 1:117 2:25 3:114 
-0.08706841850617153 2:25 3:114 
-0.05700924696842535 2:24 3:117 
-0.1375757728512165 1:117 2:24 3:118 
-0.07164453714333169 1:117 2:24 3:119 
-0.1570291180407243 2:24 3:119 
-0.1395441281314622 1:117 2:24 3:116 
-0.2034374197430406 1:120 2:24 3:127 
-0.1522013138844779 2:24 3:127 
-0.1426724092682529 3:127 
-0.2219786373327723 1:120 2:27 3:114 
-0.1963038947499987 1:120 2:26 3:120 
-0.06307562170667128 2:26 3:120 
-0.1898447919320941 1:115 2:27 3:122 
-0.09951745241765853 2:27 3:122 
-0.204804641494152 1:112 2:30 3:128 
-0.1810018558208609 2:30 3:128 
-0.1849278367568122 1:115 2:26 3:126 
-0.06213397261885933 2:26 3:126 
-0.08797217860075413 1:112 2:33 3:117 
-0.07156934819829741 1:112 2:32 3:118 
-0.06343118431342001 2:32 3:118 
-0.1616540182251205 1:109 2:37 3:117 
-0.09652979904093977 2:39 3:125 
-0.1735730219567277 1:106 2:38 3:126 
-0.1803367732540883 2:38 3:126 
-0.0250511277052457 3:126 
-0.1790400541166547 1:106 2:39 3:124 
-0.06615248974654542 3:124 
-0.132990337771442 1:106 2:41 3:117 
-0.09419413877885174 2:41 3:117 
-0.1864727300368708 1:106 2:44 3:111 
-0.1736150320400178 2:44 3:111 
-0.09030188825205096 1:109 2:48 3:112 
-0.03743078388225279 2:47 3:115 
-0.1174430352745243 1:108 2:48 3:117 
-0.1150061743076924 1:108 2:49 3:114 
-0.06205005652219198 1:108 2:51 3:110 
-0.06184974649730907 1:108 2:48 3:116 
-0.1732635468246486 1:108 2:47 3:119 
-0.05143523120795734 2:47 3:119 
-0.1656765142927394 1:108 2:52 3:107 
-0.1014501238924513 1:115 2:31 3:100 
-0.1579141148737641 2:31 3:100 
-0.0303869202004835 1:115 2:30 3:102 
-0.02936438734479119 1:115 2:27 3:115 
-0.04368864768080059 2:27 3:115 
-0.05566893260170297 2:28 3:111 
-0.1362904825664696 1:115 2:34 3:98 
-0.1221855777683215 2:34 3:98 
-0.2044382684675359 1:120 2:30 3:102 
-0.1004219300866919 2:30 3:102 
-0.1981113080468162 1:117 2:28 3:102 
-0.168264633365588 2:28 3:102 
-0.1561706582915649 1:120 2:29 3:107 
-0.03721708071565738 2:29 3:107 
-0.1669085431999364 1:117 2:26 3:108 
-0.156006624172234 1:120 2:28 3:108 
-0.05473777106444173 1:117 2:26 3:109 
-0.1320049889679181 2:26 3:109 
-0.158319009379131 1:115 2:27 3:112 
-0.1312919082020403 2:27 3:112 
-0.1007964359770606 1:115 2:29 3:115 
-0.1006484786171447 2:29 3:114 
-0.1339756551405669 1:115 2:29 3:113 
-0.04893984884527441 2:29 3:113 
-0.1394182235210498 1:115 2:28 3:120 
-0.09445462618510923 2:28 3:120 
-0.1252314275347852 1:115 2:28 3:118 
-0.1711947260170756 2:28 3:118 
-0.1123531320584627 1:115 2:29 3:116 
-0.1438465853178512 2:29 3:116 
-0.1276276304240885 1:115 2:30 3:111 
-0.09080898908287668 2:30 3:111 
-0.2053213020668934 1:118 2:31 3:123 
-0.1730337217722889 1:118 2:33 3:117 
-0.1271288600722326 2:33 3:117 
-0.1909555860966322 1:118 2:32 3:119 
-0.04196850349277768 1:115 2:37 3:116 
-0.1448594960958822 1:115 2:39 3:112 
-0.1534890496607418 2:39 3:112 
-0.1848766601732383 1:115 2:36 3:121 
-0.1895393898308947 2:36 3:121 
-0.1808181710735166 1:111 2:40 3:121 
-0.1507076238765813 2:40 3:121 
-0.1486829234296445 1:115 2:36 3:119 
-0.09766078695969366 2:36 3:119 
-0.1136905274146273 1:109 2:46 3:116 
-0.05362700852932206 2:46 3:116 
-0.1838202217852752 1:109 2:45 3:120 
-0.1482383362321542 2:45 3:120 
-0.1301463542890632 1:109 2:45 3:118 
-0.08259053045980674 2:45 3:118 
-0.1596018570000002 1:109 2:47 3:114 
-0.1337995268201564 2:47 3:114 
-0.105547031632959 1:108 2:51 3:111 
-0.06931496693157145 1:108 2:53 3:111 
-0.186263112161138 1:108 2:51 3:116 
-0.139355128252154 2:51 3:116 
-0.1120803154592891 1:108 2:51 3:114 
-0.05425846029620318 2:51 3:114 
-0.1979586939416215 1:107 2:57 3:111 
-0.1537510674899704 1:107 2:55 3:115 
-0.1722736012391194 1:107 2:60 3:107 
-0.2198486680215819 1:107 2:62 3:103 
-0.147050722352883 2:62 3:103 
-0.08473589853329278 1:109 2:65 3:106 
-0.129147411932214 2:65 3:106 
-0.1601657010027215 1:115 2:32 3:105 
-0.08426634150681937 2:32 3:105 
-0.148930864110932 1:115 2:30 3:101 
-0.06294789648099669 2:30 3:101 
-0.1495257883860433 1:115 2:29 3:104 
-0.1334587162423336 2:29 3:104 
-0.121747360642883 1:115 2:27 3:114 
-0.1098491457877578 2:27 3:114 
-0.1372328942323414 1:115 2:30 3:109 
-0.1286850965460168 2:30 3:109 
-0.1138517452686421 1:115 2:31 3:107 
-0.1663284341650353 1:115 2:33 3:101 
-0.1420544044442084 2:33 3:101 
-0.2116692404881885 1:115 2:35 3:96 
-0.1969878436175581 2:35 3:96 
-0.1899297992947612 1:120 2:36 3:99 
-0.1776823100512919 2:36 3:99 
-0.2006633964219697 1:120 2:35 3:102 
-0.1816051151060305 2:35 3:102 
-0.02746152113473144 1:120 2:34 3:106 
-0.07084867505430602 2:34 3:106 
-0.1705096118717598 1:120 2:34 3:105 
-0.1894380421624141 1:120 2:33 3:107 
-0.1070457685923617 2:33 3:107 
-0.02944079251517656 1:118 2:34 3:111 
-0.1572733447569046 1:118 2:35 3:110 
-0.07001973403956774 2:35 3:110 
-0.1895782023121782 1:120 2:35 3:117 
-0.1242101094359899 2:35 3:116 
-0.1262344015379285 1:120 2:37 3:109 
-0.1129827142898992 2:37 3:109 
-0.1604093054273896 2:38 3:107 
-0.1522824626386484 1:120 2:35 3:115 
-0.07119887658688022 2:37 3:110 
-0.1738063763376667 1:120 2:37 3:111 
-0.07302765813918483 2:37 3:111 
-0.1145829871985513 2:36 3:112 
-0.1776282497982072 1:120 2:36 3:113 
-0.03844467623046999 1:120 2:36 3:114 
-0.1364299026678764 2:36 3:114 
-0.1893821531581013 1:115 2:39 3:118 
-0.1436216542203563 2:39 3:118 
-0.2022738285900281 1:117 2:45 3:114 
-0.07511440408740702 1:115 2:49 3:115 
-0.1743342086068978 1:115 2:48 3:116 
-0.1559912805030067 1:110 2:49 3:115 
-0.1550493939039456 2:49 3:115 
-0.1614788556488274 1:111 2:52 3:117 
-0.1228144900448103 2:52 3:117 
-0.1525271542742545 1:110 2:48 3:117 
-0.1301149370139907 1:111 2:53 3:116 
-0.1077735140343087 2:53 3:116 
-0.07750021555634784 2:55 3:112 
-0.1094121084563635 1:110 2:51 3:110 
-0.1053000007389877 1:110 2:55 3:115 
-0.16090108344056 1:109 2:61 3:118 
-0.1757834200380123 2:61 3:118 
-0.06243518156925057 1:109 2:64 3:108 
-0.145629184793424 1:109 2:66 3:105 
-0.1875041720007763 1:109 2:69 3:103 
-0.1534227273778038 1:109 2:67 3:107 
-0.045626082173479 2:67 3:107 
-0.2056246368495943 1:108 2:71 3:108 
-0.07735950128053273 2:71 3:108 
-0.1108981017868086 1:115 2:33 3:99 
-0.139553193616552 2:33 3:99 
-0.1549522939882461 1:115 2:32 3:103 
-0.1620306450734451 2:32 3:103 
-0.05861813734667826 1:115 2:30 3:112 
-0.08317955257204754 2:30 3:112 
-0.04145767902757286 1:115 2:28 3:117 
-0.06614926903352864 1:115 2:31 3:108 
-0.09072731630530879 2:31 3:108 
-0.1201453402366913 1:118 2:36 3:107 
-0.03148091694541361 2:36 3:107 
-0.1687640503832245 1:118 2:36 3:105 
-0.1172109412326192 2:36 3:106 
-0.1736589012489292 1:118 2:37 3:103 
-0.03488491906760988 2:37 3:103 
-0.1804993419164248 1:120 2:42 3:98 
-0.1828537701379189 2:42 3:98 
-0.178268724064305 1:120 2:43 3:96 
-0.2110072646304192 2:43 3:96 
-0.1351402848678679 1:120 2:38 3:108 
-0.0277144877428453 2:40 3:102 
-0.1590592773847742 1:120 2:38 3:106 
-0.09791931655290748 1:120 2:39 3:104 
-0.06252750375591008 2:39 3:104 
-0.146374858756096 1:120 2:40 3:103 
-0.09999936828309766 2:40 3:103 
-0.1586808520146317 1:120 2:45 3:102 
-0.0704671457305048 2:45 3:102 
-0.02904578170743122 1:120 2:42 3:109 
-0.1421131628035013 2:42 3:109 
-0.08209296567195853 1:120 2:44 3:105 
-0.2117964506881851 1:120 2:38 3:122 
-0.07075680823129404 2:38 3:122 
-0.1130831293360732 1:120 2:44 3:104 
-0.1643200440541983 1:120 2:42 3:108 
-0.1476491899750599 1:120 2:41 3:111 
-0.08885782969559475 1:120 2:40 3:114 
-0.03343271037087336 2:40 3:114 
-0.1412877529984385 1:120 2:41 3:113 
-0.1054802373294977 2:41 3:113 
-0.073794487788266 1:120 2:40 3:115 
-0.1296115363819429 2:40 3:115 
-0.1320084065616959 1:120 2:43 3:106 
-0.09991272279165003 1:120 2:42 3:110 
-0.137629946812312 1:120 2:40 3:116 
-0.2038164854523843 1:117 2:44 3:117 
-0.04263196156764038 2:44 3:117 
-0.1431549694629043 1:111 2:55 3:111 
-0.1234285722888677 2:55 3:111 
-0.141129472461569 1:113 2:56 3:114 
-0.1724163065951084 1:110 2:61 3:105 
-0.149543910114812 1:113 2:60 3:107 
-0.110030985887092 1:110 2:56 3:113 
-0.1876240343085528 1:113 2:55 3:116 
-0.1326748782477893 1:110 2:57 3:112 
-0.1155904933268451 1:112 2:59 3:113 
-0.1391814741059887 1:110 2:55 3:116 
-0.1721764928229728 2:55 3:116 
-0.1835713379133555 1:112 2:58 3:115 
-0.1597968415060264 2:58 3:115 
-0.03688108534755092 1:112 2:60 3:111 
-0.1020932874541072 1:112 2:61 3:109 
-0.06570762163209132 2:61 3:109 
-0.1954953654683511 1:109 2:71 3:101 
-0.1992199529005733 1:111 2:75 3:98 
-0.1980319600401618 1:109 2:73 3:98 
-0.1997329545192458 1:109 2:78 3:102 
-0.1124178501922542 2:78 3:102 
-0.03032650680455507 1:120 2:42 3:97 
-0.200041704316947 1:118 2:38 3:100 
-0.1603265904261591 2:38 3:100 
-0.08884492532879051 1:115 2:41 3:106 
-0.07446349296701355 2:41 3:106 
-0.1951279561464454 1:118 2:34 3:112 
-0.08146625788648609 2:34 3:112 
-0.05429647505554586 1:115 2:39 3:111 
-0.03381374957575178 1:118 2:37 3:104 
-0.1195133019297263 2:37 3:104 
-0.2015609210768432 1:115 2:44 3:99 
-0.1781424491124571 2:44 3:99 
-0.1306802068494559 1:120 2:41 3:100 
-0.1395604638381037 2:41 3:100 
-0.1705436658008137 1:115 2:45 3:103 
-0.1278063864169236 2:45 3:103 
-0.05317818448181322 1:120 2:39 3:105 
-0.1246915386702863 2:39 3:105 
-0.2130410581890672 1:115 2:47 3:98 
-0.1902029835378958 2:47 3:98 
-0.1480036064842413 1:120 2:40 3:101 
-0.10052197857199 2:40 3:101 
-0.1652208271218185 1:115 2:45 3:101 
-0.04990077187579423 1:120 2:45 3:101 
-0.0688181199486127 2:45 3:101 
-0.06439580780764626 1:120 2:46 3:100 
-0.1504552363285918 2:46 3:100 
