svm_type c_svc
kernel_type rbf
gamma 0.5
nr_class 2
total_sv 7076
rho 0.791132
label 1 -1
nr_sv 2277 4799
SV
1.753306834102984 1:94 2:94 3:133 
10 3:133 
10 
1.752163626797081 1:93 2:91 3:132 
2.240667439253715 2:91 3:132 
10 3:132 
10 
1.54708790454279 1:92 2:94 3:133 
2.230176913904254 2:94 3:133 
10 3:133 
10 
1.726861841871278 1:93 2:89 3:135 
1.880175365784575 2:89 3:135 
10 3:135 
10 
10 3:139 
10 
0.3063838857444623 1:93 2:87 3:138 
10 3:138 
10 
1.462588524506221 1:93 2:85 3:141 
10 3:141 
10 
1.222899181346091 1:93 2:86 3:139 
0.6285727287695591 2:86 3:139 
10 3:139 
10 
1.327381030955501 1:93 2:87 3:137 
0.9190545011905257 2:87 3:137 
10 3:137 
10 
10 3:138 
10 
10 3:137 
10 
0.4573714397205725 1:93 2:83 3:139 
10 3:139 
10 
1.347667309896672 1:93 2:82 3:140 
10 3:140 
10 
10 3:138 
10 
1.442788308040156 1:93 2:84 3:137 
1.465848884823268 2:84 3:137 
10 3:137 
10 
0.7285720069706878 1:93 2:83 3:138 
0.6469207312769567 2:83 3:138 
10 3:138 
10 
1.673611857954808 1:93 2:80 3:137 
1.582865733793069 2:80 3:137 
10 3:137 
10 
0.4995271629729527 1:95 2:82 3:140 
0.8514639033983568 2:82 3:140 
10 3:140 
10 
10 3:142 
10 
0.6894511186193095 1:93 2:78 3:140 
0.6272035540901957 2:78 3:140 
10 3:140 
10 
10 3:141 
10 
10 3:144 
10 
1.482789840573932 1:94 2:72 3:148 
10 3:148 
10 
0.6752063512193598 1:94 2:74 3:145 
0.7263672340039612 2:74 3:145 
10 3:145 
10 
1.56316098339957 1:94 2:78 3:138 
1.461764622945548 2:78 3:138 
10 3:138 
10 
10 3:139 
10 
0.5571384557082793 1:95 2:73 3:139 
0.7091728714903318 2:73 3:139 
10 3:139 
10 
10 3:142 
10 
10 3:142 
10 
1.642501695179319 1:93 2:69 3:144 
1.109664761164025 2:69 3:144 
10 3:144 
10 
1.495240132385846 1:94 2:66 3:142 
0.9218568816153305 2:66 3:142 
10 3:142 
10 
1.337238395990467 1:94 2:70 3:134 
1.33695906169623 2:70 3:134 
10 3:134 
10 
1.272724571110265 1:94 2:71 3:133 
1.272753637110943 2:71 3:133 
10 3:133 
10 
10 3:140 
10 
10 3:142 
10 
10 3:142 
10 
10 3:140 
10 
10 3:141 
10 
10 3:141 
10 
10 3:141 
10 
10 3:144 
10 
1.440934431989196 1:96 2:57 3:143 
1.448642864751705 2:57 3:143 
10 3:143 
10 
1.582387016076394 1:96 2:53 3:143 
1.582366846336161 2:53 3:143 
10 3:143 
10 
1.570619933172389 1:96 2:48 3:142 
1.570668168286935 2:48 3:142 
10 3:142 
10 
1.476338512251691 1:94 2:96 3:136 
1.691096392514799 2:96 3:136 
10 3:136 
10 
10 3:139 
10 
1.639710219005419 1:94 2:97 3:139 
2.13873133935452 2:97 3:139 
10 3:139 
10 
10 3:139 
10 
10 3:142 
10 
10 3:139 
10 
0.7179163493814925 1:94 2:90 3:144 
0.223723181989379 2:90 3:144 
10 3:144 
10 
10 3:143 
10 
0.5239826494861517 1:94 2:92 3:142 
0.07489023022507302 2:92 3:142 
10 3:142 
10 
10 3:139 
10 
1.476655517734003 1:94 2:91 3:138 
1.435020999748497 2:91 3:138 
10 3:138 
10 
10 3:140 
10 
10 3:143 
10 
0.2713451619402829 1:94 2:87 3:144 
10 3:144 
10 
10 3:145 
10 
1.414239475805305 1:94 2:87 3:143 
1.517072507850594 2:87 3:143 
10 3:143 
10 
10 3:138 
10 
10 3:143 
10 
10 3:145 
10 
10 3:146 
10 
10 3:146 
10 
10 3:147 
10 
10 3:149 
10 
10 3:147 
10 
10 3:143 
10 
0.8090040084153289 1:94 2:77 3:140 
0.7062102426575103 2:77 3:140 
10 3:140 
10 
0.9240413094685025 1:94 2:76 3:141 
0.8792531088254744 2:76 3:141 
10 3:141 
10 
10 3:143 
10 
10 3:143 
10 
10 3:146 
10 
0.9074628981341555 1:95 2:70 3:145 
0.4666533525712259 2:70 3:145 
10 3:145 
10 
10 3:138 
10 
10 3:138 
10 
0.4417861724007858 1:96 2:75 3:143 
10 3:143 
10 
0.9696829201186574 1:96 2:73 3:146 
10 3:146 
10 
10 3:142 
10 
10 3:140 
10 
10 3:142 
10 
0.5205472683996265 1:95 2:69 3:141 
0.5144511120855125 2:69 3:141 
10 3:141 
10 
1.627941019025381 1:94 2:63 3:141 
1.524898129448495 2:63 3:141 
10 3:141 
10 
1.166573585951189 1:94 2:60 3:145 
1.143840019487279 2:60 3:145 
10 3:145 
10 
0.3641715158403196 1:96 2:57 3:144 
0.3486213203444455 2:57 3:144 
10 3:144 
10 
10 3:145 
10 
1.584073200858047 1:96 2:48 3:144 
1.584024973641966 2:48 3:144 
10 3:144 
10 
10 3:140 
10 
0.4523256305286129 1:94 2:96 3:141 
0.3745256223339656 2:96 3:141 
10 3:141 
10 
10 3:142 
10 
10 3:140 
10 
1.045769775024238 1:94 2:95 3:142 
1.066182659880541 2:95 3:142 
10 3:142 
10 
10 3:137 
10 
0.5331958586900323 1:94 2:92 3:141 
0.9592635001540097 2:92 3:141 
10 3:141 
10 
0.7773827374184847 1:94 2:93 3:140 
0.5456060962304054 2:93 3:140 
10 3:140 
10 
1.078539567248332 1:94 2:94 3:139 
1.19439584575515 2:94 3:139 
10 3:139 
10 
10 3:137 
10 
1.36485131323434 1:94 2:95 3:137 
1.761572614857067 2:95 3:137 
10 3:137 
10 
1.337428513698538 1:94 2:89 3:140 
1.878101764225736 2:89 3:140 
10 3:140 
10 
10 3:145 
10 
10 3:149 
10 
10 
10 3:147 
10 
0.5181822310620499 1:94 2:90 3:139 
0.8849822624059966 2:90 3:139 
10 3:139 
10 
10 3:144 
10 
10 3:148 
10 
10 3:150 
10 
10 3:147 
10 
10 3:143 
10 
10 3:142 
10 
10 3:145 
10 
10 3:147 
10 
0.8585173953487384 1:93 2:77 3:143 
0.6224380007598909 2:77 3:143 
10 3:143 
10 
0.3490673499342589 1:93 2:77 3:142 
0.2570912355527392 2:77 3:142 
10 3:142 
10 
0.3931630672622807 1:94 2:75 3:143 
0.3303768394293488 2:75 3:143 
10 3:143 
10 
0.8638775904859052 1:93 2:78 3:141 
0.4725952056099786 2:78 3:141 
10 3:141 
10 
10 3:144 
10 
10 3:146 
10 
0.726709254595425 1:94 2:75 3:142 
10 3:142 
10 
0.7575221932395856 1:94 2:74 3:144 
10 3:144 
10 
0.7377266551981523 1:96 2:73 3:147 
0.9119520939121258 2:73 3:147 
10 3:147 
10 
0.4727764847841319 1:96 2:72 3:148 
0.5178101090925573 2:72 3:148 
10 3:148 
10 
10 3:143 
10 
10 3:140 
10 
0.6523675505855672 1:95 2:72 3:141 
10 3:141 
10 
0.8277364534757603 1:95 2:73 3:140 
10 3:140 
10 
10 3:140 
10 
1.446838868715296 1:94 2:62 3:143 
1.109670242761798 2:62 3:143 
10 3:143 
10 
0.9533021875681826 1:94 2:60 3:144 
0.9417192191233208 2:60 3:144 
10 3:144 
10 
1.477438144617292 1:96 2:56 3:145 
1.478980190398439 2:56 3:145 
10 3:145 
10 
1.558737129050988 1:96 2:53 3:145 
1.558714585428488 2:53 3:145 
10 3:145 
10 
10 3:147 
10 
10 3:143 
10 
10 3:143 
10 
10 3:142 
10 
10 2:96 3:143 
10 3:143 
10 
10 3:145 
10 
10 3:146 
10 
10 3:146 
10 
10 3:145 
10 
0.4806142829221268 1:94 2:98 3:140 
0.7803946874982917 2:98 3:140 
10 3:140 
10 
0.8856405343167906 2:97 3:142 
10 3:142 
10 
0.5950363877621829 1:94 2:91 3:143 
0.5808363690867461 2:91 3:143 
10 3:143 
10 
10 3:145 
10 
10 3:149 
10 
10 
10 3:150 
10 
0.3157198485136705 1:94 2:90 3:145 
0.2373504385550446 2:90 3:145 
10 3:145 
10 
10 3:147 
10 
10 
10 
10 3:148 
10 
10 3:145 
10 
10 3:146 
10 
10 3:147 
10 
10 3:148 
10 
10 3:144 
10 
10 3:146 
10 
1.285971556637856 1:95 2:80 3:144 
2.639697444187499 2:80 3:144 
10 3:144 
10 
10 3:147 
10 
10 3:147 
10 
10 3:148 
10 
10 3:146 
10 
10 3:149 
10 
10 3:149 
10 
10 3:147 
10 
10 3:145 
10 
10 3:145 
10 
10 3:145 
10 
0.9333721430229762 1:95 2:80 3:140 
0.9470855719006779 2:80 3:140 
10 3:140 
10 
0.9229993254704811 1:95 2:81 3:139 
0.8230306106101637 2:81 3:139 
10 3:139 
10 
0.6991372573768572 1:95 2:72 3:142 
0.631099765890939 2:72 3:142 
10 3:142 
10 
0.9010908434859426 1:95 2:67 3:144 
0.8203639667198339 2:67 3:144 
10 3:144 
10 
1.564491312625493 1:96 2:63 3:146 
1.591218748405189 2:63 3:146 
10 3:146 
10 
1.347939078814177 1:96 2:62 3:144 
0.5301023549928791 2:62 3:144 
10 3:144 
10 
10 
0.3351178289004518 2:88 3:150 
10 3:150 
10 
10 3:147 
10 
10 3:145 
10 
10 3:146 
10 
10 3:148 
10 
10 3:149 
10 
10 3:148 
10 
10 3:146 
10 
0.6901321902228738 1:94 2:97 3:142 
10 2:97 3:142 
10 3:142 
10 
10 3:145 
10 
1.048815870090779 1:94 2:92 3:147 
1.082278793829142 2:92 3:147 
10 3:147 
10 
1.069226130901079 1:94 2:90 3:150 
0.9152493808629487 2:90 3:150 
10 3:150 
10 
10 
10 
10 
10 3:148 
10 
10 3:149 
10 
10 
10 
10 3:148 
10 
10 3:147 
10 
10 3:148 
10 
10 3:148 
10 
10 3:146 
10 
10 3:147 
10 
10 3:148 
10 
10 3:144 
10 
10 3:147 
10 
10 3:148 
10 
10 3:150 
10 
10 3:146 
10 
10 3:146 
10 
10 3:150 
10 
0.9494280928880461 1:95 2:76 3:150 
1.067143385103547 2:76 3:150 
10 3:150 
10 
1.046981450103931 1:95 2:75 3:149 
1.022507451899361 2:75 3:149 
10 3:149 
10 
0.8210463059140081 1:95 2:77 3:149 
0.7114558594545377 2:77 3:149 
10 3:149 
10 
0.4498216236550139 1:95 2:78 3:147 
0.1520529667194166 2:78 3:147 
10 3:147 
10 
10 3:141 
10 
1.228492275152516 1:95 2:83 3:139 
0.7853771731347845 2:83 3:139 
10 3:139 
10 
10 3:143 
10 
10 3:146 
10 
1.56317546849615 1:95 2:66 3:147 
1.559783598717311 2:66 3:147 
10 3:147 
10 
1.374784995306195 1:96 2:64 3:144 
1.428169077717276 2:64 3:144 
10 3:144 
10 
10 
10 
10 3:148 
10 
10 3:145 
10 
10 3:146 
10 
10 
10 
4.765038002111107 3:151 
10 
10 3:148 
10 
10 3:148 
10 
10 3:151 
10 
10 
10 
1.348521780926279 1:94 2:84 3:154 
1.383436528247328 2:84 3:154 
10 
10 
10 3:150 
10 
10 3:147 
10 
10 
10 
10 3:151 
10 
10 3:151 
10 
10 
10 
10 
10 3:149 
10 
10 
10 
10 3:146 
10 
10 3:147 
10 
0.5147870703244564 1:95 2:80 3:149 
1.514344427008424 2:80 3:149 
10 3:149 
10 
0.9986974677807996 1:95 2:78 3:153 
1.009668250868434 2:78 3:153 
10 
10 3:148 
10 
10 3:146 
10 
10 3:146 
10 
10 3:148 
10 
0.9303123386903432 1:95 2:78 3:148 
2.770930285821616 2:78 3:148 
10 3:148 
10 
10 3:148 
10 
10 3:147 
10 
10 3:142 
10 
10 3:141 
10 
10 3:145 
10 
1.127146471957627 1:94 2:73 3:146 
0.8238465454973234 2:73 3:146 
10 3:146 
10 
1.121237917792961 1:95 2:70 3:146 
1.368480944081122 2:70 3:146 
10 3:146 
10 
10 3:142 
10 
5.02217627453905 1:94 2:87 3:158 
4.076480924912688 2:87 3:158 
10 
10 
10 3:147 
10 
10 3:144 
10 
10 3:147 
10 
10 
10 
10 
10 3:149 
10 
10 
10 
0.1268789996806368 1:94 2:88 3:154 
0.6749227522502121 2:88 3:154 
10 
0.8351755791054296 1:94 2:88 3:153 
0.6532453821851557 2:88 3:153 
10 
10 
10 3:151 
10 
10 3:149 
10 
10 3:146 
10 
10 
10 
10 
10 
10 
10 1:94 2:80 3:157 
10 2:80 3:157 
10 
10 
2.702069245280949 3:152 
10 
10 
0.430876213754639 1:94 2:81 3:154 
0.3505037217211395 2:81 3:154 
10 
10 3:146 
10 
10 3:146 
10 
10 3:148 
10 
1.497179899887281 1:95 2:78 3:154 
1.477977155421046 2:78 3:154 
10 
1.361982563251597 1:95 2:80 3:150 
1.033800999698213 2:80 3:150 
10 3:150 
10 
10 3:147 
10 
10 3:145 
10 
10 3:147 
10 
10 3:146 
10 
10 3:146 
10 
1.017324069995151 1:95 2:82 3:146 
2.032276317681762 2:82 3:146 
10 3:146 
10 
10 3:144 
10 
10 3:144 
10 
0.7153951379132174 1:95 2:82 3:147 
0.1036444349662478 2:82 3:147 
10 3:147 
10 
1.113319213154557 1:93 2:76 3:144 
0.6915302405151159 2:76 3:144 
10 3:144 
10 
1.349140360726524 1:95 2:71 3:143 
1.32998903311213 2:71 3:143 
10 3:143 
10 
1.193010427243637 1:95 2:69 3:140 
1.192711970376234 2:69 3:140 
10 3:140 
10 
10 1:94 2:85 3:165 
10 2:85 3:165 
10 3:165 
10 
10 
10 3:150 
10 
10 3:147 
10 
10 3:150 
10 
3.662064209559228 3:154 
10 
10 
10 3:152 
10 
10 3:149 
10 
10 3:151 
10 
10 3:151 
10 
10 3:151 
10 
10 3:150 
10 
10 3:151 
10 
10 3:152 
10 
10 3:152 
10 
10 3:152 
10 
10 3:151 
10 
10 3:151 
10 
10 3:152 
10 
10 
10 1:94 2:84 3:155 
10 2:84 3:155 
9.794628443528991 3:155 
10 
10 1:94 2:83 3:156 
10 2:83 3:156 
10 
1.920484340041808 1:94 2:81 3:155 
2.961769984385923 2:81 3:155 
10 3:155 
10 
10 
10 3:150 
10 
10 3:151 
10 
10 3:146 
10 
10 3:146 
10 
10 3:148 
10 
10 
10 3:149 
10 
10 3:146 
10 
10 3:148 
10 
10 3:150 
10 
10 3:149 
10 
10 3:147 
10 
10 3:147 
10 
10 3:146 
10 
10 3:145 
10 
10 3:145 
10 
10 3:145 
10 
1.372098934404292 1:95 2:76 3:147 
1.28339161445917 2:76 3:147 
10 3:147 
10 
1.073062455143769 1:95 2:67 3:145 
1.039437822525973 2:67 3:145 
10 3:145 
10 
10 1:94 2:86 3:163 
10 2:86 3:163 
10 3:163 
10 
10 3:155 
10 
10 3:151 
10 
10 3:149 
10 
10 3:152 
10 
10 3:155 
10 
10 3:154 
10 
10 
10 3:152 
10 
10 3:151 
10 
10 3:150 
10 
10 3:149 
10 
10 3:149 
10 
10 3:150 
10 
10 3:152 
10 
10 3:155 
10 
10 
10 3:150 
10 
10 3:151 
10 
10 3:152 
10 
10 
10 
0.7315475360365066 1:94 2:85 3:153 
0.7979601290013892 2:85 3:153 
10 
1.715594251999881 3:153 
10 
0.7584435167838981 1:94 2:82 3:152 
0.6273226838656445 2:82 3:152 
10 3:152 
10 
10 3:148 
10 
10 3:151 
10 
0.3585310424948474 1:94 2:84 3:149 
0.4449998410750308 2:84 3:149 
10 3:149 
10 
0.9943493206082774 1:94 2:83 3:150 
0.7944266340670574 2:83 3:150 
10 3:150 
10 
0.7094267959264123 1:94 2:83 3:151 
0.804104944260237 2:83 3:151 
10 3:151 
10 
0.9482226725987712 1:94 2:82 3:153 
1.139304857879757 2:82 3:153 
10 3:153 
10 
10 3:147 
10 
0.5184745516522686 1:94 2:86 3:146 
0.4100010702432423 2:86 3:146 
10 3:146 
10 
10 3:148 
10 
10 3:151 
10 
10 3:150 
10 
10 3:148 
10 
10 3:149 
10 
10 3:148 
10 
0.9738117139930002 1:94 2:86 3:145 
1.05332211984451 2:86 3:145 
10 3:145 
10 
0.9760351367339836 1:95 2:83 3:144 
1.7677278438177 2:83 3:144 
10 3:144 
10 
10 3:146 
10 
1.60409708927001 1:95 2:74 3:151 
1.595104074470478 2:74 3:151 
10 3:151 
10 
1.646721818519483 1:95 2:64 3:151 
1.64682339573946 2:64 3:151 
10 3:151 
10 
2.952947581061934 1:96 2:90 3:161 
3.03702238016639 2:90 3:161 
10 3:161 
10 
10 3:154 
10 
10 3:151 
10 
10 3:150 
10 
10 3:151 
10 
10 3:152 
10 
10 3:151 
10 
10 3:152 
10 
10 3:154 
10 
10 3:151 
10 
10 3:151 
10 
10 3:151 
10 
10 3:151 
10 
10 3:151 
10 
10 3:152 
10 
10 3:154 
10 
4.168596295797205 1:94 2:88 3:156 
10 2:88 3:156 
10 
10 3:151 
10 
10 3:152 
10 
10 3:154 
10 
10 3:154 
10 
10 3:153 
10 
10 3:153 
10 
10 3:153 
10 
10 3:153 
10 
10 3:153 
10 
10 
10 3:153 
10 
1.069376446410795 1:95 2:86 3:155 
1.376721292674467 2:86 3:155 
10 3:155 
10 
10 3:154 
10 
10 3:154 
10 
10 3:148 
10 
0.9159115408517078 2:90 3:147 
10 3:147 
10 
10 3:146 
10 
10 3:150 
10 
0.4270555537872381 1:94 2:87 3:150 
10 3:150 
10 
10 3:147 
10 
10 3:148 
10 
10 3:149 
10 
0.7812230497920033 1:94 2:85 3:147 
0.8156243114028368 2:85 3:147 
10 3:147 
10 
10 3:145 
10 
0.3038745000890619 1:95 2:79 3:145 
10 3:145 
10 
1.259341319981299 1:96 2:72 3:149 
1.367003050693942 2:72 3:149 
10 3:149 
10 
1.529724541235693 1:95 2:65 3:149 
1.529185327764423 2:65 3:149 
10 3:149 
10 
10 3:159 
10 
10 
10 3:154 
10 
10 3:152 
10 
10 3:152 
10 
10 3:150 
10 
1.320851946040802 1:94 2:95 3:148 
1.90453200572475 2:95 3:148 
10 3:148 
10 
0.07326451857659716 1:94 2:93 3:150 
10 3:150 
10 
10 3:153 
10 
0.8453764620394283 1:94 2:94 3:149 
1.072767956731552 2:94 3:149 
10 3:149 
10 
10 3:151 
10 
10 3:153 
10 
10 3:154 
10 
10 3:153 
10 
10 3:153 
10 
10 3:154 
10 
10 1:94 2:88 3:157 
10 2:88 3:157 
10 
10 3:150 
10 
10 3:151 
10 
10 3:152 
10 
10 3:153 
10 
10 3:153 
10 
0.9886716915913053 2:87 3:152 
10 3:152 
10 
10 2:87 3:152 
10 3:152 
10 
10 3:153 
10 
3.319442422760787 1:95 2:84 3:157 
4.139533243656393 2:84 3:157 
10 
10 1:95 2:84 3:158 
10 2:84 3:158 
5.119313436011884 3:158 
10 
0.4057255287848636 1:95 2:86 3:154 
0.1342078562402106 2:86 3:154 
10 3:154 
10 
0.3119248484395876 1:95 2:85 3:156 
9.918832523572373 2:85 3:156 
10 
0.6948465286045125 1:95 2:87 3:153 
0.3894446526117305 2:87 3:153 
10 3:153 
10 
0.2686175213530828 1:95 2:87 3:152 
9.241709060528487 2:87 3:152 
10 3:152 
10 
0.4691603499027383 1:95 2:90 3:147 
9.717160705812923 2:90 3:147 
10 3:147 
10 
10 3:148 
10 
10 3:147 
10 
0.6172919802073817 1:94 2:86 3:152 
0.4500137632874083 2:86 3:152 
10 3:152 
10 
0.6213086417747966 1:94 2:86 3:151 
0.7618517350665814 2:86 3:151 
10 3:151 
10 
10 3:146 
10 
10 3:146 
10 
0.474187659799956 1:94 2:88 3:148 
0.2844086421711252 2:88 3:148 
10 3:148 
10 
1.004252194055967 1:94 2:84 3:148 
0.8842105326758096 2:84 3:148 
10 3:148 
10 
1.067421139010753 1:95 2:81 3:148 
1.641528500844575 2:81 3:148 
10 3:148 
10 
10 3:143 
10 
1.244026477700676 1:96 2:74 3:144 
0.9125569405821571 2:74 3:144 
10 3:144 
10 
10 3:141 
10 
10 
10 3:158 
10 
10 
10 3:155 
10 
10 3:155 
10 
10 3:154 
10 
10 3:152 
10 
0.7053679038503975 1:94 2:97 3:150 
10 3:150 
10 
10 3:151 
10 
1.742698213283637 1:94 2:99 3:147 
10 2:99 3:147 
10 3:147 
10 
10 3:151 
10 
10 
10 
10 3:152 
10 
1.324808727023292 1:94 2:93 3:151 
1.961680554144776 2:93 3:151 
10 3:151 
10 
10 3:154 
10 
10 3:154 
10 
10 
10 3:154 
10 
10 3:155 
10 
10 3:154 
10 
10 3:153 
10 
10 3:153 
10 
10 3:149 
10 
10 3:149 
10 
10 3:152 
10 
10 3:153 
10 
10 3:154 
10 
10 3:150 
10 
10 3:153 
10 
10 3:147 
10 
10 3:148 
10 
0.8536742923872587 1:94 2:92 3:149 
0.9933761664428032 2:92 3:149 
10 3:149 
10 
0.6124398222956803 1:94 2:88 3:147 
0.7087617791883387 2:88 3:147 
10 3:147 
10 
0.736499364470515 1:94 2:87 3:149 
0.9142763333118505 2:87 3:149 
10 3:149 
10 
0.7102447998476908 1:95 2:89 3:149 
0.6733604523013144 2:89 3:149 
10 3:149 
10 
10 3:145 
10 
0.7348989632226038 1:95 2:89 3:144 
0.8560344594259706 2:89 3:144 
10 3:144 
10 
10 3:145 
10 
10 3:145 
10 
10 3:143 
10 
10 3:144 
10 
10 3:142 
10 
10 3:142 
10 
10 3:158 
10 
10 3:158 
10 
10 3:160 
10 
10 3:159 
10 
10 
10 3:155 
10 
10 3:155 
10 
1.127240326040624 1:94 2:95 3:153 
10 3:153 
10 
0.7863255440534646 1:94 2:96 3:151 
10 3:151 
10 
1.282987681713578 1:94 2:98 3:149 
1.681237616787602 2:98 3:149 
10 3:149 
10 
0.6203797807963231 1:94 2:96 3:152 
10 3:152 
10 
10 
10 3:155 
10 
10 3:153 
10 
0.6722404745255363 1:94 2:91 3:154 
0.3156520989918749 2:91 3:154 
10 3:154 
10 
1.124053309751711 2:89 3:155 
10 3:155 
10 
0.4509074038673001 1:94 2:89 3:154 
10 3:154 
10 
10 3:155 
10 
10 3:153 
10 
10 3:155 
10 
1.202704279506141 1:94 2:92 3:153 
3.14795611485389 2:92 3:153 
10 3:153 
10 
0.3280229866388205 1:94 2:91 3:152 
10 3:152 
10 
10 3:151 
10 
10 3:147 
10 
10 3:146 
10 
0.7975300954178848 2:91 3:151 
10 3:151 
10 
10 1:94 2:89 3:154 
9.872810150370128 2:89 3:154 
10 3:154 
10 
0.8572545693820813 1:94 2:90 3:153 
0.9345810983560687 2:90 3:153 
10 3:153 
10 
10 3:148 
10 
10 2:91 3:151 
10 3:151 
10 
0.6499600604837986 1:94 2:91 3:151 
10 2:91 3:151 
10 3:151 
10 
0.2316612335729953 1:94 2:92 3:150 
10 3:150 
10 
10 3:148 
10 
0.4176145723632199 1:95 2:88 3:150 
10 2:88 3:150 
10 3:150 
10 
0.7704288572530581 1:94 2:89 3:146 
0.5042223467663689 2:89 3:146 
10 3:146 
10 
10 3:145 
10 
0.6891117803725485 2:92 3:144 
10 3:144 
10 
10 3:142 
10 
0.972425181122463 1:95 2:91 3:140 
0.4691472223534486 2:91 3:140 
10 3:140 
10 
1.209244406569491 1:95 2:86 3:140 
1.026698641984535 2:86 3:140 
10 3:140 
10 
1.278361317049941 1:95 2:81 3:142 
1.972298088376773 2:81 3:142 
10 3:142 
10 
10 3:142 
10 
1.1782413144639 1:97 2:72 3:141 
0.9123035969413053 2:72 3:141 
10 3:141 
10 
10 3:141 
10 
1.000300225232126 1:96 2:97 3:158 
0.6509694241566961 2:97 3:158 
10 3:158 
10 
10 3:159 
10 
10 3:163 
10 
10 3:163 
10 
10 3:158 
10 
10 3:155 
10 
10 3:158 
10 
9.806923216473816 3:157 
10 
10 3:154 
10 
10 3:155 
10 
10 3:158 
10 
0.7285011559340585 1:94 2:93 3:157 
10 3:157 
10 
1.161053849639085 1:94 2:94 3:155 
10 3:155 
10 
3.024328182382717 3:156 
10 
10 1:94 2:88 3:159 
10 2:88 3:159 
10 3:159 
10 
3.377213434621702 1:94 2:89 3:158 
2.60514497658974 2:89 3:158 
10 3:158 
10 
10 3:155 
10 
10 3:160 
10 
10 3:158 
10 
0.111626859069463 1:96 2:91 3:160 
0.09173962289318222 2:91 3:160 
10 3:160 
10 
10 3:158 
10 
10 3:156 
10 
10 3:156 
10 
10 3:152 
10 
10 3:151 
10 
10 3:155 
10 
10 1:96 2:91 3:160 
10 2:91 3:160 
10 3:160 
10 
10 3:156 
10 
10 3:151 
10 
10 3:152 
10 
10 3:157 
10 
10 3:154 
10 
10 3:147 
10 
1.016196630121785 1:95 2:88 3:151 
0.9642649992533837 2:88 3:151 
10 3:151 
10 
0.721256101082272 1:95 2:87 3:147 
0.38645121142141 2:87 3:147 
10 3:147 
10 
10 3:145 
10 
1.055302064703303 1:95 2:92 3:144 
10 2:92 3:144 
10 3:144 
10 
10 3:142 
10 
10 1:95 2:92 3:139 
10 2:92 3:139 
10 3:139 
10 
1.626105430413633 1:95 2:87 3:138 
1.54016867424487 2:87 3:138 
10 3:138 
10 
10 3:141 
10 
0.2625395490599302 1:95 2:80 3:141 
10 3:141 
10 
1.133571417310367 1:97 2:73 3:140 
0.8276425311678614 2:73 3:140 
10 3:140 
10 
1.144611056371736 1:96 2:65 3:141 
0.9937016860142277 2:65 3:141 
10 3:141 
10 
10 3:155 
10 
10 3:159 
10 
10 3:163 
10 
10 3:164 
10 
10 3:158 
10 
10 3:155 
10 
10 3:157 
10 
10 3:157 
10 
10 3:154 
10 
10 3:159 
10 
10 3:161 
10 
0.8707824789535453 1:94 2:92 3:158 
10 3:158 
10 
0.5916716810896046 1:94 2:93 3:156 
10 3:156 
10 
10 1:94 2:88 3:160 
10 2:88 3:160 
10 3:160 
10 
10 1:94 2:86 3:163 
10 2:86 3:163 
10 3:163 
10 
10 1:94 2:88 3:160 
10 2:88 3:160 
10 3:160 
10 
0.2896710958914787 1:94 2:90 3:155 
10 3:155 
10 
10 1:96 2:89 3:164 
10 2:89 3:164 
10 3:164 
10 
0.9076517869417413 1:96 2:91 3:159 
10 3:159 
10 
10 3:156 
10 
1.347720975724129 1:96 2:97 3:150 
0.8721435924459834 2:97 3:150 
10 3:150 
10 
10 1:96 2:98 3:149 
10 2:98 3:149 
10 3:149 
10 
1.104471044018506 1:96 2:95 3:153 
1.406799389491939 2:95 3:153 
10 3:153 
10 
0.2364701247348217 1:96 2:94 3:155 
0.1496512650730816 2:94 3:155 
10 3:155 
10 
0.9239753668578428 1:96 2:92 3:158 
0.9869222123979857 2:92 3:158 
10 3:158 
10 
10 3:157 
10 
9.902248795083391 1:96 2:90 3:161 
9.908260377106817 2:90 3:161 
10 3:161 
10 
1.004618336403041 1:96 2:93 3:156 
1.095044485120113 2:93 3:156 
10 3:156 
10 
1.387644075899272 1:96 2:94 3:154 
2.016952498447361 2:94 3:154 
10 3:154 
10 
10 3:152 
10 
0.542865932123667 1:96 2:93 3:157 
0.6015951405429096 2:93 3:157 
10 3:157 
10 
2.025005727625313 1:96 2:96 3:151 
2.913674252318447 2:96 3:151 
10 3:151 
10 
10 1:96 2:96 3:148 
10 2:96 3:148 
10 3:148 
10 
0.8881762954750689 1:95 2:90 3:148 
0.6246877315991092 2:90 3:148 
10 3:148 
10 
0.8524538086194784 1:95 2:86 3:148 
0.5846890504360844 2:86 3:148 
10 3:148 
10 
10 3:146 
10 
10 3:143 
10 
0.3073014450560494 1:95 2:90 3:141 
10 3:141 
10 
1.080665921385451 1:95 2:90 3:142 
1.128583980838307 2:90 3:142 
10 3:142 
10 
10 3:142 
10 
0.7169399698137202 1:95 2:85 3:141 
0.9238792971074606 2:85 3:141 
10 3:141 
10 
0.9819080080217487 1:95 2:78 3:143 
0.4088686490306595 2:78 3:143 
10 3:143 
10 
1.189344684803092 1:96 2:75 3:142 
0.999999582422114 2:75 3:142 
10 3:142 
10 
0.8246156535117564 1:96 2:65 3:142 
0.3960403138689759 2:65 3:142 
10 3:142 
10 
1.155800482050337 1:96 2:99 3:154 
1.398552762841139 2:99 3:154 
10 3:154 
10 
10 3:157 
10 
10 3:159 
10 
10 3:159 
10 
10 3:157 
10 
10 1:95 2:101 3:154 
10 2:101 3:154 
10 3:154 
10 
10 1:95 2:101 3:154 
10 2:101 3:154 
10 3:154 
10 
10 1:95 2:101 3:154 
10 2:101 3:154 
10 3:154 
10 
10 1:95 2:100 3:155 
10 2:100 3:155 
10 3:155 
10 
10 3:157 
10 
10 3:161 
10 
10 3:159 
10 
10 3:158 
10 
10 3:163 
10 
3.408192343094838 1:95 2:91 3:166 
10 2:91 3:166 
10 3:166 
10 
10 1:94 2:88 3:160 
10 2:88 3:160 
10 3:160 
10 
1.056026920278726 1:94 2:90 3:156 
1.275332141111912 2:90 3:156 
10 3:156 
10 
10 3:160 
10 
10 3:158 
10 
10 3:157 
10 
10 3:154 
10 
10 3:153 
10 
10 3:156 
10 
10 3:154 
10 
10 3:155 
10 
10 3:154 
10 
10 3:157 
10 
10 3:153 
10 
10 3:154 
10 
1.454004189187005 1:95 2:100 3:151 
1.454004189187005 2:100 3:151 
10 3:151 
10 
10 3:152 
10 
10 1:96 2:100 3:146 
10 2:100 3:146 
10 3:146 
10 
10 1:96 2:98 3:146 
10 2:98 3:146 
10 3:146 
10 
10 3:145 
10 
0.8397380134571021 2:91 3:145 
10 3:145 
10 
10 3:143 
10 
10 3:141 
10 
0.532930300537887 1:95 2:94 3:141 
0.4206694544195956 2:94 3:141 
10 3:141 
10 
10 3:143 
10 
10 3:145 
10 
1.355442876612337 1:96 2:84 3:145 
0.6750468302600216 2:84 3:145 
10 3:145 
10 
1.120600734724976 1:95 2:79 3:146 
1.982800966218023 2:79 3:146 
10 3:146 
10 
0.2130200372609626 1:95 2:78 3:144 
0.230075173748188 2:78 3:144 
10 3:144 
10 
1.233351648478811 1:95 2:68 3:142 
1.198412546202876 2:68 3:142 
10 3:142 
10 
0.9928726782118973 1:96 2:99 3:155 
1.781111839359135 2:99 3:155 
10 3:155 
10 
10 3:155 
10 
10 3:155 
10 
10 3:156 
10 
10 3:157 
10 
10 1:95 2:100 3:155 
10 2:100 3:155 
10 3:155 
10 
10 3:153 
10 
10 3:153 
10 
10 1:95 2:100 3:155 
10 2:100 3:155 
10 3:155 
10 
10 3:156 
10 
0.8866375772619615 1:95 2:97 3:160 
0.4786171809239421 2:97 3:160 
10 3:160 
10 
10 3:159 
10 
10 3:158 
10 
1.176858029105509 1:95 2:92 3:164 
1.714803730486557 2:92 3:164 
10 3:164 
10 
10 1:95 2:91 3:165 
10 2:91 3:165 
10 3:165 
10 
10 1:94 2:88 3:160 
10 2:88 3:160 
10 3:160 
10 
0.9937374605013782 1:94 2:91 3:159 
0.9344160987229508 2:91 3:159 
10 3:159 
10 
10 3:158 
10 
10 3:159 
10 
10 3:163 
10 
10 3:161 
10 
10 3:161 
10 
10 3:161 
10 
10 3:155 
10 
10 3:152 
10 
10 3:152 
10 
10 3:152 
10 
10 3:150 
10 
10 3:153 
10 
10 3:152 
10 
2.084205920485473 1:95 2:101 3:149 
2.402383661556202 2:101 3:149 
10 3:149 
10 
10 1:96 2:100 3:145 
10 2:100 3:145 
10 3:145 
10 
10 1:96 2:98 3:148 
10 2:98 3:148 
10 3:148 
10 
0.09677252467414707 1:94 2:94 3:147 
9.895205476451244 2:94 3:147 
10 3:147 
10 
10 3:142 
10 
1.070936308629252 1:95 2:95 3:140 
0.7335906034925095 2:95 3:140 
10 3:140 
10 
0.2283004168953588 2:93 3:142 
10 3:142 
10 
0.7806954085114131 1:95 2:93 3:143 
1.057350970825519 2:93 3:143 
10 3:143 
10 
0.5557738857532808 1:95 2:93 3:142 
10 2:93 3:142 
10 3:142 
10 
10 3:145 
10 
10 3:150 
10 
0.6272318077658734 1:95 2:84 3:143 
0.59293991657626 2:84 3:143 
10 3:143 
10 
0.8285884688299168 1:95 2:79 3:142 
0.7243107820283894 2:79 3:142 
10 3:142 
10 
1.657508565745989 1:95 2:70 3:138 
1.655742886440447 2:70 3:138 
10 3:138 
10 
10 3:156 
10 
10 3:154 
10 
10 3:154 
10 
10 3:157 
10 
10 3:159 
10 
0.7729544707137331 1:95 2:98 3:159 
1.261861626997384 2:98 3:159 
10 3:159 
10 
0.2217686497985869 1:95 2:99 3:157 
0.2226979784094619 2:99 3:157 
10 3:157 
10 
10 3:156 
10 
10 3:156 
10 
10 3:158 
10 
10 3:161 
10 
10 3:159 
10 
10 3:158 
10 
10 3:163 
10 
10 3:162 
10 
10 3:159 
10 
0.8809804715611986 1:95 2:92 3:163 
0.6587907107298212 2:92 3:163 
10 3:163 
10 
0.9372667188275953 1:95 2:93 3:161 
0.9428614379102498 2:93 3:161 
10 3:161 
10 
10 1:95 2:98 3:159 
10 2:98 3:159 
10 3:159 
10 
10 3:158 
10 
10 3:153 
10 
10 3:152 
10 
10 3:156 
10 
10 3:156 
10 
10 3:157 
10 
10 3:153 
10 
10 3:152 
10 
10 3:152 
10 
10 3:152 
10 
10 3:155 
10 
10 3:150 
10 
0.1206560348658716 1:95 2:100 3:150 
10 3:150 
10 
0.4604198897599521 1:96 2:96 3:152 
0.2512409311753341 2:96 3:152 
10 3:152 
10 
0.4550616846239671 1:94 2:93 3:148 
0.2975016845871582 2:93 3:148 
10 3:148 
10 
0.2985077657610603 1:94 2:96 3:143 
10 2:96 3:143 
10 3:143 
10 
1.040602647922822 1:94 2:98 3:141 
0.8083675577271454 2:98 3:141 
10 3:141 
10 
10 3:145 
10 
10 3:146 
10 
10 3:144 
10 
0.3237584322382117 2:91 3:146 
10 3:146 
10 
1.182108609866924 1:95 2:85 3:150 
0.9104983179012045 2:85 3:150 
10 3:150 
10 
0.9167271564190807 1:95 2:84 3:142 
0.9502538729050782 2:84 3:142 
10 3:142 
10 
10 3:141 
10 
1.51699047981891 1:95 2:74 3:138 
1.453830960292339 2:74 3:138 
10 3:138 
10 
0.7072276870567529 1:96 2:98 3:156 
0.2578902216492977 2:98 3:156 
10 3:156 
10 
10 3:154 
10 
10 3:156 
10 
10 3:159 
10 
10 3:162 
10 
10 3:163 
10 
0.9801867856585663 1:95 2:97 3:161 
1.103144848087157 2:97 3:161 
10 3:161 
10 
10 1:95 2:98 3:159 
10 2:98 3:159 
10 3:159 
10 
10 3:158 
10 
10 1:95 2:98 3:159 
10 2:98 3:159 
10 3:159 
10 
10 3:162 
10 
0.7263629542629957 1:95 2:95 3:159 
0.6244741374435787 2:95 3:159 
10 3:159 
10 
10 3:157 
10 
0.9951497853908558 1:95 2:94 3:160 
1.024366982686855 2:94 3:160 
10 3:160 
10 
10 3:157 
10 
10 3:155 
10 
0.5839211407823439 1:95 2:93 3:162 
0.5854060075868903 2:93 3:162 
10 3:162 
10 
10 1:95 2:99 3:157 
10 2:99 3:157 
10 3:157 
10 
3.124588624560182 1:95 2:100 3:156 
3.243004937791603 2:100 3:156 
10 3:156 
10 
10 3:156 
10 
10 3:152 
10 
10 3:153 
10 
0.3748955664640183 1:95 2:96 3:157 
0.3088531724851601 2:96 3:157 
10 3:157 
10 
10 3:155 
10 
10 3:155 
10 
10 3:156 
10 
0.3243108567666405 1:95 2:98 3:154 
10 3:154 
10 
10 3:155 
10 
0.7421408967094872 1:95 2:99 3:152 
0.7487554953616136 2:99 3:152 
10 3:152 
10 
0.9260410550828404 1:95 2:96 3:156 
1.03150247941692 2:96 3:156 
10 3:156 
10 
10 1:95 2:99 3:152 
10 2:99 3:152 
10 3:152 
10 
0.8707472931173369 1:95 2:98 3:153 
0.6972779110226274 2:98 3:153 
10 3:153 
10 
0.8704871390337148 1:95 2:97 3:155 
0.8344897918485499 2:97 3:155 
10 3:155 
10 
1.27383985902771 1:94 2:97 3:144 
1.307204056689091 2:97 3:144 
10 3:144 
10 
0.2855040105689802 1:94 2:96 3:144 
0.445855932966598 2:96 3:144 
10 3:144 
10 
10 3:145 
10 
1.048878714021699 1:94 2:95 3:145 
1.060876383405232 2:95 3:145 
10 3:145 
10 
10 3:146 
10 
1.123306078477203 1:94 2:94 3:146 
1.135424891692022 2:94 3:146 
10 3:146 
10 
0.8669985132814588 1:95 2:91 3:146 
10 2:91 3:146 
10 3:146 
10 
0.3553433263760418 1:95 2:91 3:145 
9.931815766096994 2:91 3:145 
10 3:145 
10 
0.945802146953197 1:95 2:88 3:145 
0.7884858097146814 2:88 3:145 
10 3:145 
10 
0.2104480217608575 1:95 2:83 3:145 
10 3:145 
10 
1.232864072367321 1:95 2:77 3:145 
0.9986077505751632 2:77 3:145 
10 3:145 
10 
0.8622187536135935 1:95 2:95 3:158 
0.9385525245873494 2:95 3:158 
10 3:158 
10 
10 1:95 2:100 3:156 
10 2:100 3:156 
10 3:156 
10 
10 1:95 2:102 3:152 
10 2:102 3:152 
10 3:152 
10 
10 1:95 2:97 3:160 
10 2:97 3:160 
10 3:160 
10 
0.6783626245704754 1:95 2:98 3:158 
0.4628250889948341 2:98 3:158 
10 3:158 
10 
0.9963906404688921 1:95 2:96 3:162 
0.9989662633980294 2:96 3:162 
10 3:162 
10 
10 3:163 
10 
1.329948853265165 1:95 2:95 3:163 
1.374912071965806 2:95 3:163 
10 3:163 
10 
10 1:95 2:95 3:163 
10 2:95 3:163 
10 3:163 
10 
10 1:95 2:99 3:157 
10 2:99 3:157 
10 3:157 
10 
10 1:95 2:98 3:159 
10 2:98 3:159 
10 3:159 
10 
10 1:95 2:96 3:162 
10 2:96 3:162 
10 3:162 
10 
10 1:95 2:98 3:159 
10 2:98 3:159 
10 3:159 
10 
10 1:95 2:96 3:162 
10 2:96 3:162 
10 3:162 
10 
10 1:95 2:98 3:159 
9.753907568415949 2:98 3:159 
10 3:159 
10 
10 1:95 2:95 3:163 
10 2:95 3:163 
10 3:163 
10 
9.867666314591716 1:95 2:96 3:162 
9.833320121402682 2:96 3:162 
10 3:162 
10 
10 1:95 2:99 3:157 
10 2:99 3:157 
10 3:157 
10 
10 1:95 2:107 3:146 
10 2:107 3:146 
10 3:146 
10 
9.771389513979752 1:95 2:97 3:160 
10 2:97 3:160 
10 3:160 
10 
10 1:95 2:99 3:157 
10 2:99 3:157 
7.96832200426902 3:157 
10 
10 1:95 2:102 3:152 
10 2:102 3:152 
10 3:152 
10 
10 3:153 
10 
3.533502467808798 1:95 2:102 3:153 
3.976456387096226 2:102 3:153 
10 3:153 
10 
10 1:95 2:101 3:154 
10 2:101 3:154 
7.107526834311251 3:154 
10 
10 1:95 2:102 3:153 
10 2:102 3:153 
10 3:153 
10 
10 1:95 2:100 3:156 
10 2:100 3:156 
10 3:156 
10 
10 1:95 2:100 3:156 
10 2:100 3:156 
9.481913432796166 3:156 
10 
10 1:95 2:100 3:155 
10 2:100 3:155 
10 3:155 
10 
10 1:95 2:100 3:155 
10 2:100 3:155 
10 3:155 
10 
10 1:95 2:102 3:152 
10 2:102 3:152 
5.642938000053128 3:152 
10 
10 1:95 2:103 3:151 
10 2:103 3:151 
10 3:151 
10 
-10 1:95 2:99 3:152 
-10 2:99 3:152 
-10 3:152 
-10 1:96 2:98 3:148 
-10 2:98 3:148 
-1.021043764413047 2:99 3:147 
-0.2602400636844288 1:96 2:97 3:147 
-0.3723718520676427 2:97 3:147 
-0.1118291533988293 2:95 3:150 
-1.101640383495235 2:88 3:156 
-10 3:156 
-10 2:96 3:143 
-0.3713842917717578 1:97 2:88 3:150 
-10 2:88 3:150 
-0.111350937537305 1:96 2:78 3:156 
-0.07272900629788165 2:78 3:156 
-10 3:156 
-0.2797860842643065 1:97 2:78 3:150 
-1.072923245386878 2:78 3:150 
-10 1:95 2:98 3:159 
-10 2:98 3:159 
-10 3:155 
-10 1:95 2:100 3:156 
-10 2:100 3:156 
-10 3:156 
-2.952406673013245 1:95 2:100 3:155 
-4.153781892280692 2:100 3:155 
-10 3:155 
-10 1:95 2:98 3:159 
-10 2:98 3:159 
-4.463628153643676 3:159 
-10 1:95 2:97 3:160 
-10 2:97 3:160 
-10 1:95 2:98 3:159 
-10 2:98 3:159 
-10 3:159 
-10 1:95 2:99 3:157 
-10 2:99 3:157 
-10 3:157 
-10 1:95 2:98 3:159 
-10 2:98 3:159 
-10 3:159 
-10 1:95 2:98 3:159 
-10 2:98 3:159 
-10 3:159 
-10 1:95 2:97 3:160 
-10 2:97 3:160 
-10 1:95 2:96 3:162 
-10 2:96 3:162 
-10 1:95 2:95 3:163 
-10 2:95 3:163 
-10 1:95 2:95 3:163 
-10 2:95 3:163 
-10 1:95 2:96 3:162 
-10 2:96 3:162 
-10 1:95 2:96 3:162 
-10 2:96 3:162 
-10 1:95 2:100 3:156 
-10 2:100 3:156 
-10 3:156 
-10 1:95 2:100 3:155 
-10 2:100 3:155 
-10 3:155 
-10 1:95 2:100 3:155 
-10 2:100 3:155 
-10 3:155 
-10 1:95 2:100 3:155 
-10 2:100 3:155 
-10 3:155 
-10 1:95 2:100 3:156 
-10 2:100 3:156 
-10 3:156 
-10 3:152 
-10 1:95 2:101 3:154 
-10 2:101 3:154 
-10 3:154 
-10 1:95 2:99 3:157 
-10 2:99 3:157 
-10 3:157 
-10 1:95 2:100 3:155 
-10 2:100 3:155 
-10 3:155 
-10 3:152 
-2.606066506027656 1:95 2:102 3:152 
-2.818548128207819 2:102 3:152 
-10 3:152 
-10 1:95 2:102 3:153 
-10 2:102 3:153 
-10 3:153 
-10 3:151 
-10 3:151 
-0.1322549636843326 1:95 2:104 3:144 
-10 3:145 
-0.2064966150490571 1:96 2:100 3:145 
-0.1460435568835475 2:100 3:145 
-10 3:145 
-9.739759936315572 1:96 2:96 3:148 
-10 2:96 3:148 
-0.06568990672386682 2:98 3:146 
-1.08424063438303 1:96 2:96 3:149 
-1.74993692348316 2:96 3:149 
-0.2650148968743136 1:97 2:88 3:156 
-8.951102919745937 2:88 3:156 
-10 3:156 
-10 2:91 3:151 
-10 3:151 
-10 2:87 3:152 
-10 3:152 
-0.4546513403270709 1:97 2:85 3:156 
-10 2:85 3:156 
-10 3:156 
-10 1:95 2:98 3:159 
-10 2:98 3:159 
-10 3:159 
-9.921186918251928 1:95 2:100 3:155 
-9.704838229319478 2:100 3:155 
-10 3:155 
-10 3:152 
-10 3:154 
-10 3:153 
-10 3:158 
-10 3:158 
-10 3:155 
-10 3:152 
-10 3:157 
-10 3:157 
-10 3:156 
-10 3:155 
-10 3:153 
-10 3:152 
-10 3:153 
-10 3:153 
-10 3:155 
-10 3:156 
-10 3:157 
-10 3:151 
-10 1:95 2:101 3:154 
-10 2:101 3:154 
-10 3:154 
-10 1:95 2:99 3:157 
-10 2:99 3:157 
-10 3:157 
-10 1:95 2:101 3:154 
-10 2:101 3:154 
-10 3:154 
-10 1:95 2:102 3:152 
-10 2:102 3:152 
-10 3:152 
-10 1:95 2:102 3:152 
-10 2:102 3:152 
-10 3:152 
-10 1:95 2:107 3:146 
-10 2:107 3:146 
-0.930019944264195 1:95 2:102 3:148 
-0.947425931507651 2:102 3:148 
-10 1:96 2:98 3:149 
-10 2:98 3:149 
-0.415430125696559 1:96 2:99 3:147 
-9.309024259166682 2:99 3:147 
-10 1:96 2:100 3:145 
-10 2:100 3:145 
-10 3:145 
-1.926340149679476 1:96 2:95 3:151 
-2.494597458688112 2:95 3:151 
-10 3:151 
-1.032778181725508 1:96 2:93 3:153 
-3.304595015794631 2:93 3:153 
-10 3:153 
-0.2638440344198642 1:97 2:91 3:151 
-10 2:91 3:151 
-10 3:151 
-0.3932506119388405 1:97 2:87 3:152 
-10 2:87 3:152 
-10 3:152 
-1.260473654786842 2:81 3:144 
-10 1:95 2:99 3:157 
-10 2:99 3:157 
-10 3:157 
-10 3:157 
-10 3:156 
-10 3:156 
-10 3:155 
-10 3:158 
-10 3:158 
-10 3:154 
-10 3:152 
-10 3:159 
-10 3:159 
-0.1019900173552817 1:95 2:105 3:153 
-10 3:153 
-10 3:159 
-10 3:155 
-10 3:157 
-10 3:154 
-10 3:154 
-10 3:151 
-10 1:95 2:101 3:154 
-10 2:101 3:154 
-10 3:154 
-10 1:95 2:102 3:152 
-10 2:102 3:152 
-10 3:152 
-0.05696431641509381 1:95 2:105 3:148 
-0.06331394059334061 2:105 3:148 
-0.09943997919191544 1:95 2:106 3:147 
-0.09195461682560145 2:106 3:147 
-9.292607117625321 1:95 2:103 3:151 
-8.975136422352026 2:103 3:151 
-10 3:151 
-0.3458520851102654 1:95 2:104 3:150 
-0.287680983821093 2:104 3:150 
-10 1:96 2:100 3:146 
-9.940004436689755 2:100 3:146 
-0.1333820893787755 1:96 2:100 3:143 
-0.1916208917354072 2:100 3:143 
-10 1:96 2:98 3:146 
-10 2:98 3:146 
-0.2354734534562137 1:97 2:94 3:147 
-10 2:94 3:147 
-0.3112407566019175 1:97 2:90 3:147 
-10 2:90 3:147 
-10 3:147 
-0.3762274501653128 1:97 2:82 3:143 
-1.409244361218724 2:82 3:143 
-10 3:154 
-10 3:156 
-10 3:159 
-0.3853199430577636 1:95 2:102 3:157 
-0.3844278425290849 2:102 3:157 
-10 3:157 
-10 3:156 
-10 3:158 
-10 3:158 
-10 3:155 
-10 3:154 
-10 3:156 
-0.2605238775107085 1:95 2:100 3:160 
-0.2822527413953164 2:100 3:160 
-10 3:152 
-10 3:151 
-10 3:151 
-0.1422600920969602 1:96 2:100 3:164 
-0.1283200238573645 2:100 3:164 
-10 3:157 
-0.0637458146181264 1:96 2:103 3:158 
-10 3:158 
-10 3:154 
-10 3:153 
-10 3:151 
-10 3:152 
-10 3:153 
-10 3:152 
-10 3:145 
-10 3:147 
-10 3:147 
-10 3:147 
-0.1570327530313825 1:96 2:104 3:147 
-10 3:147 
-0.08381270707892402 1:97 2:102 3:143 
-0.07088988140788133 2:102 3:143 
-0.1609910915969563 1:97 2:96 3:143 
-10 2:96 3:143 
-0.09716230782031898 1:97 2:91 3:145 
-10 2:91 3:145 
-10 3:145 
-10 3:145 
-10 3:149 
-10 3:152 
-10 3:159 
-10 3:154 
-10 3:154 
-10 3:155 
-10 3:156 
-0.06555238760086612 1:95 2:104 3:154 
-10 3:154 
-10 3:155 
-0.09668133750768049 1:95 2:101 3:159 
-0.09344621655189528 2:101 3:159 
-10 3:159 
-0.2268491019787138 1:95 2:99 3:162 
-0.2625588186434932 2:99 3:162 
-0.0556637450727876 1:95 2:99 3:163 
-0.01361978779857176 2:99 3:163 
-0.06199420305520829 1:95 2:108 3:149 
-0.05947504602108039 2:108 3:149 
-10 3:149 
-10 3:155 
-10 3:152 
-10 3:155 
-0.1508749790377822 1:96 2:105 3:156 
-10 3:156 
-10 3:154 
-10 3:155 
-10 3:154 
-10 3:152 
-10 3:147 
-10 3:152 
-10 3:153 
-10 3:152 
-10 3:149 
-0.1284317328926979 1:95 2:119 3:139 
-0.1392402249908946 2:119 3:139 
-0.6108932886528107 1:96 2:102 3:150 
-1.027524157449641 2:102 3:150 
-0.1760754058120976 1:97 2:103 3:144 
-0.1806355004279403 2:103 3:144 
-0.1480606647240746 1:96 2:101 3:142 
-0.2334971579768908 1:97 2:91 3:146 
-10 2:91 3:146 
-0.3379752923570823 3:146 
-0.2905243177574127 1:97 2:79 3:148 
-2.625395673210769 2:79 3:148 
-10 3:146 
-10 3:157 
-10 3:152 
-10 3:153 
-10 3:155 
-10 3:154 
-10 3:156 
-10 3:157 
-10 3:158 
-10 3:156 
-10 3:149 
-10 3:147 
-10 3:149 
-10 3:154 
-10 3:155 
-10 3:155 
-0.1037014079096848 1:95 2:105 3:158 
-0.1310094801188157 2:105 3:158 
-10 3:158 
-10 3:155 
-10 3:151 
-10 3:154 
-10 3:154 
-10 3:153 
-10 3:152 
-10 3:153 
-10 3:151 
-10 3:149 
-10 3:145 
-10 3:145 
-0.06255888047641584 3:143 
-0.1700868743854759 1:96 2:117 3:144 
-10 3:143 
-10 3:146 
-0.368991040347045 1:97 2:92 3:144 
-10 2:92 3:144 
-0.2541061571881024 1:97 2:80 3:147 
-1.163855407220759 2:80 3:147 
-10 3:147 
-10 3:146 
-10 3:156 
-10 3:151 
-10 3:153 
-10 3:155 
-10 3:155 
-10 3:158 
-0.08241753112829447 1:94 2:104 3:157 
-10 3:157 
-0.152079536714908 1:94 2:105 3:156 
-0.1034296494927121 2:105 3:156 
-10 3:156 
-0.0813045395680444 1:94 2:107 3:152 
-10 3:152 
-0.1247505775279627 1:94 2:106 3:154 
-10 3:154 
-10 3:153 
-10 3:153 
-10 3:158 
-10 3:153 
-10 3:153 
-10 3:156 
-10 3:153 
-10 3:151 
-10 3:153 
-10 3:152 
-10 3:153 
-10 3:149 
-10 3:146 
-10 3:149 
-10 3:147 
-10 3:146 
-0.09152065532798381 1:96 2:118 3:147 
-0.124387555864094 2:118 3:147 
-10 3:147 
-0.1796212115296561 1:96 2:123 3:141 
-0.1790641149223581 2:123 3:141 
-10 3:143 
-10 3:143 
-0.144568848983858 1:97 2:104 3:142 
-0.1129240773859731 2:104 3:142 
-0.3958886723100751 1:97 2:93 3:142 
-10 2:93 3:142 
-0.3197401648301046 1:97 2:81 3:145 
-1.312141429246736 2:81 3:145 
-10 3:145 
-0.07963297054326102 1:94 2:105 3:160 
-0.0592924634465804 2:105 3:160 
-10 3:152 
-10 3:145 
-10 3:153 
-10 3:155 
-10 3:157 
-0.1669118153355064 1:94 2:108 3:156 
-10 3:156 
-10 3:154 
-10 3:152 
-10 3:153 
-10 3:153 
-10 3:151 
-10 3:151 
-10 3:153 
-10 3:154 
-10 3:154 
-10 3:154 
-10 3:153 
-10 3:153 
-10 3:151 
-10 3:147 
-10 3:156 
-10 3:147 
-10 3:149 
-10 3:152 
-10 3:146 
-0.08511567803694153 1:96 2:116 3:149 
-10 3:149 
-0.1628828689331097 1:95 2:124 3:144 
-0.1529621688759346 2:124 3:144 
-0.1914705559519915 1:97 2:115 3:140 
-0.1547179460793397 1:97 2:101 3:147 
-0.1121271677645506 2:101 3:147 
-10 3:147 
-0.1806387997683612 1:97 2:99 3:139 
-0.8673241154803147 2:99 3:139 
-0.6167170859722144 1:96 2:88 3:139 
-1.546032829507539 2:88 3:139 
-10 3:143 
-10 3:147 
-10 3:155 
-0.1580837862238775 1:94 2:117 3:144 
-0.09128069838904612 2:117 3:144 
-10 3:152 
-10 3:154 
-10 3:154 
-10 3:154 
-10 3:154 
-10 3:152 
-10 3:152 
-10 3:153 
-10 3:149 
-10 3:152 
-0.1703456307499729 1:94 2:104 3:162 
-0.09507298810700832 2:104 3:162 
-10 3:154 
-10 3:147 
-10 3:151 
-10 3:152 
-10 3:146 
-10 3:151 
-10 3:147 
-10 3:154 
-0.2292922764272189 1:96 2:113 3:153 
-0.1926841628863683 2:113 3:153 
-10 3:153 
-0.1617658297408366 1:95 2:123 3:145 
-0.1511481846738597 2:123 3:145 
-10 3:145 
-0.1956156541550443 1:96 2:125 3:139 
-0.1961660893470066 2:125 3:139 
-0.2228250125780835 1:96 2:121 3:139 
-0.1966173311973458 2:121 3:139 
-10 3:146 
-0.2162222406799763 1:96 2:89 3:138 
-0.7674859575322323 2:89 3:138 
-0.09716417271318339 1:93 2:109 3:145 
-10 3:145 
-10 3:151 
-10 3:155 
-1.461903398340357 3:148 
-10 3:147 
-0.1741290782584212 2:109 3:155 
-10 3:155 
-0.1327231596524006 1:94 2:109 3:154 
-10 3:154 
-10 3:151 
-0.1374369829301708 1:94 2:113 3:149 
-10 3:149 
-10 3:146 
-4.176151561457576 3:150 
-10 3:148 
-10 3:148 
-10 3:152 
-10 3:150 
-10 3:150 
-0.07747804639248618 1:94 2:107 3:157 
-0.12288778655444 2:107 3:157 
-10 3:157 
-10 3:151 
-10 3:153 
-0.09318590577500552 2:108 3:153 
-10 3:153 
-10 3:151 
-10 3:148 
-10 3:147 
-10 3:148 
-10 3:150 
-10 3:147 
-10 3:148 
-10 3:147 
-10 3:148 
-10 3:155 
-10 3:146 
-10 3:147 
-10 3:149 
-0.1134470659609748 1:96 2:117 3:148 
-0.1292501577498795 2:117 3:148 
-10 3:148 
-0.05502159672215468 1:96 2:120 3:144 
-0.09456956434138471 2:120 3:144 
-10 3:143 
-10 1:95 2:92 3:139 
-10 2:92 3:139 
-0.1774187007159599 1:93 2:105 3:150 
-10 3:150 
-10 3:150 
-10 3:152 
-10 3:145 
-0.1788171345848057 1:94 2:115 3:146 
-10 3:146 
-10 3:151 
-10 3:147 
-10 3:143 
-10 3:143 
-0.1534418067299461 1:94 2:111 3:152 
-0.1382951863631546 2:111 3:152 
-10 3:152 
-10 3:148 
-0.1553196289604125 1:94 2:119 3:142 
-10 3:148 
-10 3:151 
-10 3:147 
-0.07387957092533032 1:94 2:114 3:147 
-0.1052310706728228 2:114 3:147 
-10 3:147 
-10 3:151 
-10 3:150 
-10 3:149 
-10 3:147 
-10 3:145 
-0.5837210100988221 3:144 
-10 3:145 
-10 3:149 
-10 3:150 
-10 3:149 
-10 3:152 
-10 3:147 
-10 3:147 
-10 3:145 
-0.1633785294256324 1:96 2:121 3:143 
-0.1352740604861631 2:121 3:143 
-10 3:143 
-0.137381667491944 2:115 3:146 
-10 3:146 
-0.1330801985483986 1:96 2:114 3:148 
-10 3:148 
-0.1384895330043972 1:96 2:114 3:146 
-10 3:146 
-0.08310264433889492 1:96 2:117 3:142 
-0.06642713293981412 2:117 3:142 
-0.1747160842257758 1:97 2:97 3:142 
-10 2:97 3:142 
-0.2407969734508611 1:93 2:104 3:152 
-0.2843315989614432 2:104 3:152 
-10 3:152 
-10 3:153 
-10 3:155 
-10 3:151 
-10 3:153 
-10 3:155 
-10 3:151 
-10 3:150 
-10 3:151 
-10 3:150 
-0.1830311392419285 1:95 2:108 3:158 
-0.1086198621840797 2:108 3:158 
-10 3:158 
-10 3:151 
-0.1223517823031333 1:95 2:121 3:141 
-0.09431435487009188 2:121 3:141 
-0.1789050165952117 2:118 3:145 
-10 3:145 
-10 3:148 
-0.06597495594317004 2:116 3:147 
-10 3:147 
-10 3:150 
-10 3:154 
-10 3:154 
-10 3:152 
-10 3:148 
-10 3:146 
-10 3:145 
-10 3:146 
-10 3:145 
-10 3:144 
-10 3:151 
-10 3:150 
-0.06156378432979076 1:96 2:106 3:154 
-0.1688061210649403 2:106 3:154 
-10 3:154 
-10 3:150 
-10 3:148 
-10 3:146 
-10 3:145 
-10 3:143 
-10 3:144 
-0.1133943162008705 1:96 2:115 3:144 
-10 3:144 
-10 3:143 
-0.07566828285622423 1:97 2:113 3:142 
-10 3:142 
-10 3:142 
-0.1492508580997098 2:101 3:141 
-0.2190160988776844 1:93 2:108 3:147 
-10 3:147 
-10 3:150 
-10 3:152 
-10 3:149 
-10 3:150 
-10 3:150 
-10 3:146 
-10 3:148 
-10 3:149 
-10 3:151 
-0.1258332056835179 1:95 2:110 3:155 
-10 3:155 
-10 3:152 
-10 3:148 
-10 3:146 
-10 3:142 
-0.1466740719537007 1:95 2:119 3:144 
-10 3:144 
-0.09230042301810291 1:95 2:111 3:154 
-0.1481083477556993 2:111 3:154 
-10 3:154 
-10 3:149 
-10 3:151 
-10 3:150 
-0.1127385981528513 2:115 3:144 
-10 3:144 
-10 3:146 
-10 3:150 
-10 3:148 
-10 3:150 
-10 3:148 
-10 3:155 
-10 3:149 
-10 3:144 
-10 3:142 
-10 3:143 
-0.05908820869328554 1:96 2:119 3:142 
-10 3:142 
-0.1208762322751586 1:96 2:118 3:141 
-0.1582754226733643 2:118 3:141 
-0.130080351258595 1:97 2:112 3:144 
-10 3:144 
-0.06993522377549732 1:97 2:111 3:145 
-10 3:145 
-10 3:143 
-10 3:144 
-10 3:152 
-10 3:153 
-10 3:150 
-10 3:151 
-10 3:150 
-10 3:148 
-10 3:150 
-10 3:149 
-10 3:148 
-10 3:149 
-0.1635987194869483 1:95 2:113 3:151 
-0.0888858253903594 2:113 3:151 
-10 3:151 
-10 3:152 
-10 3:149 
-10 3:142 
-0.1263399594524693 2:119 3:143 
-10 3:143 
-10 3:153 
-0.07131522928605677 1:95 2:107 3:155 
-0.08334578129113057 2:107 3:155 
-10 3:155 
-10 3:151 
-10 3:146 
-10 3:143 
-10 3:146 
-10 3:151 
-10 3:151 
-10 3:148 
-10 3:149 
-10 3:148 
-10 3:146 
-10 3:150 
-10 3:148 
-10 3:144 
-10 3:143 
-10 3:144 
-10 3:146 
-10 3:142 
-0.2471141081725703 3:141 
-10 3:151 
-10 3:149 
-0.09182801631612049 1:94 2:112 3:150 
-0.1311389660228421 2:112 3:150 
-10 3:150 
-10 3:148 
-10 3:149 
-10 3:150 
-0.1114304816153651 1:95 2:115 3:149 
-0.1437630473173682 2:115 3:149 
-10 3:149 
-0.08197752400839148 2:114 3:150 
-10 3:150 
-10 3:148 
-10 3:150 
-10 3:148 
-10 3:147 
-10 3:148 
-10 3:148 
-0.1401262181218095 1:95 2:117 3:146 
-10 3:146 
-10 3:148 
-10 3:151 
-0.0563422457186803 1:95 2:109 3:152 
-0.07946303782087147 2:109 3:152 
-10 3:152 
-0.09721511030953312 1:95 2:110 3:151 
-10 3:151 
-10 3:148 
-10 3:145 
-10 3:145 
-10 3:148 
-10 3:148 
-10 3:145 
-10 3:146 
-10 3:147 
-10 3:146 
-10 3:144 
-10 3:148 
-10 3:150 
-10 3:153 
-10 3:143 
-10 3:141 
-10 3:142 
-10 3:142 
-10 3:141 
-10 3:142 
-10 3:143 
-10 3:142 
-0.1315461822517515 2:103 3:141 
-10 3:141 
-10 3:146 
-0.1376143195162959 1:94 2:111 3:147 
-10 3:147 
-0.1138990302992804 1:93 2:112 3:141 
-10 3:141 
-10 3:143 
-10 3:148 
-10 3:150 
-10 3:150 
-10 3:149 
-10 3:146 
-0.1037704601552905 1:94 2:108 3:151 
-10 3:151 
-10 3:148 
-10 3:148 
-10 3:147 
-0.06216616497155142 1:95 2:112 3:148 
-0.1075960843441685 2:112 3:148 
-10 3:148 
-10 3:147 
-0.1584881314225717 1:96 2:107 3:153 
-10 3:153 
-0.1353543931616797 1:96 2:108 3:151 
-10 3:151 
-10 3:146 
-10 3:144 
-10 3:144 
-10 3:143 
-10 3:141 
-10 3:143 
-10 3:147 
-10 3:146 
-10 3:142 
-10 3:146 
-10 3:146 
-10 3:147 
-10 3:146 
-0.1617838125771551 1:96 2:105 3:151 
-0.1240795698608227 2:105 3:151 
-10 3:151 
-10 3:147 
-10 3:144 
-10 3:145 
-10 3:146 
-10 3:145 
-10 3:144 
-10 3:143 
-10 3:142 
-10 3:141 
-10 3:141 
-10 3:145 
-0.1839033418668574 1:93 2:110 3:144 
-10 3:144 
-0.1781710172312582 1:93 2:111 3:142 
-10 3:142 
-0.1505294435252242 1:93 2:114 3:139 
-0.08869539579483171 1:93 2:115 3:138 
-10 3:144 
-10 3:150 
-10 3:150 
-0.10428002029094 1:95 2:109 3:147 
-10 3:147 
-10 3:144 
-10 3:146 
-10 3:146 
-10 3:145 
-10 3:149 
-10 3:148 
-10 3:147 
-0.1658137529164209 2:109 3:150 
-10 3:150 
-10 3:147 
-10 3:145 
-10 3:145 
-10 3:147 
-10 3:147 
-10 3:145 
-10 3:146 
-10 3:150 
-10 3:150 
-10 3:145 
-0.09885959295113558 3:140 
-10 3:142 
-10 3:145 
-0.09350622590434923 1:96 2:107 3:148 
-10 3:148 
-10 3:149 
-10 3:146 
-10 3:145 
-10 3:144 
-10 3:141 
-10 3:141 
-10 3:142 
-10 3:142 
-10 3:140 
-10 3:141 
-10 3:142 
-10 3:144 
-10 3:146 
-10 3:143 
-10 3:141 
-0.1480277702425524 1:94 2:110 3:149 
-10 3:149 
-0.08830079504213462 1:95 2:107 3:150 
-0.07242546319304039 2:107 3:150 
-10 3:150 
-10 3:145 
-10 3:144 
-10 3:144 
-10 3:146 
-10 3:145 
-0.09973858277520498 2:107 3:152 
-10 3:152 
-10 3:148 
-10 3:148 
-10 3:146 
-10 3:145 
-10 3:143 
-10 3:145 
-10 3:148 
-0.1681341479304891 2:110 3:148 
-10 3:148 
-10 3:146 
-10 3:145 
-0.07779424911309735 1:96 2:108 3:147 
-0.1526636344197925 2:108 3:147 
-10 3:147 
-10 3:146 
-10 3:143 
-10 3:141 
-0.1048646951905162 1:96 2:111 3:143 
-0.1697134800109355 2:111 3:143 
-10 3:143 
-10 3:142 
-10 3:142 
-10 3:145 
-10 3:144 
-10 3:141 
-10 3:140 
-0.2023009176948522 1:94 2:106 3:132 
-0.1709410313105418 2:106 3:132 
-10 3:141 
-10 3:141 
-10 3:145 
-0.1898895183673025 1:94 2:113 3:144 
-10 3:144 
-0.07817156515295853 1:94 2:118 3:138 
-0.08678843701991057 1:94 2:112 3:146 
-10 3:146 
-10 3:148 
-10 3:145 
-10 3:145 
-10 3:144 
-10 3:144 
-10 3:144 
-0.1757266577034123 1:96 2:110 3:149 
-10 3:149 
-0.1216142812734646 1:96 2:111 3:147 
-9.456413571499878 3:147 
-10 3:146 
-10 3:143 
-10 3:142 
-10 3:140 
-10 3:141 
-0.06732756812445773 1:96 2:113 3:145 
-10 3:145 
-0.1345961498893929 2:112 3:146 
-10 3:146 
-0.1591916685784538 2:113 3:144 
-10 3:144 
-10 3:142 
-10 3:142 
-10 3:146 
-10 3:142 
-10 3:140 
-0.14946450590526 1:96 2:118 3:134 
-0.11072994617792 2:118 3:134 
-10 3:142 
-10 3:141 
-10 3:140 
-10 3:139 
-0.1202071608605287 1:96 2:105 3:138 
-0.212627001949484 1:94 2:101 3:137 
-0.1512659134492984 2:101 3:137 
-10 3:142 
-0.1480552262137283 1:94 2:117 3:140 
-10 3:140 
-0.1596056486007136 1:94 2:115 3:142 
-10 3:142 
-10 3:141 
-0.2070190967776912 1:94 2:120 3:136 
-0.1584303690535657 2:120 3:136 
-0.1180547230806835 1:95 2:115 3:140 
-0.05613961720041044 2:115 3:140 
-10 3:140 
-10 3:145 
-10 3:146 
-10 3:143 
-10 3:141 
-10 3:140 
-0.07052648140125145 1:96 2:115 3:142 
-0.1555316705685806 2:115 3:142 
-10 3:142 
-10 3:141 
-10 3:144 
-10 3:142 
-10 3:142 
-10 3:139 
-10 3:141 
-10 3:143 
-0.1105493702216756 1:96 2:114 3:143 
-10 3:143 
-10 3:140 
-10 3:139 
-0.1640560978637865 1:96 2:109 3:145 
-0.2149065384007324 2:109 3:145 
-10 3:145 
-10 3:144 
-0.1341704749948657 2:106 3:144 
-9.584901344810403 3:144 
-10 3:140 
-0.08662533708736211 1:96 2:111 3:138 
-0.1104426452407881 2:111 3:138 
-0.05000742270094238 1:96 2:109 3:140 
-10 3:140 
-0.09578664022732794 1:96 2:110 3:139 
-0.1414256098070317 2:110 3:139 
-10 3:139 
-10 3:140 
-10 3:140 
-0.08051136772194489 1:94 2:106 3:130 
-0.07598941739851545 2:106 3:130 
-10 3:141 
-10 3:141 
-0.07710562805402954 2:116 3:141 
-10 3:141 
-10 3:139 
-0.1944656305283 1:95 2:120 3:134 
-0.1951313350312902 2:120 3:134 
-0.15015759083269 1:95 2:117 3:137 
-0.1589619855665147 2:117 3:137 
-0.06483663809818396 1:95 2:113 3:142 
-0.09005366840125528 2:113 3:142 
-10 3:142 
-0.1142941395361464 1:95 2:111 3:145 
-0.09678795566746286 2:111 3:145 
-10 3:145 
-10 3:139 
-0.8709516810428226 3:138 
-0.1580661449782498 1:96 2:119 3:137 
-0.08132323509952238 2:119 3:137 
-10 3:140 
-10 3:142 
-10 3:142 
-10 3:142 
-0.1069204537621694 1:96 2:112 3:141 
-0.0667591709843447 2:112 3:141 
-10 3:141 
-10 3:139 
-10 3:138 
-10 3:139 
-10 3:140 
-0.1073323913545821 1:96 2:117 3:139 
-0.0900518261024594 2:117 3:139 
-10 3:139 
-0.09295840002475347 1:96 2:115 3:138 
-10 3:138 
-0.06873760879725216 1:96 2:115 3:137 
-0.05462316330388994 2:115 3:137 
-0.09311982305353203 1:96 2:113 3:140 
-0.1651635402367788 2:113 3:140 
-10 3:140 
-10 3:146 
-0.1741422116832278 1:96 2:106 3:145 
-9.946499732514754 3:145 
-0.1553189082071244 2:105 3:146 
-10 3:146 
-10 3:142 
-0.1703146345146943 1:96 2:108 3:142 
-0.1566562798141964 2:108 3:142 
-10 3:142 
-0.1343367709653621 1:96 2:113 3:136 
-0.06864902577266352 2:113 3:136 
-10 3:140 
-0.1569065537548895 1:96 2:104 3:140 
-0.05348614103336224 2:104 3:140 
-10 3:140 
-0.08922754574760071 1:95 2:113 3:133 
-0.1527157089125872 2:113 3:133 
-0.2165565284431134 1:96 2:112 3:130 
-0.2169906976974245 2:112 3:130 
-0.1414418507894303 1:96 2:110 3:132 
-0.1161428936398563 2:110 3:132 
-0.1701442053701729 1:94 2:107 3:129 
-0.1729669418232674 2:107 3:129 
-0.1980493785515077 1:95 2:103 3:129 
-0.2145206562523137 2:103 3:129 
-10 3:139 
-0.1131776434550017 2:116 3:139 
-10 3:139 
-10 3:138 
-10 3:138 
-10 3:138 
-0.09802777687427156 1:95 2:108 3:139 
-0.06060456376641898 2:108 3:139 
-10 3:139 
-10 3:140 
-0.1263518399883566 1:95 2:106 3:142 
-0.1529491966576015 2:106 3:142 
-10 3:142 
-0.139446798882445 1:95 2:110 3:141 
-0.1435476381247714 2:110 3:141 
-9.901140407048864 3:141 
-10 3:140 
-0.1150855847655795 1:95 2:112 3:139 
-10 3:139 
-0.06716115414690517 1:95 2:113 3:138 
-0.1043505594207418 2:113 3:138 
-10 3:138 
-0.14360395780144 1:95 2:107 3:140 
-0.1471221574481686 2:107 3:140 
-10 3:140 
-0.111850349201781 1:95 2:105 3:143 
-10 3:143 
-0.0805397535870776 1:96 2:107 3:136 
-10 3:139 
-0.05598002815267666 1:96 2:106 3:137 
-0.2066182334090883 2:106 3:137 
-10 3:137 
-0.1437406701145847 1:96 2:102 3:140 
-0.06793310617939097 2:102 3:140 
-10 3:140 
-0.07981909130647957 1:96 2:106 3:135 
-0.1247575508959692 2:106 3:135 
-0.07086254987704621 1:94 2:104 3:133 
-0.06443429790538846 2:104 3:133 
-0.1717756090518512 1:94 2:104 3:135 
-0.1288052157495331 2:104 3:135 
-0.167462768749863 1:94 2:102 3:135 
-0.1600663516378633 2:102 3:135 
-0.1678270679525275 1:94 2:104 3:132 
-0.1718958702871904 2:104 3:132 
-0.1438334595618513 1:95 2:100 3:132 
-0.08668045998015317 2:100 3:132 
-0.1900071490966663 1:95 2:99 3:129 
-0.1908780095731751 2:99 3:129 
-0.1796967006980881 1:95 2:118 3:132 
-0.1762758045550538 2:118 3:132 
-0.2113006281764366 3:132 
-0.1554629817375451 1:95 2:116 3:134 
-0.1729652725890311 2:116 3:134 
-10 3:137 
-0.08014125929993698 1:95 2:115 3:135 
-0.1001974665254397 2:115 3:135 
-0.08312580566927885 1:95 2:111 3:136 
-0.168287607339854 2:111 3:136 
-10 3:137 
-0.154728009218382 1:95 2:112 3:134 
-0.09128239107509112 2:112 3:134 
-0.1456012286518576 1:95 2:114 3:132 
-0.05258324903195993 2:114 3:132 
-10 3:132 
-10 3:137 
-10 3:138 
-0.1471079362440531 2:105 3:139 
-10 3:139 
-10 3:138 
-10 3:142 
-0.08003141505591875 1:95 2:109 3:138 
-0.09240822448829456 2:109 3:138 
-10 3:138 
-0.1305559018454507 1:95 2:110 3:137 
-10 3:137 
-0.06637727016877876 1:95 2:111 3:135 
-0.05356535567152772 2:111 3:135 
-0.1016962001116922 1:95 2:115 3:131 
-0.1546214651890616 2:115 3:131 
-0.1832466600500859 1:95 2:117 3:129 
-0.1978460648102228 2:117 3:129 
-0.06305568033179193 1:95 2:116 3:130 
-0.07951905012048872 2:116 3:130 
-0.06473465187147354 3:130 
-0.1542324880203434 1:96 2:109 3:133 
-0.1452502897195561 2:109 3:133 
-10 3:133 
-0.1400673295162548 1:96 2:108 3:135 
-0.1637408472828884 2:108 3:135 
-10 3:135 
-0.2196407312421516 1:96 2:112 3:128 
-0.2206580152465083 2:112 3:128 
-0.1586281177380495 1:96 2:105 3:136 
-0.1435681990134984 3:136 
-0.1573189465660767 1:96 2:103 3:138 
-0.1630393340527378 2:103 3:138 
-10 3:138 
-0.08644398025482086 1:97 2:100 3:138 
-10 3:138 
-1.029388941071844 1:95 2:96 3:138 
-1.792345291461701 2:96 3:138 
-9.301525481636334 3:138 
-0.2971025454656158 1:95 2:97 3:137 
-0.6352978277760388 2:97 3:137 
-10 3:137 
-0.1530483796964333 1:95 2:101 3:131 
-0.1557817619137311 2:101 3:131 
-0.1905872404518682 1:95 2:98 3:136 
-0.1381211179224011 2:98 3:136 
-10 3:136 
-0.1691823769538911 1:95 2:99 3:134 
-0.1830792634650167 2:99 3:134 
-0.4257822039157029 3:134 
-0.1317409241333148 1:95 2:96 3:133 
-0.07459034229174133 2:96 3:133 
-10 3:133 
-0.6451042841417242 1:95 2:95 3:134 
-1.200894615991029 2:95 3:134 
-9.722322101654784 3:134 
-0.3472733351938513 1:95 2:90 3:133 
-1.227304226402641 2:90 3:133 
-10 3:133 
-5.496254541979519 1:94 2:88 3:157 
-2.492215032397066 2:88 3:157 
-10 3:157 
-10 3:158 
-10 3:159 
-10 3:158 
-0.0535786337559454 1:94 2:78 3:166 
-0.09147611576198444 2:78 3:166 
-0.115752713079509 2:77 3:169 
-0.1085064466331189 1:94 2:78 3:167 
-0.1100444299663253 1:94 2:77 3:170 
-0.09194643775163718 2:77 3:170 
-0.1948691400463474 1:94 2:74 3:168 
-0.1883859960132195 2:74 3:168 
-0.1743585058453938 2:76 3:165 
-10 3:157 
-1.06140112520705 1:94 2:80 3:157 
-1.139304857879758 2:80 3:157 
-10 3:157 
-10 3:155 
-10 3:159 
-0.1060932956701935 1:95 2:80 3:159 
-10 3:159 
-0.1023279733713049 2:79 3:162 
-0.1995189175168551 1:95 2:74 3:172 
-0.2060030829462071 2:74 3:172 
-0.0968370824508302 2:74 3:163 
-0.146217469204171 1:95 2:76 3:168 
-0.08625849781236608 2:78 3:164 
-0.1622518463955127 2:76 3:167 
-0.1550861818152659 1:95 2:74 3:162 
-0.05218494337667606 2:74 3:162 
-0.1792092614829999 1:95 2:72 3:166 
-0.1890943539187596 2:72 3:166 
-0.1149492918514009 1:95 2:77 3:172 
-0.1428653308186025 1:95 2:77 3:166 
-0.1292960812774155 1:96 2:77 3:159 
-10 3:159 
-0.1291690431864092 1:95 2:82 3:162 
-0.1186827757678568 2:82 3:162 
-0.07100440693853477 1:95 2:79 3:161 
-0.1167710412660956 1:96 2:77 3:158 
-0.1637411184369401 2:77 3:158 
-10 3:158 
-0.2019697481868086 1:97 2:74 3:158 
-0.1171715953973984 2:74 3:158 
-10 3:158 
-0.05927100962374871 1:96 2:87 3:164 
-0.194044938909054 1:97 2:73 3:160 
-0.1869043314152808 2:73 3:160 
-0.04271204999324479 1:96 2:87 3:165 
-0.07049216609919147 2:87 3:165 
-0.1698060372921934 1:97 2:83 3:165 
-0.2327600391720721 1:97 2:72 3:163 
-0.1131881373769895 2:72 3:163 
-0.2096338298883766 1:95 2:70 3:163 
-0.1066460624924913 2:70 3:163 
-0.1370250355433405 1:96 2:80 3:178 
-0.06481275715023904 2:80 3:178 
-10 1:96 2:90 3:161 
-10 2:90 3:161 
-0.1307617822503057 1:95 2:73 3:164 
-0.08692975921014853 2:73 3:164 
-10 1:95 2:91 3:165 
-0.1533002447049342 2:82 3:174 
-0.1475513701141282 1:96 2:84 3:170 
-0.1278991936549676 1:96 2:85 3:172 
-2.001055649127198 1:96 2:90 3:162 
-0.1265486176127346 1:96 2:85 3:168 
-0.1710991557873922 1:96 2:75 3:164 
-0.05765771910029394 2:75 3:164 
-0.05393026823116198 1:96 2:83 3:172 
-0.09082078965514967 2:83 3:172 
-0.1474883756099884 1:96 2:81 3:177 
-0.1192210073682337 2:81 3:177 
-0.1528978658739256 1:96 2:82 3:175 
-0.09679720339050846 1:96 2:83 3:173 
-0.06003725979076574 1:96 2:76 3:162 
-1.054818232446369 1:95 2:90 3:167 
-0.08986146910889423 2:84 3:169 
-0.1595798825238581 1:96 2:76 3:161 
-0.1339202991593393 2:76 3:161 
-0.1354800806187238 1:96 2:87 3:168 
-0.1088562050725443 1:96 2:86 3:170 
-0.1310799879744507 1:96 2:88 3:165 
-10 3:159 
-0.0926607970638304 1:96 2:84 3:174 
-0.1437694454557764 1:95 2:85 3:177 
-0.05334911566707856 2:86 3:167 
-0.07889083036771694 1:97 2:85 3:162 
-0.13729344417329 1:97 2:84 3:158 
-10 3:158 
-0.06982498230350942 1:95 2:84 3:179 
-0.1058505159501069 1:96 2:83 3:176 
-0.1524411200982536 1:95 2:89 3:170 
-0.08917415369183568 1:95 2:86 3:174 
-10 1:96 2:91 3:160 
-10 2:91 3:160 
-10 1:96 2:89 3:164 
-0.08562065840820782 1:96 2:86 3:166 
-0.1772582916869223 1:97 2:82 3:167 
-0.157320561219209 1:97 2:83 3:160 
-10 3:160 
-10 3:159 
-1.819174965234529 1:94 2:88 3:159 
-1.64315233233081 2:88 3:159 
-10 3:159 
-0.1587523699687681 1:97 2:84 3:163 
-0.3600197257497805 3:163 
-0.1713312338578124 1:97 2:81 3:163 
-10 3:163 
-0.1641491897697716 1:95 2:89 3:175 
-10 3:163 
-10 3:163 
-10 3:160 
-0.1803988065458578 1:97 2:86 3:160 
-10 3:160 
-10 3:158 
-0.07763667400511681 1:95 2:91 3:171 
-0.07340142875932137 1:95 2:87 3:179 
-0.07527827864638928 2:87 3:179 
-0.08668832868027687 1:95 2:88 3:176 
-1.384330731222248 1:94 2:88 3:160 
-10 3:160 
-10 1:94 2:88 3:157 
-10 2:88 3:157 
-10 3:157 
-2.598145634244234 1:95 2:84 3:158 
-2.899814231552046 2:84 3:158 
-10 3:158 
-1.159661637815682 1:95 2:82 3:155 
-2.335464589974067 2:82 3:155 
-10 3:155 
-0.1164085206645451 1:95 2:87 3:172 
-0.4240954047620137 1:95 2:93 3:167 
-0.1455009971484601 2:93 3:167 
-0.1125736473829715 2:93 3:168 
-0.166040236870111 1:95 2:92 3:170 
-0.154744034285346 1:95 2:90 3:173 
-0.1676497931540407 1:95 2:87 3:178 
-0.1665077741326224 2:87 3:178 
-0.1894888046651338 1:95 2:86 3:181 
-0.190846743768765 2:86 3:181 
-0.2461480436846749 3:181 
-10 1:94 2:88 3:160 
-10 2:88 3:160 
-10 3:160 
-10 1:94 2:89 3:154 
-10 2:89 3:154 
-10 3:154 
-9.433678105095563 1:95 2:84 3:158 
-9.117446302133519 2:84 3:158 
-10 3:158 
-0.8302509886295275 1:95 2:77 3:155 
-0.8313718545390381 2:77 3:155 
-10 3:155 
-10 3:160 
-10 1:94 2:84 3:155 
-10 2:84 3:155 
-10 3:155 
-0.08059917147451362 1:95 2:76 3:157 
-0.05648926367187462 2:76 3:157 
-10 3:157 
-0.1698691947326511 1:94 2:84 3:179 
-0.1666279976545363 2:84 3:179 
-10 3:163 
-10 3:159 
-10 3:155 
-0.1496886126427114 1:94 2:82 3:178 
-0.1343827162679694 2:82 3:178 
-1.599644902204361 1:94 2:91 3:166 
-9.566213712472679 2:91 3:166 
-10 1:94 2:86 3:163 
-10 2:86 3:163 
-10 3:163 
-0.1955603116626752 1:93 2:74 3:155 
-0.242712138143134 2:74 3:155 
-10 3:155 
-0.1792542174961819 1:93 2:88 3:177 
-0.05080472726940272 1:93 2:89 3:175 
-10 3:162 
-10 3:159 
-0.241607164661875 1:93 2:73 3:158 
-0.1192158459481787 2:73 3:158 
-10 3:158 
-0.1396082614323342 2:88 3:176 
-0.1240385697676995 1:93 2:91 3:171 
-0.1733706826759159 2:91 3:171 
-0.07019176557123497 1:94 2:89 3:169 
-0.1490223760226945 2:89 3:169 
-1.660753768700343 3:161 
-10 3:161 
-0.2303493290521451 1:93 2:71 3:162 
-0.1234374357225908 2:71 3:162 
-10 3:162 
-0.171013284790312 1:93 2:89 3:174 
-0.172897670001226 2:89 3:174 
-0.103029749334633 2:90 3:173 
-0.1283499309911396 1:93 2:90 3:172 
-0.06739352207816973 2:92 3:170 
-0.2048817907605752 1:93 2:92 3:169 
-0.09466497347245567 2:92 3:169 
-0.1208816248267705 2:85 3:177 
-10 3:163 
-0.1027350489104842 1:94 2:79 3:164 
-0.1008953576767983 2:79 3:164 
-0.0850672946497868 2:77 3:163 
-10 3:163 
-1.119398899487308 2:91 3:165 
-10 3:163 
-0.1327752063890592 1:94 2:80 3:162 
-0.1052928410728354 2:80 3:162 
-10 3:162 
-10 3:161 
-0.238169629525866 2:90 3:167 
-0.0609589707355781 1:94 2:85 3:176 
-0.08918541672518771 1:94 2:87 3:173 
-0.1090104902834649 2:87 3:173 
-0.142924410109129 1:94 2:86 3:175 
-0.1528951345785299 2:86 3:175 
-0.08181233325487852 1:94 2:88 3:171 
-0.166422110485205 2:88 3:171 
-0.7601371066469567 1:94 2:91 3:165 
-10 2:91 3:165 
-0.255326562186507 1:94 2:90 3:162 
-2.128135741866123 2:90 3:162 
-10 3:162 
-10 3:163 
-10 3:161 
-10 3:158 
-0.1020698485696037 1:94 2:77 3:162 
-0.06351360433487197 2:77 3:162 
-10 3:162 
-0.05097706067762614 1:94 2:84 3:174 
-0.1038088930121665 2:84 3:174 
-0.1625502726555292 2:85 3:172 
-10 3:163 
-2.40279739802561 1:94 2:87 3:159 
-1.969641102343982 2:87 3:159 
-10 3:159 
-10 3:159 
-0.1832020611651846 1:94 2:76 3:164 
-0.149064692482844 1:94 2:84 3:173 
-0.1562944146087177 1:94 2:83 3:176 
-0.1760865763275523 2:83 3:176 
-0.1387014556424522 1:94 2:85 3:171 
-0.05870603306518962 2:85 3:171 
-0.1764149636194716 1:94 2:88 3:165 
-0.1694830615355258 2:88 3:165 
-0.1480664797245747 1:94 2:86 3:169 
-0.1771189843219085 2:86 3:169 
-9.946069731768837 2:89 3:164 
-0.1322783952824395 1:94 2:87 3:167 
-0.1494736574331305 2:87 3:167 
-10 1:94 2:88 3:159 
-10 2:88 3:159 
-10 3:159 
-10 3:161 
-10 3:161 
-0.0876048141709182 2:80 3:175 
-0.1450223084749641 1:94 2:84 3:166 
-0.1758851644266542 1:94 2:83 3:168 
-0.0845345300249952 2:83 3:168 
-0.275132430645437 1:94 2:87 3:162 
-0.2022378033777737 2:87 3:162 
-10 3:162 
-10 1:94 2:88 3:160 
-10 2:88 3:160 
-10 3:160 
-10 3:159 
-1.002026118777913 1:94 2:83 3:157 
-1.902477329403522 2:83 3:157 
-10 3:157 
-0.06420314447237241 1:94 2:80 3:176 
-0.1778130730232238 1:94 2:79 3:177 
-0.157057744052665 2:79 3:177 
-0.0698558791481797 1:94 2:85 3:165 
-0.1185086928379686 2:85 3:165 
-0.09478314609925653 2:84 3:167 
-10 1:94 2:85 3:165 
-10 2:85 3:165 
-0.1307989950656116 1:94 2:86 3:164 
-0.05284046289810535 2:86 3:164 
-10 1:94 2:86 3:163 
-10 2:86 3:163 
-10 3:163 
-10 1:94 2:88 3:160 
-10 2:88 3:160 
-10 3:160 
-7.513916634442094 1:94 2:88 3:160 
-9.218713039235229 2:88 3:160 
-10 3:160 
-10 3:161 
-10 3:161 
-10 1:94 2:83 3:156 
-9.893726814306296 2:83 3:156 
-10 3:156 
-9.266582765972695 1:94 2:80 3:157 
-9.236771073406416 2:80 3:157 
-10 3:157 
-0.1331077138547819 1:94 2:81 3:174 
-0.0530276703936462 2:81 3:173 
-0.1400547892645268 1:94 2:84 3:163 
-0.1169468785812658 2:84 3:163 
-10 3:163 
-0.1031468082595816 1:94 2:85 3:162 
-0.1284885059997609 2:85 3:162 
-10 3:162 
-0.1459539478817266 1:94 2:81 3:160 
-0.1837256459822999 2:81 3:160 
-10 3:160 
-10 3:160 
-0.07268657844387017 1:94 2:83 3:170 
-0.1336966567823114 2:83 3:170 
-0.1639940938550085 1:94 2:82 3:171 
-0.1561799117961604 1:94 2:79 3:174 
-0.1717874017316455 2:79 3:174 
-0.07071097554056244 1:95 2:79 3:168 
-0.1583303081391985 2:79 3:168 
-0.1678203706537997 3:164 
-0.08680345031463216 1:94 2:82 3:167 
-0.07662983272940144 2:82 3:167 
-0.07335417565962549 1:94 2:83 3:165 
-0.1409890037897829 2:83 3:165 
-10 3:158 
-0.1617462326595272 1:94 2:78 3:160 
-0.1716924613026444 2:78 3:160 
-10 3:160 
-0.1597604990599424 1:94 2:81 3:169 
-0.1167305893406106 2:81 3:169 
-0.1195122538554274 2:81 3:171 
-0.1476633603120258 1:94 2:80 3:172 
-0.1320185409821061 2:80 3:172 
-0.2359805612405209 1:95 2:76 3:175 
-0.2365850125545498 2:76 3:175 
-0.0613185259914501 1:95 2:78 3:171 
-0.09621060658676806 2:78 3:171 
-0.1587566115044973 1:95 2:75 3:170 
-0.1413192170681243 2:75 3:170 
-0.1231792670360009 1:95 2:78 3:169 
-0.1263428555007823 1:95 2:77 3:173 
-0.167939594173094 2:77 3:173 
-0.1612428195694142 1:95 2:80 3:166 
-0.1477567946323068 2:80 3:166 
-10 3:163 
-10 3:164 
-10 3:164 
-0.1564398322711051 1:95 2:81 3:164 
-0.1512856770108847 2:81 3:164 
-9.891905438548873 3:164 
-0.1253187799990371 1:95 2:78 3:163 
-10 3:163 
-0.05695824529140331 1:94 2:79 3:159 
-0.06580688227452469 2:79 3:159 
-10 3:159 
-0.1036133666390767 1:95 2:75 3:160 
-0.1198348822065924 2:75 3:160 
-7.255744675038339 3:160 
-0.07684656569798826 1:94 2:111 3:173 
-0.08817639674367134 1:94 2:113 3:170 
-0.1825687534062379 1:95 2:122 3:165 
-0.1901155360916277 2:122 3:165 
-0.08981711491300454 1:95 2:117 3:168 
-0.08492030101329168 2:117 3:168 
-0.2046177289352047 1:96 2:116 3:176 
-0.09207098573992202 2:116 3:176 
-0.1858914249548239 1:95 2:114 3:177 
-0.07836986577769967 1:95 2:121 3:167 
-0.1039896335804259 2:121 3:167 
-0.1416138810868169 1:95 2:105 3:177 
-0.08138758893488718 2:105 3:177 
-0.07906983903334626 1:95 2:106 3:176 
-0.09558388780384397 2:106 3:176 
-0.05543404872567198 1:95 2:108 3:172 
-0.1609308684530523 2:108 3:172 
-0.1405574316814374 1:95 2:108 3:173 
-0.2079358270158663 1:94 2:116 3:165 
-0.1069202648307584 1:94 2:115 3:167 
-0.1699271464685149 1:94 2:110 3:174 
-0.1886015823537779 1:94 2:112 3:171 
-0.1309599055082155 1:94 2:114 3:168 
-0.1150243331196923 1:95 2:111 3:177 
-0.08097907121648723 2:111 3:177 
-0.1642445213968652 1:94 2:109 3:176 
-0.1868274274600206 1:95 2:110 3:179 
-0.1931456498084564 2:110 3:179 
-0.09837292277818895 1:95 2:114 3:172 
-0.1376005367517107 2:116 3:169 
-0.1066351372685725 1:95 2:117 3:172 
-0.1101528038154919 2:117 3:172 
-0.108405614467109 1:96 2:115 3:167 
-0.1335526692001279 2:115 3:167 
-0.08368936292126289 1:95 2:119 3:170 
-0.1341414871622624 2:119 3:170 
-0.07352677461756696 1:95 2:113 3:178 
-0.1569358330305576 2:113 3:178 
-0.07134844398480572 1:95 2:115 3:175 
-0.123769319085232 2:115 3:175 
-0.1201370248374625 1:95 2:112 3:175 
-0.164488480379618 2:112 3:176 
-0.1240448864627834 1:96 2:109 3:175 
-0.1042901403767105 2:108 3:174 
-0.1222705280052701 1:95 2:120 3:168 
-0.05992905321419839 2:120 3:168 
-0.1631415533327202 2:117 3:174 
-0.1134582104500126 1:95 2:116 3:174 
-0.1344835761865155 1:95 2:113 3:174 
-0.1670194114669365 2:113 3:174 
-0.1358806764575403 2:110 3:174 
-0.1305108235980898 1:96 2:111 3:173 
-0.07168543818970063 2:111 3:173 
-0.153789683983985 1:96 2:107 3:176 
-0.06579895358008131 2:107 3:176 
-0.1841429706579296 1:96 2:122 3:167 
-0.0766587410425682 2:122 3:167 
-0.1378958271035049 2:115 3:177 
-0.1221731763317303 1:96 2:112 3:177 
-0.05592014172688797 3:177 
-0.1301765546134808 1:96 2:115 3:173 
-0.1158026652221543 2:115 3:173 
-0.07174262992916203 1:96 2:116 3:165 
-0.09338865389542772 2:116 3:165 
-10 3:165 
-0.1410383007090435 1:96 2:111 3:170 
-0.05121692902276215 2:111 3:170 
-0.1447059410550484 1:96 2:121 3:169 
-0.1403215208197401 2:121 3:169 
-0.1913749790194236 2:119 3:172 
-0.05328593437764678 1:96 2:114 3:174 
-0.1962659995203123 1:96 2:118 3:173 
-0.1368369607899929 1:96 2:119 3:171 
-0.1456040294891331 2:115 3:171 
-0.1443386380793197 1:95 2:116 3:170 
-0.06078361797757986 1:96 2:113 3:169 
-0.1205679394385079 2:113 3:169 
-0.1932773398573369 1:95 2:110 3:167 
-0.117530713161402 2:110 3:171 
-0.1597523634442589 1:96 2:113 3:167 
-0.1426440210829655 2:113 3:167 
-0.06000551395915083 1:96 2:110 3:172 
-0.05010100627865299 2:110 3:172 
-0.1317656326751374 1:96 2:118 3:169 
-0.1024525543785102 2:118 3:169 
-0.05467575126870028 2:117 3:170 
-0.07171922107506312 1:96 2:116 3:171 
-0.09510214938381983 1:96 2:113 3:172 
-0.1019881282631702 2:113 3:172 
-0.1980580604428503 1:94 2:112 3:162 
-0.1999398400553795 2:112 3:162 
-9.300722663087349 3:162 
-0.1363583502582945 1:96 2:106 3:174 
-0.1203692174328218 2:106 3:174 
-0.1020061552636591 1:96 2:104 3:176 
-0.1062731856937044 2:104 3:176 
-0.1675735850340812 1:96 2:103 3:178 
-0.1984339472154255 2:103 3:178 
-0.1431571650831452 1:96 2:107 3:171 
-0.1548710137143775 1:96 2:117 3:166 
-0.1465161244631496 2:117 3:166 
-0.06922539741240474 1:96 2:109 3:176 
-0.1597803085919823 2:109 3:176 
-0.09741167729434344 2:112 3:171 
-0.1347608958226544 1:96 2:113 3:170 
-0.06529150934471359 2:113 3:170 
-0.1888893114918429 1:96 2:111 3:165 
-0.1911508230604209 2:111 3:165 
-10 3:165 
-0.1331849397493593 1:95 2:106 3:161 
-0.1890942512197553 2:106 3:161 
-10 3:161 
-0.1142646588453188 2:102 3:173 
-0.1794963177089963 1:97 2:101 3:174 
-0.1788887390787213 1:97 2:104 3:174 
-0.1611313342353029 2:104 3:174 
-0.1343344122347233 1:97 2:107 3:169 
-0.1597182702611463 1:97 2:108 3:173 
-0.1597527791086568 1:97 2:111 3:168 
-0.1772171826427968 2:111 3:168 
-0.1419407176177939 1:97 2:109 3:171 
-0.07780087629881416 2:110 3:167 
-0.1417159017870026 1:96 2:109 3:169 
-0.1526420589761673 2:109 3:169 
-0.2268017742270795 1:96 2:104 3:166 
-0.2265787083003936 2:104 3:166 
-0.609453502317468 3:166 
-0.1006560303744879 1:96 2:105 3:161 
-10 3:161 
-0.1366858767771173 1:95 2:104 3:159 
-0.09469587534413766 2:104 3:159 
-10 3:159 
-0.1325632871332699 1:97 2:101 3:169 
-0.1375785889364433 2:101 3:169 
-0.06582275918395858 1:97 2:102 3:172 
-0.05203478380270693 2:102 3:172 
-0.2220956770604267 1:97 2:99 3:175 
-0.09957121404033353 2:99 3:175 
-0.1354916069665154 1:97 2:101 3:171 
-0.1596316465448248 2:101 3:171 
-0.1448909275781091 2:107 3:170 
-0.08718364368095211 1:97 2:105 3:173 
-0.07342346686737628 2:105 3:173 
-0.07873539909964711 1:97 2:108 3:168 
-0.06114874596986242 2:108 3:168 
-0.135259226945697 1:96 2:106 3:168 
-0.170768713817549 2:106 3:168 
-0.1762579759942642 1:96 2:104 3:171 
-0.1812087797206959 2:104 3:171 
-0.2412377749458705 1:96 2:91 3:184 
-0.2414477711519056 2:91 3:184 
-0.2396300589850974 3:184 
-0.2158563015119265 1:96 2:103 3:161 
-0.1513962621804935 2:103 3:161 
-10 3:161 
-0.07496088251804423 1:96 2:106 3:149 
-0.1245019541452908 2:106 3:149 
-7.489405507268191 3:149 
-0.2012744302775389 1:97 2:99 3:167 
-0.200232820568993 2:99 3:167 
-0.061719351682332 3:167 
-0.09737923887890423 3:170 
-0.1346018126500219 2:100 3:174 
-0.09667431368725536 3:174 
-0.1049634418316825 1:97 2:103 3:169 
-0.1390754217718042 2:103 3:169 
-0.1486033619850283 3:169 
-0.1232987790226423 1:97 2:103 3:168 
-0.05185386610038506 2:103 3:168 
-0.1798834147010249 1:96 2:108 3:166 
-0.1829531022341421 2:108 3:166 
-9.565826128905599 3:166 
-0.2346435924847165 1:96 2:100 3:178 
-0.1901974171556342 2:100 3:178 
-0.1882044305045201 3:178 
-0.1010761066959176 1:96 2:102 3:175 
-0.1192948151527035 2:102 3:175 
-0.1202860695302253 1:96 2:101 3:176 
-0.08934013141012881 2:101 3:176 
-0.147831271107541 1:96 2:101 3:172 
-0.1904013005410183 1:96 2:96 3:175 
-0.2402509249489393 2:96 3:175 
-0.1494572195092566 3:175 
-0.1875883899909891 1:95 2:96 3:172 
-0.1986373189886239 2:96 3:172 
-0.1791229228783501 3:172 
-0.8548201081328908 1:96 2:103 3:154 
-1.394733179563256 2:103 3:154 
-10 3:154 
-0.08632324718902806 1:95 2:114 3:137 
-0.1344337320784866 2:114 3:137 
-10 3:137 
-0.1047472092205864 1:92 2:134 3:99 
-0.1562621737980991 1:92 2:135 3:98 
-0.2213334989149653 1:92 2:143 3:93 
-0.178913190965851 1:92 2:149 3:89 
-0.2286138350988372 2:149 3:89 
-0.2427005943600806 1:92 2:156 3:88 
-0.2353023840273315 2:156 3:88 
-0.1923875573450901 1:92 2:142 3:97 
-0.1741272891341824 1:92 2:148 3:93 
-0.08037288218551193 2:148 3:93 
-0.1472989185244726 1:92 2:145 3:95 
-0.1319922709848074 1:92 2:146 3:94 
-0.1543764750280049 2:146 3:94 
-0.1520254065634942 1:92 2:150 3:92 
-0.1577065451956567 2:150 3:92 
-0.09550922764468078 1:92 2:151 3:91 
-0.08667523613661404 2:151 3:91 
-0.1419218800220243 1:93 2:143 3:100 
-0.1560194514870265 1:93 2:150 3:95 
-0.1888313217022282 1:93 2:155 3:92 
-0.09944803287223208 2:155 3:92 
-0.2003161694462647 1:93 2:164 3:90 
-0.1220416901828658 2:164 3:90 
-0.2171265848030129 1:93 2:144 3:103 
-0.1367118657676966 1:93 2:144 3:99 
-0.09300688531987633 1:93 2:149 3:96 
-0.1967137399195484 1:93 2:147 3:97 
-0.2050808755895626 1:93 2:161 3:92 
-0.08784712801124966 2:161 3:92 
-0.1775551129131043 1:93 2:142 3:104 
-0.17748238087013 2:142 3:104 
-0.2069358502119403 1:93 2:146 3:101 
-0.06274643842557987 2:146 3:101 
-0.1268906964868712 1:93 2:149 3:99 
-0.1011406087234015 1:93 2:156 3:95 
-0.1283933304831231 1:93 2:148 3:100 
-0.2021644262600955 1:93 2:154 3:96 
-0.1586284488955431 1:93 2:151 3:98 
-0.1879631106095223 1:93 2:172 3:89 
-0.1937003015617655 2:172 3:89 
-0.1719307057213159 1:93 2:149 3:103 
-0.2507519180668055 1:93 2:143 3:107 
-0.1625208954366546 2:143 3:107 
-0.2188779256649946 1:93 2:168 3:91 
-0.1187872309996213 1:93 2:161 3:95 
-0.1453894320134081 1:93 2:166 3:92 
-0.179919829828075 2:166 3:92 
-0.1029015312351891 1:93 2:146 3:105 
-0.1335797896435785 1:93 2:147 3:104 
-0.1266885573524521 2:147 3:104 
-0.1902395704095566 1:93 2:170 3:90 
-0.07265429284109443 2:170 3:90 
-0.0833804303422675 1:93 2:165 3:93 
-0.1410527580093003 1:93 2:155 3:99 
-0.1752811223570071 1:93 2:151 3:101 
-0.05275179730583102 1:93 2:150 3:102 
-0.06366716185890076 2:150 3:102 
-0.161616169387416 1:93 2:153 3:100 
-0.1142445669390332 1:93 2:159 3:96 
-0.1888230388157873 1:93 2:157 3:94 
-0.1723719552883657 1:93 2:163 3:94 
-0.1331205283966963 1:93 2:158 3:97 
-0.1167218510961746 1:92 2:162 3:96 
-0.05937160722424656 2:162 3:96 
-0.2057802810514015 1:93 2:155 3:102 
-0.12438892212381 1:93 2:157 3:101 
-0.08370513212319397 1:93 2:152 3:97 
-0.1045677519615205 1:93 2:156 3:98 
-0.1072873219927931 1:92 2:157 3:99 
-0.1074512253297328 1:92 2:160 3:97 
-0.1161708191096586 1:93 2:158 3:100 
-0.1332938531022997 1:93 2:160 3:99 
-0.128268607646133 1:93 2:163 3:97 
-0.1316043937027682 1:93 2:161 3:98 
-0.1022311060168152 1:93 2:165 3:96 
-0.1534040922038945 1:93 2:166 3:95 
-0.1188901116186711 1:98 2:38 3:108 
-0.1954225955861671 1:98 2:34 3:111 
-0.1821123418846302 1:98 2:38 3:106 
-0.1872630128246904 1:98 2:38 3:102 
-0.1315710282796089 2:38 3:102 
-0.1390388374705925 1:98 2:37 3:109 
-0.08820858953886501 1:94 2:34 3:104 
-0.06190389434106512 2:34 3:104 
-0.2020367657071125 1:94 2:37 3:104 
-0.1522627845101279 1:94 2:33 3:107 
-0.2322865233834794 1:94 2:35 3:110 
-0.1923802079232773 1:94 2:32 3:112 
-0.2031966912327608 1:98 2:34 3:114 
-0.1038819550844159 1:102 2:40 3:108 
-0.1560072415734111 1:102 2:41 3:107 
-0.1886707668955229 1:104 2:37 3:104 
-0.1775300940634584 1:104 2:35 3:108 
-0.1202694278863314 1:106 2:30 3:112 
-0.2265554471450754 1:107 2:19 3:123 
-0.15072718343914 2:19 3:123 
-0.06490044029925052 1:104 2:24 3:118 
-0.1621467233385176 1:104 2:24 3:119 
-0.2254904394043437 1:104 2:24 3:116 
-0.2139100430174668 1:104 2:34 3:114 
-0.06170430149693434 1:98 2:35 3:109 
-0.1522342286672109 1:99 2:32 3:103 
-0.1456261967502984 1:98 2:37 3:104 
-0.1171688429216162 1:99 2:31 3:106 
-0.233272141148371 1:99 2:33 3:100 
-0.1519250050569194 1:98 2:36 3:106 
-0.1511654238362689 1:99 2:30 3:109 
-0.1701023638381571 1:98 2:35 3:108 
-0.1912412668176007 1:98 2:29 3:105 
-0.1862568510058722 1:94 2:34 3:105 
-0.1566416048616918 1:94 2:33 3:109 
-0.1788559332824055 2:33 3:109 
-0.1785965591620538 1:99 2:32 3:105 
-0.1603213288868917 1:104 2:34 3:111 
-0.1772373115417932 1:104 2:36 3:106 
-0.1278584567722497 1:104 2:35 3:110 
-0.1939898682681032 1:106 2:29 3:114 
-0.1709577598248959 1:106 2:31 3:106 
-0.1973973810287274 1:106 2:31 3:108 
-0.1117753923380853 1:106 2:30 3:110 
-0.1019315337736211 1:106 2:30 3:111 
-0.1473283816741326 1:107 2:19 3:118 
-0.05594805810984083 2:19 3:118 
-0.0869084828777964 2:19 3:119 
-0.08663791764466888 1:104 2:23 3:120 
-0.2013585701608251 1:104 2:23 3:124 
-0.1657169623282451 1:104 2:23 3:122 
-0.1639633705584434 1:106 2:28 3:119 
-0.1758399260404176 1:105 2:37 3:124 
-0.1692741718078069 2:37 3:124 
-0.09094263460704294 1:99 2:31 3:108 
-0.2064286391642209 1:98 2:30 3:103 
-0.167484571165697 1:98 2:28 3:108 
-0.07227260874639696 1:98 2:29 3:107 
-0.1510298053520235 1:104 2:27 3:105 
-0.07982741911421853 1:104 2:26 3:109 
-0.1149629981783358 1:104 2:25 3:114 
-0.100867826756916 1:120 2:13 3:120 
-0.05316219820421003 2:13 3:120 
-0.1583579941390073 1:120 2:13 3:121 
-0.210741318650147 2:13 3:121 
-0.1511046218486014 1:109 2:17 3:123 
-0.1937228161812129 2:17 3:123 
-0.1287000955970196 1:106 2:27 3:124 
-0.1393764078553664 2:27 3:124 
-0.1579395790116741 1:104 2:32 3:118 
-0.197846103291499 1:105 2:38 3:122 
-0.06020141745772462 1:104 2:25 3:111 
-0.2029833889787573 1:99 2:25 3:101 
-0.1360623114347394 2:25 3:101 
-0.2307218287591277 1:99 2:23 3:113 
-0.164042483755107 1:99 2:24 3:107 
-0.1392002450745862 1:99 2:23 3:111 
-0.1640725074794187 1:99 2:23 3:109 
-0.2255609924386514 1:99 2:24 3:105 
-0.1806813883577545 1:104 2:27 3:103 
-0.06795588232151839 2:27 3:103 
-0.1810370904372725 1:104 2:26 3:107 
-0.1669308635583661 1:104 2:25 3:110 
-0.1345792085449285 1:104 2:25 3:113 
-0.1652393042673448 2:22 3:104 
-0.135013787509441 1:107 2:20 3:114 
-0.05251665720432547 2:20 3:114 
-0.1232935630692761 1:120 2:13 3:116 
-0.1449724932386332 2:13 3:116 
-0.2199008130259191 1:112 2:22 3:125 
-0.2443143149719489 1:106 2:26 3:127 
-0.1322505864955245 2:26 3:127 
-0.1454679545283069 1:106 2:27 3:121 
-0.1549637414882691 2:27 3:121 
-0.1171523196079348 1:106 2:27 3:125 
-0.053500267485246 2:27 3:125 
-0.2117971576953486 1:104 2:32 3:120 
-0.1027086801093497 1:107 2:35 3:118 
-0.07518527629597516 2:35 3:118 
-0.1728462775010351 1:105 2:39 3:118 
-0.06651694628218108 1:105 2:39 3:117 
-0.05467071849546196 2:39 3:117 
-0.1694782708138602 1:107 2:20 3:116 
-0.1744435907794984 2:20 3:116 
-0.1710451189020278 1:107 2:19 3:120 
-0.06971296445786662 2:19 3:120 
-0.1223012551741776 2:20 3:113 
-0.1643872608742403 1:109 2:19 3:110 
-0.1341858927285223 1:109 2:17 3:120 
-0.17371227843273 2:17 3:120 
-0.2155579189085293 1:120 2:14 3:111 
-0.1920599533372915 2:14 3:111 
-0.09637171019143859 1:120 2:14 3:113 
-0.087559865666472 2:14 3:113 
-0.1113186022602291 1:109 2:17 3:122 
-0.1549373652536507 2:18 3:112 
-0.21487958860537 1:114 2:22 3:117 
-0.1719287177862615 2:22 3:117 
-0.1740614711002662 1:114 2:21 3:123 
-0.2021037206020196 1:112 2:22 3:128 
-0.1843501334035241 2:22 3:128 
-0.1917421417277499 1:112 2:23 3:120 
-0.2233316300744996 1:106 2:28 3:117 
-0.1658437053273024 1:104 2:31 3:124 
-0.1743438031390668 2:31 3:124 
-0.2257695224557625 1:104 2:30 3:126 
-0.1441487393496344 2:30 3:126 
-0.1459604854001948 1:104 2:31 3:122 
-0.2453548322471186 1:102 2:36 3:121 
-0.2147491122016803 1:102 2:37 3:117 
-0.2228080254209211 1:105 2:40 3:115 
-0.05508515713165757 1:105 2:41 3:113 
-0.2075822205171398 1:103 2:41 3:117 
-0.07287279781137568 2:42 3:114 
-0.182087864041827 1:107 2:23 3:101 
-0.1398470425941316 2:23 3:101 
-0.1324272779350903 1:107 2:20 3:112 
-0.1138910253771024 1:107 2:21 3:111 
-0.1515654563054935 2:21 3:111 
-0.1320079347566188 1:107 2:21 3:109 
-0.09828254966972 2:21 3:109 
-0.1003476179095353 2:23 3:102 
-0.1190956486255575 1:107 2:21 3:108 
-0.1870630485086174 1:107 2:22 3:106 
-0.07281659076126359 2:22 3:106 
-0.1419984074973317 2:21 3:107 
-0.06276529782320528 1:107 2:22 3:105 
-0.219390029851103 1:107 2:22 3:103 
-0.19692654160442 1:109 2:20 3:102 
-0.1791304753074478 2:20 3:102 
-0.1656214887954359 1:109 2:20 3:104 
-0.1224654413582243 2:20 3:104 
-0.08909701446548274 1:109 2:19 3:106 
-0.162692334691428 2:19 3:106 
-0.1359770447613171 1:109 2:19 3:107 
-0.06194424492971673 2:19 3:107 
-0.07490093722814489 1:109 2:18 3:111 
-0.08057778378794284 2:18 3:111 
-0.06424820395796888 1:109 2:19 3:109 
-0.1667412704194516 2:19 3:109 
-0.1815541693431092 1:120 2:13 3:114 
-0.1541807136104766 2:13 3:114 
-0.1817627738990232 1:120 2:13 3:118 
-0.1715677208737233 2:13 3:118 
-0.2217793114168235 1:109 2:18 3:113 
-0.1852850273591467 2:18 3:114 
-0.05923198394160728 2:17 3:121 
-0.1759808663951264 2:17 3:117 
-0.204364573584784 1:109 2:18 3:116 
-0.06232672951460805 2:18 3:116 
-0.1552778379122298 1:109 2:17 3:118 
-0.0548572324831143 2:17 3:118 
-0.1723707190342587 1:112 2:23 3:123 
-0.1331070829909002 2:23 3:123 
-0.2030028912209451 1:112 2:24 3:118 
-0.06833487942741107 1:112 2:23 3:122 
-0.09909856475993341 1:106 2:27 3:122 
-0.171245603003628 1:104 2:33 3:116 
-0.1677160020101808 1:105 2:38 3:120 
-0.1407413542926855 2:38 3:120 
-0.1887104177475411 1:103 2:42 3:115 
-0.1945262259424381 1:103 2:43 3:113 
-0.2007715658693662 1:103 2:44 3:109 
-0.06779667051291882 2:44 3:109 
-0.1020841828726874 1:112 2:26 3:107 
-0.1173009930162304 2:26 3:107 
-0.180658704277235 1:112 2:25 3:114 
-0.1429147651571653 1:115 2:29 3:106 
-0.1018435721413735 2:29 3:106 
-0.1818148581991498 1:112 2:28 3:102 
-0.2153599885344597 1:114 2:23 3:112 
-0.1080333132231539 2:23 3:112 
-0.0592896870279922 1:114 2:25 3:104 
-0.1162597240811909 2:25 3:104 
-0.1432747856581126 1:114 2:24 3:106 
-0.1765390177235786 2:24 3:106 
-0.08706088714291554 1:114 2:24 3:108 
-0.112500996000324 2:24 3:108 
-0.1558275477052492 1:114 2:21 3:119 
-0.151996422374121 2:21 3:119 
-0.1868173575090705 2:21 3:122 
-0.1380452319718721 1:114 2:22 3:114 
-0.1742490630666556 2:22 3:114 
-0.06499203647615637 2:21 3:120 
-0.131007249104812 1:114 2:21 3:121 
-0.1077674865547789 1:114 2:22 3:115 
-0.2348868086954405 1:117 2:22 3:125 
-0.1951616526654676 2:22 3:125 
-0.2225754159416069 1:117 2:23 3:121 
-0.1314839233361219 2:23 3:121 
-0.1728411480614848 1:115 2:26 3:116 
-0.1460196716858199 2:26 3:116 
-0.09367472460631604 1:115 2:24 3:125 
-0.07826651158138559 2:24 3:125 
-0.1438652269958521 1:115 2:25 3:124 
-0.1285116694194802 2:25 3:124 
-0.1946015957229877 1:109 2:29 3:123 
-0.1654189375639705 2:29 3:123 
-0.1565162729175487 1:109 2:30 3:121 
-0.1160930778197351 2:30 3:121 
-0.1567211835884126 1:107 2:34 3:119 
-0.1458870951945582 2:34 3:119 
-0.07784526362908806 1:105 2:41 3:111 
-0.1293878993297828 1:105 2:41 3:112 
-0.1289840718918707 1:106 2:42 3:116 
-0.1525418901180757 2:42 3:116 
-0.2127250676209861 1:105 2:44 3:116 
-0.2330172607711221 1:105 2:43 3:119 
-0.2000925889583186 2:43 3:119 
-0.241177998217438 1:105 2:46 3:112 
-0.205182666742944 1:105 2:48 3:107 
-0.1877089757862354 1:105 2:56 3:110 
-0.2325586098743893 1:104 2:52 3:107 
-0.2227766424574713 1:112 2:26 3:109 
-0.166646182961143 1:112 2:27 3:104 
-0.1379175900292135 1:112 2:26 3:106 
-0.06664975443276422 1:112 2:25 3:112 
-0.07579128645388084 1:115 2:30 3:103 
-0.1954522235403984 1:114 2:23 3:109 
-0.05284557960155845 2:23 3:109 
-0.2003990470413555 1:114 2:25 3:103 
-0.1155488405989886 2:25 3:103 
-0.2238052286119307 1:117 2:27 3:105 
-0.1568370630627983 2:27 3:105 
-0.0972303314837509 1:114 2:24 3:105 
-0.139033481823432 2:23 3:110 
-0.05537727708741169 1:117 2:24 3:115 
-0.1268789996806368 1:117 2:25 3:112 
-0.156571582726815 1:117 2:25 3:110 
-0.1584764866290168 1:117 2:25 3:114 
-0.2036514737331989 2:25 3:114 
-0.05701054371857373 2:24 3:117 
-0.1701301076561285 1:117 2:24 3:118 
-0.07164493444864561 1:117 2:24 3:119 
-0.1570291010227418 2:24 3:119 
-0.1395441281277641 1:117 2:24 3:116 
-0.203437418882368 1:120 2:24 3:127 
-0.1782474790803709 2:24 3:127 
-0.1426732371084112 3:127 
-0.2219786373350184 1:120 2:27 3:114 
-0.19630389328743 1:120 2:26 3:120 
-0.2305121442680923 1:115 2:27 3:122 
-0.07159086646263602 2:27 3:122 
-0.2545490341161067 1:112 2:30 3:128 
-0.1810021254032809 2:30 3:128 
-0.1849774043427786 1:115 2:26 3:126 
-0.105030048232314 2:26 3:126 
-0.05861945659486761 1:112 2:33 3:117 
-0.07156936574765865 1:112 2:32 3:118 
-0.1926253310637387 1:109 2:37 3:117 
-0.09652997501455816 2:39 3:125 
-0.1735730220736338 1:106 2:38 3:126 
-0.1803359310568908 2:38 3:126 
-0.1790400541170695 1:106 2:39 3:124 
-0.06615210763712925 3:124 
-0.1329903377714004 1:106 2:41 3:117 
-0.09419413873116184 2:41 3:117 
-0.186472591213623 1:106 2:44 3:111 
-0.1736150320444029 2:44 3:111 
-0.1182323142014069 1:109 2:48 3:112 
-0.147060794641999 1:108 2:48 3:117 
-0.1150065540976208 1:108 2:49 3:114 
-0.062050058358743 1:108 2:51 3:110 
-0.06185023119530636 1:108 2:48 3:116 
-0.1732635468240435 1:108 2:47 3:119 
-0.05144751654145058 2:47 3:119 
-0.1656765124340862 1:108 2:52 3:107 
-0.1014501237625958 1:115 2:31 3:100 
-0.1579141360720247 2:31 3:100 
-0.05388051709736463 2:28 3:111 
-0.1362904841015771 1:115 2:34 3:98 
-0.07960387590693224 2:34 3:98 
-0.2541676563936779 1:120 2:30 3:102 
-0.1004219309114768 2:30 3:102 
-0.2473814620512403 1:117 2:28 3:102 
-0.1682646105213029 2:28 3:102 
-0.1050427597807481 1:120 2:29 3:107 
-0.2216463083400678 1:117 2:26 3:108 
-0.1560068055453988 1:120 2:28 3:108 
-0.1320049882924936 2:26 3:109 
-0.1890776834738002 1:115 2:27 3:112 
-0.1570213489808163 2:27 3:112 
-0.1007860296605591 1:115 2:29 3:115 
-0.1006484786951399 2:29 3:114 
-0.1612455511794156 1:115 2:29 3:113 
-0.1394182234148251 1:115 2:28 3:120 
-0.09445462522539126 2:28 3:120 
-0.1252314291204795 1:115 2:28 3:118 
-0.1711947260170751 2:28 3:118 
-0.1461586093593937 1:115 2:29 3:116 
-0.1438465416314926 2:29 3:116 
-0.127628537887458 1:115 2:30 3:111 
-0.09093002678757005 2:30 3:111 
-0.2385470161418384 1:118 2:31 3:123 
-0.1730337219151021 1:118 2:33 3:117 
-0.1905600443982615 2:33 3:117 
-0.2362212819464676 1:118 2:32 3:119 
-0.07829512477086176 1:115 2:39 3:112 
-0.1535731832885895 2:39 3:112 
-0.2339380857082052 1:115 2:36 3:121 
-0.1895393898301384 2:36 3:121 
-0.2253925060093044 1:111 2:40 3:121 
-0.1507076238762393 2:40 3:121 
-0.1486829235201405 1:115 2:36 3:119 
-0.0976607927143906 2:36 3:119 
-0.07692822003228883 1:109 2:46 3:116 
-0.05742076046798028 2:46 3:116 
-0.1838202217990896 1:109 2:45 3:120 
-0.1482383361872939 2:45 3:120 
-0.130146354309966 1:109 2:45 3:118 
-0.08259052882339474 2:45 3:118 
-0.1969952705693379 1:109 2:47 3:114 
-0.1623706791087894 2:47 3:114 
-0.1436083432938722 1:108 2:51 3:111 
-0.06931492602551974 1:108 2:53 3:111 
-0.186263112187141 1:108 2:51 3:116 
-0.1393551281947779 2:51 3:116 
-0.1120801882342053 1:108 2:51 3:114 
-0.05425845864122642 2:51 3:114 
-0.1979586939416221 1:107 2:57 3:111 
-0.1537510773924281 1:107 2:55 3:115 
-0.1722736035667125 1:107 2:60 3:107 
-0.2198486680216196 1:107 2:62 3:103 
-0.1470504896753683 2:62 3:103 
-0.1025956644949433 2:65 3:106 
-0.1601657346744899 1:115 2:32 3:105 
-0.08426634350796401 2:32 3:105 
-0.1936935064166657 1:115 2:30 3:101 
-0.06302162179336757 2:30 3:101 
-0.1800926209234727 1:115 2:29 3:104 
-0.1668480399401497 2:29 3:104 
-0.1217479604556599 1:115 2:27 3:114 
-0.109849145787959 2:27 3:114 
-0.1372328345484777 1:115 2:30 3:109 
-0.1613666307062983 2:30 3:109 
-0.1423241995934315 1:115 2:31 3:107 
-0.1913795617541776 1:115 2:33 3:101 
-0.1023060084723096 2:33 3:101 
-0.2116692405277785 1:115 2:35 3:96 
-0.2464568238974169 2:35 3:96 
-0.1899297993238907 1:120 2:36 3:99 
-0.1776823135673121 2:36 3:99 
-0.2454731739501465 1:120 2:35 3:102 
-0.1816034424076393 2:35 3:102 
-0.1705096118718448 1:120 2:34 3:105 
-0.2187756332427612 1:120 2:33 3:107 
-0.1070457683967914 2:33 3:107 
-0.1572733446065658 1:118 2:35 3:110 
-0.07001939923074768 2:35 3:110 
-0.1895782023122027 1:120 2:35 3:117 
-0.1242100971906287 2:35 3:116 
-0.07975191106753971 1:120 2:37 3:109 
-0.1124481245314418 2:37 3:109 
-0.1660111810526782 2:38 3:107 
-0.1522823400269882 1:120 2:35 3:115 
-0.1198966260731316 2:37 3:110 
-0.1738903280055246 1:120 2:37 3:111 
-0.1145829877695355 2:36 3:112 
-0.1776282227709109 1:120 2:36 3:113 
-0.1364299031298167 2:36 3:114 
-0.2163750780951577 1:115 2:39 3:118 
-0.1436216542179163 2:39 3:118 
-0.2022738285900297 1:117 2:45 3:114 
-0.07511441390819625 1:115 2:49 3:115 
-0.1743341987852425 1:115 2:48 3:116 
-0.1559912649210474 1:110 2:49 3:115 
-0.1550493938913368 2:49 3:115 
-0.1963214017006731 1:111 2:52 3:117 
-0.1630670736221921 2:52 3:117 
-0.123621405200699 1:110 2:48 3:117 
-0.0952723864055316 1:111 2:53 3:116 
-0.07848116088090684 2:53 3:116 
-0.08038512720031354 1:110 2:51 3:110 
-0.1053000115082231 1:110 2:55 3:115 
-0.2419705305105541 1:109 2:61 3:118 
-0.1775152896464928 2:61 3:118 
-0.06243518473399686 1:109 2:64 3:108 
-0.1816156265558928 1:109 2:66 3:105 
-0.187504172000591 1:109 2:69 3:103 
-0.1534227230090329 1:109 2:67 3:107 
-0.2056246380116471 1:108 2:71 3:108 
-0.09786745376691032 2:71 3:108 
-0.110898103367151 1:115 2:33 3:99 
-0.1395529023357928 2:33 3:99 
-0.1549522939525146 1:115 2:32 3:103 
-0.1620306430723006 2:32 3:103 
-0.05865583008227537 1:115 2:30 3:112 
-0.1220428197650769 2:30 3:112 
-0.06615049493982578 1:115 2:31 3:108 
-0.09072731629890457 2:31 3:108 
-0.1201453402214616 1:118 2:36 3:107 
-0.2046845237797754 1:118 2:36 3:105 
-0.117211000916483 2:36 3:106 
-0.1736589011973599 1:118 2:37 3:103 
-0.2280200392861957 1:120 2:42 3:98 
-0.1828537701379189 2:42 3:98 
-0.1782687196891734 1:120 2:43 3:96 
-0.2110072646304192 2:43 3:96 
-0.1351402848933589 1:120 2:38 3:108 
-0.1582763259429539 1:120 2:38 3:106 
-0.09791931659237962 1:120 2:39 3:104 
-0.1253460502893302 2:39 3:104 
-0.1463759781073326 1:120 2:40 3:103 
-0.09999936845878649 2:40 3:103 
-0.1895294555438202 1:120 2:45 3:102 
-0.1421116993619589 2:42 3:109 
-0.1548106787482098 1:120 2:44 3:105 
-0.2117964506905185 1:120 2:38 3:122 
-0.07076392006235105 2:38 3:122 
-0.07273011440637806 1:120 2:44 3:104 
-0.1988598720651126 1:120 2:42 3:108 
-0.1794488284537985 1:120 2:41 3:111 
-0.06041623580839239 1:120 2:40 3:114 
-0.1412877529935393 1:120 2:41 3:113 
-0.1054802373689456 2:41 3:113 
-0.1104632608600161 1:120 2:40 3:115 
-0.1610924533764707 2:40 3:115 
-0.1320084094197513 1:120 2:43 3:106 
-0.09991261552451053 1:120 2:42 3:110 
-0.1376299473561314 1:120 2:40 3:116 
-0.2468214437880293 1:117 2:44 3:117 
-0.1431773025464461 1:111 2:55 3:111 
-0.200928787844584 2:55 3:111 
-0.141129472460788 1:113 2:56 3:114 
-0.1724164606702805 1:110 2:61 3:105 
-0.1495361308618936 1:113 2:60 3:107 
-0.1100309739606347 1:110 2:56 3:113 
-0.187624034313452 1:113 2:55 3:116 
-0.1745385899929861 1:110 2:57 3:112 
-0.1155904953437839 1:112 2:59 3:113 
-0.1391814633596283 1:110 2:55 3:116 
-0.2063077907528429 2:55 3:116 
-0.1835713364140443 1:112 2:58 3:115 
-0.1986629012976198 2:58 3:115 
-0.1389743712898492 1:112 2:61 3:109 
-0.1954953655187072 1:109 2:71 3:101 
-0.2420789056490535 1:111 2:75 3:98 
-0.1980337886912563 1:109 2:73 3:98 
-0.1998622599402395 1:109 2:78 3:102 
-0.1473511569922736 2:78 3:102 
-0.244331413293837 1:118 2:38 3:100 
-0.1201455780866967 2:38 3:100 
-0.05779008821324028 1:115 2:41 3:106 
-0.07444462072605562 2:41 3:106 
-0.1951279562967841 1:118 2:34 3:112 
-0.09951590667630411 1:115 2:39 3:111 
-0.1530841695668748 2:37 3:104 
-0.2015609210078043 1:115 2:44 3:99 
-0.1781424491124571 2:44 3:99 
-0.0840484282659224 1:120 2:41 3:100 
-0.09173784626006692 2:41 3:100 
-0.1705437192056623 1:115 2:45 3:103 
-0.2234154493288649 2:45 3:103 
-0.05743535738217404 1:120 2:39 3:105 
-0.0597066274489147 2:39 3:105 
-0.2130410587829311 1:115 2:47 3:98 
-0.2309563830100627 2:47 3:98 
-0.1480036046452921 1:120 2:40 3:101 
-0.1279505313809725 2:40 3:101 
-0.2053259604690044 1:115 2:45 3:101 
-0.06886106283650273 2:45 3:101 
-0.06439198740059293 1:120 2:46 3:100 
-0.1504473938217648 2:46 3:100 
-0.1845960534315789 1:120 2:49 3:93 
-0.2379820552356948 2:49 3:93 
-0.2379693298269588 1:120 2:48 3:95 
-0.1823435776242416 2:48 3:95 
-0.166256658208626 1:122 2:49 3:105 
-0.1867768964934671 1:122 2:50 3:101 
-0.1920309157864626 1:120 2:46 3:99 
-0.1220037380837042 1:117 2:49 3:104 
-0.09931749112441357 2:49 3:104 
-0.1392666569720541 1:122 2:50 3:103 
-0.1148815886461921 2:50 3:103 
-0.2027238263655071 1:122 2:52 3:98 
-0.192252382899729 2:52 3:98 
-0.238445755158739 1:122 2:48 3:107 
-0.1853760431744725 1:119 2:50 3:107 
-0.1374463643023604 2:50 3:107 
-0.1568076690588326 1:119 2:51 3:105 
-0.1575040294241473 2:51 3:105 
-0.1276069812327596 1:123 2:53 3:106 
-0.1272712685556814 1:123 2:53 3:105 
-0.1501253868139447 1:119 2:52 3:108 
-0.1976237048955847 1:119 2:56 3:100 
-0.07313146618112493 1:119 2:48 3:117 
-0.190618606622071 2:48 3:117 
-0.2243594756795875 1:119 2:51 3:110 
-0.05239441535637657 1:119 2:50 3:112 
-0.162647192823175 1:119 2:50 3:113 
-0.2547789933682292 1:119 2:45 3:125 
-0.2012965538358301 2:45 3:125 
-0.1717709374126337 3:125 
-0.2489862052875441 1:119 2:47 3:120 
-0.1748863605603613 2:47 3:120 
-0.1503038655853453 3:120 
-0.1524670295954466 1:119 2:53 3:106 
-0.1801729375846567 2:53 3:106 
-0.07239523557558442 1:119 2:49 3:114 
-0.2026250959936433 1:119 2:48 3:116 
-0.1917298808970819 1:116 2:56 3:109 
-0.1497703506480909 2:56 3:109 
-0.1624694906782492 1:114 2:60 3:110 
-0.135775497333508 1:112 2:64 3:108 
-0.1476664182405266 2:64 3:108 
-0.03000909642036781 1:112 2:63 3:109 
-0.1955056410171074 1:112 2:66 3:105 
-0.16293616729068 1:112 2:63 3:110 
-0.2090991846131485 1:112 2:61 3:112 
-0.1850155494302944 1:111 2:65 3:113 
-0.1063590033928508 1:112 2:69 3:114 
-0.09540095149793715 1:111 2:69 3:107 
-0.2091823503058727 1:111 2:68 3:109 
-0.1963951931266262 1:111 2:70 3:106 
-0.197351964352196 1:111 2:71 3:104 
-0.1896354553833613 1:111 2:73 3:101 
-0.0785917705729165 1:110 2:80 3:105 
-0.06040053775877741 1:110 2:82 3:103 
-0.20261361450691 1:110 2:83 3:102 
-0.1545935611012482 1:110 2:81 3:104 
-0.06406775314363639 1:110 2:88 3:104 
-0.1573668350552983 1:110 2:94 3:98 
-0.06032834297106937 1:119 2:51 3:104 
-0.08586116704326964 1:119 2:52 3:103 
-0.1154208211051157 2:52 3:103 
-0.1461282657870113 1:115 2:56 3:104 
-0.1855899850965279 2:56 3:104 
-0.1838576091248903 1:119 2:56 3:95 
-0.1628179542248763 2:56 3:95 
-0.1832981294875813 1:115 2:63 3:93 
-0.17378562103656 2:63 3:93 
-0.1636005766030317 1:119 2:55 3:97 
-0.1796031438135798 2:55 3:97 
-0.1388376756910357 2:60 3:98 
-0.09271231434628752 1:119 2:54 3:99 
-0.1176925033444322 2:54 3:99 
-0.08568261223505069 1:119 2:54 3:100 
-0.1238763416224512 1:119 2:53 3:102 
-0.05052788505914863 1:119 2:53 3:101 
-0.1600737123914434 2:53 3:101 
-0.1166000891818079 1:119 2:55 3:102 
-0.1476740705843042 1:119 2:57 3:98 
-0.152590219317266 2:57 3:98 
-0.1818240203204822 1:116 2:64 3:95 
-0.2104480217608575 2:64 3:95 
-0.1682392142492554 1:119 2:58 3:96 
-0.1757556403237801 2:58 3:96 
-0.2227690061875176 1:116 2:61 3:100 
-0.2079381573170469 1:119 2:54 3:104 
-0.1292125155255728 2:54 3:104 
-0.2321053950980666 1:116 2:59 3:103 
-0.2358022394535634 1:120 2:57 3:107 
-0.1649337779867999 1:120 2:58 3:105 
-0.1560636690453738 1:118 2:63 3:105 
-0.1614807001074611 1:118 2:60 3:110 
-0.06610986602277896 1:118 2:60 3:111 
-0.2361928558473205 1:118 2:62 3:107 
-0.1393293665833832 2:66 3:104 
-0.2053266855262348 1:119 2:66 3:105 
-0.1591618748488628 1:116 2:67 3:111 
-0.223115368907729 2:67 3:111 
-0.1173347475564438 1:116 2:68 3:109 
-0.157609388153714 1:115 2:70 3:109 
-0.09761864763630673 2:70 3:109 
-0.1879454382003672 1:115 2:71 3:107 
-0.08047581092019283 2:71 3:107 
-0.06036312885204548 1:115 2:74 3:103 
-0.2177058447342873 1:116 2:72 3:114 
-0.1412144627952257 1:114 2:78 3:111 
-0.08870730761576356 1:114 2:79 3:110 
-0.2489068843687269 1:114 2:75 3:115 
-0.1559818131856879 2:75 3:115 
-0.2293861137427695 1:114 2:77 3:113 
-0.1665754496584551 2:77 3:113 
-0.2278947543355523 1:114 2:80 3:108 
-0.1104068479958507 1:112 2:86 3:107 
-0.07626422224342971 1:112 2:85 3:108 
-0.1436104756939852 1:112 2:84 3:109 
-0.09034971895543392 1:111 2:87 3:112 
-0.1442567184959408 2:87 3:112 
-0.1763323757813202 1:112 2:94 3:106 
-0.1537740532667804 1:111 2:98 3:99 
-0.1474143769193876 1:110 2:96 3:104 
-0.2210183105146344 1:111 2:102 3:100 
-0.1623590388022055 2:102 3:100 
-0.08900579843690776 1:111 2:100 3:102 
-0.09571504013791093 1:111 2:90 3:113 
-0.1133854744603531 2:90 3:113 
-0.1579927196094284 1:111 2:89 3:114 
-0.1994021974177138 2:89 3:114 
-0.1124743931098614 1:112 2:108 3:97 
-0.2034622033307389 1:112 2:112 3:93 
-0.1313092467192721 2:112 3:93 
-0.1420393772338622 1:112 2:107 3:98 
-0.08053912268551584 1:118 2:64 3:104 
-0.1443268826099995 1:118 2:65 3:102 
-0.1847132741635071 1:118 2:67 3:99 
-0.1009576823711353 1:118 2:68 3:97 
-0.1988431959127413 1:118 2:71 3:93 
-0.09610410366441968 1:118 2:70 3:95 
-0.1147155443042152 1:118 2:69 3:96 
-0.1518879414122476 2:69 3:96 
-0.2116801865657051 1:120 2:61 3:100 
-0.148619573850266 2:61 3:100 
-0.1015093867241922 1:120 2:60 3:102 
-0.08821248609871807 2:60 3:102 
-0.2027620277537207 1:120 2:59 3:103 
-0.1776414455451738 2:59 3:103 
-0.08684860586351656 1:118 2:64 3:103 
-0.06277775659896279 1:118 2:66 3:101 
-0.0965979650180912 1:118 2:66 3:100 
-0.2260159485905123 2:71 3:94 
-0.2168529958544884 1:119 2:72 3:96 
-0.1183711878138173 2:72 3:96 
-0.2243314766124779 1:119 2:70 3:98 
-0.1674508358813234 2:70 3:98 
-0.173349512370433 1:119 2:68 3:101 
-0.1330267032910602 2:68 3:101 
-0.1789283627565703 1:119 2:67 3:103 
-0.06480668893768338 2:67 3:103 
-0.1307554133063459 1:116 2:71 3:104 
-0.10224671399441 1:116 2:72 3:103 
-0.1345667941911339 1:119 2:70 3:106 
-0.1349804674563575 1:119 2:69 3:107 
-0.2081779147967681 1:119 2:71 3:104 
-0.09423354459632666 2:71 3:104 
-0.2313113396762939 1:119 2:75 3:99 
-0.1117643821535846 2:75 3:99 
-0.09143320846365532 1:117 2:80 3:99 
-0.05226686874505476 2:80 3:99 
-0.07992827166612707 1:117 2:76 3:104 
-0.1678111549231335 1:117 2:75 3:105 
-0.1600958221578888 1:117 2:77 3:103 
-0.1968361715713944 1:117 2:79 3:100 
-0.156354897724947 1:118 2:82 3:99 
-0.07956294797736796 1:116 2:82 3:100 
-0.0993140594181211 2:82 3:100 
-0.2337598050520803 1:116 2:76 3:107 
-0.1258303732798939 2:76 3:107 
-0.05563635711753545 1:116 2:79 3:106 
-0.1960334931666488 2:79 3:106 
-0.1569315763711321 1:116 2:79 3:107 
-0.110644937531808 1:115 2:90 3:99 
-0.1907015224394724 2:90 3:99 
-0.1545634507357397 1:115 2:87 3:103 
-0.08291169832919926 1:116 2:85 3:108 
-0.1564084233168746 1:116 2:84 3:109 
-0.1359960625648385 2:84 3:109 
-0.167729679985673 1:114 2:90 3:108 
-0.07250939774537984 1:114 2:93 3:104 
-0.1587810073174977 1:114 2:96 3:101 
-0.08464677559589762 1:113 2:98 3:104 
-0.1161458732531221 1:113 2:97 3:105 
-0.06229880403063071 1:112 2:102 3:108 
-0.2057670587069689 1:112 2:114 3:96 
-0.2000463494942629 1:112 2:117 3:94 
-0.1851425511215034 1:111 2:109 3:105 
-0.2304728102222687 1:111 2:111 3:103 
-0.08274896313813029 1:111 2:114 3:101 
-0.1857873224608373 1:111 2:115 3:100 
-0.1157427529695838 1:112 2:129 3:99 
-0.1779232793749437 1:113 2:129 3:95 
-0.1170065503234648 2:129 3:95 
-0.1058908533168882 1:112 2:130 3:98 
-0.1806305268150736 1:118 2:86 3:95 
-0.05799197214079994 1:118 2:81 3:101 
-0.1583177833684705 1:118 2:80 3:102 
-0.2018939161628797 2:85 3:96 
-0.09134174440002267 1:118 2:89 3:92 
-0.2069065308333871 2:89 3:92 
-0.06369890554823887 1:118 2:87 3:94 
-0.2102065334361258 2:87 3:94 
-0.2035607968922578 1:120 2:78 3:98 
-0.08847946892938247 2:77 3:99 
-0.194322224748336 1:120 2:76 3:101 
-0.1421297137523555 2:76 3:101 
-0.2479736492732726 1:120 2:74 3:103 
-0.1252256114826922 2:74 3:103 
-0.1016220673354969 1:120 2:77 3:100 
-0.147991376263363 1:118 2:88 3:93 
-0.08253912958774012 1:118 2:87 3:97 
-0.1799988035348376 1:119 2:85 3:105 
-0.2228704900737067 1:119 2:87 3:103 
-0.07641746359071852 1:118 2:91 3:101 
-0.07244986228560552 1:118 2:93 3:99 
-0.07945339637319669 1:116 2:94 3:103 
-0.2083097609340344 1:116 2:92 3:105 
-0.1851177887385893 1:117 2:97 3:103 
-0.1220025281046128 1:117 2:99 3:100 
-0.08809255559682949 1:117 2:98 3:101 
-0.1522289889570843 1:117 2:101 3:98 
-0.08995530602628116 1:116 2:101 3:104 
-0.2492859952234472 1:116 2:97 3:113 
-0.2222992035514838 2:97 3:113 
-0.2417803141288678 1:116 2:100 3:110 
-0.1825875949799761 2:100 3:110 
-0.1822944022072796 1:116 2:104 3:105 
-0.160164883244421 1:116 2:110 3:100 
-0.1142624344260866 1:115 2:118 3:97 
-0.06047017659753168 1:115 2:120 3:96 
-0.1009541805932853 1:115 2:117 3:98 
-0.1325895772470427 1:115 2:113 3:102 
-0.06689524455119955 1:114 2:110 3:107 
-0.05226801199017989 2:110 3:107 
-0.1911259322120088 1:113 2:134 3:93 
-0.1287238593370555 2:134 3:93 
-0.1181090792036252 1:113 2:125 3:100 
-0.07655884060193374 1:113 2:117 3:107 
-0.1180978485272044 1:112 2:131 3:99 
-0.06355684070698492 1:112 2:130 3:100 
-0.1896781596567133 1:112 2:135 3:96 
-0.1352713376406325 1:113 2:124 3:107 
-0.0779912904748675 2:124 3:107 
-0.1800926762565488 1:113 2:132 3:104 
-0.1595991393802859 2:132 3:104 
-0.1663269032126236 1:113 2:141 3:98 
-0.07585086097309601 2:141 3:98 
-0.1789243878618886 1:112 2:143 3:100 
-0.07718848837546688 2:143 3:100 
-0.06553618438212822 1:121 2:88 3:99 
-0.09732425152783852 1:119 2:97 3:92 
-0.1777724146557664 2:97 3:92 
-0.2349473319482672 1:119 2:99 3:90 
-0.1812537675969041 2:99 3:90 
-0.2322959362390132 1:119 2:101 3:88 
-0.2249903576531521 2:101 3:88 
-0.05578081838301829 1:119 2:95 3:94 
-0.12868362507956 2:95 3:94 
-0.1418692351032913 1:119 2:96 3:93 
-0.07972841994444986 2:96 3:93 
-0.2249399435928033 1:121 2:92 3:94 
-0.1575154945281174 1:119 2:92 3:97 
-0.2081576263052758 1:121 2:88 3:98 
-0.1576541463500219 2:88 3:98 
-0.08193446586092801 1:119 2:91 3:98 
-0.05384925758179238 2:93 3:96 
-0.2073881568822876 1:119 2:94 3:95 
-0.07942631979787951 2:94 3:95 
-0.05703221936024838 1:120 2:98 3:94 
-0.1692390169844997 1:120 2:90 3:102 
-0.1072479490229424 1:119 2:97 3:103 
